<?xml version="1.0"?>
<opencv_storage>
<stage0>
  <maxWeakCount>9</maxWeakCount>
  <stageThreshold>-1.1844629049301147e+00</stageThreshold>
  <weakClassifiers>
    <_>
      <internalNodes>
        0 -1 18097 -803144656 -798972896 -588185635 -2145363600
        -1465201943 -1360089728 -1938231299 -2002614238</internalNodes>
      <leafValues>
        -1.1490978300571442e-01 7.9072713851928711e-01</leafValues></_>
    <_>
      <internalNodes>
        0 -1 34135 228251901 494407896 502675197 423107028 -1176830209
        531156216 217621756 -2001075972</internalNodes>
      <leafValues>
        -3.2693514227867126e-01 6.1652451753616333e-01</leafValues></_>
    <_>
      <internalNodes>
        0 -1 42803 -265991 -1350858719 -1150303240 -1112056779
        -1464172103 250454252 137019640 -1929392929</internalNodes>
      <leafValues>
        -3.5482054948806763e-01 5.7066398859024048e-01</leafValues></_>
    <_>
      <internalNodes>
        0 -1 25903 1048592 -1693122544 -737452577 487919633 -1977971974
        -21329880 -1993807429 -2012608512</internalNodes>
      <leafValues>
        -4.5726191997528076e-01 4.5640552043914795e-01</leafValues></_>
    <_>
      <internalNodes>
        0 -1 44 -10029318 2105501782 2080988889 -582527550 -924362514
        -285604246 -1561047809 1259558215</internalNodes>
      <leafValues>
        -4.0118637681007385e-01 4.3913525342941284e-01</leafValues></_>
    <_>
      <internalNodes>
        0 -1 41485 -548441712 -1078235083 -101943554 2061193587
        -1096640262 -322972486 -1412759814 -660612869</internalNodes>
      <leafValues>
        -3.5511875152587891e-01 5.2333980798721313e-01</leafValues></_>
    <_>
      <internalNodes>
        0 -1 28156 414976255 262145788 -1678430217 388679633 181964507
        -1347929555 598400766 -1182137880</internalNodes>
      <leafValues>
        -3.8856482505798340e-01 4.1818204522132874e-01</leafValues></_>
    <_>
      <internalNodes>
        0 -1 37 -2100566819 -543966852 -1858254849 -571241440 218576635
        -881329090 473024759 -817429183</internalNodes>
      <leafValues>
        -2.8413507342338562e-01 5.4591393470764160e-01</leafValues></_>
    <_>
      <internalNodes>
        0 -1 40949 414664703 201174134 -1238885898 405787060 -1885041761
        201235688 -2130783572 -2002002951</internalNodes>
      <leafValues>
        -3.5062706470489502e-01 4.2488834261894226e-01</leafValues></_></weakClassifiers></stage0>
</opencv_storage>
