<?xml version="1.0"?>
<opencv_storage>
<stage14>
  <maxWeakCount>28</maxWeakCount>
  <stageThreshold>-6.4880722761154175e-01</stageThreshold>
  <weakClassifiers>
    <_>
      <internalNodes>
        0 -1 21453 544654340 -770511020 -1233472004 -1365704972
        -1598686864 -327358368 779025012 -971920042</internalNodes>
      <leafValues>
        1.5558969974517822e-01 6.9331288337707520e-01</leafValues></_>
    <_>
      <internalNodes>
        0 -1 43570 -202152417 -1884819781 -710978371 -235408521
        -1467745601 -1901424985 -1427923779 -557845249</internalNodes>
      <leafValues>
        -8.3768315613269806e-02 5.3330397605895996e-01</leafValues></_>
    <_>
      <internalNodes>
        0 -1 37007 -285759969 -1223115885 235254734 39238983 -112487683
        898341777 -255082852 1083554269</internalNodes>
      <leafValues>
        -3.5832667350769043e-01 2.3346541821956635e-01</leafValues></_>
    <_>
      <internalNodes>
        0 -1 3357 -759178514 -226502451 -1873700342 1883693001 -37892086
        1883636486 -689050369 -154140705</internalNodes>
      <leafValues>
        -2.2984728217124939e-01 3.5095998644828796e-01</leafValues></_>
    <_>
      <internalNodes>
        0 -1 32243 688933629 1536689884 1039469049 193727068 -1702319687
        -4581747 230698888 715790508</internalNodes>
      <leafValues>
        -4.4685471057891846e-01 1.5070942044258118e-01</leafValues></_>
    <_>
      <internalNodes>
        0 -1 42235 -1989490181 -1785621564 358683005 -1151496995
        -2100009986 -1363505185 174594282 -1882253156</internalNodes>
      <leafValues>
        -2.1795614063739777e-01 3.3646628260612488e-01</leafValues></_>
    <_>
      <internalNodes>
        0 -1 1882 -863768833 -6568126 -1573156613 -3431502 -697859585
        -1144985834 22402779 -854638143</internalNodes>
      <leafValues>
        -2.1432776749134064e-01 3.5527876019477844e-01</leafValues></_>
    <_>
      <internalNodes>
        0 -1 31375 137889821 -894232231 4871127 534874269 -1195860739
        -374357604 -1669599745 -1623586471</internalNodes>
      <leafValues>
        -3.1504443287849426e-01 2.3726101219654083e-01</leafValues></_>
    <_>
      <internalNodes>
        0 -1 43974 -211291414 51097228 -1864367920 -216957091
        -1278833958 1112005380 -2039291774 -149159953</internalNodes>
      <leafValues>
        -2.2595983743667603e-01 3.1640672683715820e-01</leafValues></_>
    <_>
      <internalNodes>
        0 -1 3553 -86555601 838623938 176336375 1998225340 1463356890
        477836621 -728937509 -12846737</internalNodes>
      <leafValues>
        -2.0664454996585846e-01 3.4992742538452148e-01</leafValues></_>
    <_>
      <internalNodes>
        0 -1 28501 135807101 1578909761 496819707 1479409741 -1150617349
        -1414813531 -1087730691 170918313</internalNodes>
      <leafValues>
        -3.3678451180458069e-01 2.1284830570220947e-01</leafValues></_>
    <_>
      <internalNodes>
        0 -1 16429 -55443201 2145600251 1969972991 588383064 -567910564
        -73566946 -73637928 -75539073</internalNodes>
      <leafValues>
        -2.2077551484107971e-01 3.3700570464134216e-01</leafValues></_>
    <_>
      <internalNodes>
        0 -1 40543 1584334854 1058804500 1162213871 1895909758
        -126568226 -1639135200 -258558693 -2146832653</internalNodes>
      <leafValues>
        -2.9120686650276184e-01 2.5131466984748840e-01</leafValues></_>
    <_>
      <internalNodes>
        0 -1 294 -936474189 -231327937 -1826862639 -81890667 143350254
        144332840 1094862435 1444369587</internalNodes>
      <leafValues>
        -2.9754406213760376e-01 2.4118557572364807e-01</leafValues></_>
    <_>
      <internalNodes>
        0 -1 43984 -615276878 -1756266206 1909986885 -210210444
        -1697722386 -2004908388 367706575 -571739157</internalNodes>
      <leafValues>
        -1.7213383316993713e-01 4.0504556894302368e-01</leafValues></_>
    <_>
      <internalNodes>
        0 -1 39981 -740197442 -1315870335 453263829 1895953662
        2056141498 -926414549 -346882505 1415052726</internalNodes>
      <leafValues>
        -2.6975733041763306e-01 2.5545218586921692e-01</leafValues></_>
    <_>
      <internalNodes>
        0 -1 10961 -900335130 1083036482 -749223582 544960562 92425551
        -1451249389 1088406869 80697077</internalNodes>
      <leafValues>
        -4.7609427571296692e-01 1.5544614195823669e-01</leafValues></_>
    <_>
      <internalNodes>
        0 -1 30883 -127929756 2133242382 1360225314 1405339826
        1182881117 -1808924210 2083570892 31440285</internalNodes>
      <leafValues>
        -3.3518165349960327e-01 2.0117679238319397e-01</leafValues></_>
    <_>
      <internalNodes>
        0 -1 37017 1061049853 -378580672 -788507905 1445206380
        -795299217 -352014984 -1608322261 111701164</internalNodes>
      <leafValues>
        -3.2842215895652771e-01 2.0810639858245850e-01</leafValues></_>
    <_>
      <internalNodes>
        0 -1 13653 -809547049 1898431137 -547628803 994407980
        -1771462009 -1413036448 419432094 -867863290</internalNodes>
      <leafValues>
        -1.7397175729274750e-01 3.9476269483566284e-01</leafValues></_>
    <_>
      <internalNodes>
        0 -1 43927 -230994480 -1655766262 287460530 -1578663840
        -878705984 683770513 522027192 209316095</internalNodes>
      <leafValues>
        -3.1667637825012207e-01 2.2283394634723663e-01</leafValues></_>
    <_>
      <internalNodes>
        0 -1 29062 -1369958933 -1309095234 -697403497 415534097
        -2010979958 -292550260 -889970260 -1078190152</internalNodes>
      <leafValues>
        -3.2290616631507874e-01 2.1128977835178375e-01</leafValues></_>
    <_>
      <internalNodes>
        0 -1 40950 170925272 1570308386 1051940957 -547931815 -748488233
        -630386676 1068088215 -1979051696</internalNodes>
      <leafValues>
        -2.9579722881317139e-01 2.3129327595233917e-01</leafValues></_>
    <_>
      <internalNodes>
        0 -1 1869 -591669729 824703531 2129586841 1060569320 -266722132
        990925872 -159912194 1251684858</internalNodes>
      <leafValues>
        -2.3007574677467346e-01 3.0332326889038086e-01</leafValues></_>
    <_>
      <internalNodes>
        0 -1 43784 -1146202036 -1227029684 -801287047 1886591051
        575299882 172425254 273294078 -637345237</internalNodes>
      <leafValues>
        -2.7059432864189148e-01 2.5711235404014587e-01</leafValues></_>
    <_>
      <internalNodes>
        0 -1 43741 -207890408 1535531258 833848048 1464747283 -400572968
        675463888 1350812810 -955524933</internalNodes>
      <leafValues>
        -1.9248867034912109e-01 3.6535200476646423e-01</leafValues></_>
    <_>
      <internalNodes>
        0 -1 40855 -610723401 1199751084 792114717 1125050188 -152568791
        21166924 -937480 -405018640</internalNodes>
      <leafValues>
        -2.3805385828018188e-01 3.0042460560798645e-01</leafValues></_>
    <_>
      <internalNodes>
        0 -1 555 -396413754 -950403047 55796078 2069761146 1925791934
        -1060367958 1408422339 1383257927</internalNodes>
      <leafValues>
        -3.2159444689750671e-01 2.1840797364711761e-01</leafValues></_></weakClassifiers></stage14>
</opencv_storage>
