<?xml version="1.0"?>
<opencv_storage>
<stage13>
  <maxWeakCount>30</maxWeakCount>
  <stageThreshold>-1.0684260129928589e+00</stageThreshold>
  <weakClassifiers>
    <_>
      <internalNodes>
        0 -1 8738 -136004304 -134545473 -35360810 -151191882 -1074348033
        -1208003139 -1074397185 1152900350</internalNodes>
      <leafValues>
        4.6747967600822449e-02 6.4787799119949341e-01</leafValues></_>
    <_>
      <internalNodes>
        0 -1 4616 -669792289 150785489 -1072309803 99718365 1523289995
        -2001205072 -1416963586 148423912</internalNodes>
      <leafValues>
        -3.3960494399070740e-01 3.1891950964927673e-01</leafValues></_>
    <_>
      <internalNodes>
        0 -1 8342 -754723792 -542321524 -184462628 -740853058
        -1434207249 -1799054596 -1442775681 479976927</internalNodes>
      <leafValues>
        -3.2081821560859680e-01 2.9998093843460083e-01</leafValues></_>
    <_>
      <internalNodes>
        0 -1 9378 -143393797 -1825334407 800686778 601041469 2113910768
        95457457 -820431644 1505754367</internalNodes>
      <leafValues>
        -2.7379009127616882e-01 3.3614206314086914e-01</leafValues></_>
    <_>
      <internalNodes>
        0 -1 2 -923819094 -809245458 308387434 -379724448 1106638283
        2147462 -842539589 -1052250046</internalNodes>
      <leafValues>
        -2.4396622180938721e-01 3.4047892689704895e-01</leafValues></_>
    <_>
      <internalNodes>
        0 -1 7707 815284445 -103077832 1387199487 424483037 -1849957713
        -348487683 -1145098337 -1684470215</internalNodes>
      <leafValues>
        -2.5217562913894653e-01 3.3412918448448181e-01</leafValues></_>
    <_>
      <internalNodes>
        0 -1 17 -167777702 2035794817 13523225 457865723 -228437778
        -659776785 1734738378 1461966295</internalNodes>
      <leafValues>
        -2.8043565154075623e-01 2.7027279138565063e-01</leafValues></_>
    <_>
      <internalNodes>
        0 -1 9347 -1142105231 -1904673234 1426528247 -570592643
        -1484803609 -1883784939 99603963 -1879320081</internalNodes>
      <leafValues>
        -2.3092526197433472e-01 3.3113339543342590e-01</leafValues></_>
    <_>
      <internalNodes>
        0 -1 3750 -2138592060 348116324 -1196753658 109425463 -178420219
        -2094016465 1505699919 59907938</internalNodes>
      <leafValues>
        -4.7060677409172058e-01 1.6611342132091522e-01</leafValues></_>
    <_>
      <internalNodes>
        0 -1 4155 973131901 1946751987 1112778495 578364815 -2012160567
        -1694721001 219454140 -1082485350</internalNodes>
      <leafValues>
        -2.5221264362335205e-01 3.2919681072235107e-01</leafValues></_>
    <_>
      <internalNodes>
        0 -1 137 -464526614 -209274239 312170740 2099036638 -2110606460
        -1136457184 1610986327 -177773487</internalNodes>
      <leafValues>
        -3.1145647168159485e-01 2.4935385584831238e-01</leafValues></_>
    <_>
      <internalNodes>
        0 -1 6233 403183705 1522051152 -313928231 -1739335300
        -1432831498 -275082232 -1979670533 -1683351096</internalNodes>
      <leafValues>
        -2.7991908788681030e-01 2.7017119526863098e-01</leafValues></_>
    <_>
      <internalNodes>
        0 -1 523 -1049648150 2023255515 1610746490 1427255572 1852529386
        856047675 -364664326 2070104491</internalNodes>
      <leafValues>
        -2.7377912402153015e-01 2.6447227597236633e-01</leafValues></_>
    <_>
      <internalNodes>
        0 -1 5608 546851487 1491928730 1646426972 350625948 -2137208343
        -561348399 1586085969 -213193474</internalNodes>
      <leafValues>
        -2.7640110254287720e-01 2.7153304219245911e-01</leafValues></_>
    <_>
      <internalNodes>
        0 -1 8682 -136615989 927649374 2062477870 -1387891570 -135543049
        -1907234829 -109718019 -206045713</internalNodes>
      <leafValues>
        -2.2423160076141357e-01 3.3523306250572205e-01</leafValues></_>
    <_>
      <internalNodes>
        0 -1 7714 -655959947 1999523900 1124375743 333092541 -648416840
        -370468856 1808522365 17357083</internalNodes>
      <leafValues>
        -2.6146149635314941e-01 2.8042608499526978e-01</leafValues></_>
    <_>
      <internalNodes>
        0 -1 3616 -1460196129 2035684237 -491210054 456154042 -310413006
        1064502815 767083994 -1087210309</internalNodes>
      <leafValues>
        -2.3927617073059082e-01 2.9832795262336731e-01</leafValues></_>
    <_>
      <internalNodes>
        0 -1 480 -252980533 -597234680 922701934 1088713318 1086694755
        1181812081 -942214518 -414722433</internalNodes>
      <leafValues>
        -2.3911212384700775e-01 3.0382663011550903e-01</leafValues></_>
    <_>
      <internalNodes>
        0 -1 9178 -67907333 1534832611 1754167010 1364427083 -1456291880
        1173511293 -1305940798 -225449825</internalNodes>
      <leafValues>
        -1.9774167239665985e-01 3.7001428008079529e-01</leafValues></_>
    <_>
      <internalNodes>
        0 -1 7944 1077593826 -216378093 -1052084226 65566111 186109133
        -369348597 -1133874051 689051709</internalNodes>
      <leafValues>
        -3.4972956776618958e-01 2.1591359376907349e-01</leafValues></_>
    <_>
      <internalNodes>
        0 -1 740 -676659206 -342897502 23120626 -36623968 -1926781506
        -1398355665 19252691 -1780779641</internalNodes>
      <leafValues>
        -2.1370734274387360e-01 3.5002470016479492e-01</leafValues></_>
    <_>
      <internalNodes>
        0 -1 3737 -927875066 -2062352111 -1433215952 -853813802
        -1709465729 -115412879 -865144631 403521657</internalNodes>
      <leafValues>
        -3.3169692754745483e-01 2.1820113062858582e-01</leafValues></_>
    <_>
      <internalNodes>
        0 -1 8889 -1459566148 1404185814 84099151 1073222556 -1634682722
        868905102 719635087 -1113974292</internalNodes>
      <leafValues>
        -2.9536154866218567e-01 2.5597903132438660e-01</leafValues></_>
    <_>
      <internalNodes>
        0 -1 6162 -1263478703 -1778712363 -1963364905 26953897
        -617943891 -1081131939 -1410798161 -1616183236</internalNodes>
      <leafValues>
        -2.2080767154693604e-01 3.4350433945655823e-01</leafValues></_>
    <_>
      <internalNodes>
        0 -1 8456 -1662304201 -681586927 -619520277 -266478570
        -1689852934 -230946781 -168678792 -805287439</internalNodes>
      <leafValues>
        -2.6650074124336243e-01 2.8158113360404968e-01</leafValues></_>
    <_>
      <internalNodes>
        0 -1 6139 414734041 1409222813 792655359 1610208353 -1364423938
        -1812836156 460037866 -1154960193</internalNodes>
      <leafValues>
        -2.1892938017845154e-01 3.4104993939399719e-01</leafValues></_>
    <_>
      <internalNodes>
        0 -1 9355 -4727477 -1085824419 -462202159 1535077731 -1096623934
        -698966115 526311401 -804537381</internalNodes>
      <leafValues>
        -1.6986083984375000e-01 4.3396884202957153e-01</leafValues></_>
    <_>
      <internalNodes>
        0 -1 9402 -152064062 -1431983130 1656542982 -172400261
        -1831357280 7460850 360695262 -739797761</internalNodes>
      <leafValues>
        -2.3610782623291016e-01 3.1009441614151001e-01</leafValues></_>
    <_>
      <internalNodes>
        0 -1 8326 -1082394325 637892005 1610830222 -973154622
        -2005272557 93065750 1197303276 1168885849</internalNodes>
      <leafValues>
        -3.1496593356132507e-01 2.5117933750152588e-01</leafValues></_>
    <_>
      <internalNodes>
        0 -1 1669 -17571760 1054802947 171982670 1901094468 1987330732
        2117675633 1899003385 -84181059</internalNodes>
      <leafValues>
        -2.8159865736961365e-01 2.7563595771789551e-01</leafValues></_></weakClassifiers></stage13>
</opencv_storage>
