<?xml version="1.0"?>
<opencv_storage>
<stage12>
  <maxWeakCount>28</maxWeakCount>
  <stageThreshold>-1.0615711212158203e+00</stageThreshold>
  <weakClassifiers>
    <_>
      <internalNodes>
        0 -1 6057 -553648385 -547373569 1694478186 -491996182 -151085449
        -273688577 -1292370108 -184795924</internalNodes>
      <leafValues>
        1.0018701851367950e-01 6.8124014139175415e-01</leafValues></_>
    <_>
      <internalNodes>
        0 -1 6487 515377853 469699701 103022591 1606229247 -1104520485
        -606340872 -1078528001 -1142157620</internalNodes>
      <leafValues>
        -2.3558831214904785e-01 4.1575971245765686e-01</leafValues></_>
    <_>
      <internalNodes>
        0 -1 9108 -1025 -1615989109 2042625024 -142618833 -1436549929
        -1882243153 -439510944 -806355985</internalNodes>
      <leafValues>
        -2.3405209183692932e-01 4.4975012540817261e-01</leafValues></_>
    <_>
      <internalNodes>
        0 -1 8822 -2097325 -1210089602 -104661974 1916991287 -820118033
        1627389139 -8781883 -1327759361</internalNodes>
      <leafValues>
        -2.9234731197357178e-01 3.2503169775009155e-01</leafValues></_>
    <_>
      <internalNodes>
        0 -1 8720 -58860337 -1996634811 -1407463311 152689561
        -1466893665 -1363410992 -386138888 -1998587714</internalNodes>
      <leafValues>
        -3.5121083259582520e-01 2.5441920757293701e-01</leafValues></_>
    <_>
      <internalNodes>
        0 -1 7416 143661072 -347994052 1947738109 1035473181 -1849682007
        -1081574825 -1735876949 -1086848992</internalNodes>
      <leafValues>
        -3.6389824748039246e-01 2.4054479598999023e-01</leafValues></_>
    <_>
      <internalNodes>
        0 -1 5736 498277369 1283273169 2133560776 -930210354 -539378707
        -276064129 -1153516984 -134698248</internalNodes>
      <leafValues>
        -3.3293938636779785e-01 2.5294944643974304e-01</leafValues></_>
    <_>
      <internalNodes>
        0 -1 275 -293609493 1257675756 -843586078 -23934054 1113021643
        16085319 1128761057 1744299479</internalNodes>
      <leafValues>
        -3.1955197453498840e-01 2.6517820358276367e-01</leafValues></_>
    <_>
      <internalNodes>
        0 -1 7407 330830041 433793788 474190845 185543069 -1362314817
        -1097822080 -1143829587 -1348531799</internalNodes>
      <leafValues>
        -2.6533403992652893e-01 3.1214949488639832e-01</leafValues></_>
    <_>
      <internalNodes>
        0 -1 9399 -206046686 -1761875394 536828481 -1049765769
        2006317806 108723518 384286860 -638069281</internalNodes>
      <leafValues>
        -2.3068736493587494e-01 3.4646201133728027e-01</leafValues></_>
    <_>
      <internalNodes>
        0 -1 8040 -1501585345 -76109465 -823271588 1980220439
        -1157729537 -1757692933 -1829585156 -1299121251</internalNodes>
      <leafValues>
        -2.4721813201904297e-01 3.2275462150573730e-01</leafValues></_>
    <_>
      <internalNodes>
        0 -1 5654 2020858912 -45345466 -616187498 1369657806 -1629781875
        -2119620041 -437287698 54507199</internalNodes>
      <leafValues>
        -3.0639064311981201e-01 2.6869314908981323e-01</leafValues></_>
    <_>
      <internalNodes>
        0 -1 9127 -9397226 -1117844905 -572012330 867948505 -67961617
        -1913684802 157999066 -1976636163</internalNodes>
      <leafValues>
        -2.4603965878486633e-01 3.1540393829345703e-01</leafValues></_>
    <_>
      <internalNodes>
        0 -1 561 -704745729 -69244931 -1899970041 1996531634 2072597859
        -1857875905 -64476945 1061248791</internalNodes>
      <leafValues>
        -2.8533086180686951e-01 2.7494531869888306e-01</leafValues></_>
    <_>
      <internalNodes>
        0 -1 9347 -1174421509 -1545606804 272552054 -545414722
        -2078167164 -1887511881 1035457999 -134768149</internalNodes>
      <leafValues>
        -1.9772803783416748e-01 3.9480650424957275e-01</leafValues></_>
    <_>
      <internalNodes>
        0 -1 14 1845920288 -1009947691 -182935562 2139541298 -921664623
        -738559050 1680736137 1685410903</internalNodes>
      <leafValues>
        -3.9346215128898621e-01 2.0321170985698700e-01</leafValues></_>
    <_>
      <internalNodes>
        0 -1 3295 -1329119770 816178437 -624717353 -996846790 1497798713
        -1884356422 -1178881874 194245103</internalNodes>
      <leafValues>
        -3.3158171176910400e-01 2.3642820119857788e-01</leafValues></_>
    <_>
      <internalNodes>
        0 -1 65 -533138770 306848195 1126678822 -34413835 -1193234473
        537018959 2022988634 1930907939</internalNodes>
      <leafValues>
        -3.1058868765830994e-01 2.6022407412528992e-01</leafValues></_>
    <_>
      <internalNodes>
        0 -1 7395 119019768 -1109550679 335210427 1060569373 950174670
        -1925471861 890698235 448284824</internalNodes>
      <leafValues>
        -4.1641390323638916e-01 1.9154693186283112e-01</leafValues></_>
    <_>
      <internalNodes>
        0 -1 8051 -823933185 1559187090 -541730119 1146125567 -285228462
        -312848220 -690749748 -117793812</internalNodes>
      <leafValues>
        -2.4733109772205353e-01 3.3700206875801086e-01</leafValues></_>
    <_>
      <internalNodes>
        0 -1 8007 1907999759 -202129058 -90929170 286847318 -117606463
        -1365615248 -163795208 805850866</internalNodes>
      <leafValues>
        -2.9088771343231201e-01 2.6776880025863647e-01</leafValues></_>
    <_>
      <internalNodes>
        0 -1 9351 -1288773120 -1234758886 -1983146173 440884033
        -1427183892 1158611458 2001988494 6553099</internalNodes>
      <leafValues>
        -3.4008058905601501e-01 2.3101025819778442e-01</leafValues></_>
    <_>
      <internalNodes>
        0 -1 8704 -70277213 621465857 -502587996 -16062868 -625352769
        1141583974 -995036675 -487607815</internalNodes>
      <leafValues>
        -2.7280703186988831e-01 2.9398444294929504e-01</leafValues></_>
    <_>
      <internalNodes>
        0 -1 3469 -1167507233 -35179027 -505413787 1735261361
        -1293007197 -1025536593 -177220139 -145667692</internalNodes>
      <leafValues>
        -2.1977034211158752e-01 3.7086451053619385e-01</leafValues></_>
    <_>
      <internalNodes>
        0 -1 5793 715920588 2132494832 1080171291 638739061 -1095434273
        -1896881771 -880492605 -1732770308</internalNodes>
      <leafValues>
        -3.5603106021881104e-01 2.3190309107303619e-01</leafValues></_>
    <_>
      <internalNodes>
        0 -1 9118 -1366511192 569545152 60059637 1587101828 895871870
        -1424052547 755998360 144712956</internalNodes>
      <leafValues>
        -4.5916330814361572e-01 1.6697430610656738e-01</leafValues></_>
    <_>
      <internalNodes>
        0 -1 66 -813434883 -570754639 868032735 -617492787 311318265
        -1402769617 1640326103 -33591263</internalNodes>
      <leafValues>
        -1.9891053438186646e-01 3.9405798912048340e-01</leafValues></_>
    <_>
      <internalNodes>
        0 -1 2081 1373277542 1373004927 -695154828 234759746 437006812
        648241297 -684039556 1611953767</internalNodes>
      <leafValues>
        -4.2171972990036011e-01 1.9282117486000061e-01</leafValues></_></weakClassifiers></stage12>
</opencv_storage>
