<?xml version="1.0"?>
<opencv_storage>
<stage5>
  <maxWeakCount>21</maxWeakCount>
  <stageThreshold>-1.5732166767120361e+00</stageThreshold>
  <weakClassifiers>
    <_>
      <internalNodes>
        0 -1 9374 -67108924 212057337 -1090868548 29075644 -13676144
        146680849 1507655808 96190682</internalNodes>
      <leafValues>
        -1.1912865936756134e-01 7.0072829723358154e-01</leafValues></_>
    <_>
      <internalNodes>
        0 -1 7117 -1714384387 445389048 1941961215 458822717 -1138714371
        -1162040324 983220207 -1347941192</internalNodes>
      <leafValues>
        -2.5299873948097229e-01 5.4092454910278320e-01</leafValues></_>
    <_>
      <internalNodes>
        0 -1 9215 -65 -1644438277 -1937789924 -570991565 -113314052
        -1472613138 -2000975656 -838863617</internalNodes>
      <leafValues>
        -2.5824525952339172e-01 5.3588563203811646e-01</leafValues></_>
    <_>
      <internalNodes>
        0 -1 452 -75498545 2000246955 -156071374 857896194 1529042186
        587601729 1970489094 2003006239</internalNodes>
      <leafValues>
        -3.4183421730995178e-01 4.3469983339309692e-01</leafValues></_>
    <_>
      <internalNodes>
        0 -1 8734 1398199302 297678855 1392761333 961748689 -123553105
        -1713176134 -328876129 37220603</internalNodes>
      <leafValues>
        -4.1280528903007507e-01 3.1200623512268066e-01</leafValues></_>
    <_>
      <internalNodes>
        0 -1 19 -1039998424 -607129860 -1842088481 -238083408 153100693
        -1883308028 1647236574 1461146372</internalNodes>
      <leafValues>
        -4.7842219471931458e-01 2.4785695970058441e-01</leafValues></_>
    <_>
      <internalNodes>
        0 -1 5973 -29624562 -249663468 -1106060996 1078893950 -288366479
        -222350920 -644628944 -1846170694</internalNodes>
      <leafValues>
        -4.5052754878997803e-01 2.4691991508007050e-01</leafValues></_>
    <_>
      <internalNodes>
        0 -1 9233 -692453377 -1510274113 -119801265 1472200637
        -1344619266 -1968263172 -1174940417 -1912603905</internalNodes>
      <leafValues>
        -2.3618064820766449e-01 4.6830764412879944e-01</leafValues></_>
    <_>
      <internalNodes>
        0 -1 70 -500242550 -788626998 -1055403136 -77662309 1626564095
        -905034657 1147621698 1411864594</internalNodes>
      <leafValues>
        -4.1830044984817505e-01 2.6675039529800415e-01</leafValues></_>
    <_>
      <internalNodes>
        0 -1 2787 543422022 279696289 2048975131 -1943063232 -1083738173
        -1145513816 -614765717 228858820</internalNodes>
      <leafValues>
        -4.9028024077415466e-01 2.2122614085674286e-01</leafValues></_>
    <_>
      <internalNodes>
        0 -1 4157 397410553 422651028 1178417919 1069355319 -1456424290
        -1895471590 -1883726888 -1153550084</internalNodes>
      <leafValues>
        -2.5532469153404236e-01 4.2810019850730896e-01</leafValues></_>
    <_>
      <internalNodes>
        0 -1 9391 -536875261 -316949527 -1346374992 827572139 -864290230
        42273794 -730467168 -983567105</internalNodes>
      <leafValues>
        -2.2978366911411285e-01 4.5353531837463379e-01</leafValues></_>
    <_>
      <internalNodes>
        0 -1 2485 -157877162 -618651265 1963786588 527578235 1895475343
        -1469340147 -415570600 638657498</internalNodes>
      <leafValues>
        -3.7788501381874084e-01 2.8787702322006226e-01</leafValues></_>
    <_>
      <internalNodes>
        0 -1 7492 -1057308503 1373225276 -1072156036 1373428991
        -192165121 -725607748 -797970020 810089055</internalNodes>
      <leafValues>
        -3.6421307921409607e-01 2.8008911013603210e-01</leafValues></_>
    <_>
      <internalNodes>
        0 -1 7920 -1614935816 1072890620 -1610752647 1024141365
        -1632337425 -1191428103 -1859110161 -1088477976</internalNodes>
      <leafValues>
        -2.8610503673553467e-01 3.5878661274909973e-01</leafValues></_>
    <_>
      <internalNodes>
        0 -1 351 -741868378 -938520850 -431461374 -760773848 1945576690
        1079473952 1345516807 -681052217</internalNodes>
      <leafValues>
        -2.7478966116905212e-01 3.8131162524223328e-01</leafValues></_>
    <_>
      <internalNodes>
        0 -1 8698 -650655849 219496640 -72430592 -283068166 -102768129
        -1029900835 -1648891772 -673186321</internalNodes>
      <leafValues>
        -2.8415638208389282e-01 3.6939916014671326e-01</leafValues></_>
    <_>
      <internalNodes>
        0 -1 9403 -800736581 100577257 -1830181712 -775309857 570175375
        18283369 -1863984949 -1749295937</internalNodes>
      <leafValues>
        -2.2580377757549286e-01 4.3975862860679626e-01</leafValues></_>
    <_>
      <internalNodes>
        0 -1 7947 -1431170884 -545432380 -1930490371 831806969
        -1750403361 -1110004264 -1463647747 -1616965607</internalNodes>
      <leafValues>
        -2.9745522141456604e-01 3.5401880741119385e-01</leafValues></_>
    <_>
      <internalNodes>
        0 -1 9397 -169870029 -1711648027 -46147488 -949251036 -884019106
        242742498 -722485048 -617884245</internalNodes>
      <leafValues>
        -1.9648244976997375e-01 4.9780154228210449e-01</leafValues></_>
    <_>
      <internalNodes>
        0 -1 560 -275371496 -857901992 34867472 2071033483 521806947
        1627856896 -728951046 -1814862513</internalNodes>
      <leafValues>
        -3.2541203498840332e-01 3.3492118120193481e-01</leafValues></_></weakClassifiers></stage5>
</opencv_storage>
