<?xml version="1.0"?>
<opencv_storage>
<stage8>
  <maxWeakCount>23</maxWeakCount>
  <stageThreshold>-1.1004791259765625e+00</stageThreshold>
  <weakClassifiers>
    <_>
      <internalNodes>
        0 -1 4899 -553656465 -293601283 1320474376 -288030724
        -1107296434 -11804849 -1050876 -134291490</internalNodes>
      <leafValues>
        3.3652529120445251e-02 7.0425403118133545e-01</leafValues></_>
    <_>
      <internalNodes>
        0 -1 9187 -35465 2066963796 -1074861206 -1266720906 -547893401
        1146478581 -101515708 -801046546</internalNodes>
      <leafValues>
        -3.4313395619392395e-01 4.1227099299430847e-01</leafValues></_>
    <_>
      <internalNodes>
        0 -1 8891 -327697 -1342511873 -134219779 -1715732547 -307519489
        -1888557571 -50406148 -1996498497</internalNodes>
      <leafValues>
        -2.9850670695304871e-01 3.9056378602981567e-01</leafValues></_>
    <_>
      <internalNodes>
        0 -1 7707 142737661 413270192 151678975 488118364 -1214599201
        -877723701 -956322849 -583004048</internalNodes>
      <leafValues>
        -3.2774788141250610e-01 3.3732005953788757e-01</leafValues></_>
    <_>
      <internalNodes>
        0 -1 6785 -585638594 -1660527752 -850996481 435744942 -559415300
        142656934 -1697907204 143184991</internalNodes>
      <leafValues>
        -4.4458916783332825e-01 2.4679003655910492e-01</leafValues></_>
    <_>
      <internalNodes>
        0 -1 523 -8410137 -68538593 -887215666 -13492942 -310430849
        1918271282 -67112961 -143427713</internalNodes>
      <leafValues>
        -3.0323764681816101e-01 3.7102961540222168e-01</leafValues></_>
    <_>
      <internalNodes>
        0 -1 5371 -542353155 469567737 -1686405123 536610936 -809575431
        2015026876 638065100 -1968534276</internalNodes>
      <leafValues>
        -3.0569511651992798e-01 3.3222663402557373e-01</leafValues></_>
    <_>
      <internalNodes>
        0 -1 6099 1350246349 670011839 -539473984 -654379569 -1164378394
        129621226 -1027882848 -1795187822</internalNodes>
      <leafValues>
        -4.0596470236778259e-01 2.4725373089313507e-01</leafValues></_>
    <_>
      <internalNodes>
        0 -1 9400 -692060365 -2086229014 653471794 1396701387 -172492557
        9377480 -528551712 -774902789</internalNodes>
      <leafValues>
        -2.6150527596473694e-01 3.6605095863342285e-01</leafValues></_>
    <_>
      <internalNodes>
        0 -1 4180 571622421 498485753 -201016353 1073725776 -1169446469
        -1430345019 -132911907 -1968177132</internalNodes>
      <leafValues>
        -3.4715485572814941e-01 2.8281155228614807e-01</leafValues></_>
    <_>
      <internalNodes>
        0 -1 182 -454333082 -67055226 -58040088 -5324384 1645195765
        1183773229 1903414469 2012739541</internalNodes>
      <leafValues>
        -3.9083954691886902e-01 2.4844439327716827e-01</leafValues></_>
    <_>
      <internalNodes>
        0 -1 7544 -1140187664 -1823281103 1895844310 809817680
        -2121793539 -996108115 680179915 68803615</internalNodes>
      <leafValues>
        -4.6419787406921387e-01 2.0832996070384979e-01</leafValues></_>
    <_>
      <internalNodes>
        0 -1 2990 539110498 324544751 1653606878 253397960 -767985000
        829460469 668647388 456189951</internalNodes>
      <leafValues>
        -4.7175166010856628e-01 1.9253338873386383e-01</leafValues></_>
    <_>
      <internalNodes>
        0 -1 8691 -11544705 1539970993 -352387124 -211747076 -194522449
        450799591 -169950816 -201854473</internalNodes>
      <leafValues>
        -2.4792675673961639e-01 3.8899803161621094e-01</leafValues></_>
    <_>
      <internalNodes>
        0 -1 6570 519575001 -1273475016 -1827701770 -801996516 -69422340
        -1147900245 -813135882 -1700128583</internalNodes>
      <leafValues>
        -3.2188045978546143e-01 3.0670440196990967e-01</leafValues></_>
    <_>
      <internalNodes>
        0 -1 560 -21296537 972843130 -1478061224 -147493717 1701515898
        1719469907 -264993282 -134256337</internalNodes>
      <leafValues>
        -2.6968455314636230e-01 3.7794655561447144e-01</leafValues></_>
    <_>
      <internalNodes>
        0 -1 7807 -702456677 -1755445043 -1661444234 1347951707
        -17896608 -1628893356 -1755762452 -696075540</internalNodes>
      <leafValues>
        -2.7547496557235718e-01 3.4745839238166809e-01</leafValues></_>
    <_>
      <internalNodes>
        0 -1 8659 -1495838993 456999349 1545140666 1076944535 -502689225
        1457734386 1858796916 -220604736</internalNodes>
      <leafValues>
        -3.2768541574478149e-01 2.8844100236892700e-01</leafValues></_>
    <_>
      <internalNodes>
        0 -1 9289 -1078466581 -2051411216 -1744841711 1496883189
        -1371734848 -2045895710 234558876 -1900285800</internalNodes>
      <leafValues>
        -2.7264839410781860e-01 3.4181037545204163e-01</leafValues></_>
    <_>
      <internalNodes>
        0 -1 8782 -19662329 868614010 -267355454 324039379 -536964604
        1282834783 -656286240 -1599145237</internalNodes>
      <leafValues>
        -3.2923883199691772e-01 2.8786090016365051e-01</leafValues></_>
    <_>
      <internalNodes>
        0 -1 6426 471141855 -1557378 -75534630 2026797048 2142043405
        -272630449 -1211450417 -157509132</internalNodes>
      <leafValues>
        -2.8401833772659302e-01 3.3207949995994568e-01</leafValues></_>
    <_>
      <internalNodes>
        0 -1 7019 176643409 -1439426252 -1707477400 1210839 -130692070
        -106272134 1666251876 1148246904</internalNodes>
      <leafValues>
        -4.7892951965332031e-01 2.0954138040542603e-01</leafValues></_>
    <_>
      <internalNodes>
        0 -1 1153 210338087 -202703959 485480123 -38814057 -1782054472
        -1631058673 1008839099 1159659776</internalNodes>
      <leafValues>
        -3.5345786809921265e-01 2.6943594217300415e-01</leafValues></_></weakClassifiers></stage8>
</opencv_storage>
