<?xml version="1.0"?>
<opencv_storage>
<stage5>
  <maxWeakCount>5</maxWeakCount>
  <stageThreshold>-3.6426481604576111e-01</stageThreshold>
  <weakClassifiers>
    <_>
      <internalNodes>
        0 -1 154708 -3.4391712397336960e-02</internalNodes>
      <leafValues>
        8.6813187599182129e-01 -2.5566342473030090e-01</leafValues></_>
    <_>
      <internalNodes>
        0 -1 79388 5.1081515848636627e-03</internalNodes>
      <leafValues>
        -3.7363275885581970e-01 5.6309801340103149e-01</leafValues></_>
    <_>
      <internalNodes>
        0 -1 10587 -5.5285973940044641e-04</internalNodes>
      <leafValues>
        -6.2496370077133179e-01 3.5085511207580566e-01</leafValues></_>
    <_>
      <internalNodes>
        0 -1 15407 -8.7548971176147461e-02</internalNodes>
      <leafValues>
        8.7016409635543823e-01 -2.4672959744930267e-01</leafValues></_>
    <_>
      <internalNodes>
        0 -1 9579 -1.0346458293497562e-03</internalNodes>
      <leafValues>
        -7.7582490444183350e-01 2.8144383430480957e-01</leafValues></_></weakClassifiers></stage5>
</opencv_storage>
