<?xml version="1.0"?>
<opencv_storage>
<stage14>
  <maxWeakCount>10</maxWeakCount>
  <stageThreshold>-6.6292673349380493e-01</stageThreshold>
  <weakClassifiers>
    <_>
      <internalNodes>
        0 -1 177403 -1.4323273673653603e-02</internalNodes>
      <leafValues>
        4.4444444775581360e-01 -3.6363637447357178e-01</leafValues></_>
    <_>
      <internalNodes>
        0 -1 180501 1.9372501410543919e-03</internalNodes>
      <leafValues>
        1.4867398142814636e-01 -8.4329640865325928e-01</leafValues></_>
    <_>
      <internalNodes>
        0 -1 139645 -2.4628838218632154e-05</internalNodes>
      <leafValues>
        2.5425654649734497e-01 -4.7929745912551880e-01</leafValues></_>
    <_>
      <internalNodes>
        0 -1 21746 -1.9925808373955078e-05</internalNodes>
      <leafValues>
        3.3792608976364136e-01 -4.3667054176330566e-01</leafValues></_>
    <_>
      <internalNodes>
        0 -1 178993 1.3197620864957571e-03</internalNodes>
      <leafValues>
        -4.4049447774887085e-01 2.8430128097534180e-01</leafValues></_>
    <_>
      <internalNodes>
        0 -1 29401 3.2619686680845916e-04</internalNodes>
      <leafValues>
        2.4268135428428650e-01 -5.3631246089935303e-01</leafValues></_>
    <_>
      <internalNodes>
        0 -1 159598 1.4727940782904625e-02</internalNodes>
      <leafValues>
        -2.5922164320945740e-01 6.3242727518081665e-01</leafValues></_>
    <_>
      <internalNodes>
        0 -1 175278 1.1058103293180466e-02</internalNodes>
      <leafValues>
        -2.3334337770938873e-01 5.6427860260009766e-01</leafValues></_>
    <_>
      <internalNodes>
        0 -1 133122 -3.7670008838176727e-02</internalNodes>
      <leafValues>
        2.9506042599678040e-01 -4.6481966972351074e-01</leafValues></_>
    <_>
      <internalNodes>
        0 -1 11270 -7.5879797805100679e-04</internalNodes>
      <leafValues>
        3.0939924716949463e-01 -4.4392877817153931e-01</leafValues></_></weakClassifiers></stage14>
</opencv_storage>
