<?xml version="1.0"?>
<opencv_storage>
<stage2>
  <maxWeakCount>5</maxWeakCount>
  <stageThreshold>-6.6035807132720947e-01</stageThreshold>
  <weakClassifiers>
    <_>
      <internalNodes>
        0 -1 178755 -7.9581271857023239e-03</internalNodes>
      <leafValues>
        7.2027969360351563e-01 -4.0077820420265198e-01</leafValues></_>
    <_>
      <internalNodes>
        0 -1 154908 7.8726550564169884e-03</internalNodes>
      <leafValues>
        -2.8822213411331177e-01 7.5816726684570313e-01</leafValues></_>
    <_>
      <internalNodes>
        0 -1 42212 2.6900051161646843e-03</internalNodes>
      <leafValues>
        -3.8685196638107300e-01 6.4084237813949585e-01</leafValues></_>
    <_>
      <internalNodes>
        0 -1 11063 -5.1218096166849136e-02</internalNodes>
      <leafValues>
        -9.0625971555709839e-01 2.5761353969573975e-01</leafValues></_>
    <_>
      <internalNodes>
        0 -1 61642 -9.2386800050735474e-01</internalNodes>
      <leafValues>
        2.3116880655288696e-01 -9.6317726373672485e-01</leafValues></_></weakClassifiers></stage2>
</opencv_storage>
