<?xml version="1.0"?>
<opencv_storage>
<stage9>
  <maxWeakCount>8</maxWeakCount>
  <stageThreshold>-9.0855312347412109e-01</stageThreshold>
  <weakClassifiers>
    <_>
      <internalNodes>
        0 -1 127028 4.5542331645265222e-04</internalNodes>
      <leafValues>
        2.8919860720634460e-01 -7.3451328277587891e-01</leafValues></_>
    <_>
      <internalNodes>
        0 -1 116390 6.5881330519914627e-03</internalNodes>
      <leafValues>
        1.6058452427387238e-01 -8.8799065351486206e-01</leafValues></_>
    <_>
      <internalNodes>
        0 -1 180625 3.6949627101421356e-03</internalNodes>
      <leafValues>
        2.1301564574241638e-01 -7.6530605554580688e-01</leafValues></_>
    <_>
      <internalNodes>
        0 -1 180582 1.4325167285278440e-03</internalNodes>
      <leafValues>
        2.1403896808624268e-01 -7.1103411912918091e-01</leafValues></_>
    <_>
      <internalNodes>
        0 -1 116517 -1.3989058788865805e-03</internalNodes>
      <leafValues>
        -8.4392762184143066e-01 1.8535420298576355e-01</leafValues></_>
    <_>
      <internalNodes>
        0 -1 60629 3.9582299068570137e-03</internalNodes>
      <leafValues>
        1.7808851599693298e-01 -6.7920815944671631e-01</leafValues></_>
    <_>
      <internalNodes>
        0 -1 66332 -2.7256119210505858e-05</internalNodes>
      <leafValues>
        3.5571926832199097e-01 -4.7852140665054321e-01</leafValues></_>
    <_>
      <internalNodes>
        0 -1 81 8.5776497144252062e-04</internalNodes>
      <leafValues>
        -4.2669585347175598e-01 3.6627435684204102e-01</leafValues></_></weakClassifiers></stage9>
</opencv_storage>
