<?xml version="1.0"?>
<opencv_storage>
<stage17>
  <maxWeakCount>12</maxWeakCount>
  <stageThreshold>-1.0229341983795166e+00</stageThreshold>
  <weakClassifiers>
    <_>
      <internalNodes>
        0 -1 176019 -5.8183046057820320e-03</internalNodes>
      <leafValues>
        4.2500001192092896e-01 -2.8333333134651184e-01</leafValues></_>
    <_>
      <internalNodes>
        0 -1 27517 1.8002076540142298e-03</internalNodes>
      <leafValues>
        1.6160386800765991e-01 -7.6852655410766602e-01</leafValues></_>
    <_>
      <internalNodes>
        0 -1 6709 4.8231887631118298e-03</internalNodes>
      <leafValues>
        -2.4976427853107452e-01 5.0074416399002075e-01</leafValues></_>
    <_>
      <internalNodes>
        0 -1 126908 6.1858074332121760e-05</internalNodes>
      <leafValues>
        1.8219204246997833e-01 -6.5448975563049316e-01</leafValues></_>
    <_>
      <internalNodes>
        0 -1 78336 5.1483409479260445e-03</internalNodes>
      <leafValues>
        -2.0885780453681946e-01 5.9047359228134155e-01</leafValues></_>
    <_>
      <internalNodes>
        0 -1 178981 1.3137649511918426e-04</internalNodes>
      <leafValues>
        -3.7419220805168152e-01 3.6217978596687317e-01</leafValues></_>
    <_>
      <internalNodes>
        0 -1 180478 5.3741559386253357e-03</internalNodes>
      <leafValues>
        1.1690407991409302e-01 -9.7139465808868408e-01</leafValues></_>
    <_>
      <internalNodes>
        0 -1 153456 -8.0664249253459275e-05</internalNodes>
      <leafValues>
        -4.9454048275947571e-01 2.5163933634757996e-01</leafValues></_>
    <_>
      <internalNodes>
        0 -1 25403 8.3424627780914307e-02</internalNodes>
      <leafValues>
        -1.9705311954021454e-01 6.3536447286605835e-01</leafValues></_>
    <_>
      <internalNodes>
        0 -1 179005 8.4284041076898575e-04</internalNodes>
      <leafValues>
        -4.7802355885505676e-01 3.0024707317352295e-01</leafValues></_>
    <_>
      <internalNodes>
        0 -1 122959 6.1555719003081322e-03</internalNodes>
      <leafValues>
        -1.8250060081481934e-01 7.7170938253402710e-01</leafValues></_>
    <_>
      <internalNodes>
        0 -1 132927 -7.9871597699820995e-04</internalNodes>
      <leafValues>
        -5.6643950939178467e-01 2.5252333283424377e-01</leafValues></_></weakClassifiers></stage17>
</opencv_storage>
