<?xml version="1.0"?>
<opencv_storage>
<stage15>
  <maxWeakCount>11</maxWeakCount>
  <stageThreshold>-9.8303508758544922e-01</stageThreshold>
  <weakClassifiers>
    <_>
      <internalNodes>
        0 -1 178897 -2.7046687901020050e-03</internalNodes>
      <leafValues>
        4.8965516686439514e-01 -2.7843138575553894e-01</leafValues></_>
    <_>
      <internalNodes>
        0 -1 29179 1.9169554114341736e-01</internalNodes>
      <leafValues>
        1.7384612560272217e-01 -8.3383131027221680e-01</leafValues></_>
    <_>
      <internalNodes>
        0 -1 86181 2.9325641691684723e-02</internalNodes>
      <leafValues>
        -2.2717647254467010e-01 5.5932617187500000e-01</leafValues></_>
    <_>
      <internalNodes>
        0 -1 154884 1.2513528345152736e-03</internalNodes>
      <leafValues>
        -3.8049480319023132e-01 4.0174719691276550e-01</leafValues></_>
    <_>
      <internalNodes>
        0 -1 159105 -4.6656234189867973e-03</internalNodes>
      <leafValues>
        7.2706794738769531e-01 -2.0931255817413330e-01</leafValues></_>
    <_>
      <internalNodes>
        0 -1 177660 2.2028043531463481e-05</internalNodes>
      <leafValues>
        -4.6407404541969299e-01 3.2179048657417297e-01</leafValues></_>
    <_>
      <internalNodes>
        0 -1 87762 1.1319397017359734e-02</internalNodes>
      <leafValues>
        -3.0320790410041809e-01 4.6585759520530701e-01</leafValues></_>
    <_>
      <internalNodes>
        0 -1 21672 -4.2641628533601761e-03</internalNodes>
      <leafValues>
        2.9106098413467407e-01 -6.4203643798828125e-01</leafValues></_>
    <_>
      <internalNodes>
        0 -1 78618 -1.9119460135698318e-02</internalNodes>
      <leafValues>
        9.3923115730285645e-01 -1.6912277042865753e-01</leafValues></_>
    <_>
      <internalNodes>
        0 -1 129077 3.2408930361270905e-02</internalNodes>
      <leafValues>
        2.1144650876522064e-01 -8.8636267185211182e-01</leafValues></_>
    <_>
      <internalNodes>
        0 -1 180476 -1.9019964383915067e-05</internalNodes>
      <leafValues>
        3.7243121862411499e-01 -3.8790056109428406e-01</leafValues></_></weakClassifiers></stage15>
</opencv_storage>
