<?xml version="1.0"?>
<opencv_storage>
<stage19>
  <maxWeakCount>10</maxWeakCount>
  <stageThreshold>-6.2505501508712769e-01</stageThreshold>
  <weakClassifiers>
    <_>
      <internalNodes>
        0 -1 161167 1.0502971708774567e-02</internalNodes>
      <leafValues>
        -2.4427480995655060e-01 4.6376812458038330e-01</leafValues></_>
    <_>
      <internalNodes>
        0 -1 142889 -2.4421069771051407e-02</internalNodes>
      <leafValues>
        4.9349325895309448e-01 -2.5618740916252136e-01</leafValues></_>
    <_>
      <internalNodes>
        0 -1 171110 -7.2680497542023659e-03</internalNodes>
      <leafValues>
        3.5521328449249268e-01 -3.0737629532814026e-01</leafValues></_>
    <_>
      <internalNodes>
        0 -1 116678 3.5225585452280939e-04</internalNodes>
      <leafValues>
        -3.1671962141990662e-01 3.3224281668663025e-01</leafValues></_>
    <_>
      <internalNodes>
        0 -1 150299 -8.5676312446594238e-03</internalNodes>
      <leafValues>
        7.7990210056304932e-01 -1.0860018432140350e-01</leafValues></_>
    <_>
      <internalNodes>
        0 -1 8647 -6.8098967894911766e-03</internalNodes>
      <leafValues>
        6.0125374794006348e-01 -1.8895292282104492e-01</leafValues></_>
    <_>
      <internalNodes>
        0 -1 8599 2.0865297410637140e-03</internalNodes>
      <leafValues>
        -2.7683272957801819e-01 4.9676784873008728e-01</leafValues></_>
    <_>
      <internalNodes>
        0 -1 65798 1.0795096168294549e-03</internalNodes>
      <leafValues>
        -3.6471304297447205e-01 3.0864971876144409e-01</leafValues></_>
    <_>
      <internalNodes>
        0 -1 98855 -1.1086015729233623e-03</internalNodes>
      <leafValues>
        4.1241529583930969e-01 -3.1874909996986389e-01</leafValues></_>
    <_>
      <internalNodes>
        0 -1 138260 1.8552731722593307e-02</internalNodes>
      <leafValues>
        -3.1465476751327515e-01 3.7873148918151855e-01</leafValues></_></weakClassifiers></stage19>
</opencv_storage>
