<?xml version="1.0"?>
<opencv_storage>
<stage3>
  <maxWeakCount>19</maxWeakCount>
  <stageThreshold>-1.5490468740463257e+00</stageThreshold>
  <weakClassifiers>
    <_>
      <internalNodes>
        0 -1 98705 7.1483701467514038e-03</internalNodes>
      <leafValues>
        -7.1626067161560059e-01 -1.8731117248535156e-01</leafValues></_>
    <_>
      <internalNodes>
        0 -1 282986 -1.4117136597633362e-01</internalNodes>
      <leafValues>
        -9.3655129894614220e-03 -6.6669183969497681e-01</leafValues></_>
    <_>
      <internalNodes>
        0 -1 809618 7.8823760850355029e-04</internalNodes>
      <leafValues>
        7.8394547104835510e-02 -6.5454196929931641e-01</leafValues></_>
    <_>
      <internalNodes>
        0 -1 610861 -5.2031977102160454e-03</internalNodes>
      <leafValues>
        -5.6389713287353516e-01 1.4697942137718201e-01</leafValues></_>
    <_>
      <internalNodes>
        0 -1 436900 -1.1631589382886887e-02</internalNodes>
      <leafValues>
        4.6134340763092041e-01 -1.5635097026824951e-01</leafValues></_>
    <_>
      <internalNodes>
        0 -1 813014 -2.8865772765129805e-04</internalNodes>
      <leafValues>
        -4.2798501253128052e-01 1.4088505506515503e-01</leafValues></_>
    <_>
      <internalNodes>
        0 -1 796367 -2.4021949619054794e-02</internalNodes>
      <leafValues>
        5.3681564331054688e-01 -1.1158727109432220e-01</leafValues></_>
    <_>
      <internalNodes>
        0 -1 194763 -2.3705301806330681e-02</internalNodes>
      <leafValues>
        5.9209084510803223e-01 -1.0575664788484573e-01</leafValues></_>
    <_>
      <internalNodes>
        0 -1 764512 -6.7735282937064767e-04</internalNodes>
      <leafValues>
        -4.2757880687713623e-01 1.4127029478549957e-01</leafValues></_>
    <_>
      <internalNodes>
        0 -1 496571 2.0620385184884071e-03</internalNodes>
      <leafValues>
        8.2102447748184204e-02 -7.4656820297241211e-01</leafValues></_>
    <_>
      <internalNodes>
        0 -1 630137 7.8773153945803642e-03</internalNodes>
      <leafValues>
        -1.6881819069385529e-01 3.9202558994293213e-01</leafValues></_>
    <_>
      <internalNodes>
        0 -1 29208 -7.5693102553486824e-03</internalNodes>
      <leafValues>
        4.8226782679557800e-01 -1.1863933503627777e-01</leafValues></_>
    <_>
      <internalNodes>
        0 -1 801685 1.1358686024323106e-03</internalNodes>
      <leafValues>
        1.0508648306131363e-01 -6.3799548149108887e-01</leafValues></_>
    <_>
      <internalNodes>
        0 -1 36154 -4.5246547460556030e-01</internalNodes>
      <leafValues>
        -7.1602851152420044e-01 6.9860868155956268e-02</leafValues></_>
    <_>
      <internalNodes>
        0 -1 517627 -3.4822284942492843e-04</internalNodes>
      <leafValues>
        -5.7623779773712158e-01 1.0291003435850143e-01</leafValues></_>
    <_>
      <internalNodes>
        0 -1 755623 6.5018376335501671e-03</internalNodes>
      <leafValues>
        -1.6435657441616058e-01 3.9861539006233215e-01</leafValues></_>
    <_>
      <internalNodes>
        0 -1 98706 -8.7855532765388489e-03</internalNodes>
      <leafValues>
        5.8463561534881592e-01 -9.1005004942417145e-02</leafValues></_>
    <_>
      <internalNodes>
        0 -1 533224 -3.3036154491128400e-05</internalNodes>
      <leafValues>
        1.9390128552913666e-01 -3.1577077507972717e-01</leafValues></_>
    <_>
      <internalNodes>
        0 -1 9528 -3.4866421483457088e-03</internalNodes>
      <leafValues>
        2.6482266187667847e-01 -2.1749994158744812e-01</leafValues></_></weakClassifiers></stage3>
</opencv_storage>
