<?xml version="1.0"?>
<opencv_storage>
<stage1>
  <maxWeakCount>16</maxWeakCount>
  <stageThreshold>-1.5945694446563721e+00</stageThreshold>
  <weakClassifiers>
    <_>
      <internalNodes>
        0 -1 475150 -8.2435667514801025e-02</internalNodes>
      <leafValues>
        -9.6049380302429199e-01 -4.5593562722206116e-01</leafValues></_>
    <_>
      <internalNodes>
        0 -1 383593 -5.7596541941165924e-02</internalNodes>
      <leafValues>
        -9.2777425050735474e-01 -4.1724793612957001e-02</leafValues></_>
    <_>
      <internalNodes>
        0 -1 804697 -1.2329351156949997e-02</internalNodes>
      <leafValues>
        5.7606828212738037e-01 -1.9128559529781342e-01</leafValues></_>
    <_>
      <internalNodes>
        0 -1 129784 2.4430958554148674e-02</internalNodes>
      <leafValues>
        -9.9138334393501282e-02 6.3484621047973633e-01</leafValues></_>
    <_>
      <internalNodes>
        0 -1 537057 -1.8681460991501808e-02</internalNodes>
      <leafValues>
        6.7777574062347412e-01 -1.3402335345745087e-01</leafValues></_>
    <_>
      <internalNodes>
        0 -1 812460 3.5004152450710535e-03</internalNodes>
      <leafValues>
        -1.8624606728553772e-01 4.1350144147872925e-01</leafValues></_>
    <_>
      <internalNodes>
        0 -1 222204 1.5394849702715874e-02</internalNodes>
      <leafValues>
        -1.6128706932067871e-01 5.3884387016296387e-01</leafValues></_>
    <_>
      <internalNodes>
        0 -1 557154 -3.8954170304350555e-04</internalNodes>
      <leafValues>
        -6.3879263401031494e-01 1.4181913435459137e-01</leafValues></_>
    <_>
      <internalNodes>
        0 -1 5122 -2.8513211756944656e-02</internalNodes>
      <leafValues>
        6.0219293832778931e-01 -1.5636850893497467e-01</leafValues></_>
    <_>
      <internalNodes>
        0 -1 18944 1.8342521041631699e-02</internalNodes>
      <leafValues>
        -1.2526737153530121e-01 6.0072946548461914e-01</leafValues></_>
    <_>
      <internalNodes>
        0 -1 557169 9.0174080105498433e-04</internalNodes>
      <leafValues>
        1.1834441125392914e-01 -7.1831917762756348e-01</leafValues></_>
    <_>
      <internalNodes>
        0 -1 599148 -1.1066316626966000e-02</internalNodes>
      <leafValues>
        7.1303874254226685e-01 -1.2246374040842056e-01</leafValues></_>
    <_>
      <internalNodes>
        0 -1 387265 -7.4910409748554230e-02</internalNodes>
      <leafValues>
        -4.3037414550781250e-01 1.9928504526615143e-01</leafValues></_>
    <_>
      <internalNodes>
        0 -1 292552 2.6945218443870544e-02</internalNodes>
      <leafValues>
        -1.8584433197975159e-01 4.3438872694969177e-01</leafValues></_>
    <_>
      <internalNodes>
        0 -1 357822 -1.7882499843835831e-02</internalNodes>
      <leafValues>
        6.5359187126159668e-01 -1.1547765880823135e-01</leafValues></_>
    <_>
      <internalNodes>
        0 -1 468980 8.9721215772442520e-05</internalNodes>
      <leafValues>
        1.5796051919460297e-01 -5.2339756488800049e-01</leafValues></_></weakClassifiers></stage1>
</opencv_storage>
