<?xml version="1.0"?>
<opencv_storage>
<cascade>
  <stageType>BOOST</stageType>
  <featureType>HAAR</featureType>
  <height>27</height>
  <width>48</width>
  <stageParams>
    <boostType>GAB</boostType>
    <minHitRate>9.9500000476837158e-01</minHitRate>
    <maxFalseAlarm>5.0000000000000000e-01</maxFalseAlarm>
    <weightTrimRate>9.4999999999999996e-01</weightTrimRate>
    <maxDepth>1</maxDepth>
    <maxWeakCount>100</maxWeakCount></stageParams>
  <featureParams>
    <maxCatCount>0</maxCatCount>
    <featSize>1</featSize>
    <mode>BASIC</mode></featureParams>
  <stageNum>12</stageNum>
  <stages>
    <!-- stage 0 -->
    <_>
      <maxWeakCount>10</maxWeakCount>
      <stageThreshold>-1.7567505836486816e+00</stageThreshold>
      <weakClassifiers>
        <_>
          <internalNodes>
            0 -1 185 9.3868440017104149e-03</internalNodes>
          <leafValues>
            -8.1570190191268921e-01 -9.7165994346141815e-02</leafValues></_>
        <_>
          <internalNodes>
            0 -1 66 3.3638579770922661e-03</internalNodes>
          <leafValues>
            -5.4019254446029663e-01 3.1690338253974915e-01</leafValues></_>
        <_>
          <internalNodes>
            0 -1 30 -1.0994550772011280e-02</internalNodes>
          <leafValues>
            5.9344345331192017e-01 -2.5784742832183838e-01</leafValues></_>
        <_>
          <internalNodes>
            0 -1 112 -3.9458617568016052e-02</internalNodes>
          <leafValues>
            4.5318868756294250e-01 -2.3207899928092957e-01</leafValues></_>
        <_>
          <internalNodes>
            0 -1 1 -8.1943493569269776e-05</internalNodes>
          <leafValues>
            3.0120125412940979e-01 -3.7306103110313416e-01</leafValues></_>
        <_>
          <internalNodes>
            0 -1 3 -3.0142076313495636e-02</internalNodes>
          <leafValues>
            6.6565990447998047e-01 -1.6018937528133392e-01</leafValues></_>
        <_>
          <internalNodes>
            0 -1 107 3.7093418650329113e-03</internalNodes>
          <leafValues>
            -3.8321638107299805e-01 2.5063928961753845e-01</leafValues></_>
        <_>
          <internalNodes>
            0 -1 122 -2.6560787111520767e-02</internalNodes>
          <leafValues>
            4.7471815347671509e-01 -2.0853197574615479e-01</leafValues></_>
        <_>
          <internalNodes>
            0 -1 135 -8.2382257096469402e-04</internalNodes>
          <leafValues>
            -8.0513906478881836e-01 1.3428896665573120e-01</leafValues></_>
        <_>
          <internalNodes>
            0 -1 19 -2.9190513305366039e-03</internalNodes>
          <leafValues>
            4.4592452049255371e-01 -2.1586894989013672e-01</leafValues></_></weakClassifiers></_>
    <!-- stage 1 -->
    <_>
      <maxWeakCount>12</maxWeakCount>
      <stageThreshold>-2.0521697998046875e+00</stageThreshold>
      <weakClassifiers>
        <_>
          <internalNodes>
            0 -1 54 -4.5634686946868896e-02</internalNodes>
          <leafValues>
            3.7404578924179077e-01 -7.5660431385040283e-01</leafValues></_>
        <_>
          <internalNodes>
            0 -1 101 -8.2435667514801025e-02</internalNodes>
          <leafValues>
            -8.7971556186676025e-01 6.4961671829223633e-02</leafValues></_>
        <_>
          <internalNodes>
            0 -1 95 3.3510383218526840e-03</internalNodes>
          <leafValues>
            -3.6080622673034668e-01 3.3880984783172607e-01</leafValues></_>
        <_>
          <internalNodes>
            0 -1 195 -1.0723309591412544e-02</internalNodes>
          <leafValues>
            5.8395648002624512e-01 -2.2714641690254211e-01</leafValues></_>
        <_>
          <internalNodes>
            0 -1 7 -9.0883933007717133e-03</internalNodes>
          <leafValues>
            5.0077891349792480e-01 -2.1229478716850281e-01</leafValues></_>
        <_>
          <internalNodes>
            0 -1 125 -1.5477181295864284e-04</internalNodes>
          <leafValues>
            -5.5514162778854370e-01 2.3026068508625031e-01</leafValues></_>
        <_>
          <internalNodes>
            0 -1 194 2.1866174414753914e-02</internalNodes>
          <leafValues>
            -2.0393916964530945e-01 5.7788115739822388e-01</leafValues></_>
        <_>
          <internalNodes>
            0 -1 109 -4.4413185678422451e-03</internalNodes>
          <leafValues>
            7.6564228534698486e-01 -8.8905416429042816e-02</leafValues></_>
        <_>
          <internalNodes>
            0 -1 69 2.0100495312362909e-03</internalNodes>
          <leafValues>
            1.7725412547588348e-01 -6.1249303817749023e-01</leafValues></_>
        <_>
          <internalNodes>
            0 -1 217 -9.4165969640016556e-03</internalNodes>
          <leafValues>
            -7.1592819690704346e-01 1.0441819578409195e-01</leafValues></_>
        <_>
          <internalNodes>
            0 -1 184 -1.2420075014233589e-02</internalNodes>
          <leafValues>
            5.8452212810516357e-01 -1.6509731113910675e-01</leafValues></_>
        <_>
          <internalNodes>
            0 -1 144 1.3227949966676533e-04</internalNodes>
          <leafValues>
            1.7547640204429626e-01 -5.5108582973480225e-01</leafValues></_></weakClassifiers></_>
    <!-- stage 2 -->
    <_>
      <maxWeakCount>10</maxWeakCount>
      <stageThreshold>-1.7959742546081543e+00</stageThreshold>
      <weakClassifiers>
        <_>
          <internalNodes>
            0 -1 53 -3.3456720411777496e-02</internalNodes>
          <leafValues>
            3.7037037312984467e-02 -7.6370280981063843e-01</leafValues></_>
        <_>
          <internalNodes>
            0 -1 160 3.6839698441326618e-03</internalNodes>
          <leafValues>
            -5.0865203142166138e-01 1.2670530378818512e-01</leafValues></_>
        <_>
          <internalNodes>
            0 -1 120 -5.3564406698569655e-04</internalNodes>
          <leafValues>
            -7.5007677078247070e-01 1.4277517795562744e-01</leafValues></_>
        <_>
          <internalNodes>
            0 -1 119 5.2607199177145958e-04</internalNodes>
          <leafValues>
            1.9506534934043884e-01 -7.5512886047363281e-01</leafValues></_>
        <_>
          <internalNodes>
            0 -1 102 -5.3131721913814545e-02</internalNodes>
          <leafValues>
            -8.9073204994201660e-01 7.6564617455005646e-02</leafValues></_>
        <_>
          <internalNodes>
            0 -1 183 -1.8241267651319504e-02</internalNodes>
          <leafValues>
            4.4166490435600281e-01 -2.1277436614036560e-01</leafValues></_>
        <_>
          <internalNodes>
            0 -1 131 -1.2067459756508470e-03</internalNodes>
          <leafValues>
            -9.1874790191650391e-01 1.1560528725385666e-01</leafValues></_>
        <_>
          <internalNodes>
            0 -1 18 -1.4152623713016510e-02</internalNodes>
          <leafValues>
            2.9038190841674805e-01 -2.8968235850334167e-01</leafValues></_>
        <_>
          <internalNodes>
            0 -1 115 -1.2379961553961039e-03</internalNodes>
          <leafValues>
            -5.9722560644149780e-01 1.5156918764114380e-01</leafValues></_>
        <_>
          <internalNodes>
            0 -1 211 -1.1021453246939927e-04</internalNodes>
          <leafValues>
            -4.3677559494972229e-01 1.9010967016220093e-01</leafValues></_></weakClassifiers></_>
    <!-- stage 3 -->
    <_>
      <maxWeakCount>16</maxWeakCount>
      <stageThreshold>-1.8746869564056396e+00</stageThreshold>
      <weakClassifiers>
        <_>
          <internalNodes>
            0 -1 39 3.2045990228652954e-02</internalNodes>
          <leafValues>
            -7.7998715639114380e-01 -1.7801047861576080e-01</leafValues></_>
        <_>
          <internalNodes>
            0 -1 116 -2.6953555643558502e-02</internalNodes>
          <leafValues>
            3.4180369973182678e-01 -3.7971919775009155e-01</leafValues></_>
        <_>
          <internalNodes>
            0 -1 0 -1.2108936905860901e-02</internalNodes>
          <leafValues>
            2.6268959045410156e-01 -3.9700990915298462e-01</leafValues></_>
        <_>
          <internalNodes>
            0 -1 134 2.2382920724339783e-04</internalNodes>
          <leafValues>
            1.6062094271183014e-01 -4.7105774283409119e-01</leafValues></_>
        <_>
          <internalNodes>
            0 -1 201 -3.2386105158366263e-04</internalNodes>
          <leafValues>
            -6.2335419654846191e-01 1.4577157795429230e-01</leafValues></_>
        <_>
          <internalNodes>
            0 -1 11 -7.4637770652770996e-02</internalNodes>
          <leafValues>
            5.1603615283966064e-02 -9.3131971359252930e-01</leafValues></_>
        <_>
          <internalNodes>
            0 -1 138 -6.0223200125619769e-04</internalNodes>
          <leafValues>
            -5.8729231357574463e-01 1.3614529371261597e-01</leafValues></_>
        <_>
          <internalNodes>
            0 -1 145 -4.9328166060149670e-03</internalNodes>
          <leafValues>
            -7.0832258462905884e-01 8.3821512758731842e-02</leafValues></_>
        <_>
          <internalNodes>
            0 -1 147 -1.0289762914180756e-01</internalNodes>
          <leafValues>
            -2.5281998515129089e-01 2.8801137208938599e-01</leafValues></_>
        <_>
          <internalNodes>
            0 -1 57 -1.4145491644740105e-02</internalNodes>
          <leafValues>
            6.8159145116806030e-01 -1.1518094688653946e-01</leafValues></_>
        <_>
          <internalNodes>
            0 -1 43 2.1332949399948120e-03</internalNodes>
          <leafValues>
            1.7184373736381531e-01 -5.0258439779281616e-01</leafValues></_>
        <_>
          <internalNodes>
            0 -1 88 -2.4103194475173950e-02</internalNodes>
          <leafValues>
            7.3256063461303711e-01 -1.1686311662197113e-01</leafValues></_>
        <_>
          <internalNodes>
            0 -1 177 -2.1137860603630543e-03</internalNodes>
          <leafValues>
            -7.1229082345962524e-01 1.2396420538425446e-01</leafValues></_>
        <_>
          <internalNodes>
            0 -1 32 1.7397046089172363e-02</internalNodes>
          <leafValues>
            -2.0214454829692841e-01 3.9746129512786865e-01</leafValues></_>
        <_>
          <internalNodes>
            0 -1 15 -6.8428865633904934e-03</internalNodes>
          <leafValues>
            4.5221796631813049e-01 -1.5518909692764282e-01</leafValues></_>
        <_>
          <internalNodes>
            0 -1 188 2.5825458578765392e-04</internalNodes>
          <leafValues>
            1.6316939890384674e-01 -4.7035348415374756e-01</leafValues></_></weakClassifiers></_>
    <!-- stage 4 -->
    <_>
      <maxWeakCount>17</maxWeakCount>
      <stageThreshold>-1.7511152029037476e+00</stageThreshold>
      <weakClassifiers>
        <_>
          <internalNodes>
            0 -1 168 8.9655723422765732e-03</internalNodes>
          <leafValues>
            -7.9212707281112671e-01 -3.4105959534645081e-01</leafValues></_>
        <_>
          <internalNodes>
            0 -1 181 9.5585836097598076e-03</internalNodes>
          <leafValues>
            -4.0712356567382813e-01 1.7054316401481628e-01</leafValues></_>
        <_>
          <internalNodes>
            0 -1 55 -1.2682662345468998e-03</internalNodes>
          <leafValues>
            -6.0310733318328857e-01 1.0444011539220810e-01</leafValues></_>
        <_>
          <internalNodes>
            0 -1 44 -1.2954202480614185e-02</internalNodes>
          <leafValues>
            5.1757895946502686e-01 -1.0721778124570847e-01</leafValues></_>
        <_>
          <internalNodes>
            0 -1 72 1.8258705735206604e-02</internalNodes>
          <leafValues>
            -1.3000907003879547e-01 5.5534309148788452e-01</leafValues></_>
        <_>
          <internalNodes>
            0 -1 151 1.5755727887153625e-02</internalNodes>
          <leafValues>
            -2.2403445839881897e-01 3.0605122447013855e-01</leafValues></_>
        <_>
          <internalNodes>
            0 -1 84 1.1667675338685513e-02</internalNodes>
          <leafValues>
            -1.1145208775997162e-01 6.6333526372909546e-01</leafValues></_>
        <_>
          <internalNodes>
            0 -1 130 5.4598978022113442e-04</internalNodes>
          <leafValues>
            1.0978800058364868e-01 -7.2769647836685181e-01</leafValues></_>
        <_>
          <internalNodes>
            0 -1 156 -1.2477718883019406e-05</internalNodes>
          <leafValues>
            1.9205014407634735e-01 -3.5012325644493103e-01</leafValues></_>
        <_>
          <internalNodes>
            0 -1 94 4.6101864427328110e-03</internalNodes>
          <leafValues>
            -1.9178682565689087e-01 3.3415803313255310e-01</leafValues></_>
        <_>
          <internalNodes>
            0 -1 19 -2.2016747388988733e-03</internalNodes>
          <leafValues>
            3.5045143961906433e-01 -1.8322449922561646e-01</leafValues></_>
        <_>
          <internalNodes>
            0 -1 216 -1.2675041216425598e-04</internalNodes>
          <leafValues>
            -4.8069569468498230e-01 1.4123627543449402e-01</leafValues></_>
        <_>
          <internalNodes>
            0 -1 98 -8.2460429985076189e-04</internalNodes>
          <leafValues>
            -6.1648648977279663e-01 1.0440227389335632e-01</leafValues></_>
        <_>
          <internalNodes>
            0 -1 205 -3.4711966291069984e-03</internalNodes>
          <leafValues>
            4.4098204374313354e-01 -1.6909457743167877e-01</leafValues></_>
        <_>
          <internalNodes>
            0 -1 137 3.4256190061569214e-02</internalNodes>
          <leafValues>
            -1.4231318235397339e-01 4.5901411771774292e-01</leafValues></_>
        <_>
          <internalNodes>
            0 -1 164 5.1256897859275341e-04</internalNodes>
          <leafValues>
            1.1682959645986557e-01 -6.2809461355209351e-01</leafValues></_>
        <_>
          <internalNodes>
            0 -1 2 -2.7009300538338721e-04</internalNodes>
          <leafValues>
            2.0176610350608826e-01 -3.2384642958641052e-01</leafValues></_></weakClassifiers></_>
    <!-- stage 5 -->
    <_>
      <maxWeakCount>13</maxWeakCount>
      <stageThreshold>-1.8521606922149658e+00</stageThreshold>
      <weakClassifiers>
        <_>
          <internalNodes>
            0 -1 14 -2.4708006531000137e-03</internalNodes>
          <leafValues>
            4.1322313249111176e-02 -7.7041131258010864e-01</leafValues></_>
        <_>
          <internalNodes>
            0 -1 5 -2.1426379680633545e-03</internalNodes>
          <leafValues>
            4.1809943318367004e-01 -3.7628075480461121e-01</leafValues></_>
        <_>
          <internalNodes>
            0 -1 68 -2.8944534063339233e-01</internalNodes>
          <leafValues>
            1.1304127424955368e-01 -9.1547650098800659e-01</leafValues></_>
        <_>
          <internalNodes>
            0 -1 158 7.3945667827501893e-04</internalNodes>
          <leafValues>
            -1.6617466509342194e-01 5.0064766407012939e-01</leafValues></_>
        <_>
          <internalNodes>
            0 -1 46 -2.6138923130929470e-03</internalNodes>
          <leafValues>
            4.4964334368705750e-01 -1.9469521939754486e-01</leafValues></_>
        <_>
          <internalNodes>
            0 -1 204 7.0612167473882437e-04</internalNodes>
          <leafValues>
            -1.3021709024906158e-01 6.9685447216033936e-01</leafValues></_>
        <_>
          <internalNodes>
            0 -1 86 -4.0186733007431030e-02</internalNodes>
          <leafValues>
            -8.7453061342239380e-01 1.1779277026653290e-01</leafValues></_>
        <_>
          <internalNodes>
            0 -1 207 1.7729175742715597e-03</internalNodes>
          <leafValues>
            -1.8339133262634277e-01 5.7343983650207520e-01</leafValues></_>
        <_>
          <internalNodes>
            0 -1 209 -4.0007871575653553e-04</internalNodes>
          <leafValues>
            4.7718942165374756e-01 -1.5072661638259888e-01</leafValues></_>
        <_>
          <internalNodes>
            0 -1 50 -9.0769771486520767e-03</internalNodes>
          <leafValues>
            3.9904552698135376e-01 -1.8092043697834015e-01</leafValues></_>
        <_>
          <internalNodes>
            0 -1 198 -5.7736835442483425e-03</internalNodes>
          <leafValues>
            5.2880913019180298e-01 -1.3771714270114899e-01</leafValues></_>
        <_>
          <internalNodes>
            0 -1 10 7.7439839951694012e-03</internalNodes>
          <leafValues>
            -1.3569837808609009e-01 5.4193633794784546e-01</leafValues></_>
        <_>
          <internalNodes>
            0 -1 196 1.9552242010831833e-03</internalNodes>
          <leafValues>
            -1.3584856688976288e-01 4.6383103728294373e-01</leafValues></_></weakClassifiers></_>
    <!-- stage 6 -->
    <_>
      <maxWeakCount>19</maxWeakCount>
      <stageThreshold>-1.7793918848037720e+00</stageThreshold>
      <weakClassifiers>
        <_>
          <internalNodes>
            0 -1 213 7.0345005951821804e-04</internalNodes>
          <leafValues>
            -7.7222585678100586e-01 -2.8708133101463318e-01</leafValues></_>
        <_>
          <internalNodes>
            0 -1 4 -2.8091026470065117e-03</internalNodes>
          <leafValues>
            2.2813297808170319e-01 -3.8700300455093384e-01</leafValues></_>
        <_>
          <internalNodes>
            0 -1 186 4.1131665930151939e-03</internalNodes>
          <leafValues>
            -2.1609342098236084e-01 3.5612070560455322e-01</leafValues></_>
        <_>
          <internalNodes>
            0 -1 85 2.7371917385607958e-03</internalNodes>
          <leafValues>
            -1.9069448113441467e-01 3.5998556017875671e-01</leafValues></_>
        <_>
          <internalNodes>
            0 -1 114 -2.0738895982503891e-03</internalNodes>
          <leafValues>
            4.3073207139968872e-01 -1.5669164061546326e-01</leafValues></_>
        <_>
          <internalNodes>
            0 -1 9 5.5645573884248734e-03</internalNodes>
          <leafValues>
            -1.4408640563488007e-01 4.5624926686286926e-01</leafValues></_>
        <_>
          <internalNodes>
            0 -1 104 2.7088518254458904e-04</internalNodes>
          <leafValues>
            1.3984657824039459e-01 -4.7006583213806152e-01</leafValues></_>
        <_>
          <internalNodes>
            0 -1 197 -2.4876368115656078e-04</internalNodes>
          <leafValues>
            4.2051729559898376e-01 -1.2955085933208466e-01</leafValues></_>
        <_>
          <internalNodes>
            0 -1 152 -7.9008156899362803e-04</internalNodes>
          <leafValues>
            4.2637225985527039e-01 -1.5588934719562531e-01</leafValues></_>
        <_>
          <internalNodes>
            0 -1 33 -1.1619813740253448e-03</internalNodes>
          <leafValues>
            2.3583398759365082e-01 -2.4428607523441315e-01</leafValues></_>
        <_>
          <internalNodes>
            0 -1 26 -1.4267023652791977e-02</internalNodes>
          <leafValues>
            3.3587783575057983e-01 -1.6947425901889801e-01</leafValues></_>
        <_>
          <internalNodes>
            0 -1 60 -1.4316553249955177e-02</internalNodes>
          <leafValues>
            4.9153187870979309e-01 -1.2724561989307404e-01</leafValues></_>
        <_>
          <internalNodes>
            0 -1 126 2.6013966999016702e-04</internalNodes>
          <leafValues>
            1.5690520405769348e-01 -3.8783293962478638e-01</leafValues></_>
        <_>
          <internalNodes>
            0 -1 146 -1.6144590452313423e-02</internalNodes>
          <leafValues>
            4.3026262521743774e-01 -1.4967133104801178e-01</leafValues></_>
        <_>
          <internalNodes>
            0 -1 142 1.6086479881778359e-03</internalNodes>
          <leafValues>
            -1.9028042256832123e-01 3.6334657669067383e-01</leafValues></_>
        <_>
          <internalNodes>
            0 -1 159 7.9456139355897903e-03</internalNodes>
          <leafValues>
            -1.0697013884782791e-01 5.3326642513275146e-01</leafValues></_>
        <_>
          <internalNodes>
            0 -1 129 -5.6589711457490921e-03</internalNodes>
          <leafValues>
            -7.2552829980850220e-01 8.7437123060226440e-02</leafValues></_>
        <_>
          <internalNodes>
            0 -1 58 -4.6522524207830429e-03</internalNodes>
          <leafValues>
            4.8470574617385864e-01 -1.3489860296249390e-01</leafValues></_>
        <_>
          <internalNodes>
            0 -1 150 -6.2459940090775490e-03</internalNodes>
          <leafValues>
            7.2509936988353729e-02 -9.0606141090393066e-01</leafValues></_></weakClassifiers></_>
    <!-- stage 7 -->
    <_>
      <maxWeakCount>19</maxWeakCount>
      <stageThreshold>-1.7001588344573975e+00</stageThreshold>
      <weakClassifiers>
        <_>
          <internalNodes>
            0 -1 78 9.6177514642477036e-03</internalNodes>
          <leafValues>
            -7.3605841398239136e-01 2.8000000119209290e-01</leafValues></_>
        <_>
          <internalNodes>
            0 -1 70 -1.9682049751281738e-01</internalNodes>
          <leafValues>
            -5.7033199071884155e-01 6.1086248606443405e-03</leafValues></_>
        <_>
          <internalNodes>
            0 -1 202 -1.3133233878761530e-03</internalNodes>
          <leafValues>
            3.3532404899597168e-01 -2.0986704528331757e-01</leafValues></_>
        <_>
          <internalNodes>
            0 -1 172 4.7364113852381706e-03</internalNodes>
          <leafValues>
            -2.0408350229263306e-01 3.3681955933570862e-01</leafValues></_>
        <_>
          <internalNodes>
            0 -1 157 -2.2758649662137032e-02</internalNodes>
          <leafValues>
            5.5665558576583862e-01 -1.1910168081521988e-01</leafValues></_>
        <_>
          <internalNodes>
            0 -1 208 3.1479727476835251e-03</internalNodes>
          <leafValues>
            -1.7136904597282410e-01 3.7813243269920349e-01</leafValues></_>
        <_>
          <internalNodes>
            0 -1 62 9.4654026906937361e-04</internalNodes>
          <leafValues>
            1.2567934393882751e-01 -5.8770602941513062e-01</leafValues></_>
        <_>
          <internalNodes>
            0 -1 133 -1.0446293745189905e-03</internalNodes>
          <leafValues>
            7.4860268831253052e-01 -1.0098389536142349e-01</leafValues></_>
        <_>
          <internalNodes>
            0 -1 23 7.0425248704850674e-03</internalNodes>
          <leafValues>
            -1.2345140427350998e-01 3.9526832103729248e-01</leafValues></_>
        <_>
          <internalNodes>
            0 -1 175 4.7419479233212769e-04</internalNodes>
          <leafValues>
            1.4408376812934875e-01 -3.7247690558433533e-01</leafValues></_>
        <_>
          <internalNodes>
            0 -1 73 1.4322797069326043e-03</internalNodes>
          <leafValues>
            -9.3828760087490082e-02 5.9634590148925781e-01</leafValues></_>
        <_>
          <internalNodes>
            0 -1 87 9.3499682843685150e-03</internalNodes>
          <leafValues>
            9.6143156290054321e-02 -6.3874411582946777e-01</leafValues></_>
        <_>
          <internalNodes>
            0 -1 61 3.4135118126869202e-02</internalNodes>
          <leafValues>
            -1.7745745182037354e-01 3.9090335369110107e-01</leafValues></_>
        <_>
          <internalNodes>
            0 -1 162 1.2424903921782970e-02</internalNodes>
          <leafValues>
            -1.6440875828266144e-01 3.8426035642623901e-01</leafValues></_>
        <_>
          <internalNodes>
            0 -1 29 -8.6066786025185138e-05</internalNodes>
          <leafValues>
            2.0295308530330658e-01 -2.8821700811386108e-01</leafValues></_>
        <_>
          <internalNodes>
            0 -1 164 -3.9559017750434577e-04</internalNodes>
          <leafValues>
            -6.1653178930282593e-01 9.3610532581806183e-02</leafValues></_>
        <_>
          <internalNodes>
            0 -1 63 -2.3555202409625053e-02</internalNodes>
          <leafValues>
            4.4013109803199768e-01 -1.3904252648353577e-01</leafValues></_>
        <_>
          <internalNodes>
            0 -1 82 1.3073273003101349e-03</internalNodes>
          <leafValues>
            -1.8706274032592773e-01 3.3879664540290833e-01</leafValues></_>
        <_>
          <internalNodes>
            0 -1 99 -4.1639497503638268e-03</internalNodes>
          <leafValues>
            -6.5704154968261719e-01 8.9227415621280670e-02</leafValues></_></weakClassifiers></_>
    <!-- stage 8 -->
    <_>
      <maxWeakCount>25</maxWeakCount>
      <stageThreshold>-1.8395572900772095e+00</stageThreshold>
      <weakClassifiers>
        <_>
          <internalNodes>
            0 -1 77 8.2842996343970299e-03</internalNodes>
          <leafValues>
            -7.3956793546676636e-01 -8.2644624635577202e-03</leafValues></_>
        <_>
          <internalNodes>
            0 -1 93 -4.4094799086451530e-03</internalNodes>
          <leafValues>
            3.4471008181571960e-01 -2.9008728265762329e-01</leafValues></_>
        <_>
          <internalNodes>
            0 -1 165 1.2343951966613531e-03</internalNodes>
          <leafValues>
            -3.3439293503761292e-01 1.7403841018676758e-01</leafValues></_>
        <_>
          <internalNodes>
            0 -1 163 2.0291060209274292e-03</internalNodes>
          <leafValues>
            -1.5033179521560669e-01 3.3122089505195618e-01</leafValues></_>
        <_>
          <internalNodes>
            0 -1 189 -7.5819306075572968e-03</internalNodes>
          <leafValues>
            3.7417787313461304e-01 -1.4495137333869934e-01</leafValues></_>
        <_>
          <internalNodes>
            0 -1 12 -2.0783306099474430e-03</internalNodes>
          <leafValues>
            4.8776334524154663e-01 -1.0970338433980942e-01</leafValues></_>
        <_>
          <internalNodes>
            0 -1 34 -4.2882999405264854e-03</internalNodes>
          <leafValues>
            -5.7217538356781006e-01 9.2332862317562103e-02</leafValues></_>
        <_>
          <internalNodes>
            0 -1 45 1.0396915022283792e-03</internalNodes>
          <leafValues>
            -9.1323263943195343e-02 4.3807321786880493e-01</leafValues></_>
        <_>
          <internalNodes>
            0 -1 111 -6.7603570641949773e-05</internalNodes>
          <leafValues>
            -3.2903632521629333e-01 1.4400643110275269e-01</leafValues></_>
        <_>
          <internalNodes>
            0 -1 37 -3.4548991243354976e-04</internalNodes>
          <leafValues>
            3.4034404158592224e-01 -1.3303722441196442e-01</leafValues></_>
        <_>
          <internalNodes>
            0 -1 148 6.9426918344106525e-05</internalNodes>
          <leafValues>
            1.0763493180274963e-01 -4.0463304519653320e-01</leafValues></_>
        <_>
          <internalNodes>
            0 -1 89 -2.6118688285350800e-02</internalNodes>
          <leafValues>
            2.8574478626251221e-01 -1.7388726770877838e-01</leafValues></_>
        <_>
          <internalNodes>
            0 -1 193 1.6699710860848427e-02</internalNodes>
          <leafValues>
            1.2290580570697784e-01 -3.7784770131111145e-01</leafValues></_>
        <_>
          <internalNodes>
            0 -1 90 2.1731061860918999e-02</internalNodes>
          <leafValues>
            -1.6140681505203247e-01 2.8730055689811707e-01</leafValues></_>
        <_>
          <internalNodes>
            0 -1 48 4.3159693479537964e-02</internalNodes>
          <leafValues>
            -8.9914806187152863e-02 6.1462169885635376e-01</leafValues></_>
        <_>
          <internalNodes>
            0 -1 71 1.2711023446172476e-03</internalNodes>
          <leafValues>
            -2.0406721532344818e-01 2.2442893683910370e-01</leafValues></_>
        <_>
          <internalNodes>
            0 -1 212 -1.8706882838159800e-03</internalNodes>
          <leafValues>
            5.1371568441390991e-01 -9.3685783445835114e-02</leafValues></_>
        <_>
          <internalNodes>
            0 -1 171 -5.9865210205316544e-03</internalNodes>
          <leafValues>
            -5.1185965538024902e-01 9.6300713717937469e-02</leafValues></_>
        <_>
          <internalNodes>
            0 -1 180 2.3377596517093480e-04</internalNodes>
          <leafValues>
            1.2152246385812759e-01 -4.2667269706726074e-01</leafValues></_>
        <_>
          <internalNodes>
            0 -1 200 -1.9685118459165096e-03</internalNodes>
          <leafValues>
            6.7314720153808594e-01 -7.5008749961853027e-02</leafValues></_>
        <_>
          <internalNodes>
            0 -1 75 -2.7543955948203802e-03</internalNodes>
          <leafValues>
            3.2611072063446045e-01 -1.2759351730346680e-01</leafValues></_>
        <_>
          <internalNodes>
            0 -1 132 4.0684780105948448e-03</internalNodes>
          <leafValues>
            -7.9504281282424927e-02 5.2972912788391113e-01</leafValues></_>
        <_>
          <internalNodes>
            0 -1 210 -2.0144893787801266e-03</internalNodes>
          <leafValues>
            3.6333650350570679e-01 -1.2914399802684784e-01</leafValues></_>
        <_>
          <internalNodes>
            0 -1 38 7.9060792922973633e-02</internalNodes>
          <leafValues>
            -6.6388554871082306e-02 7.0643609762191772e-01</leafValues></_>
        <_>
          <internalNodes>
            0 -1 206 4.4462401419878006e-03</internalNodes>
          <leafValues>
            -1.3666996359825134e-01 3.2898083329200745e-01</leafValues></_></weakClassifiers></_>
    <!-- stage 9 -->
    <_>
      <maxWeakCount>24</maxWeakCount>
      <stageThreshold>-1.7401075363159180e+00</stageThreshold>
      <weakClassifiers>
        <_>
          <internalNodes>
            0 -1 6 -6.6128969192504883e-03</internalNodes>
          <leafValues>
            -2.3552124202251434e-01 -7.5254553556442261e-01</leafValues></_>
        <_>
          <internalNodes>
            0 -1 16 2.7695670723915100e-03</internalNodes>
          <leafValues>
            -1.0735081136226654e-01 -7.2290045022964478e-01</leafValues></_>
        <_>
          <internalNodes>
            0 -1 51 9.7944028675556183e-04</internalNodes>
          <leafValues>
            1.0360743105411530e-01 -4.4642055034637451e-01</leafValues></_>
        <_>
          <internalNodes>
            0 -1 52 -1.7282936722040176e-02</internalNodes>
          <leafValues>
            -6.9648766517639160e-01 7.6462723314762115e-02</leafValues></_>
        <_>
          <internalNodes>
            0 -1 24 -9.9291764199733734e-03</internalNodes>
          <leafValues>
            3.2242017984390259e-01 -1.4416792988777161e-01</leafValues></_>
        <_>
          <internalNodes>
            0 -1 8 1.5320576727390289e-02</internalNodes>
          <leafValues>
            -1.5316216647624969e-01 3.9080545306205750e-01</leafValues></_>
        <_>
          <internalNodes>
            0 -1 27 -3.7270592292770743e-04</internalNodes>
          <leafValues>
            -4.4402033090591431e-01 1.0304643213748932e-01</leafValues></_>
        <_>
          <internalNodes>
            0 -1 91 1.1665386846289039e-03</internalNodes>
          <leafValues>
            -1.4093296229839325e-01 3.2481297850608826e-01</leafValues></_>
        <_>
          <internalNodes>
            0 -1 80 -5.2175126038491726e-03</internalNodes>
          <leafValues>
            4.4535246491432190e-01 -1.0194629430770874e-01</leafValues></_>
        <_>
          <internalNodes>
            0 -1 173 -6.1650382122024894e-04</internalNodes>
          <leafValues>
            -7.0512187480926514e-01 7.5702980160713196e-02</leafValues></_>
        <_>
          <internalNodes>
            0 -1 167 1.1314046569168568e-02</internalNodes>
          <leafValues>
            -1.7308127880096436e-01 2.6383507251739502e-01</leafValues></_>
        <_>
          <internalNodes>
            0 -1 161 -1.0045391973108053e-03</internalNodes>
          <leafValues>
            2.6696506142616272e-01 -1.6986574232578278e-01</leafValues></_>
        <_>
          <internalNodes>
            0 -1 214 4.1988724842667580e-04</internalNodes>
          <leafValues>
            8.7877437472343445e-02 -5.2361637353897095e-01</leafValues></_>
        <_>
          <internalNodes>
            0 -1 141 5.7392120361328125e-03</internalNodes>
          <leafValues>
            5.3166601806879044e-02 -7.0738500356674194e-01</leafValues></_>
        <_>
          <internalNodes>
            0 -1 17 -1.8624307122081518e-03</internalNodes>
          <leafValues>
            -5.9331667423248291e-01 6.9803304970264435e-02</leafValues></_>
        <_>
          <internalNodes>
            0 -1 121 4.8294831067323685e-03</internalNodes>
          <leafValues>
            -1.0326449573040009e-01 4.7201776504516602e-01</leafValues></_>
        <_>
          <internalNodes>
            0 -1 154 -4.2943768203258514e-02</internalNodes>
          <leafValues>
            4.9764207005500793e-01 -8.2975871860980988e-02</leafValues></_>
        <_>
          <internalNodes>
            0 -1 199 -6.3806474208831787e-03</internalNodes>
          <leafValues>
            -5.9783488512039185e-01 7.2655566036701202e-02</leafValues></_>
        <_>
          <internalNodes>
            0 -1 123 -6.2576076015830040e-03</internalNodes>
          <leafValues>
            -3.0080446600914001e-01 1.3914839923381805e-01</leafValues></_>
        <_>
          <internalNodes>
            0 -1 100 1.6461175680160522e-01</internalNodes>
          <leafValues>
            5.6981813162565231e-02 -7.1813100576400757e-01</leafValues></_>
        <_>
          <internalNodes>
            0 -1 74 6.2092510052025318e-04</internalNodes>
          <leafValues>
            1.3301146030426025e-01 -3.1819632649421692e-01</leafValues></_>
        <_>
          <internalNodes>
            0 -1 106 1.2784538790583611e-02</internalNodes>
          <leafValues>
            -8.9528277516365051e-02 4.9669924378395081e-01</leafValues></_>
        <_>
          <internalNodes>
            0 -1 169 6.6005979897454381e-04</internalNodes>
          <leafValues>
            -2.0941713452339172e-01 2.1736332774162292e-01</leafValues></_>
        <_>
          <internalNodes>
            0 -1 113 9.7274285508319736e-05</internalNodes>
          <leafValues>
            1.0652296990156174e-01 -4.0905725955963135e-01</leafValues></_></weakClassifiers></_>
    <!-- stage 10 -->
    <_>
      <maxWeakCount>28</maxWeakCount>
      <stageThreshold>-1.6939896345138550e+00</stageThreshold>
      <weakClassifiers>
        <_>
          <internalNodes>
            0 -1 36 -2.0244121551513672e-03</internalNodes>
          <leafValues>
            -3.6246785521507263e-01 -7.5827705860137939e-01</leafValues></_>
        <_>
          <internalNodes>
            0 -1 136 2.2560583893209696e-03</internalNodes>
          <leafValues>
            -2.7923789620399475e-01 3.0384498834609985e-01</leafValues></_>
        <_>
          <internalNodes>
            0 -1 31 -4.1762768523767591e-04</internalNodes>
          <leafValues>
            1.4209219813346863e-01 -2.8975322842597961e-01</leafValues></_>
        <_>
          <internalNodes>
            0 -1 67 -1.8695620819926262e-03</internalNodes>
          <leafValues>
            2.9656293988227844e-01 -1.4680312573909760e-01</leafValues></_>
        <_>
          <internalNodes>
            0 -1 25 -1.3316032476723194e-02</internalNodes>
          <leafValues>
            -5.1398134231567383e-01 8.2101777195930481e-02</leafValues></_>
        <_>
          <internalNodes>
            0 -1 191 3.7368612538557500e-05</internalNodes>
          <leafValues>
            -2.8207588195800781e-01 1.6485852003097534e-01</leafValues></_>
        <_>
          <internalNodes>
            0 -1 153 -3.5252976231276989e-03</internalNodes>
          <leafValues>
            5.5322635173797607e-01 -8.2521967589855194e-02</leafValues></_>
        <_>
          <internalNodes>
            0 -1 218 -2.5787251070141792e-02</internalNodes>
          <leafValues>
            -8.4995049238204956e-01 5.1660459488630295e-02</leafValues></_>
        <_>
          <internalNodes>
            0 -1 155 1.0177942458540201e-03</internalNodes>
          <leafValues>
            2.7240619063377380e-02 -7.8539526462554932e-01</leafValues></_>
        <_>
          <internalNodes>
            0 -1 42 -1.8177010118961334e-02</internalNodes>
          <leafValues>
            -7.5500005483627319e-01 5.2071046084165573e-02</leafValues></_>
        <_>
          <internalNodes>
            0 -1 143 4.0749618783593178e-03</internalNodes>
          <leafValues>
            -1.5846911072731018e-01 2.6454454660415649e-01</leafValues></_>
        <_>
          <internalNodes>
            0 -1 105 -1.3622812926769257e-02</internalNodes>
          <leafValues>
            -4.3492612242698669e-01 1.0387904196977615e-01</leafValues></_>
        <_>
          <internalNodes>
            0 -1 96 -8.7793499231338501e-02</internalNodes>
          <leafValues>
            6.1760860681533813e-01 -7.8396715223789215e-02</leafValues></_>
        <_>
          <internalNodes>
            0 -1 79 3.5426327958703041e-03</internalNodes>
          <leafValues>
            -1.2880820035934448e-01 3.1700628995895386e-01</leafValues></_>
        <_>
          <internalNodes>
            0 -1 149 -8.7961601093411446e-03</internalNodes>
          <leafValues>
            3.7504962086677551e-01 -1.1426516622304916e-01</leafValues></_>
        <_>
          <internalNodes>
            0 -1 187 -1.5103673562407494e-02</internalNodes>
          <leafValues>
            3.4518706798553467e-01 -1.2532386183738708e-01</leafValues></_>
        <_>
          <internalNodes>
            0 -1 20 -1.3816473074257374e-03</internalNodes>
          <leafValues>
            2.9353079199790955e-01 -1.4235372841358185e-01</leafValues></_>
        <_>
          <internalNodes>
            0 -1 170 9.8762553534470499e-05</internalNodes>
          <leafValues>
            1.3861809670925140e-01 -2.9284355044364929e-01</leafValues></_>
        <_>
          <internalNodes>
            0 -1 83 2.4999137967824936e-03</internalNodes>
          <leafValues>
            -9.3696847558021545e-02 4.4861334562301636e-01</leafValues></_>
        <_>
          <internalNodes>
            0 -1 215 8.8995398255065084e-04</internalNodes>
          <leafValues>
            -1.1855518817901611e-01 3.3129817247390747e-01</leafValues></_>
        <_>
          <internalNodes>
            0 -1 174 2.8641093522310257e-03</internalNodes>
          <leafValues>
            5.8211877942085266e-02 -7.6570117473602295e-01</leafValues></_>
        <_>
          <internalNodes>
            0 -1 176 -6.2636204529553652e-04</internalNodes>
          <leafValues>
            -5.8341866731643677e-01 6.1285912990570068e-02</leafValues></_>
        <_>
          <internalNodes>
            0 -1 64 3.1067423988133669e-03</internalNodes>
          <leafValues>
            -1.1627811193466187e-01 3.7562966346740723e-01</leafValues></_>
        <_>
          <internalNodes>
            0 -1 179 5.7364195527043194e-05</internalNodes>
          <leafValues>
            1.2345807999372482e-01 -3.5381627082824707e-01</leafValues></_>
        <_>
          <internalNodes>
            0 -1 140 -5.1680542528629303e-03</internalNodes>
          <leafValues>
            3.5917334258556366e-02 -1.</leafValues></_>
        <_>
          <internalNodes>
            0 -1 49 -1.5973795671015978e-03</internalNodes>
          <leafValues>
            2.8919976949691772e-01 -1.5287496149539948e-01</leafValues></_>
        <_>
          <internalNodes>
            0 -1 40 -2.7017010143026710e-04</internalNodes>
          <leafValues>
            -5.8521777391433716e-01 7.2907961905002594e-02</leafValues></_>
        <_>
          <internalNodes>
            0 -1 65 6.9878192152827978e-04</internalNodes>
          <leafValues>
            -1.0964800417423248e-01 4.3489772081375122e-01</leafValues></_></weakClassifiers></_>
    <!-- stage 11 -->
    <_>
      <maxWeakCount>29</maxWeakCount>
      <stageThreshold>-1.6516314744949341e+00</stageThreshold>
      <weakClassifiers>
        <_>
          <internalNodes>
            0 -1 166 4.5332416892051697e-02</internalNodes>
          <leafValues>
            -7.3995834589004517e-01 -9.3525178730487823e-02</leafValues></_>
        <_>
          <internalNodes>
            0 -1 41 -7.8934099292382598e-05</internalNodes>
          <leafValues>
            -3.4217908978462219e-02 -4.3383428454399109e-01</leafValues></_>
        <_>
          <internalNodes>
            0 -1 97 2.5264178402721882e-03</internalNodes>
          <leafValues>
            -1.9884480535984039e-01 1.9278351962566376e-01</leafValues></_>
        <_>
          <internalNodes>
            0 -1 127 -1.7769318073987961e-02</internalNodes>
          <leafValues>
            3.3327177166938782e-01 -1.2893536686897278e-01</leafValues></_>
        <_>
          <internalNodes>
            0 -1 118 1.9787889905273914e-03</internalNodes>
          <leafValues>
            -1.6551940143108368e-01 2.5101861357688904e-01</leafValues></_>
        <_>
          <internalNodes>
            0 -1 35 3.8804253563284874e-04</internalNodes>
          <leafValues>
            1.2041509896516800e-01 -4.5742493867874146e-01</leafValues></_>
        <_>
          <internalNodes>
            0 -1 28 3.7495739525184035e-04</internalNodes>
          <leafValues>
            -1.4922858774662018e-01 3.1165531277656555e-01</leafValues></_>
        <_>
          <internalNodes>
            0 -1 22 -2.1296183113008738e-03</internalNodes>
          <leafValues>
            3.1720709800720215e-01 -1.2121784687042236e-01</leafValues></_>
        <_>
          <internalNodes>
            0 -1 124 4.3143130838871002e-02</internalNodes>
          <leafValues>
            -7.2510503232479095e-02 5.9576678276062012e-01</leafValues></_>
        <_>
          <internalNodes>
            0 -1 81 6.9494126364588737e-03</internalNodes>
          <leafValues>
            7.6322399079799652e-02 -5.4031991958618164e-01</leafValues></_>
        <_>
          <internalNodes>
            0 -1 21 -3.2106519211083651e-04</internalNodes>
          <leafValues>
            1.6205836832523346e-01 -2.4023756384849548e-01</leafValues></_>
        <_>
          <internalNodes>
            0 -1 110 1.3588851317763329e-02</internalNodes>
          <leafValues>
            -8.0826498568058014e-02 5.1028096675872803e-01</leafValues></_>
        <_>
          <internalNodes>
            0 -1 47 -9.9030416458845139e-03</internalNodes>
          <leafValues>
            2.9699313640594482e-01 -1.3650591671466827e-01</leafValues></_>
        <_>
          <internalNodes>
            0 -1 56 -2.8675850480794907e-03</internalNodes>
          <leafValues>
            6.4186292886734009e-01 -5.4945178329944611e-02</leafValues></_>
        <_>
          <internalNodes>
            0 -1 59 3.2271564006805420e-02</internalNodes>
          <leafValues>
            -8.4106206893920898e-02 4.7434046864509583e-01</leafValues></_>
        <_>
          <internalNodes>
            0 -1 192 6.4929727159324102e-06</internalNodes>
          <leafValues>
            -2.5040239095687866e-01 1.5383112430572510e-01</leafValues></_>
        <_>
          <internalNodes>
            0 -1 178 1.3375779613852501e-02</internalNodes>
          <leafValues>
            -1.4651656150817871e-01 2.7694544196128845e-01</leafValues></_>
        <_>
          <internalNodes>
            0 -1 182 -2.4069878272712231e-03</internalNodes>
          <leafValues>
            2.9908233880996704e-01 -1.7552720010280609e-01</leafValues></_>
        <_>
          <internalNodes>
            0 -1 92 3.0870232731103897e-03</internalNodes>
          <leafValues>
            -1.1429972946643829e-01 3.5797834396362305e-01</leafValues></_>
        <_>
          <internalNodes>
            0 -1 76 -2.6287235319614410e-02</internalNodes>
          <leafValues>
            3.0887356400489807e-01 -1.3347296416759491e-01</leafValues></_>
        <_>
          <internalNodes>
            0 -1 103 2.0448039285838604e-03</internalNodes>
          <leafValues>
            -1.3889133930206299e-01 3.3897235989570618e-01</leafValues></_>
        <_>
          <internalNodes>
            0 -1 139 3.1332828104496002e-02</internalNodes>
          <leafValues>
            -1.8282137811183929e-01 2.1671779453754425e-01</leafValues></_>
        <_>
          <internalNodes>
            0 -1 190 1.8606667872518301e-03</internalNodes>
          <leafValues>
            5.3154174238443375e-02 -7.2919845581054688e-01</leafValues></_>
        <_>
          <internalNodes>
            0 -1 117 -1.5427672769874334e-03</internalNodes>
          <leafValues>
            -5.9273833036422729e-01 5.9234533458948135e-02</leafValues></_>
        <_>
          <internalNodes>
            0 -1 200 -2.4100099690258503e-03</internalNodes>
          <leafValues>
            6.7284351587295532e-01 -7.2096504271030426e-02</leafValues></_>
        <_>
          <internalNodes>
            0 -1 128 6.1566522344946861e-04</internalNodes>
          <leafValues>
            8.1915952265262604e-02 -5.5045759677886963e-01</leafValues></_>
        <_>
          <internalNodes>
            0 -1 203 -4.8402417451143265e-03</internalNodes>
          <leafValues>
            3.7781003117561340e-01 -1.1318121850490570e-01</leafValues></_>
        <_>
          <internalNodes>
            0 -1 13 7.4511591810733080e-04</internalNodes>
          <leafValues>
            -1.5131665766239166e-01 2.7532732486724854e-01</leafValues></_>
        <_>
          <internalNodes>
            0 -1 108 -3.4922990016639233e-03</internalNodes>
          <leafValues>
            4.1517353057861328e-01 -9.2524610459804535e-02</leafValues></_></weakClassifiers></_></stages>
  <features>
    <_>
      <rects>
        <_>
          0 0 3 4 -1.</_>
        <_>
          1 0 1 4 2.</_></rects>
      <tilted>0</tilted></_>
    <_>
      <rects>
        <_>
          0 0 6 5 -1.</_>
        <_>
          3 0 3 5 2.</_></rects>
      <tilted>0</tilted></_>
    <_>
      <rects>
        <_>
          0 0 8 3 -1.</_>
        <_>
          4 0 4 3 2.</_></rects>
      <tilted>0</tilted></_>
    <_>
      <rects>
        <_>
          0 1 28 8 -1.</_>
        <_>
          0 1 14 4 2.</_>
        <_>
          14 5 14 4 2.</_></rects>
      <tilted>0</tilted></_>
    <_>
      <rects>
        <_>
          0 4 4 6 -1.</_>
        <_>
          2 4 2 6 2.</_></rects>
      <tilted>0</tilted></_>
    <_>
      <rects>
        <_>
          0 5 2 10 -1.</_>
        <_>
          1 5 1 10 2.</_></rects>
      <tilted>0</tilted></_>
    <_>
      <rects>
        <_>
          0 5 2 18 -1.</_>
        <_>
          1 5 1 18 2.</_></rects>
      <tilted>0</tilted></_>
    <_>
      <rects>
        <_>
          0 5 8 7 -1.</_>
        <_>
          4 5 4 7 2.</_></rects>
      <tilted>0</tilted></_>
    <_>
      <rects>
        <_>
          0 6 8 16 -1.</_>
        <_>
          4 6 4 16 2.</_></rects>
      <tilted>0</tilted></_>
    <_>
      <rects>
        <_>
          0 7 4 12 -1.</_>
        <_>
          2 7 2 12 2.</_></rects>
      <tilted>0</tilted></_>
    <_>
      <rects>
        <_>
          0 8 4 18 -1.</_>
        <_>
          2 8 2 18 2.</_></rects>
      <tilted>0</tilted></_>
    <_>
      <rects>
        <_>
          0 8 48 3 -1.</_>
        <_>
          0 9 48 1 2.</_></rects>
      <tilted>0</tilted></_>
    <_>
      <rects>
        <_>
          0 13 2 12 -1.</_>
        <_>
          0 13 1 6 2.</_>
        <_>
          1 19 1 6 2.</_></rects>
      <tilted>0</tilted></_>
    <_>
      <rects>
        <_>
          0 13 2 12 -1.</_>
        <_>
          1 13 1 12 2.</_></rects>
      <tilted>0</tilted></_>
    <_>
      <rects>
        <_>
          0 14 2 12 -1.</_>
        <_>
          0 14 1 6 2.</_>
        <_>
          1 20 1 6 2.</_></rects>
      <tilted>0</tilted></_>
    <_>
      <rects>
        <_>
          0 15 6 12 -1.</_>
        <_>
          0 15 3 6 2.</_>
        <_>
          3 21 3 6 2.</_></rects>
      <tilted>0</tilted></_>
    <_>
      <rects>
        <_>
          0 15 6 4 -1.</_>
        <_>
          0 17 6 2 2.</_></rects>
      <tilted>0</tilted></_>
    <_>
      <rects>
        <_>
          0 18 10 2 -1.</_>
        <_>
          0 19 10 1 2.</_></rects>
      <tilted>0</tilted></_>
    <_>
      <rects>
        <_>
          0 20 24 5 -1.</_>
        <_>
          12 20 12 5 2.</_></rects>
      <tilted>0</tilted></_>
    <_>
      <rects>
        <_>
          0 21 6 6 -1.</_>
        <_>
          0 21 3 3 2.</_>
        <_>
          3 24 3 3 2.</_></rects>
      <tilted>0</tilted></_>
    <_>
      <rects>
        <_>
          0 24 4 3 -1.</_>
        <_>
          2 24 2 3 2.</_></rects>
      <tilted>0</tilted></_>
    <_>
      <rects>
        <_>
          0 26 12 1 -1.</_>
        <_>
          6 26 6 1 2.</_></rects>
      <tilted>0</tilted></_>
    <_>
      <rects>
        <_>
          1 0 2 23 -1.</_>
        <_>
          2 0 1 23 2.</_></rects>
      <tilted>0</tilted></_>
    <_>
      <rects>
        <_>
          1 2 6 14 -1.</_>
        <_>
          1 2 3 7 2.</_>
        <_>
          4 9 3 7 2.</_></rects>
      <tilted>0</tilted></_>
    <_>
      <rects>
        <_>
          1 2 6 16 -1.</_>
        <_>
          4 2 3 16 2.</_></rects>
      <tilted>0</tilted></_>
    <_>
      <rects>
        <_>
          1 10 20 6 -1.</_>
        <_>
          1 13 20 3 2.</_></rects>
      <tilted>0</tilted></_>
    <_>
      <rects>
        <_>
          1 13 16 14 -1.</_>
        <_>
          1 13 8 7 2.</_>
        <_>
          9 20 8 7 2.</_></rects>
      <tilted>0</tilted></_>
    <_>
      <rects>
        <_>
          1 16 3 2 -1.</_>
        <_>
          1 17 3 1 2.</_></rects>
      <tilted>0</tilted></_>
    <_>
      <rects>
        <_>
          1 17 2 2 -1.</_>
        <_>
          2 17 1 2 2.</_></rects>
      <tilted>0</tilted></_>
    <_>
      <rects>
        <_>
          1 26 8 1 -1.</_>
        <_>
          5 26 4 1 2.</_></rects>
      <tilted>0</tilted></_>
    <_>
      <rects>
        <_>
          2 0 5 8 -1.</_>
        <_>
          2 4 5 4 2.</_></rects>
      <tilted>0</tilted></_>
    <_>
      <rects>
        <_>
          2 0 12 3 -1.</_>
        <_>
          8 0 6 3 2.</_></rects>
      <tilted>0</tilted></_>
    <_>
      <rects>
        <_>
          2 0 40 6 -1.</_>
        <_>
          2 3 40 3 2.</_></rects>
      <tilted>0</tilted></_>
    <_>
      <rects>
        <_>
          2 1 8 3 -1.</_>
        <_>
          6 1 4 3 2.</_></rects>
      <tilted>0</tilted></_>
    <_>
      <rects>
        <_>
          2 12 12 4 -1.</_>
        <_>
          2 14 12 2 2.</_></rects>
      <tilted>0</tilted></_>
    <_>
      <rects>
        <_>
          2 16 3 2 -1.</_>
        <_>
          2 17 3 1 2.</_></rects>
      <tilted>0</tilted></_>
    <_>
      <rects>
        <_>
          2 18 2 8 -1.</_>
        <_>
          2 18 1 4 2.</_>
        <_>
          3 22 1 4 2.</_></rects>
      <tilted>0</tilted></_>
    <_>
      <rects>
        <_>
          3 4 4 2 -1.</_>
        <_>
          3 4 2 1 2.</_>
        <_>
          5 5 2 1 2.</_></rects>
      <tilted>0</tilted></_>
    <_>
      <rects>
        <_>
          3 5 24 14 -1.</_>
        <_>
          3 5 12 7 2.</_>
        <_>
          15 12 12 7 2.</_></rects>
      <tilted>0</tilted></_>
    <_>
      <rects>
        <_>
          3 23 45 4 -1.</_>
        <_>
          3 25 45 2 2.</_></rects>
      <tilted>0</tilted></_>
    <_>
      <rects>
        <_>
          4 0 2 1 -1.</_>
        <_>
          5 0 1 1 2.</_></rects>
      <tilted>0</tilted></_>
    <_>
      <rects>
        <_>
          4 0 4 3 -1.</_>
        <_>
          6 0 2 3 2.</_></rects>
      <tilted>0</tilted></_>
    <_>
      <rects>
        <_>
          4 0 8 7 -1.</_>
        <_>
          8 0 4 7 2.</_></rects>
      <tilted>0</tilted></_>
    <_>
      <rects>
        <_>
          4 0 14 2 -1.</_>
        <_>
          11 0 7 2 2.</_></rects>
      <tilted>0</tilted></_>
    <_>
      <rects>
        <_>
          4 1 16 4 -1.</_>
        <_>
          4 3 16 2 2.</_></rects>
      <tilted>0</tilted></_>
    <_>
      <rects>
        <_>
          4 3 6 2 -1.</_>
        <_>
          4 3 3 1 2.</_>
        <_>
          7 4 3 1 2.</_></rects>
      <tilted>0</tilted></_>
    <_>
      <rects>
        <_>
          4 5 8 6 -1.</_>
        <_>
          4 5 4 3 2.</_>
        <_>
          8 8 4 3 2.</_></rects>
      <tilted>0</tilted></_>
    <_>
      <rects>
        <_>
          4 9 10 6 -1.</_>
        <_>
          9 9 5 6 2.</_></rects>
      <tilted>0</tilted></_>
    <_>
      <rects>
        <_>
          4 12 16 7 -1.</_>
        <_>
          12 12 8 7 2.</_></rects>
      <tilted>0</tilted></_>
    <_>
      <rects>
        <_>
          4 20 6 6 -1.</_>
        <_>
          4 20 3 3 2.</_>
        <_>
          7 23 3 3 2.</_></rects>
      <tilted>0</tilted></_>
    <_>
      <rects>
        <_>
          5 0 4 10 -1.</_>
        <_>
          5 5 4 5 2.</_></rects>
      <tilted>0</tilted></_>
    <_>
      <rects>
        <_>
          5 0 10 2 -1.</_>
        <_>
          10 0 5 2 2.</_></rects>
      <tilted>0</tilted></_>
    <_>
      <rects>
        <_>
          5 0 12 4 -1.</_>
        <_>
          11 0 6 4 2.</_></rects>
      <tilted>0</tilted></_>
    <_>
      <rects>
        <_>
          5 0 13 6 -1.</_>
        <_>
          5 3 13 3 2.</_></rects>
      <tilted>0</tilted></_>
    <_>
      <rects>
        <_>
          5 11 10 10 -1.</_>
        <_>
          10 11 5 10 2.</_></rects>
      <tilted>0</tilted></_>
    <_>
      <rects>
        <_>
          5 15 13 2 -1.</_>
        <_>
          5 16 13 1 2.</_></rects>
      <tilted>0</tilted></_>
    <_>
      <rects>
        <_>
          6 1 8 2 -1.</_>
        <_>
          6 1 4 1 2.</_>
        <_>
          10 2 4 1 2.</_></rects>
      <tilted>0</tilted></_>
    <_>
      <rects>
        <_>
          6 4 20 4 -1.</_>
        <_>
          6 4 10 2 2.</_>
        <_>
          16 6 10 2 2.</_></rects>
      <tilted>0</tilted></_>
    <_>
      <rects>
        <_>
          6 6 10 4 -1.</_>
        <_>
          6 6 5 2 2.</_>
        <_>
          11 8 5 2 2.</_></rects>
      <tilted>0</tilted></_>
    <_>
      <rects>
        <_>
          6 6 10 14 -1.</_>
        <_>
          11 6 5 14 2.</_></rects>
      <tilted>0</tilted></_>
    <_>
      <rects>
        <_>
          6 11 8 7 -1.</_>
        <_>
          10 11 4 7 2.</_></rects>
      <tilted>0</tilted></_>
    <_>
      <rects>
        <_>
          6 12 26 5 -1.</_>
        <_>
          19 12 13 5 2.</_></rects>
      <tilted>0</tilted></_>
    <_>
      <rects>
        <_>
          6 15 10 2 -1.</_>
        <_>
          6 15 5 1 2.</_>
        <_>
          11 16 5 1 2.</_></rects>
      <tilted>0</tilted></_>
    <_>
      <rects>
        <_>
          7 0 32 4 -1.</_>
        <_>
          7 2 32 2 2.</_></rects>
      <tilted>0</tilted></_>
    <_>
      <rects>
        <_>
          7 1 18 2 -1.</_>
        <_>
          7 1 9 1 2.</_>
        <_>
          16 2 9 1 2.</_></rects>
      <tilted>0</tilted></_>
    <_>
      <rects>
        <_>
          7 3 4 2 -1.</_>
        <_>
          7 3 2 1 2.</_>
        <_>
          9 4 2 1 2.</_></rects>
      <tilted>0</tilted></_>
    <_>
      <rects>
        <_>
          7 25 41 2 -1.</_>
        <_>
          7 26 41 1 2.</_></rects>
      <tilted>0</tilted></_>
    <_>
      <rects>
        <_>
          8 5 18 2 -1.</_>
        <_>
          8 5 9 1 2.</_>
        <_>
          17 6 9 1 2.</_></rects>
      <tilted>0</tilted></_>
    <_>
      <rects>
        <_>
          8 6 37 15 -1.</_>
        <_>
          8 11 37 5 2.</_></rects>
      <tilted>0</tilted></_>
    <_>
      <rects>
        <_>
          8 13 16 4 -1.</_>
        <_>
          8 13 8 2 2.</_>
        <_>
          16 15 8 2 2.</_></rects>
      <tilted>0</tilted></_>
    <_>
      <rects>
        <_>
          8 20 33 5 -1.</_>
        <_>
          19 20 11 5 2.</_></rects>
      <tilted>0</tilted></_>
    <_>
      <rects>
        <_>
          8 25 17 2 -1.</_>
        <_>
          8 26 17 1 2.</_></rects>
      <tilted>0</tilted></_>
    <_>
      <rects>
        <_>
          9 0 31 4 -1.</_>
        <_>
          9 2 31 2 2.</_></rects>
      <tilted>0</tilted></_>
    <_>
      <rects>
        <_>
          9 2 3 2 -1.</_>
        <_>
          9 3 3 1 2.</_></rects>
      <tilted>0</tilted></_>
    <_>
      <rects>
        <_>
          9 12 15 4 -1.</_>
        <_>
          9 14 15 2 2.</_></rects>
      <tilted>0</tilted></_>
    <_>
      <rects>
        <_>
          9 19 8 2 -1.</_>
        <_>
          13 19 4 2 2.</_></rects>
      <tilted>0</tilted></_>
    <_>
      <rects>
        <_>
          10 0 6 14 -1.</_>
        <_>
          10 7 6 7 2.</_></rects>
      <tilted>0</tilted></_>
    <_>
      <rects>
        <_>
          10 5 22 2 -1.</_>
        <_>
          10 5 11 1 2.</_>
        <_>
          21 6 11 1 2.</_></rects>
      <tilted>0</tilted></_>
    <_>
      <rects>
        <_>
          10 6 18 2 -1.</_>
        <_>
          10 6 9 1 2.</_>
        <_>
          19 7 9 1 2.</_></rects>
      <tilted>0</tilted></_>
    <_>
      <rects>
        <_>
          10 21 9 4 -1.</_>
        <_>
          10 23 9 2 2.</_></rects>
      <tilted>0</tilted></_>
    <_>
      <rects>
        <_>
          10 23 8 4 -1.</_>
        <_>
          10 25 8 2 2.</_></rects>
      <tilted>0</tilted></_>
    <_>
      <rects>
        <_>
          10 24 12 3 -1.</_>
        <_>
          16 24 6 3 2.</_></rects>
      <tilted>0</tilted></_>
    <_>
      <rects>
        <_>
          11 1 21 2 -1.</_>
        <_>
          11 2 21 1 2.</_></rects>
      <tilted>0</tilted></_>
    <_>
      <rects>
        <_>
          11 6 10 2 -1.</_>
        <_>
          11 6 5 1 2.</_>
        <_>
          16 7 5 1 2.</_></rects>
      <tilted>0</tilted></_>
    <_>
      <rects>
        <_>
          11 6 16 4 -1.</_>
        <_>
          11 6 8 2 2.</_>
        <_>
          19 8 8 2 2.</_></rects>
      <tilted>0</tilted></_>
    <_>
      <rects>
        <_>
          11 25 19 2 -1.</_>
        <_>
          11 26 19 1 2.</_></rects>
      <tilted>0</tilted></_>
    <_>
      <rects>
        <_>
          11 26 21 1 -1.</_>
        <_>
          18 26 7 1 2.</_></rects>
      <tilted>0</tilted></_>
    <_>
      <rects>
        <_>
          12 0 12 4 -1.</_>
        <_>
          18 0 6 4 2.</_></rects>
      <tilted>0</tilted></_>
    <_>
      <rects>
        <_>
          12 0 21 4 -1.</_>
        <_>
          12 2 21 2 2.</_></rects>
      <tilted>0</tilted></_>
    <_>
      <rects>
        <_>
          12 0 21 10 -1.</_>
        <_>
          12 5 21 5 2.</_></rects>
      <tilted>0</tilted></_>
    <_>
      <rects>
        <_>
          13 12 20 6 -1.</_>
        <_>
          23 12 10 6 2.</_></rects>
      <tilted>0</tilted></_>
    <_>
      <rects>
        <_>
          13 23 9 2 -1.</_>
        <_>
          13 24 9 1 2.</_></rects>
      <tilted>0</tilted></_>
    <_>
      <rects>
        <_>
          13 23 28 2 -1.</_>
        <_>
          13 23 14 1 2.</_>
        <_>
          27 24 14 1 2.</_></rects>
      <tilted>0</tilted></_>
    <_>
      <rects>
        <_>
          14 5 18 2 -1.</_>
        <_>
          14 5 9 1 2.</_>
        <_>
          23 6 9 1 2.</_></rects>
      <tilted>0</tilted></_>
    <_>
      <rects>
        <_>
          14 23 9 4 -1.</_>
        <_>
          14 25 9 2 2.</_></rects>
      <tilted>0</tilted></_>
    <_>
      <rects>
        <_>
          14 25 34 2 -1.</_>
        <_>
          14 26 34 1 2.</_></rects>
      <tilted>0</tilted></_>
    <_>
      <rects>
        <_>
          15 8 20 15 -1.</_>
        <_>
          25 8 10 15 2.</_></rects>
      <tilted>0</tilted></_>
    <_>
      <rects>
        <_>
          15 25 27 2 -1.</_>
        <_>
          15 26 27 1 2.</_></rects>
      <tilted>0</tilted></_>
    <_>
      <rects>
        <_>
          16 0 2 7 -1.</_>
        <_>
          17 0 1 7 2.</_></rects>
      <tilted>0</tilted></_>
    <_>
      <rects>
        <_>
          16 0 6 6 -1.</_>
        <_>
          19 0 3 6 2.</_></rects>
      <tilted>0</tilted></_>
    <_>
      <rects>
        <_>
          16 16 32 11 -1.</_>
        <_>
          32 16 16 11 2.</_></rects>
      <tilted>0</tilted></_>
    <_>
      <rects>
        <_>
          17 0 2 27 -1.</_>
        <_>
          17 9 2 9 2.</_></rects>
      <tilted>0</tilted></_>
    <_>
      <rects>
        <_>
          17 0 9 3 -1.</_>
        <_>
          20 0 3 3 2.</_></rects>
      <tilted>0</tilted></_>
    <_>
      <rects>
        <_>
          17 4 18 2 -1.</_>
        <_>
          17 5 18 1 2.</_></rects>
      <tilted>0</tilted></_>
    <_>
      <rects>
        <_>
          17 14 9 2 -1.</_>
        <_>
          17 15 9 1 2.</_></rects>
      <tilted>0</tilted></_>
    <_>
      <rects>
        <_>
          17 19 26 8 -1.</_>
        <_>
          30 19 13 8 2.</_></rects>
      <tilted>0</tilted></_>
    <_>
      <rects>
        <_>
          17 20 26 1 -1.</_>
        <_>
          30 20 13 1 2.</_></rects>
      <tilted>0</tilted></_>
    <_>
      <rects>
        <_>
          17 20 30 7 -1.</_>
        <_>
          32 20 15 7 2.</_></rects>
      <tilted>0</tilted></_>
    <_>
      <rects>
        <_>
          17 23 18 2 -1.</_>
        <_>
          17 23 9 1 2.</_>
        <_>
          26 24 9 1 2.</_></rects>
      <tilted>0</tilted></_>
    <_>
      <rects>
        <_>
          18 5 10 2 -1.</_>
        <_>
          18 6 10 1 2.</_></rects>
      <tilted>0</tilted></_>
    <_>
      <rects>
        <_>
          18 6 9 4 -1.</_>
        <_>
          18 8 9 2 2.</_></rects>
      <tilted>0</tilted></_>
    <_>
      <rects>
        <_>
          18 8 2 7 -1.</_>
        <_>
          19 8 1 7 2.</_></rects>
      <tilted>0</tilted></_>
    <_>
      <rects>
        <_>
          18 13 14 14 -1.</_>
        <_>
          18 20 14 7 2.</_></rects>
      <tilted>0</tilted></_>
    <_>
      <rects>
        <_>
          18 25 2 1 -1.</_>
        <_>
          19 25 1 1 2.</_></rects>
      <tilted>0</tilted></_>
    <_>
      <rects>
        <_>
          19 4 3 4 -1.</_>
        <_>
          19 6 3 2 2.</_></rects>
      <tilted>0</tilted></_>
    <_>
      <rects>
        <_>
          19 8 2 19 -1.</_>
        <_>
          20 8 1 19 2.</_></rects>
      <tilted>0</tilted></_>
    <_>
      <rects>
        <_>
          19 20 25 6 -1.</_>
        <_>
          19 23 25 3 2.</_></rects>
      <tilted>0</tilted></_>
    <_>
      <rects>
        <_>
          19 22 4 4 -1.</_>
        <_>
          21 22 2 4 2.</_></rects>
      <tilted>0</tilted></_>
    <_>
      <rects>
        <_>
          19 22 8 4 -1.</_>
        <_>
          19 24 8 2 2.</_></rects>
      <tilted>0</tilted></_>
    <_>
      <rects>
        <_>
          20 0 2 4 -1.</_>
        <_>
          21 0 1 4 2.</_></rects>
      <tilted>0</tilted></_>
    <_>
      <rects>
        <_>
          20 0 2 6 -1.</_>
        <_>
          21 0 1 6 2.</_></rects>
      <tilted>0</tilted></_>
    <_>
      <rects>
        <_>
          20 0 22 2 -1.</_>
        <_>
          20 1 22 1 2.</_></rects>
      <tilted>0</tilted></_>
    <_>
      <rects>
        <_>
          20 1 22 16 -1.</_>
        <_>
          20 1 11 8 2.</_>
        <_>
          31 9 11 8 2.</_></rects>
      <tilted>0</tilted></_>
    <_>
      <rects>
        <_>
          20 1 28 9 -1.</_>
        <_>
          34 1 14 9 2.</_></rects>
      <tilted>0</tilted></_>
    <_>
      <rects>
        <_>
          20 7 12 8 -1.</_>
        <_>
          20 11 12 4 2.</_></rects>
      <tilted>0</tilted></_>
    <_>
      <rects>
        <_>
          20 10 2 2 -1.</_>
        <_>
          21 10 1 2 2.</_></rects>
      <tilted>0</tilted></_>
    <_>
      <rects>
        <_>
          20 16 11 4 -1.</_>
        <_>
          20 18 11 2 2.</_></rects>
      <tilted>0</tilted></_>
    <_>
      <rects>
        <_>
          20 21 20 6 -1.</_>
        <_>
          20 24 20 3 2.</_></rects>
      <tilted>0</tilted></_>
    <_>
      <rects>
        <_>
          20 23 2 4 -1.</_>
        <_>
          21 23 1 4 2.</_></rects>
      <tilted>0</tilted></_>
    <_>
      <rects>
        <_>
          20 23 10 3 -1.</_>
        <_>
          25 23 5 3 2.</_></rects>
      <tilted>0</tilted></_>
    <_>
      <rects>
        <_>
          21 0 2 3 -1.</_>
        <_>
          22 0 1 3 2.</_></rects>
      <tilted>0</tilted></_>
    <_>
      <rects>
        <_>
          21 0 2 6 -1.</_>
        <_>
          22 0 1 6 2.</_></rects>
      <tilted>0</tilted></_>
    <_>
      <rects>
        <_>
          21 3 8 2 -1.</_>
        <_>
          21 4 8 1 2.</_></rects>
      <tilted>0</tilted></_>
    <_>
      <rects>
        <_>
          21 6 1 2 -1.</_>
        <_>
          21 7 1 1 2.</_></rects>
      <tilted>0</tilted></_>
    <_>
      <rects>
        <_>
          21 15 8 2 -1.</_>
        <_>
          21 16 8 1 2.</_></rects>
      <tilted>0</tilted></_>
    <_>
      <rects>
        <_>
          22 0 2 5 -1.</_>
        <_>
          23 0 1 5 2.</_></rects>
      <tilted>0</tilted></_>
    <_>
      <rects>
        <_>
          22 5 7 2 -1.</_>
        <_>
          22 6 7 1 2.</_></rects>
      <tilted>0</tilted></_>
    <_>
      <rects>
        <_>
          22 15 22 12 -1.</_>
        <_>
          22 15 11 6 2.</_>
        <_>
          33 21 11 6 2.</_></rects>
      <tilted>0</tilted></_>
    <_>
      <rects>
        <_>
          22 16 2 9 -1.</_>
        <_>
          23 16 1 9 2.</_></rects>
      <tilted>0</tilted></_>
    <_>
      <rects>
        <_>
          22 18 26 8 -1.</_>
        <_>
          35 18 13 8 2.</_></rects>
      <tilted>0</tilted></_>
    <_>
      <rects>
        <_>
          22 23 6 3 -1.</_>
        <_>
          24 23 2 3 2.</_></rects>
      <tilted>0</tilted></_>
    <_>
      <rects>
        <_>
          22 24 8 3 -1.</_>
        <_>
          26 24 4 3 2.</_></rects>
      <tilted>0</tilted></_>
    <_>
      <rects>
        <_>
          23 3 2 8 -1.</_>
        <_>
          23 7 2 4 2.</_></rects>
      <tilted>0</tilted></_>
    <_>
      <rects>
        <_>
          23 23 22 4 -1.</_>
        <_>
          23 23 11 2 2.</_>
        <_>
          34 25 11 2 2.</_></rects>
      <tilted>0</tilted></_>
    <_>
      <rects>
        <_>
          25 17 2 2 -1.</_>
        <_>
          25 18 2 1 2.</_></rects>
      <tilted>0</tilted></_>
    <_>
      <rects>
        <_>
          25 23 8 4 -1.</_>
        <_>
          29 23 4 4 2.</_></rects>
      <tilted>0</tilted></_>
    <_>
      <rects>
        <_>
          26 0 4 12 -1.</_>
        <_>
          26 6 4 6 2.</_></rects>
      <tilted>0</tilted></_>
    <_>
      <rects>
        <_>
          26 6 8 15 -1.</_>
        <_>
          26 11 8 5 2.</_></rects>
      <tilted>0</tilted></_>
    <_>
      <rects>
        <_>
          26 13 1 2 -1.</_>
        <_>
          26 14 1 1 2.</_></rects>
      <tilted>0</tilted></_>
    <_>
      <rects>
        <_>
          26 13 18 2 -1.</_>
        <_>
          35 13 9 2 2.</_></rects>
      <tilted>0</tilted></_>
    <_>
      <rects>
        <_>
          26 15 3 5 -1.</_>
        <_>
          27 15 1 5 2.</_></rects>
      <tilted>0</tilted></_>
    <_>
      <rects>
        <_>
          28 2 20 9 -1.</_>
        <_>
          38 2 10 9 2.</_></rects>
      <tilted>0</tilted></_>
    <_>
      <rects>
        <_>
          28 3 8 2 -1.</_>
        <_>
          28 3 4 1 2.</_>
        <_>
          32 4 4 1 2.</_></rects>
      <tilted>0</tilted></_>
    <_>
      <rects>
        <_>
          28 24 14 2 -1.</_>
        <_>
          28 24 7 1 2.</_>
        <_>
          35 25 7 1 2.</_></rects>
      <tilted>0</tilted></_>
    <_>
      <rects>
        <_>
          29 3 14 17 -1.</_>
        <_>
          36 3 7 17 2.</_></rects>
      <tilted>0</tilted></_>
    <_>
      <rects>
        <_>
          29 13 6 2 -1.</_>
        <_>
          29 13 3 1 2.</_>
        <_>
          32 14 3 1 2.</_></rects>
      <tilted>0</tilted></_>
    <_>
      <rects>
        <_>
          29 15 2 4 -1.</_>
        <_>
          29 17 2 2 2.</_></rects>
      <tilted>0</tilted></_>
    <_>
      <rects>
        <_>
          29 21 13 6 -1.</_>
        <_>
          29 24 13 3 2.</_></rects>
      <tilted>0</tilted></_>
    <_>
      <rects>
        <_>
          30 2 8 2 -1.</_>
        <_>
          30 2 4 1 2.</_>
        <_>
          34 3 4 1 2.</_></rects>
      <tilted>0</tilted></_>
    <_>
      <rects>
        <_>
          30 8 10 2 -1.</_>
        <_>
          35 8 5 2 2.</_></rects>
      <tilted>0</tilted></_>
    <_>
      <rects>
        <_>
          30 25 18 2 -1.</_>
        <_>
          39 25 9 2 2.</_></rects>
      <tilted>0</tilted></_>
    <_>
      <rects>
        <_>
          31 0 13 2 -1.</_>
        <_>
          31 1 13 1 2.</_></rects>
      <tilted>0</tilted></_>
    <_>
      <rects>
        <_>
          32 0 10 16 -1.</_>
        <_>
          32 0 5 8 2.</_>
        <_>
          37 8 5 8 2.</_></rects>
      <tilted>0</tilted></_>
    <_>
      <rects>
        <_>
          32 23 3 4 -1.</_>
        <_>
          32 25 3 2 2.</_></rects>
      <tilted>0</tilted></_>
    <_>
      <rects>
        <_>
          32 24 2 3 -1.</_>
        <_>
          33 24 1 3 2.</_></rects>
      <tilted>0</tilted></_>
    <_>
      <rects>
        <_>
          32 25 16 2 -1.</_>
        <_>
          40 25 8 2 2.</_></rects>
      <tilted>0</tilted></_>
    <_>
      <rects>
        <_>
          33 5 6 17 -1.</_>
        <_>
          36 5 3 17 2.</_></rects>
      <tilted>0</tilted></_>
    <_>
      <rects>
        <_>
          33 7 10 8 -1.</_>
        <_>
          38 7 5 8 2.</_></rects>
      <tilted>0</tilted></_>
    <_>
      <rects>
        <_>
          33 23 13 4 -1.</_>
        <_>
          33 25 13 2 2.</_></rects>
      <tilted>0</tilted></_>
    <_>
      <rects>
        <_>
          34 7 12 4 -1.</_>
        <_>
          34 7 6 2 2.</_>
        <_>
          40 9 6 2 2.</_></rects>
      <tilted>0</tilted></_>
    <_>
      <rects>
        <_>
          34 9 9 2 -1.</_>
        <_>
          34 10 9 1 2.</_></rects>
      <tilted>0</tilted></_>
    <_>
      <rects>
        <_>
          34 11 14 4 -1.</_>
        <_>
          34 13 14 2 2.</_></rects>
      <tilted>0</tilted></_>
    <_>
      <rects>
        <_>
          34 23 11 4 -1.</_>
        <_>
          34 25 11 2 2.</_></rects>
      <tilted>0</tilted></_>
    <_>
      <rects>
        <_>
          34 24 2 3 -1.</_>
        <_>
          35 24 1 3 2.</_></rects>
      <tilted>0</tilted></_>
    <_>
      <rects>
        <_>
          34 24 4 3 -1.</_>
        <_>
          36 24 2 3 2.</_></rects>
      <tilted>0</tilted></_>
    <_>
      <rects>
        <_>
          35 9 7 4 -1.</_>
        <_>
          35 11 7 2 2.</_></rects>
      <tilted>0</tilted></_>
    <_>
      <rects>
        <_>
          35 21 2 6 -1.</_>
        <_>
          36 21 1 6 2.</_></rects>
      <tilted>0</tilted></_>
    <_>
      <rects>
        <_>
          35 22 4 5 -1.</_>
        <_>
          37 22 2 5 2.</_></rects>
      <tilted>0</tilted></_>
    <_>
      <rects>
        <_>
          36 9 12 9 -1.</_>
        <_>
          42 9 6 9 2.</_></rects>
      <tilted>0</tilted></_>
    <_>
      <rects>
        <_>
          36 11 1 2 -1.</_>
        <_>
          36 12 1 1 2.</_></rects>
      <tilted>0</tilted></_>
    <_>
      <rects>
        <_>
          38 12 5 2 -1.</_>
        <_>
          38 13 5 1 2.</_></rects>
      <tilted>0</tilted></_>
    <_>
      <rects>
        <_>
          38 17 10 10 -1.</_>
        <_>
          38 17 5 5 2.</_>
        <_>
          43 22 5 5 2.</_></rects>
      <tilted>0</tilted></_>
    <_>
      <rects>
        <_>
          39 12 8 3 -1.</_>
        <_>
          43 12 4 3 2.</_></rects>
      <tilted>0</tilted></_>
    <_>
      <rects>
        <_>
          40 3 8 12 -1.</_>
        <_>
          44 3 4 12 2.</_></rects>
      <tilted>0</tilted></_>
    <_>
      <rects>
        <_>
          40 15 8 6 -1.</_>
        <_>
          44 15 4 6 2.</_></rects>
      <tilted>0</tilted></_>
    <_>
      <rects>
        <_>
          40 17 8 10 -1.</_>
        <_>
          40 17 4 5 2.</_>
        <_>
          44 22 4 5 2.</_></rects>
      <tilted>0</tilted></_>
    <_>
      <rects>
        <_>
          40 19 8 6 -1.</_>
        <_>
          40 19 4 3 2.</_>
        <_>
          44 22 4 3 2.</_></rects>
      <tilted>0</tilted></_>
    <_>
      <rects>
        <_>
          41 5 6 21 -1.</_>
        <_>
          44 5 3 21 2.</_></rects>
      <tilted>0</tilted></_>
    <_>
      <rects>
        <_>
          41 13 4 2 -1.</_>
        <_>
          41 14 4 1 2.</_></rects>
      <tilted>0</tilted></_>
    <_>
      <rects>
        <_>
          41 14 6 7 -1.</_>
        <_>
          44 14 3 7 2.</_></rects>
      <tilted>0</tilted></_>
    <_>
      <rects>
        <_>
          41 15 7 2 -1.</_>
        <_>
          41 16 7 1 2.</_></rects>
      <tilted>0</tilted></_>
    <_>
      <rects>
        <_>
          41 24 6 3 -1.</_>
        <_>
          44 24 3 3 2.</_></rects>
      <tilted>0</tilted></_>
    <_>
      <rects>
        <_>
          41 25 7 2 -1.</_>
        <_>
          41 26 7 1 2.</_></rects>
      <tilted>0</tilted></_>
    <_>
      <rects>
        <_>
          42 0 6 26 -1.</_>
        <_>
          42 13 6 13 2.</_></rects>
      <tilted>0</tilted></_>
    <_>
      <rects>
        <_>
          42 3 6 24 -1.</_>
        <_>
          45 3 3 24 2.</_></rects>
      <tilted>0</tilted></_>
    <_>
      <rects>
        <_>
          42 5 6 11 -1.</_>
        <_>
          45 5 3 11 2.</_></rects>
      <tilted>0</tilted></_>
    <_>
      <rects>
        <_>
          42 12 6 2 -1.</_>
        <_>
          45 12 3 2 2.</_></rects>
      <tilted>0</tilted></_>
    <_>
      <rects>
        <_>
          42 21 4 2 -1.</_>
        <_>
          42 21 2 1 2.</_>
        <_>
          44 22 2 1 2.</_></rects>
      <tilted>0</tilted></_>
    <_>
      <rects>
        <_>
          43 0 4 14 -1.</_>
        <_>
          43 0 2 7 2.</_>
        <_>
          45 7 2 7 2.</_></rects>
      <tilted>0</tilted></_>
    <_>
      <rects>
        <_>
          43 8 5 6 -1.</_>
        <_>
          43 11 5 3 2.</_></rects>
      <tilted>0</tilted></_>
    <_>
      <rects>
        <_>
          43 17 2 6 -1.</_>
        <_>
          43 17 1 3 2.</_>
        <_>
          44 20 1 3 2.</_></rects>
      <tilted>0</tilted></_>
    <_>
      <rects>
        <_>
          43 25 2 2 -1.</_>
        <_>
          44 25 1 2 2.</_></rects>
      <tilted>0</tilted></_>
    <_>
      <rects>
        <_>
          44 2 2 12 -1.</_>
        <_>
          45 2 1 12 2.</_></rects>
      <tilted>0</tilted></_>
    <_>
      <rects>
        <_>
          44 2 4 10 -1.</_>
        <_>
          44 2 2 5 2.</_>
        <_>
          46 7 2 5 2.</_></rects>
      <tilted>0</tilted></_>
    <_>
      <rects>
        <_>
          44 4 2 4 -1.</_>
        <_>
          44 4 1 2 2.</_>
        <_>
          45 6 1 2 2.</_></rects>
      <tilted>0</tilted></_>
    <_>
      <rects>
        <_>
          44 12 4 6 -1.</_>
        <_>
          46 12 2 6 2.</_></rects>
      <tilted>0</tilted></_>
    <_>
      <rects>
        <_>
          44 13 4 14 -1.</_>
        <_>
          44 13 2 7 2.</_>
        <_>
          46 20 2 7 2.</_></rects>
      <tilted>0</tilted></_>
    <_>
      <rects>
        <_>
          44 15 2 10 -1.</_>
        <_>
          44 15 1 5 2.</_>
        <_>
          45 20 1 5 2.</_></rects>
      <tilted>0</tilted></_>
    <_>
      <rects>
        <_>
          44 15 4 8 -1.</_>
        <_>
          46 15 2 8 2.</_></rects>
      <tilted>0</tilted></_>
    <_>
      <rects>
        <_>
          44 17 2 6 -1.</_>
        <_>
          44 17 1 3 2.</_>
        <_>
          45 20 1 3 2.</_></rects>
      <tilted>0</tilted></_>
    <_>
      <rects>
        <_>
          44 17 4 8 -1.</_>
        <_>
          44 17 2 4 2.</_>
        <_>
          46 21 2 4 2.</_></rects>
      <tilted>0</tilted></_>
    <_>
      <rects>
        <_>
          44 24 4 2 -1.</_>
        <_>
          46 24 2 2 2.</_></rects>
      <tilted>0</tilted></_>
    <_>
      <rects>
        <_>
          45 3 2 8 -1.</_>
        <_>
          45 3 1 4 2.</_>
        <_>
          46 7 1 4 2.</_></rects>
      <tilted>0</tilted></_>
    <_>
      <rects>
        <_>
          45 17 2 4 -1.</_>
        <_>
          45 17 1 2 2.</_>
        <_>
          46 19 1 2 2.</_></rects>
      <tilted>0</tilted></_>
    <_>
      <rects>
        <_>
          46 2 2 2 -1.</_>
        <_>
          46 3 2 1 2.</_></rects>
      <tilted>0</tilted></_>
    <_>
      <rects>
        <_>
          46 16 2 4 -1.</_>
        <_>
          47 16 1 4 2.</_></rects>
      <tilted>0</tilted></_>
    <_>
      <rects>
        <_>
          46 24 2 2 -1.</_>
        <_>
          47 24 1 2 2.</_></rects>
      <tilted>0</tilted></_>
    <_>
      <rects>
        <_>
          47 1 1 26 -1.</_>
        <_>
          47 14 1 13 2.</_></rects>
      <tilted>0</tilted></_>
    <_>
      <rects>
        <_>
          47 15 1 12 -1.</_>
        <_>
          47 19 1 4 2.</_></rects>
      <tilted>0</tilted></_></features></cascade>
</opencv_storage>
