<?xml version="1.0"?>
<opencv_storage>
<stage11>
  <maxWeakCount>29</maxWeakCount>
  <stageThreshold>-1.6516314744949341e+00</stageThreshold>
  <weakClassifiers>
    <_>
      <internalNodes>
        0 -1 739491 4.5332416892051697e-02</internalNodes>
      <leafValues>
        -7.3995834589004517e-01 -9.3525178730487823e-02</leafValues></_>
    <_>
      <internalNodes>
        0 -1 130291 -7.8934099292382598e-05</internalNodes>
      <leafValues>
        -3.4217908978462219e-02 -4.3383428454399109e-01</leafValues></_>
    <_>
      <internalNodes>
        0 -1 452676 2.5264178402721882e-03</internalNodes>
      <leafValues>
        -1.9884480535984039e-01 1.9278351962566376e-01</leafValues></_>
    <_>
      <internalNodes>
        0 -1 556422 -1.7769318073987961e-02</internalNodes>
      <leafValues>
        3.3327177166938782e-01 -1.2893536686897278e-01</leafValues></_>
    <_>
      <internalNodes>
        0 -1 536951 1.9787889905273914e-03</internalNodes>
      <leafValues>
        -1.6551940143108368e-01 2.5101861357688904e-01</leafValues></_>
    <_>
      <internalNodes>
        0 -1 93412 3.8804253563284874e-04</internalNodes>
      <leafValues>
        1.2041509896516800e-01 -4.5742493867874146e-01</leafValues></_>
    <_>
      <internalNodes>
        0 -1 61903 3.7495739525184035e-04</internalNodes>
      <leafValues>
        -1.4922858774662018e-01 3.1165531277656555e-01</leafValues></_>
    <_>
      <internalNodes>
        0 -1 33919 -2.1296183113008738e-03</internalNodes>
      <leafValues>
        3.1720709800720215e-01 -1.2121784687042236e-01</leafValues></_>
    <_>
      <internalNodes>
        0 -1 547049 4.3143130838871002e-02</internalNodes>
      <leafValues>
        -7.2510503232479095e-02 5.9576678276062012e-01</leafValues></_>
    <_>
      <internalNodes>
        0 -1 330393 6.9494126364588737e-03</internalNodes>
      <leafValues>
        7.6322399079799652e-02 -5.4031991958618164e-01</leafValues></_>
    <_>
      <internalNodes>
        0 -1 33810 -3.2106519211083651e-04</internalNodes>
      <leafValues>
        1.6205836832523346e-01 -2.4023756384849548e-01</leafValues></_>
    <_>
      <internalNodes>
        0 -1 505350 1.3588851317763329e-02</internalNodes>
      <leafValues>
        -8.0826498568058014e-02 5.1028096675872803e-01</leafValues></_>
    <_>
      <internalNodes>
        0 -1 147479 -9.9030416458845139e-03</internalNodes>
      <leafValues>
        2.9699313640594482e-01 -1.3650591671466827e-01</leafValues></_>
    <_>
      <internalNodes>
        0 -1 193273 -2.8675850480794907e-03</internalNodes>
      <leafValues>
        6.4186292886734009e-01 -5.4945178329944611e-02</leafValues></_>
    <_>
      <internalNodes>
        0 -1 202853 3.2271564006805420e-02</internalNodes>
      <leafValues>
        -8.4106206893920898e-02 4.7434046864509583e-01</leafValues></_>
    <_>
      <internalNodes>
        0 -1 803097 6.4929727159324102e-06</internalNodes>
      <leafValues>
        -2.5040239095687866e-01 1.5383112430572510e-01</leafValues></_>
    <_>
      <internalNodes>
        0 -1 769506 1.3375779613852501e-02</internalNodes>
      <leafValues>
        -1.4651656150817871e-01 2.7694544196128845e-01</leafValues></_>
    <_>
      <internalNodes>
        0 -1 791458 -2.4069878272712231e-03</internalNodes>
      <leafValues>
        2.9908233880996704e-01 -1.7552720010280609e-01</leafValues></_>
    <_>
      <internalNodes>
        0 -1 405487 3.0870232731103897e-03</internalNodes>
      <leafValues>
        -1.1429972946643829e-01 3.5797834396362305e-01</leafValues></_>
    <_>
      <internalNodes>
        0 -1 304617 -2.6287235319614410e-02</internalNodes>
      <leafValues>
        3.0887356400489807e-01 -1.3347296416759491e-01</leafValues></_>
    <_>
      <internalNodes>
        0 -1 481937 2.0448039285838604e-03</internalNodes>
      <leafValues>
        -1.3889133930206299e-01 3.3897235989570618e-01</leafValues></_>
    <_>
      <internalNodes>
        0 -1 592270 3.1332828104496002e-02</internalNodes>
      <leafValues>
        -1.8282137811183929e-01 2.1671779453754425e-01</leafValues></_>
    <_>
      <internalNodes>
        0 -1 802337 1.8606667872518301e-03</internalNodes>
      <leafValues>
        5.3154174238443375e-02 -7.2919845581054688e-01</leafValues></_>
    <_>
      <internalNodes>
        0 -1 536866 -1.5427672769874334e-03</internalNodes>
      <leafValues>
        -5.9273833036422729e-01 5.9234533458948135e-02</leafValues></_>
    <_>
      <internalNodes>
        0 -1 809925 -2.4100099690258503e-03</internalNodes>
      <leafValues>
        6.7284351587295532e-01 -7.2096504271030426e-02</leafValues></_>
    <_>
      <internalNodes>
        0 -1 556701 6.1566522344946861e-04</internalNodes>
      <leafValues>
        8.1915952265262604e-02 -5.5045759677886963e-01</leafValues></_>
    <_>
      <internalNodes>
        0 -1 810810 -4.8402417451143265e-03</internalNodes>
      <leafValues>
        3.7781003117561340e-01 -1.1318121850490570e-01</leafValues></_>
    <_>
      <internalNodes>
        0 -1 24712 7.4511591810733080e-04</internalNodes>
      <leafValues>
        -1.5131665766239166e-01 2.7532732486724854e-01</leafValues></_>
    <_>
      <internalNodes>
        0 -1 496079 -3.4922990016639233e-03</internalNodes>
      <leafValues>
        4.1517353057861328e-01 -9.2524610459804535e-02</leafValues></_></weakClassifiers></stage11>
</opencv_storage>
