<?xml version="1.0"?>
<opencv_storage>
<stage3>
  <maxWeakCount>16</maxWeakCount>
  <stageThreshold>-1.8746869564056396e+00</stageThreshold>
  <weakClassifiers>
    <_>
      <internalNodes>
        0 -1 129790 3.2045990228652954e-02</internalNodes>
      <leafValues>
        -7.7998715639114380e-01 -1.7801047861576080e-01</leafValues></_>
    <_>
      <internalNodes>
        0 -1 536494 -2.6953555643558502e-02</internalNodes>
      <leafValues>
        3.4180369973182678e-01 -3.7971919775009155e-01</leafValues></_>
    <_>
      <internalNodes>
        0 -1 17 -1.2108936905860901e-02</internalNodes>
      <leafValues>
        2.6268959045410156e-01 -3.9700990915298462e-01</leafValues></_>
    <_>
      <internalNodes>
        0 -1 572430 2.2382920724339783e-04</internalNodes>
      <leafValues>
        1.6062094271183014e-01 -4.7105774283409119e-01</leafValues></_>
    <_>
      <internalNodes>
        0 -1 810314 -3.2386105158366263e-04</internalNodes>
      <leafValues>
        -6.2335419654846191e-01 1.4577157795429230e-01</leafValues></_>
    <_>
      <internalNodes>
        0 -1 18706 -7.4637770652770996e-02</internalNodes>
      <leafValues>
        5.1603615283966064e-02 -9.3131971359252930e-01</leafValues></_>
    <_>
      <internalNodes>
        0 -1 590982 -6.0223200125619769e-04</internalNodes>
      <leafValues>
        -5.8729231357574463e-01 1.3614529371261597e-01</leafValues></_>
    <_>
      <internalNodes>
        0 -1 643487 -4.9328166060149670e-03</internalNodes>
      <leafValues>
        -7.0832258462905884e-01 8.3821512758731842e-02</leafValues></_>
    <_>
      <internalNodes>
        0 -1 650356 -1.0289762914180756e-01</internalNodes>
      <leafValues>
        -2.5281998515129089e-01 2.8801137208938599e-01</leafValues></_>
    <_>
      <internalNodes>
        0 -1 199659 -1.4145491644740105e-02</internalNodes>
      <leafValues>
        6.8159145116806030e-01 -1.1518094688653946e-01</leafValues></_>
    <_>
      <internalNodes>
        0 -1 130731 2.1332949399948120e-03</internalNodes>
      <leafValues>
        1.7184373736381531e-01 -5.0258439779281616e-01</leafValues></_>
    <_>
      <internalNodes>
        0 -1 357844 -2.4103194475173950e-02</internalNodes>
      <leafValues>
        7.3256063461303711e-01 -1.1686311662197113e-01</leafValues></_>
    <_>
      <internalNodes>
        0 -1 764239 -2.1137860603630543e-03</internalNodes>
      <leafValues>
        -7.1229082345962524e-01 1.2396420538425446e-01</leafValues></_>
    <_>
      <internalNodes>
        0 -1 68630 1.7397046089172363e-02</internalNodes>
      <leafValues>
        -2.0214454829692841e-01 3.9746129512786865e-01</leafValues></_>
    <_>
      <internalNodes>
        0 -1 27179 -6.8428865633904934e-03</internalNodes>
      <leafValues>
        4.5221796631813049e-01 -1.5518909692764282e-01</leafValues></_>
    <_>
      <internalNodes>
        0 -1 802002 2.5825458578765392e-04</internalNodes>
      <leafValues>
        1.6316939890384674e-01 -4.7035348415374756e-01</leafValues></_></weakClassifiers></stage3>
</opencv_storage>
