<?xml version="1.0"?>
<opencv_storage>
<stage14>
  <maxWeakCount>30</maxWeakCount>
  <stageThreshold>-1.6131031513214111e+00</stageThreshold>
  <weakClassifiers>
    <_>
      <internalNodes>
        0 -1 284906 1.1259838938713074e-02</internalNodes>
      <leafValues>
        -7.2735166549682617e-01 2.8888890147209167e-01</leafValues></_>
    <_>
      <internalNodes>
        0 -1 812726 9.2784105800092220e-04</internalNodes>
      <leafValues>
        -2.6813992857933044e-01 2.1939757466316223e-01</leafValues></_>
    <_>
      <internalNodes>
        0 -1 161054 1.4916558284312487e-03</internalNodes>
      <leafValues>
        3.8870748132467270e-02 -7.3447984457015991e-01</leafValues></_>
    <_>
      <internalNodes>
        0 -1 803098 -2.4744099937379360e-04</internalNodes>
      <leafValues>
        -5.7549303770065308e-01 6.9620072841644287e-02</leafValues></_>
    <_>
      <internalNodes>
        0 -1 812654 -2.9938161605969071e-04</internalNodes>
      <leafValues>
        3.0724918842315674e-01 -1.0447425395250320e-01</leafValues></_>
    <_>
      <internalNodes>
        0 -1 30707 -1.2427087128162384e-01</internalNodes>
      <leafValues>
        7.5749240815639496e-02 -4.2110970616340637e-01</leafValues></_>
    <_>
      <internalNodes>
        0 -1 811073 7.2039605583995581e-04</internalNodes>
      <leafValues>
        -9.2204637825489044e-02 3.7924292683601379e-01</leafValues></_>
    <_>
      <internalNodes>
        0 -1 816012 -1.1001729581039399e-04</internalNodes>
      <leafValues>
        -4.1900378465652466e-01 8.4275849163532257e-02</leafValues></_>
    <_>
      <internalNodes>
        0 -1 32113 -2.7456670068204403e-04</internalNodes>
      <leafValues>
        -5.1183062791824341e-01 7.2171874344348907e-02</leafValues></_>
    <_>
      <internalNodes>
        0 -1 731039 1.5313641633838415e-03</internalNodes>
      <leafValues>
        -1.3895696401596069e-01 2.4255949258804321e-01</leafValues></_>
    <_>
      <internalNodes>
        0 -1 365629 9.5642849802970886e-02</internalNodes>
      <leafValues>
        -9.7385823726654053e-02 3.8953569531440735e-01</leafValues></_>
    <_>
      <internalNodes>
        0 -1 611052 2.4353126063942909e-03</internalNodes>
      <leafValues>
        -1.0312370210886002e-01 3.0831101536750793e-01</leafValues></_>
    <_>
      <internalNodes>
        0 -1 161247 -1.3388283550739288e-02</internalNodes>
      <leafValues>
        -7.7478694915771484e-01 4.1552390903234482e-02</leafValues></_>
    <_>
      <internalNodes>
        0 -1 132594 -1.2211961438879371e-03</internalNodes>
      <leafValues>
        3.9435404539108276e-01 -9.3371294438838959e-02</leafValues></_>
    <_>
      <internalNodes>
        0 -1 101370 1.5728406142443419e-03</internalNodes>
      <leafValues>
        -9.9055826663970947e-02 3.5960564017295837e-01</leafValues></_>
    <_>
      <internalNodes>
        0 -1 13774 1.9387587904930115e-02</internalNodes>
      <leafValues>
        1.0489201545715332e-01 -3.5762840509414673e-01</leafValues></_>
    <_>
      <internalNodes>
        0 -1 61912 1.5851007774472237e-03</internalNodes>
      <leafValues>
        -7.7489338815212250e-02 4.9030289053916931e-01</leafValues></_>
    <_>
      <internalNodes>
        0 -1 23486 -4.0814056992530823e-03</internalNodes>
      <leafValues>
        -4.7723999619483948e-01 7.1029968559741974e-02</leafValues></_>
    <_>
      <internalNodes>
        0 -1 96568 -2.1631023846566677e-03</internalNodes>
      <leafValues>
        2.9705572128295898e-01 -1.1413286626338959e-01</leafValues></_>
    <_>
      <internalNodes>
        0 -1 417135 -6.3605145551264286e-03</internalNodes>
      <leafValues>
        5.6156802177429199e-01 -5.5974718183279037e-02</leafValues></_>
    <_>
      <internalNodes>
        0 -1 541658 -3.2533369958400726e-02</internalNodes>
      <leafValues>
        -4.8089990019798279e-01 7.6557509601116180e-02</leafValues></_>
    <_>
      <internalNodes>
        0 -1 107520 2.9186480678617954e-03</internalNodes>
      <leafValues>
        -1.0997037589550018e-01 3.1341016292572021e-01</leafValues></_>
    <_>
      <internalNodes>
        0 -1 2816 -7.4509712867438793e-03</internalNodes>
      <leafValues>
        2.8553104400634766e-01 -1.1756639927625656e-01</leafValues></_>
    <_>
      <internalNodes>
        0 -1 384273 -7.5678471475839615e-03</internalNodes>
      <leafValues>
        2.8104636073112488e-01 -1.2291990220546722e-01</leafValues></_>
    <_>
      <internalNodes>
        0 -1 801685 1.1689120437949896e-03</internalNodes>
      <leafValues>
        6.7853458225727081e-02 -5.4234170913696289e-01</leafValues></_>
    <_>
      <internalNodes>
        0 -1 576087 2.9089271556586027e-03</internalNodes>
      <leafValues>
        5.5736053735017776e-02 -5.3342455625534058e-01</leafValues></_>
    <_>
      <internalNodes>
        0 -1 613655 1.6536593902856112e-03</internalNodes>
      <leafValues>
        7.0172175765037537e-02 -4.5076489448547363e-01</leafValues></_>
    <_>
      <internalNodes>
        0 -1 764370 1.9663684070110321e-03</internalNodes>
      <leafValues>
        -1.4483831822872162e-01 2.4003751575946808e-01</leafValues></_>
    <_>
      <internalNodes>
        0 -1 803989 -4.3651706073433161e-04</internalNodes>
      <leafValues>
        4.5036482810974121e-01 -7.3016308248043060e-02</leafValues></_>
    <_>
      <internalNodes>
        0 -1 269457 -8.5671581327915192e-03</internalNodes>
      <leafValues>
        2.6354578137397766e-01 -1.2250668555498123e-01</leafValues></_></weakClassifiers></stage14>
</opencv_storage>
