<?xml version="1.0"?>
<opencv_storage>
<stage8>
  <maxWeakCount>25</maxWeakCount>
  <stageThreshold>-1.8395572900772095e+00</stageThreshold>
  <weakClassifiers>
    <_>
      <internalNodes>
        0 -1 313747 8.2842996343970299e-03</internalNodes>
      <leafValues>
        -7.3956793546676636e-01 -8.2644624635577202e-03</leafValues></_>
    <_>
      <internalNodes>
        0 -1 414440 -4.4094799086451530e-03</internalNodes>
      <leafValues>
        3.4471008181571960e-01 -2.9008728265762329e-01</leafValues></_>
    <_>
      <internalNodes>
        0 -1 735820 1.2343951966613531e-03</internalNodes>
      <leafValues>
        -3.3439293503761292e-01 1.7403841018676758e-01</leafValues></_>
    <_>
      <internalNodes>
        0 -1 735616 2.0291060209274292e-03</internalNodes>
      <leafValues>
        -1.5033179521560669e-01 3.3122089505195618e-01</leafValues></_>
    <_>
      <internalNodes>
        0 -1 802152 -7.5819306075572968e-03</internalNodes>
      <leafValues>
        3.7417787313461304e-01 -1.4495137333869934e-01</leafValues></_>
    <_>
      <internalNodes>
        0 -1 24699 -2.0783306099474430e-03</internalNodes>
      <leafValues>
        4.8776334524154663e-01 -1.0970338433980942e-01</leafValues></_>
    <_>
      <internalNodes>
        0 -1 89258 -4.2882999405264854e-03</internalNodes>
      <leafValues>
        -5.7217538356781006e-01 9.2332862317562103e-02</leafValues></_>
    <_>
      <internalNodes>
        0 -1 136772 1.0396915022283792e-03</internalNodes>
      <leafValues>
        -9.1323263943195343e-02 4.3807321786880493e-01</leafValues></_>
    <_>
      <internalNodes>
        0 -1 507137 -6.7603570641949773e-05</internalNodes>
      <leafValues>
        -3.2903632521629333e-01 1.4400643110275269e-01</leafValues></_>
    <_>
      <internalNodes>
        0 -1 107435 -3.4548991243354976e-04</internalNodes>
      <leafValues>
        3.4034404158592224e-01 -1.3303722441196442e-01</leafValues></_>
    <_>
      <internalNodes>
        0 -1 655017 6.9426918344106525e-05</internalNodes>
      <leafValues>
        1.0763493180274963e-01 -4.0463304519653320e-01</leafValues></_>
    <_>
      <internalNodes>
        0 -1 357850 -2.6118688285350800e-02</internalNodes>
      <leafValues>
        2.8574478626251221e-01 -1.7388726770877838e-01</leafValues></_>
    <_>
      <internalNodes>
        0 -1 803408 1.6699710860848427e-02</internalNodes>
      <leafValues>
        1.2290580570697784e-01 -3.7784770131111145e-01</leafValues></_>
    <_>
      <internalNodes>
        0 -1 398850 2.1731061860918999e-02</internalNodes>
      <leafValues>
        -1.6140681505203247e-01 2.8730055689811707e-01</leafValues></_>
    <_>
      <internalNodes>
        0 -1 151776 4.3159693479537964e-02</internalNodes>
      <leafValues>
        -8.9914806187152863e-02 6.1462169885635376e-01</leafValues></_>
    <_>
      <internalNodes>
        0 -1 276858 1.2711023446172476e-03</internalNodes>
      <leafValues>
        -2.0406721532344818e-01 2.2442893683910370e-01</leafValues></_>
    <_>
      <internalNodes>
        0 -1 813422 -1.8706882838159800e-03</internalNodes>
      <leafValues>
        5.1371568441390991e-01 -9.3685783445835114e-02</leafValues></_>
    <_>
      <internalNodes>
        0 -1 752758 -5.9865210205316544e-03</internalNodes>
      <leafValues>
        -5.1185965538024902e-01 9.6300713717937469e-02</leafValues></_>
    <_>
      <internalNodes>
        0 -1 785153 2.3377596517093480e-04</internalNodes>
      <leafValues>
        1.2152246385812759e-01 -4.2667269706726074e-01</leafValues></_>
    <_>
      <internalNodes>
        0 -1 809925 -1.9685118459165096e-03</internalNodes>
      <leafValues>
        6.7314720153808594e-01 -7.5008749961853027e-02</leafValues></_>
    <_>
      <internalNodes>
        0 -1 301793 -2.7543955948203802e-03</internalNodes>
      <leafValues>
        3.2611072063446045e-01 -1.2759351730346680e-01</leafValues></_>
    <_>
      <internalNodes>
        0 -1 561616 4.0684780105948448e-03</internalNodes>
      <leafValues>
        -7.9504281282424927e-02 5.2972912788391113e-01</leafValues></_>
    <_>
      <internalNodes>
        0 -1 812692 -2.0144893787801266e-03</internalNodes>
      <leafValues>
        3.6333650350570679e-01 -1.2914399802684784e-01</leafValues></_>
    <_>
      <internalNodes>
        0 -1 110096 7.9060792922973633e-02</internalNodes>
      <leafValues>
        -6.6388554871082306e-02 7.0643609762191772e-01</leafValues></_>
    <_>
      <internalNodes>
        0 -1 812361 4.4462401419878006e-03</internalNodes>
      <leafValues>
        -1.3666996359825134e-01 3.2898083329200745e-01</leafValues></_></weakClassifiers></stage8>
</opencv_storage>
