<?xml version="1.0"?>
<opencv_storage>
<stage12>
  <maxWeakCount>30</maxWeakCount>
  <stageThreshold>-1.6943403482437134e+00</stageThreshold>
  <weakClassifiers>
    <_>
      <internalNodes>
        0 -1 751505 1.0001986287534237e-02</internalNodes>
      <leafValues>
        -7.2795826196670532e-01 1.9230769574642181e-01</leafValues></_>
    <_>
      <internalNodes>
        0 -1 806964 -1.7880535451695323e-03</internalNodes>
      <leafValues>
        5.5140823125839233e-01 -2.3236741125583649e-01</leafValues></_>
    <_>
      <internalNodes>
        0 -1 28597 -2.2382754832506180e-03</internalNodes>
      <leafValues>
        -6.3016897439956665e-01 5.9720259159803391e-02</leafValues></_>
    <_>
      <internalNodes>
        0 -1 277302 1.2200323864817619e-02</internalNodes>
      <leafValues>
        7.6218381524085999e-02 -7.1413439512252808e-01</leafValues></_>
    <_>
      <internalNodes>
        0 -1 284606 -1.7584565794095397e-03</internalNodes>
      <leafValues>
        4.2217677831649780e-01 -9.8003007471561432e-02</leafValues></_>
    <_>
      <internalNodes>
        0 -1 356635 -4.4718021526932716e-03</internalNodes>
      <leafValues>
        -5.0942254066467285e-01 9.0772405266761780e-02</leafValues></_>
    <_>
      <internalNodes>
        0 -1 4905 -2.9814452864229679e-04</internalNodes>
      <leafValues>
        1.2724603712558746e-01 -2.5910943746566772e-01</leafValues></_>
    <_>
      <internalNodes>
        0 -1 373081 4.1748583316802979e-04</internalNodes>
      <leafValues>
        1.2181036174297333e-01 -3.2270282506942749e-01</leafValues></_>
    <_>
      <internalNodes>
        0 -1 124957 2.1236448083072901e-04</internalNodes>
      <leafValues>
        -1.6405291855335236e-01 2.0897164940834045e-01</leafValues></_>
    <_>
      <internalNodes>
        0 -1 814921 1.0803204495459795e-03</internalNodes>
      <leafValues>
        8.5851304233074188e-02 -3.9796403050422668e-01</leafValues></_>
    <_>
      <internalNodes>
        0 -1 674886 9.5134542789310217e-04</internalNodes>
      <leafValues>
        -1.0110357403755188e-01 3.7640005350112915e-01</leafValues></_>
    <_>
      <internalNodes>
        0 -1 250489 1.6347348690032959e-02</internalNodes>
      <leafValues>
        -8.8051967322826385e-02 3.8544565439224243e-01</leafValues></_>
    <_>
      <internalNodes>
        0 -1 453076 5.7331495918333530e-03</internalNodes>
      <leafValues>
        6.0326814651489258e-02 -5.7522422075271606e-01</leafValues></_>
    <_>
      <internalNodes>
        0 -1 242177 -4.1962903196690604e-05</internalNodes>
      <leafValues>
        1.3302521407604218e-01 -2.3934377729892731e-01</leafValues></_>
    <_>
      <internalNodes>
        0 -1 482779 -1.0802991688251495e-02</internalNodes>
      <leafValues>
        3.7773397564888000e-01 -9.0928383171558380e-02</leafValues></_>
    <_>
      <internalNodes>
        0 -1 80973 5.8062886819243431e-04</internalNodes>
      <leafValues>
        -6.5329492092132568e-02 5.6017869710922241e-01</leafValues></_>
    <_>
      <internalNodes>
        0 -1 54384 -6.7360568791627884e-03</internalNodes>
      <leafValues>
        -3.8681644201278687e-01 1.0424102842807770e-01</leafValues></_>
    <_>
      <internalNodes>
        0 -1 15415 -1.4330289559438825e-03</internalNodes>
      <leafValues>
        -5.9446293115615845e-01 5.5414337664842606e-02</leafValues></_>
    <_>
      <internalNodes>
        0 -1 73773 3.3658463507890701e-02</internalNodes>
      <leafValues>
        -9.6687197685241699e-02 4.1787916421890259e-01</leafValues></_>
    <_>
      <internalNodes>
        0 -1 810325 -4.4383041677065194e-04</internalNodes>
      <leafValues>
        -5.1982295513153076e-01 7.4016816914081573e-02</leafValues></_>
    <_>
      <internalNodes>
        0 -1 809915 -2.0707939984276891e-04</internalNodes>
      <leafValues>
        3.6280661821365356e-01 -1.0622873157262802e-01</leafValues></_>
    <_>
      <internalNodes>
        0 -1 776596 5.0216158851981163e-03</internalNodes>
      <leafValues>
        7.5024664402008057e-02 -4.7672018408775330e-01</leafValues></_>
    <_>
      <internalNodes>
        0 -1 497799 -2.2608945146203041e-03</internalNodes>
      <leafValues>
        2.4864864349365234e-01 -1.5107762813568115e-01</leafValues></_>
    <_>
      <internalNodes>
        0 -1 75317 4.4787419028580189e-04</internalNodes>
      <leafValues>
        -1.2329860776662827e-01 3.1241947412490845e-01</leafValues></_>
    <_>
      <internalNodes>
        0 -1 372188 6.8116620182991028e-02</internalNodes>
      <leafValues>
        -1.1876123398542404e-01 3.3518502116203308e-01</leafValues></_>
    <_>
      <internalNodes>
        0 -1 574978 2.8188677970319986e-03</internalNodes>
      <leafValues>
        6.9840244948863983e-02 -5.9436517953872681e-01</leafValues></_>
    <_>
      <internalNodes>
        0 -1 128591 1.2549725943244994e-04</internalNodes>
      <leafValues>
        -1.2687669694423676e-01 2.9790857434272766e-01</leafValues></_>
    <_>
      <internalNodes>
        0 -1 220273 2.0974327344447374e-03</internalNodes>
      <leafValues>
        -1.6007874906063080e-01 2.2213228046894073e-01</leafValues></_>
    <_>
      <internalNodes>
        0 -1 610807 -3.5892630694434047e-04</internalNodes>
      <leafValues>
        -4.8970836400985718e-01 7.1224182844161987e-02</leafValues></_>
    <_>
      <internalNodes>
        0 -1 802966 -4.9914221744984388e-04</internalNodes>
      <leafValues>
        3.7407034635543823e-01 -9.8565191030502319e-02</leafValues></_></weakClassifiers></stage12>
</opencv_storage>
