<?xml version="1.0"?>
<opencv_storage>
<stage5>
  <maxWeakCount>13</maxWeakCount>
  <stageThreshold>-1.8521606922149658e+00</stageThreshold>
  <weakClassifiers>
    <_>
      <internalNodes>
        0 -1 25955 -2.4708006531000137e-03</internalNodes>
      <leafValues>
        4.1322313249111176e-02 -7.7041131258010864e-01</leafValues></_>
    <_>
      <internalNodes>
        0 -1 11355 -2.1426379680633545e-03</internalNodes>
      <leafValues>
        4.1809943318367004e-01 -3.7628075480461121e-01</leafValues></_>
    <_>
      <internalNodes>
        0 -1 261417 -2.8944534063339233e-01</internalNodes>
      <leafValues>
        1.1304127424955368e-01 -9.1547650098800659e-01</leafValues></_>
    <_>
      <internalNodes>
        0 -1 702598 7.3945667827501893e-04</internalNodes>
      <leafValues>
        -1.6617466509342194e-01 5.0064766407012939e-01</leafValues></_>
    <_>
      <internalNodes>
        0 -1 140711 -2.6138923130929470e-03</internalNodes>
      <leafValues>
        4.4964334368705750e-01 -1.9469521939754486e-01</leafValues></_>
    <_>
      <internalNodes>
        0 -1 811073 7.0612167473882437e-04</internalNodes>
      <leafValues>
        -1.3021709024906158e-01 6.9685447216033936e-01</leafValues></_>
    <_>
      <internalNodes>
        0 -1 356341 -4.0186733007431030e-02</internalNodes>
      <leafValues>
        -8.7453061342239380e-01 1.1779277026653290e-01</leafValues></_>
    <_>
      <internalNodes>
        0 -1 812505 1.7729175742715597e-03</internalNodes>
      <leafValues>
        -1.8339133262634277e-01 5.7343983650207520e-01</leafValues></_>
    <_>
      <internalNodes>
        0 -1 812659 -4.0007871575653553e-04</internalNodes>
      <leafValues>
        4.7718942165374756e-01 -1.5072661638259888e-01</leafValues></_>
    <_>
      <internalNodes>
        0 -1 161248 -9.0769771486520767e-03</internalNodes>
      <leafValues>
        3.9904552698135376e-01 -1.8092043697834015e-01</leafValues></_>
    <_>
      <internalNodes>
        0 -1 807449 -5.7736835442483425e-03</internalNodes>
      <leafValues>
        5.2880913019180298e-01 -1.3771714270114899e-01</leafValues></_>
    <_>
      <internalNodes>
        0 -1 17144 7.7439839951694012e-03</internalNodes>
      <leafValues>
        -1.3569837808609009e-01 5.4193633794784546e-01</leafValues></_>
    <_>
      <internalNodes>
        0 -1 806121 1.9552242010831833e-03</internalNodes>
      <leafValues>
        -1.3584856688976288e-01 4.6383103728294373e-01</leafValues></_></weakClassifiers></stage5>
</opencv_storage>
