<?xml version="1.0"?>
<opencv_storage>
<stage2>
  <maxWeakCount>10</maxWeakCount>
  <stageThreshold>-1.7959742546081543e+00</stageThreshold>
  <weakClassifiers>
    <_>
      <internalNodes>
        0 -1 162039 -3.3456720411777496e-02</internalNodes>
      <leafValues>
        3.7037037312984467e-02 -7.6370280981063843e-01</leafValues></_>
    <_>
      <internalNodes>
        0 -1 713210 3.6839698441326618e-03</internalNodes>
      <leafValues>
        -5.0865203142166138e-01 1.2670530378818512e-01</leafValues></_>
    <_>
      <internalNodes>
        0 -1 537555 -5.3564406698569655e-04</internalNodes>
      <leafValues>
        -7.5007677078247070e-01 1.4277517795562744e-01</leafValues></_>
    <_>
      <internalNodes>
        0 -1 537545 5.2607199177145958e-04</internalNodes>
      <leafValues>
        1.9506534934043884e-01 -7.5512886047363281e-01</leafValues></_>
    <_>
      <internalNodes>
        0 -1 475208 -5.3131721913814545e-02</internalNodes>
      <leafValues>
        -8.9073204994201660e-01 7.6564617455005646e-02</leafValues></_>
    <_>
      <internalNodes>
        0 -1 794567 -1.8241267651319504e-02</internalNodes>
      <leafValues>
        4.4166490435600281e-01 -2.1277436614036560e-01</leafValues></_>
    <_>
      <internalNodes>
        0 -1 557169 -1.2067459756508470e-03</internalNodes>
      <leafValues>
        -9.1874790191650391e-01 1.1560528725385666e-01</leafValues></_>
    <_>
      <internalNodes>
        0 -1 31778 -1.4152623713016510e-02</internalNodes>
      <leafValues>
        2.9038190841674805e-01 -2.8968235850334167e-01</leafValues></_>
    <_>
      <internalNodes>
        0 -1 527697 -1.2379961553961039e-03</internalNodes>
      <leafValues>
        -5.9722560644149780e-01 1.5156918764114380e-01</leafValues></_>
    <_>
      <internalNodes>
        0 -1 812999 -1.1021453246939927e-04</internalNodes>
      <leafValues>
        -4.3677559494972229e-01 1.9010967016220093e-01</leafValues></_></weakClassifiers></stage2>
</opencv_storage>
