<?xml version="1.0"?>
<opencv_storage>
<stage16>
  <maxWeakCount>34</maxWeakCount>
  <stageThreshold>-1.6024818420410156e+00</stageThreshold>
  <weakClassifiers>
    <_>
      <internalNodes>
        0 -1 372849 -2.3290935903787613e-02</internalNodes>
      <leafValues>
        -9.8901100456714630e-02 -7.3071283102035522e-01</leafValues></_>
    <_>
      <internalNodes>
        0 -1 798493 2.7937314007431269e-03</internalNodes>
      <leafValues>
        -3.6041185259819031e-01 -1.9569305703043938e-02</leafValues></_>
    <_>
      <internalNodes>
        0 -1 372918 -6.9957658648490906e-02</internalNodes>
      <leafValues>
        4.6903513371944427e-02 -5.6954121589660645e-01</leafValues></_>
    <_>
      <internalNodes>
        0 -1 263422 -4.8238702118396759e-02</internalNodes>
      <leafValues>
        -7.8495584428310394e-02 3.7639364600181580e-01</leafValues></_>
    <_>
      <internalNodes>
        0 -1 646314 1.0554866166785359e-03</internalNodes>
      <leafValues>
        -1.2382622808218002e-01 2.7262365818023682e-01</leafValues></_>
    <_>
      <internalNodes>
        0 -1 433569 -9.5659255748614669e-04</internalNodes>
      <leafValues>
        2.4700532853603363e-01 -1.3174201548099518e-01</leafValues></_>
    <_>
      <internalNodes>
        0 -1 4906 4.0274495258927345e-03</internalNodes>
      <leafValues>
        5.4062470793724060e-02 -5.0293397903442383e-01</leafValues></_>
    <_>
      <internalNodes>
        0 -1 263348 -6.0292766429483891e-03</internalNodes>
      <leafValues>
        4.8218700289726257e-01 -4.7677703201770782e-02</leafValues></_>
    <_>
      <internalNodes>
        0 -1 417605 7.1837049908936024e-03</internalNodes>
      <leafValues>
        -6.9000847637653351e-02 4.4968175888061523e-01</leafValues></_>
    <_>
      <internalNodes>
        0 -1 44749 -7.3585263453423977e-04</internalNodes>
      <leafValues>
        4.0534883737564087e-01 -7.4799872934818268e-02</leafValues></_>
    <_>
      <internalNodes>
        0 -1 9950 -2.4827174842357635e-02</internalNodes>
      <leafValues>
        -6.3905191421508789e-01 4.2637687176465988e-02</leafValues></_>
    <_>
      <internalNodes>
        0 -1 65817 -5.2581131458282471e-02</internalNodes>
      <leafValues>
        -7.4793410301208496e-01 4.9506694078445435e-02</leafValues></_>
    <_>
      <internalNodes>
        0 -1 69208 -3.3835783600807190e-02</internalNodes>
      <leafValues>
        2.4185870587825775e-01 -1.2690889835357666e-01</leafValues></_>
    <_>
      <internalNodes>
        0 -1 33101 4.0648930007591844e-04</internalNodes>
      <leafValues>
        -1.9717420637607574e-01 1.6025331616401672e-01</leafValues></_>
    <_>
      <internalNodes>
        0 -1 787058 7.0948377251625061e-03</internalNodes>
      <leafValues>
        5.6737955659627914e-02 -6.0070300102233887e-01</leafValues></_>
    <_>
      <internalNodes>
        0 -1 398880 5.5804278235882521e-04</internalNodes>
      <leafValues>
        9.3142703175544739e-02 -3.0621087551116943e-01</leafValues></_>
    <_>
      <internalNodes>
        0 -1 584766 7.3814369738101959e-02</internalNodes>
      <leafValues>
        -6.3785381615161896e-02 6.6532456874847412e-01</leafValues></_>
    <_>
      <internalNodes>
        0 -1 402193 -7.2020692750811577e-03</internalNodes>
      <leafValues>
        4.3876701593399048e-01 -6.5657146275043488e-02</leafValues></_>
    <_>
      <internalNodes>
        0 -1 669197 -9.2795002274215221e-05</internalNodes>
      <leafValues>
        -3.5612860321998596e-01 9.7556374967098236e-02</leafValues></_>
    <_>
      <internalNodes>
        0 -1 814658 7.7342707663774490e-04</internalNodes>
      <leafValues>
        -9.2572592198848724e-02 3.5987704992294312e-01</leafValues></_>
    <_>
      <internalNodes>
        0 -1 814658 -8.8419474195688963e-04</internalNodes>
      <leafValues>
        4.5636621117591858e-01 -7.9586565494537354e-02</leafValues></_>
    <_>
      <internalNodes>
        0 -1 467370 -7.4989238055422902e-04</internalNodes>
      <leafValues>
        1.6141630709171295e-01 -2.1049405634403229e-01</leafValues></_>
    <_>
      <internalNodes>
        0 -1 771126 -4.3472344987094402e-04</internalNodes>
      <leafValues>
        -3.4634599089622498e-01 8.9063867926597595e-02</leafValues></_>
    <_>
      <internalNodes>
        0 -1 45401 7.9021537676453590e-03</internalNodes>
      <leafValues>
        -5.4361943155527115e-02 5.7761245965957642e-01</leafValues></_>
    <_>
      <internalNodes>
        0 -1 610339 1.4991639181971550e-03</internalNodes>
      <leafValues>
        -4.8357997089624405e-02 5.6669235229492188e-01</leafValues></_>
    <_>
      <internalNodes>
        0 -1 609913 1.1794869787991047e-02</internalNodes>
      <leafValues>
        -1.0590555518865585e-01 2.9290214180946350e-01</leafValues></_>
    <_>
      <internalNodes>
        0 -1 798159 3.5800300538539886e-03</internalNodes>
      <leafValues>
        -1.4401912689208984e-01 2.1677488088607788e-01</leafValues></_>
    <_>
      <internalNodes>
        0 -1 786647 6.2883707869332284e-05</internalNodes>
      <leafValues>
        1.1029101163148880e-01 -2.7709206938743591e-01</leafValues></_>
    <_>
      <internalNodes>
        0 -1 673673 2.0004570251330733e-04</internalNodes>
      <leafValues>
        -1.9945503771305084e-01 1.4275979995727539e-01</leafValues></_>
    <_>
      <internalNodes>
        0 -1 816303 2.6121217524632812e-04</internalNodes>
      <leafValues>
        7.8777424991130829e-02 -3.7416711449623108e-01</leafValues></_>
    <_>
      <internalNodes>
        0 -1 381651 -2.0015900954604149e-03</internalNodes>
      <leafValues>
        2.7379897236824036e-01 -1.0543180257081985e-01</leafValues></_>
    <_>
      <internalNodes>
        0 -1 810892 -2.4594433489255607e-04</internalNodes>
      <leafValues>
        3.2123678922653198e-01 -8.7035313248634338e-02</leafValues></_>
    <_>
      <internalNodes>
        0 -1 724624 -9.8858210549224168e-05</internalNodes>
      <leafValues>
        -3.9779838919639587e-01 8.5960514843463898e-02</leafValues></_>
    <_>
      <internalNodes>
        0 -1 42776 9.4775168690830469e-04</internalNodes>
      <leafValues>
        -8.2199499011039734e-02 4.0090793371200562e-01</leafValues></_></weakClassifiers></stage16>
</opencv_storage>
