<?xml version="1.0"?>
<opencv_storage>
<stage15>
  <maxWeakCount>28</maxWeakCount>
  <stageThreshold>-1.4720755815505981e+00</stageThreshold>
  <weakClassifiers>
    <_>
      <internalNodes>
        0 -1 59944 -2.6406398974359035e-03</internalNodes>
      <leafValues>
        -3.5433071851730347e-01 -7.4245226383209229e-01</leafValues></_>
    <_>
      <internalNodes>
        0 -1 658875 -3.7962035275995731e-03</internalNodes>
      <leafValues>
        -6.6487842798233032e-01 -1.3376764953136444e-01</leafValues></_>
    <_>
      <internalNodes>
        0 -1 659135 3.0943779274821281e-03</internalNodes>
      <leafValues>
        -4.9090620130300522e-02 4.9314647912979126e-01</leafValues></_>
    <_>
      <internalNodes>
        0 -1 373378 -5.4996520280838013e-02</internalNodes>
      <leafValues>
        4.1666129231452942e-01 -8.5205845534801483e-02</leafValues></_>
    <_>
      <internalNodes>
        0 -1 396678 4.0896865539252758e-03</internalNodes>
      <leafValues>
        -1.8710444867610931e-01 1.7081034183502197e-01</leafValues></_>
    <_>
      <internalNodes>
        0 -1 517632 5.5695208720862865e-04</internalNodes>
      <leafValues>
        5.4656282067298889e-02 -5.6277894973754883e-01</leafValues></_>
    <_>
      <internalNodes>
        0 -1 713017 -1.5170484548434615e-03</internalNodes>
      <leafValues>
        -3.3792594075202942e-01 9.4748236238956451e-02</leafValues></_>
    <_>
      <internalNodes>
        0 -1 673298 -2.6470953598618507e-03</internalNodes>
      <leafValues>
        3.6713680624961853e-01 -9.8233163356781006e-02</leafValues></_>
    <_>
      <internalNodes>
        0 -1 806865 1.1819944484159350e-03</internalNodes>
      <leafValues>
        -4.9027737230062485e-02 4.6809488534927368e-01</leafValues></_>
    <_>
      <internalNodes>
        0 -1 813268 1.0557971894741058e-02</internalNodes>
      <leafValues>
        6.0485664755105972e-02 -6.2920922040939331e-01</leafValues></_>
    <_>
      <internalNodes>
        0 -1 305582 3.3449251204729080e-03</internalNodes>
      <leafValues>
        -9.9980376660823822e-02 3.3695441484451294e-01</leafValues></_>
    <_>
      <internalNodes>
        0 -1 191053 -3.6424360587261617e-04</internalNodes>
      <leafValues>
        1.7890740931034088e-01 -2.0915897190570831e-01</leafValues></_>
    <_>
      <internalNodes>
        0 -1 809607 1.9330705981701612e-04</internalNodes>
      <leafValues>
        9.8687954246997833e-02 -3.3470430970191956e-01</leafValues></_>
    <_>
      <internalNodes>
        0 -1 810029 -1.7414358444511890e-03</internalNodes>
      <leafValues>
        2.4464401602745056e-01 -1.3271781802177429e-01</leafValues></_>
    <_>
      <internalNodes>
        0 -1 33433 -5.4075376829132438e-04</internalNodes>
      <leafValues>
        1.5261872112751007e-01 -2.1263214945793152e-01</leafValues></_>
    <_>
      <internalNodes>
        0 -1 746104 -2.1162820048630238e-03</internalNodes>
      <leafValues>
        4.8545593023300171e-01 -6.8650953471660614e-02</leafValues></_>
    <_>
      <internalNodes>
        0 -1 220593 5.6740520521998405e-03</internalNodes>
      <leafValues>
        4.7646839171648026e-02 -8.4869706630706787e-01</leafValues></_>
    <_>
      <internalNodes>
        0 -1 689570 7.2484195698052645e-04</internalNodes>
      <leafValues>
        -1.1598576605319977e-01 2.9382365942001343e-01</leafValues></_>
    <_>
      <internalNodes>
        0 -1 670485 1.5521678142249584e-03</internalNodes>
      <leafValues>
        5.9266030788421631e-02 -5.8152842521667480e-01</leafValues></_>
    <_>
      <internalNodes>
        0 -1 816012 1.3978499919176102e-04</internalNodes>
      <leafValues>
        8.1500023603439331e-02 -3.4832930564880371e-01</leafValues></_>
    <_>
      <internalNodes>
        0 -1 794485 1.6051634447649121e-03</internalNodes>
      <leafValues>
        -1.3405351340770721e-01 2.3511150479316711e-01</leafValues></_>
    <_>
      <internalNodes>
        0 -1 63845 -2.2790844086557627e-03</internalNodes>
      <leafValues>
        -4.9690350890159607e-01 6.5243862569332123e-02</leafValues></_>
    <_>
      <internalNodes>
        0 -1 627330 -3.4264461137354374e-03</internalNodes>
      <leafValues>
        -4.1020011901855469e-01 6.9861404597759247e-02</leafValues></_>
    <_>
      <internalNodes>
        0 -1 814791 8.5122594609856606e-03</internalNodes>
      <leafValues>
        6.7457772791385651e-02 -4.5237609744071960e-01</leafValues></_>
    <_>
      <internalNodes>
        0 -1 793767 -1.7311907140538096e-03</internalNodes>
      <leafValues>
        1.9480259716510773e-01 -1.6695444285869598e-01</leafValues></_>
    <_>
      <internalNodes>
        0 -1 812840 -2.3232682724483311e-04</internalNodes>
      <leafValues>
        3.5350227355957031e-01 -8.7260276079177856e-02</leafValues></_>
    <_>
      <internalNodes>
        0 -1 55605 2.9759679455310106e-04</internalNodes>
      <leafValues>
        1.3287873566150665e-01 -2.4704986810684204e-01</leafValues></_>
    <_>
      <internalNodes>
        0 -1 22297 -1.6397279687225819e-03</internalNodes>
      <leafValues>
        -5.6972920894622803e-01 5.2455767989158630e-02</leafValues></_></weakClassifiers></stage15>
</opencv_storage>
