<?xml version="1.0"?>
<opencv_storage>
<stage15>
  <maxWeakCount>9</maxWeakCount>
  <stageThreshold>-4.8187634348869324e-01</stageThreshold>
  <weakClassifiers>
    <_>
      <internalNodes>
        0 -1 148212 -1.5007141046226025e-03</internalNodes>
      <leafValues>
        4.1714286804199219e-01 -3.2444444298744202e-01</leafValues></_>
    <_>
      <internalNodes>
        0 -1 106311 -3.3750841394066811e-03</internalNodes>
      <leafValues>
        -5.2337354421615601e-01 2.5948509573936462e-01</leafValues></_>
    <_>
      <internalNodes>
        0 -1 1144 8.2050524652004242e-03</internalNodes>
      <leafValues>
        1.1806284636259079e-01 -9.2726111412048340e-01</leafValues></_>
    <_>
      <internalNodes>
        0 -1 162321 -1.7134224763140082e-03</internalNodes>
      <leafValues>
        -6.8560504913330078e-01 1.8984790146350861e-01</leafValues></_>
    <_>
      <internalNodes>
        0 -1 14456 -1.8819835036993027e-02</internalNodes>
      <leafValues>
        -9.0347915887832642e-01 9.2093959450721741e-02</leafValues></_>
    <_>
      <internalNodes>
        0 -1 118675 2.6679498841986060e-04</internalNodes>
      <leafValues>
        1.5124602615833282e-01 -6.7659425735473633e-01</leafValues></_>
    <_>
      <internalNodes>
        0 -1 128035 -2.0296201109886169e-02</internalNodes>
      <leafValues>
        1.5187552571296692e-01 -7.8202277421951294e-01</leafValues></_>
    <_>
      <internalNodes>
        0 -1 15473 4.2997878044843674e-03</internalNodes>
      <leafValues>
        -3.3508861064910889e-01 3.9349028468132019e-01</leafValues></_>
    <_>
      <internalNodes>
        0 -1 155823 6.6177488770335913e-04</internalNodes>
      <leafValues>
        2.6036930084228516e-01 -4.7501975297927856e-01</leafValues></_></weakClassifiers></stage15>
</opencv_storage>
