<?xml version="1.0"?>
<opencv_storage>
<stage3>
  <maxWeakCount>7</maxWeakCount>
  <stageThreshold>-8.5724663734436035e-01</stageThreshold>
  <weakClassifiers>
    <_>
      <internalNodes>
        0 -1 159526 -4.9018403515219688e-03</internalNodes>
      <leafValues>
        6.9863015413284302e-01 -4.0157479047775269e-01</leafValues></_>
    <_>
      <internalNodes>
        0 -1 155171 5.9908144176006317e-03</internalNodes>
      <leafValues>
        -2.6125937700271606e-01 6.6584742069244385e-01</leafValues></_>
    <_>
      <internalNodes>
        0 -1 60925 1.2620870955288410e-02</internalNodes>
      <leafValues>
        -3.7979510426521301e-01 5.6503409147262573e-01</leafValues></_>
    <_>
      <internalNodes>
        0 -1 35579 -1.7062993720173836e-02</internalNodes>
      <leafValues>
        4.3330386281013489e-01 -5.6282979249954224e-01</leafValues></_>
    <_>
      <internalNodes>
        0 -1 161255 -1.2077908962965012e-01</internalNodes>
      <leafValues>
        2.6159504055976868e-01 -8.5773438215255737e-01</leafValues></_>
    <_>
      <internalNodes>
        0 -1 6661 2.0247847714927047e-04</internalNodes>
      <leafValues>
        1.9054192304611206e-01 -8.8016498088836670e-01</leafValues></_>
    <_>
      <internalNodes>
        0 -1 159731 2.2359556169249117e-05</internalNodes>
      <leafValues>
        -6.7708253860473633e-01 2.9607546329498291e-01</leafValues></_></weakClassifiers></stage3>
</opencv_storage>
