<?xml version="1.0"?>
<opencv_storage>
<stage7>
  <maxWeakCount>7</maxWeakCount>
  <stageThreshold>-5.7790213823318481e-01</stageThreshold>
  <weakClassifiers>
    <_>
      <internalNodes>
        0 -1 138706 -1.8226720392704010e-02</internalNodes>
      <leafValues>
        7.7551019191741943e-01 -2.5165563821792603e-01</leafValues></_>
    <_>
      <internalNodes>
        0 -1 158087 9.6348300576210022e-03</internalNodes>
      <leafValues>
        2.4167716503143311e-01 -7.7927929162979126e-01</leafValues></_>
    <_>
      <internalNodes>
        0 -1 26612 2.4920200929045677e-02</internalNodes>
      <leafValues>
        -3.8806685805320740e-01 4.7498899698257446e-01</leafValues></_>
    <_>
      <internalNodes>
        0 -1 86522 1.0332509875297546e-02</internalNodes>
      <leafValues>
        -3.1766337156295776e-01 5.2340626716613770e-01</leafValues></_>
    <_>
      <internalNodes>
        0 -1 8137 -6.0052867047488689e-04</internalNodes>
      <leafValues>
        -9.2814511060714722e-01 2.0840193331241608e-01</leafValues></_>
    <_>
      <internalNodes>
        0 -1 159703 6.4853369258344173e-04</internalNodes>
      <leafValues>
        -3.4406942129135132e-01 4.6181151270866394e-01</leafValues></_>
    <_>
      <internalNodes>
        0 -1 153557 -2.1461989730596542e-02</internalNodes>
      <leafValues>
        -4.2302572727203369e-01 4.6950533986091614e-01</leafValues></_></weakClassifiers></stage7>
</opencv_storage>
