<?xml version="1.0"?>
<opencv_storage>
<stage14>
  <maxWeakCount>15</maxWeakCount>
  <stageThreshold>-6.9038581848144531e-01</stageThreshold>
  <weakClassifiers>
    <_>
      <internalNodes>
        0 -1 133646 -3.3264592289924622e-02</internalNodes>
      <leafValues>
        -9.5555555820465088e-01 1.2112676352262497e-01</leafValues></_>
    <_>
      <internalNodes>
        0 -1 159321 -2.5287684984505177e-03</internalNodes>
      <leafValues>
        3.8206592202186584e-01 -3.4261018037796021e-01</leafValues></_>
    <_>
      <internalNodes>
        0 -1 146300 -4.7858104109764099e-02</internalNodes>
      <leafValues>
        8.6626791954040527e-01 -1.4408218860626221e-01</leafValues></_>
    <_>
      <internalNodes>
        0 -1 159726 -1.3455746229737997e-03</internalNodes>
      <leafValues>
        -7.8279387950897217e-01 1.9486272335052490e-01</leafValues></_>
    <_>
      <internalNodes>
        0 -1 89213 9.8332902416586876e-03</internalNodes>
      <leafValues>
        -2.4612008035182953e-01 5.5489909648895264e-01</leafValues></_>
    <_>
      <internalNodes>
        0 -1 154962 4.4880900532007217e-04</internalNodes>
      <leafValues>
        -3.7278997898101807e-01 3.2700684666633606e-01</leafValues></_>
    <_>
      <internalNodes>
        0 -1 9463 -4.5666964724659920e-03</internalNodes>
      <leafValues>
        6.4851987361907959e-01 -1.9464223086833954e-01</leafValues></_>
    <_>
      <internalNodes>
        0 -1 151884 1.9236655134591274e-05</internalNodes>
      <leafValues>
        -3.2547116279602051e-01 3.8681462407112122e-01</leafValues></_>
    <_>
      <internalNodes>
        0 -1 155056 -2.8738381806761026e-03</internalNodes>
      <leafValues>
        4.4647178053855896e-01 -2.9592460393905640e-01</leafValues></_>
    <_>
      <internalNodes>
        0 -1 162316 1.1335209012031555e-02</internalNodes>
      <leafValues>
        1.5815809369087219e-01 -1.</leafValues></_>
    <_>
      <internalNodes>
        0 -1 158823 8.0645941197872162e-03</internalNodes>
      <leafValues>
        -2.4175812304019928e-01 6.4288914203643799e-01</leafValues></_>
    <_>
      <internalNodes>
        0 -1 154708 -2.5930488482117653e-04</internalNodes>
      <leafValues>
        3.5997056961059570e-01 -3.5541167855262756e-01</leafValues></_>
    <_>
      <internalNodes>
        0 -1 118045 -2.8769183903932571e-02</internalNodes>
      <leafValues>
        8.6386215686798096e-01 -1.4815013110637665e-01</leafValues></_>
    <_>
      <internalNodes>
        0 -1 131900 1.4140922576189041e-04</internalNodes>
      <leafValues>
        3.0221700668334961e-01 -5.4137718677520752e-01</leafValues></_>
    <_>
      <internalNodes>
        0 -1 161003 3.6159728188067675e-03</internalNodes>
      <leafValues>
        -2.4456621706485748e-01 6.1101698875427246e-01</leafValues></_></weakClassifiers></stage14>
</opencv_storage>
