<?xml version="1.0"?>
<opencv_storage>
<stage4>
  <maxWeakCount>11</maxWeakCount>
  <stageThreshold>-7.6891070604324341e-01</stageThreshold>
  <weakClassifiers>
    <_>
      <internalNodes>
        0 -1 161882 -2.7056555263698101e-03</internalNodes>
      <leafValues>
        6.1038959026336670e-01 -3.8211381435394287e-01</leafValues></_>
    <_>
      <internalNodes>
        0 -1 139224 1.7794251907616854e-03</internalNodes>
      <leafValues>
        -3.3437722921371460e-01 4.8246309161186218e-01</leafValues></_>
    <_>
      <internalNodes>
        0 -1 87621 9.2515442520380020e-03</internalNodes>
      <leafValues>
        -2.1665869653224945e-01 7.4735003709793091e-01</leafValues></_>
    <_>
      <internalNodes>
        0 -1 118626 6.6785258240997791e-05</internalNodes>
      <leafValues>
        2.5318524241447449e-01 -7.0202440023422241e-01</leafValues></_>
    <_>
      <internalNodes>
        0 -1 119341 -9.2533463612198830e-04</internalNodes>
      <leafValues>
        -7.4390882253646851e-01 2.3802623152732849e-01</leafValues></_>
    <_>
      <internalNodes>
        0 -1 160527 -7.1309367194771767e-03</internalNodes>
      <leafValues>
        -8.0184870958328247e-01 1.4600789546966553e-01</leafValues></_>
    <_>
      <internalNodes>
        0 -1 145645 -4.6847220510244370e-03</internalNodes>
      <leafValues>
        5.8642441034317017e-01 -2.8714349865913391e-01</leafValues></_>
    <_>
      <internalNodes>
        0 -1 102711 3.0103925382718444e-04</internalNodes>
      <leafValues>
        2.8082492947578430e-01 -7.1271294355392456e-01</leafValues></_>
    <_>
      <internalNodes>
        0 -1 121535 2.0465241745114326e-02</internalNodes>
      <leafValues>
        -2.7710005640983582e-01 6.6948461532592773e-01</leafValues></_>
    <_>
      <internalNodes>
        0 -1 22388 -7.1965813636779785e-02</internalNodes>
      <leafValues>
        5.6952017545700073e-01 -2.8988027572631836e-01</leafValues></_>
    <_>
      <internalNodes>
        0 -1 21485 -8.8082514703273773e-02</internalNodes>
      <leafValues>
        3.8538318872451782e-01 -4.8657375574111938e-01</leafValues></_></weakClassifiers></stage4>
</opencv_storage>
