<?xml version="1.0"?>
<opencv_storage>
<stage10>
  <maxWeakCount>9</maxWeakCount>
  <stageThreshold>-5.5819016695022583e-01</stageThreshold>
  <weakClassifiers>
    <_>
      <internalNodes>
        0 -1 161923 -4.2909844778478146e-03</internalNodes>
      <leafValues>
        5.2317881584167480e-01 -3.1726908683776855e-01</leafValues></_>
    <_>
      <internalNodes>
        0 -1 162087 1.7780517737264745e-05</internalNodes>
      <leafValues>
        -4.7698196768760681e-01 3.2569172978401184e-01</leafValues></_>
    <_>
      <internalNodes>
        0 -1 5912 4.5652687549591064e-03</internalNodes>
      <leafValues>
        -3.5854536294937134e-01 4.7296786308288574e-01</leafValues></_>
    <_>
      <internalNodes>
        0 -1 162009 3.2121273688971996e-03</internalNodes>
      <leafValues>
        -2.4775335192680359e-01 6.5012496709823608e-01</leafValues></_>
    <_>
      <internalNodes>
        0 -1 133673 -3.7747703492641449e-02</internalNodes>
      <leafValues>
        -4.9109843373298645e-01 3.8954588770866394e-01</leafValues></_>
    <_>
      <internalNodes>
        0 -1 160596 -5.4762110114097595e-02</internalNodes>
      <leafValues>
        1.3824357092380524e-01 -9.0909218788146973e-01</leafValues></_>
    <_>
      <internalNodes>
        0 -1 96856 5.2147954702377319e-03</internalNodes>
      <leafValues>
        -2.8656372427940369e-01 5.8746951818466187e-01</leafValues></_>
    <_>
      <internalNodes>
        0 -1 162292 2.5367927737534046e-03</internalNodes>
      <leafValues>
        1.9518610835075378e-01 -8.9582496881484985e-01</leafValues></_>
    <_>
      <internalNodes>
        0 -1 96270 2.0267432555556297e-02</internalNodes>
      <leafValues>
        -3.4304109215736389e-01 4.8391833901405334e-01</leafValues></_></weakClassifiers></stage10>
</opencv_storage>
