<?xml version="1.0"?>
<opencv_storage>
<stage12>
  <maxWeakCount>12</maxWeakCount>
  <stageThreshold>-1.1531916856765747e+00</stageThreshold>
  <weakClassifiers>
    <_>
      <internalNodes>
        0 -1 161032 -2.1185120567679405e-03</internalNodes>
      <leafValues>
        3.6274510622024536e-01 -3.7755101919174194e-01</leafValues></_>
    <_>
      <internalNodes>
        0 -1 121335 -4.8976857215166092e-03</internalNodes>
      <leafValues>
        1.2726420164108276e-01 -9.6796691417694092e-01</leafValues></_>
    <_>
      <internalNodes>
        0 -1 25327 -1.0810534469783306e-02</internalNodes>
      <leafValues>
        7.8983342647552490e-01 -1.6949895024299622e-01</leafValues></_>
    <_>
      <internalNodes>
        0 -1 49376 1.9955169409513474e-03</internalNodes>
      <leafValues>
        -2.8060895204544067e-01 4.5422145724296570e-01</leafValues></_>
    <_>
      <internalNodes>
        0 -1 118879 -7.6919175684452057e-02</internalNodes>
      <leafValues>
        4.3401923775672913e-01 -2.8602758049964905e-01</leafValues></_>
    <_>
      <internalNodes>
        0 -1 320 -9.7643560729920864e-04</internalNodes>
      <leafValues>
        2.6610410213470459e-01 -5.0220775604248047e-01</leafValues></_>
    <_>
      <internalNodes>
        0 -1 154560 -1.3196542859077454e-03</internalNodes>
      <leafValues>
        -7.9397416114807129e-01 1.9181706011295319e-01</leafValues></_>
    <_>
      <internalNodes>
        0 -1 79521 8.8728688657283783e-02</internalNodes>
      <leafValues>
        9.5829822123050690e-02 -9.5776689052581787e-01</leafValues></_>
    <_>
      <internalNodes>
        0 -1 98338 9.6450938144698739e-04</internalNodes>
      <leafValues>
        -3.6552789807319641e-01 3.6298093199729919e-01</leafValues></_>
    <_>
      <internalNodes>
        0 -1 148484 1.3940067961812019e-02</internalNodes>
      <leafValues>
        1.8328779935836792e-01 -6.2053048610687256e-01</leafValues></_>
    <_>
      <internalNodes>
        0 -1 161165 -1.7780517737264745e-05</internalNodes>
      <leafValues>
        3.9271807670593262e-01 -3.3630391955375671e-01</leafValues></_>
    <_>
      <internalNodes>
        0 -1 38084 -1.5263434499502182e-02</internalNodes>
      <leafValues>
        7.7139645814895630e-01 -1.6217330098152161e-01</leafValues></_></weakClassifiers></stage12>
</opencv_storage>
