<?xml version="1.0"?>
<opencv_storage>
<stage17>
  <maxWeakCount>10</maxWeakCount>
  <stageThreshold>-5.8307677507400513e-01</stageThreshold>
  <weakClassifiers>
    <_>
      <internalNodes>
        0 -1 5038 1.1561430059373379e-02</internalNodes>
      <leafValues>
        -1.8181818723678589e-01 6.0869562625885010e-01</leafValues></_>
    <_>
      <internalNodes>
        0 -1 96865 -1.4104951173067093e-02</internalNodes>
      <leafValues>
        8.8940906524658203e-01 -1.0174454003572464e-01</leafValues></_>
    <_>
      <internalNodes>
        0 -1 157588 2.5498180184513330e-04</internalNodes>
      <leafValues>
        -4.1563811898231506e-01 2.8978237509727478e-01</leafValues></_>
    <_>
      <internalNodes>
        0 -1 31916 -1.0495019378140569e-03</internalNodes>
      <leafValues>
        -7.7717423439025879e-01 1.8428084254264832e-01</leafValues></_>
    <_>
      <internalNodes>
        0 -1 139636 -9.1105990577489138e-04</internalNodes>
      <leafValues>
        7.5482916831970215e-01 -1.7431613802909851e-01</leafValues></_>
    <_>
      <internalNodes>
        0 -1 44749 -8.9900655439123511e-05</internalNodes>
      <leafValues>
        2.9138207435607910e-01 -4.0458437800407410e-01</leafValues></_>
    <_>
      <internalNodes>
        0 -1 7250 1.8784239888191223e-01</internalNodes>
      <leafValues>
        1.8886345624923706e-01 -7.0347481966018677e-01</leafValues></_>
    <_>
      <internalNodes>
        0 -1 160444 -8.4446556866168976e-03</internalNodes>
      <leafValues>
        -9.6936905384063721e-01 9.0219728648662567e-02</leafValues></_>
    <_>
      <internalNodes>
        0 -1 8854 2.9698395519517362e-04</internalNodes>
      <leafValues>
        -4.2719614505767822e-01 2.7307999134063721e-01</leafValues></_>
    <_>
      <internalNodes>
        0 -1 119020 1.3415058492682874e-04</internalNodes>
      <leafValues>
        1.8860884010791779e-01 -7.4253022670745850e-01</leafValues></_></weakClassifiers></stage17>
</opencv_storage>
