<?xml version="1.0"?>
<opencv_storage>
<stage13>
  <maxWeakCount>12</maxWeakCount>
  <stageThreshold>-9.5054560899734497e-01</stageThreshold>
  <weakClassifiers>
    <_>
      <internalNodes>
        0 -1 147454 9.1867651790380478e-03</internalNodes>
      <leafValues>
        -2.4555160105228424e-01 5.7983195781707764e-01</leafValues></_>
    <_>
      <internalNodes>
        0 -1 126820 9.7065174486488104e-04</internalNodes>
      <leafValues>
        2.2038660943508148e-01 -6.7781800031661987e-01</leafValues></_>
    <_>
      <internalNodes>
        0 -1 11042 7.6733971945941448e-04</internalNodes>
      <leafValues>
        -2.9795986413955688e-01 4.7659632563591003e-01</leafValues></_>
    <_>
      <internalNodes>
        0 -1 90076 -1.4823223650455475e-01</internalNodes>
      <leafValues>
        -5.2757602930068970e-01 2.6888576149940491e-01</leafValues></_>
    <_>
      <internalNodes>
        0 -1 162082 8.0851663369685411e-04</internalNodes>
      <leafValues>
        -4.3060925602912903e-01 3.7383091449737549e-01</leafValues></_>
    <_>
      <internalNodes>
        0 -1 70391 -3.3681672066450119e-02</internalNodes>
      <leafValues>
        8.0193531513214111e-01 -1.3167411088943481e-01</leafValues></_>
    <_>
      <internalNodes>
        0 -1 70243 8.4573011845350266e-03</internalNodes>
      <leafValues>
        -2.4879418313503265e-01 5.3577601909637451e-01</leafValues></_>
    <_>
      <internalNodes>
        0 -1 99948 1.1562353465706110e-03</internalNodes>
      <leafValues>
        -1.7309333384037018e-01 6.7607825994491577e-01</leafValues></_>
    <_>
      <internalNodes>
        0 -1 161252 1.4468505978584290e-02</internalNodes>
      <leafValues>
        2.1186272799968719e-01 -8.3919215202331543e-01</leafValues></_>
    <_>
      <internalNodes>
        0 -1 98620 2.8074784204363823e-03</internalNodes>
      <leafValues>
        -3.0677768588066101e-01 5.2032542228698730e-01</leafValues></_>
    <_>
      <internalNodes>
        0 -1 25796 -4.4173514470458031e-03</internalNodes>
      <leafValues>
        3.2020041346549988e-01 -3.9708560705184937e-01</leafValues></_>
    <_>
      <internalNodes>
        0 -1 144767 4.0072249248623848e-03</internalNodes>
      <leafValues>
        -2.1268367767333984e-01 6.3704317808151245e-01</leafValues></_></weakClassifiers></stage13>
</opencv_storage>
