<?xml version="1.0"?>
<opencv_storage>
<cascade>
  <stageType>BOOST</stageType>
  <featureType>HAAR</featureType>
  <height>24</height>
  <width>24</width>
  <stageParams>
    <boostType>GAB</boostType>
    <minHitRate>9.9500000476837158e-01</minHitRate>
    <maxFalseAlarm>5.0000000000000000e-01</maxFalseAlarm>
    <weightTrimRate>9.4999999999999996e-01</weightTrimRate>
    <maxDepth>1</maxDepth>
    <maxWeakCount>100</maxWeakCount></stageParams>
  <featureParams>
    <maxCatCount>0</maxCatCount>
    <featSize>1</featSize>
    <mode>BASIC</mode></featureParams>
  <stageNum>20</stageNum>
  <stages>
    <!-- stage 0 -->
    <_>
      <maxWeakCount>10</maxWeakCount>
      <stageThreshold>-1.7606977224349976e+00</stageThreshold>
      <weakClassifiers>
        <_>
          <internalNodes>
            0 -1 442 9.2508792877197266e-03</internalNodes>
          <leafValues>
            -8.2875043153762817e-01 -1.8979266285896301e-01</leafValues></_>
        <_>
          <internalNodes>
            0 -1 75 -1.9875708967447281e-02</internalNodes>
          <leafValues>
            4.4027355313301086e-01 -4.6058014035224915e-01</leafValues></_>
        <_>
          <internalNodes>
            0 -1 343 -2.8212957084178925e-02</internalNodes>
          <leafValues>
            -9.2093354463577271e-01 1.2907806038856506e-01</leafValues></_>
        <_>
          <internalNodes>
            0 -1 300 -2.6401225477457047e-02</internalNodes>
          <leafValues>
            4.6006801724433899e-01 -2.7787593007087708e-01</leafValues></_>
        <_>
          <internalNodes>
            0 -1 65 -5.3360131569206715e-03</internalNodes>
          <leafValues>
            5.5329984426498413e-01 -1.9911934435367584e-01</leafValues></_>
        <_>
          <internalNodes>
            0 -1 336 1.1368228122591972e-02</internalNodes>
          <leafValues>
            -2.6854997873306274e-01 4.0604725480079651e-01</leafValues></_>
        <_>
          <internalNodes>
            0 -1 240 6.1339819803833961e-03</internalNodes>
          <leafValues>
            -2.2942636907100677e-01 4.3028292059898376e-01</leafValues></_>
        <_>
          <internalNodes>
            0 -1 298 1.6327915363945067e-04</internalNodes>
          <leafValues>
            1.9276492297649384e-01 -5.0067752599716187e-01</leafValues></_>
        <_>
          <internalNodes>
            0 -1 490 4.7569712623953819e-03</internalNodes>
          <leafValues>
            -1.8925441801548004e-01 4.8274004459381104e-01</leafValues></_>
        <_>
          <internalNodes>
            0 -1 41 -7.9731401056051254e-03</internalNodes>
          <leafValues>
            4.0474903583526611e-01 -2.3383919894695282e-01</leafValues></_></weakClassifiers></_>
    <!-- stage 1 -->
    <_>
      <maxWeakCount>15</maxWeakCount>
      <stageThreshold>-2.0423481464385986e+00</stageThreshold>
      <weakClassifiers>
        <_>
          <internalNodes>
            0 -1 28 -2.4897590279579163e-02</internalNodes>
          <leafValues>
            3.7096774578094482e-01 -7.5414693355560303e-01</leafValues></_>
        <_>
          <internalNodes>
            0 -1 431 -1.8899925053119659e-02</internalNodes>
          <leafValues>
            4.2383289337158203e-01 -3.9108112454414368e-01</leafValues></_>
        <_>
          <internalNodes>
            0 -1 357 5.5681681260466576e-03</internalNodes>
          <leafValues>
            -3.9671733975410461e-01 3.0613237619400024e-01</leafValues></_>
        <_>
          <internalNodes>
            0 -1 273 -1.9993485510349274e-01</internalNodes>
          <leafValues>
            -4.5322766900062561e-01 2.6121264696121216e-01</leafValues></_>
        <_>
          <internalNodes>
            0 -1 47 -1.8659245688468218e-03</internalNodes>
          <leafValues>
            -6.4524543285369873e-01 1.6612470149993896e-01</leafValues></_>
        <_>
          <internalNodes>
            0 -1 6 -3.8234179373830557e-04</internalNodes>
          <leafValues>
            2.5865980982780457e-01 -3.7767797708511353e-01</leafValues></_>
        <_>
          <internalNodes>
            0 -1 2 7.5307954102754593e-03</internalNodes>
          <leafValues>
            -1.6876193881034851e-01 5.4643166065216064e-01</leafValues></_>
        <_>
          <internalNodes>
            0 -1 328 -3.8369293324649334e-03</internalNodes>
          <leafValues>
            -6.6129809617996216e-01 1.6146323084831238e-01</leafValues></_>
        <_>
          <internalNodes>
            0 -1 161 6.8330243229866028e-03</internalNodes>
          <leafValues>
            -2.3275958001613617e-01 4.1237556934356689e-01</leafValues></_>
        <_>
          <internalNodes>
            0 -1 158 -2.0664921030402184e-03</internalNodes>
          <leafValues>
            -6.9357270002365112e-01 1.4476835727691650e-01</leafValues></_>
        <_>
          <internalNodes>
            0 -1 218 7.1617623325437307e-04</internalNodes>
          <leafValues>
            1.4406146109104156e-01 -5.4345136880874634e-01</leafValues></_>
        <_>
          <internalNodes>
            0 -1 445 7.0977406576275826e-03</internalNodes>
          <leafValues>
            -2.3423729836940765e-01 3.8442790508270264e-01</leafValues></_>
        <_>
          <internalNodes>
            0 -1 254 -2.4186955764889717e-02</internalNodes>
          <leafValues>
            7.4653095006942749e-01 -1.0027128458023071e-01</leafValues></_>
        <_>
          <internalNodes>
            0 -1 463 -1.9145843107253313e-03</internalNodes>
          <leafValues>
            -7.3703402280807495e-01 1.2357121706008911e-01</leafValues></_>
        <_>
          <internalNodes>
            0 -1 204 1.4357069507241249e-02</internalNodes>
          <leafValues>
            -1.9519130885601044e-01 4.3010735511779785e-01</leafValues></_></weakClassifiers></_>
    <!-- stage 2 -->
    <_>
      <maxWeakCount>14</maxWeakCount>
      <stageThreshold>-1.8895591497421265e+00</stageThreshold>
      <weakClassifiers>
        <_>
          <internalNodes>
            0 -1 14 -1.7871994525194168e-02</internalNodes>
          <leafValues>
            -2.3883494734764099e-01 -7.9631489515304565e-01</leafValues></_>
        <_>
          <internalNodes>
            0 -1 438 -1.8004562705755234e-02</internalNodes>
          <leafValues>
            3.8910785317420959e-01 -3.7586435675621033e-01</leafValues></_>
        <_>
          <internalNodes>
            0 -1 440 1.8714357167482376e-02</internalNodes>
          <leafValues>
            -2.0497663319110870e-01 5.1961207389831543e-01</leafValues></_>
        <_>
          <internalNodes>
            0 -1 9 -5.5674576759338379e-01</internalNodes>
          <leafValues>
            -7.3801702260971069e-01 1.3274580240249634e-01</leafValues></_>
        <_>
          <internalNodes>
            0 -1 301 4.1295908158645034e-04</internalNodes>
          <leafValues>
            1.9442071020603180e-01 -5.2515810728073120e-01</leafValues></_>
        <_>
          <internalNodes>
            0 -1 462 2.4186955124605447e-04</internalNodes>
          <leafValues>
            1.5562920272350311e-01 -5.1894652843475342e-01</leafValues></_>
        <_>
          <internalNodes>
            0 -1 209 5.6820757687091827e-02</internalNodes>
          <leafValues>
            -2.3811794817447662e-01 3.9764910936355591e-01</leafValues></_>
        <_>
          <internalNodes>
            0 -1 38 8.3025097846984863e-03</internalNodes>
          <leafValues>
            -1.3716268539428711e-01 5.5963152647018433e-01</leafValues></_>
        <_>
          <internalNodes>
            0 -1 13 -9.4091240316629410e-03</internalNodes>
          <leafValues>
            5.0273817777633667e-01 -1.5083345770835876e-01</leafValues></_>
        <_>
          <internalNodes>
            0 -1 285 -3.0240006744861603e-03</internalNodes>
          <leafValues>
            -8.9175522327423096e-01 9.4434194266796112e-02</leafValues></_>
        <_>
          <internalNodes>
            0 -1 284 2.6259636506438255e-03</internalNodes>
          <leafValues>
            6.6030643880367279e-02 -6.9400107860565186e-01</leafValues></_>
        <_>
          <internalNodes>
            0 -1 379 1.0395206511020660e-02</internalNodes>
          <leafValues>
            -1.7937292158603668e-01 4.3230783939361572e-01</leafValues></_>
        <_>
          <internalNodes>
            0 -1 449 5.0953458412550390e-05</internalNodes>
          <leafValues>
            -3.1438168883323669e-01 2.3076213896274567e-01</leafValues></_>
        <_>
          <internalNodes>
            0 -1 281 3.9006231236271560e-04</internalNodes>
          <leafValues>
            1.8699084222316742e-01 -4.6585088968276978e-01</leafValues></_></weakClassifiers></_>
    <!-- stage 3 -->
    <_>
      <maxWeakCount>13</maxWeakCount>
      <stageThreshold>-1.8840556144714355e+00</stageThreshold>
      <weakClassifiers>
        <_>
          <internalNodes>
            0 -1 76 -6.7540973424911499e-02</internalNodes>
          <leafValues>
            1.6759777441620827e-02 -7.5368863344192505e-01</leafValues></_>
        <_>
          <internalNodes>
            0 -1 95 -1.7429504077881575e-03</internalNodes>
          <leafValues>
            -7.7456605434417725e-01 -7.1052081882953644e-02</leafValues></_>
        <_>
          <internalNodes>
            0 -1 96 2.3025101982057095e-03</internalNodes>
          <leafValues>
            1.1296608299016953e-01 -6.1675840616226196e-01</leafValues></_>
        <_>
          <internalNodes>
            0 -1 306 -2.2439116146415472e-03</internalNodes>
          <leafValues>
            -7.7922219038009644e-01 8.7296761572360992e-02</leafValues></_>
        <_>
          <internalNodes>
            0 -1 356 2.3924603592604399e-03</internalNodes>
          <leafValues>
            -3.3197587728500366e-01 2.3922117054462433e-01</leafValues></_>
        <_>
          <internalNodes>
            0 -1 126 -6.2558941543102264e-02</internalNodes>
          <leafValues>
            6.4804732799530029e-01 -1.3631749153137207e-01</leafValues></_>
        <_>
          <internalNodes>
            0 -1 239 2.1128356456756592e-03</internalNodes>
          <leafValues>
            1.2122317403554916e-01 -6.4721870422363281e-01</leafValues></_>
        <_>
          <internalNodes>
            0 -1 125 -2.6482081413269043e-01</internalNodes>
          <leafValues>
            8.6902640759944916e-02 -8.2866865396499634e-01</leafValues></_>
        <_>
          <internalNodes>
            0 -1 304 -1.3009039685130119e-03</internalNodes>
          <leafValues>
            -5.6131887435913086e-01 1.1363797634840012e-01</leafValues></_>
        <_>
          <internalNodes>
            0 -1 506 -9.8103622440248728e-04</internalNodes>
          <leafValues>
            -7.5338596105575562e-01 8.2727186381816864e-02</leafValues></_>
        <_>
          <internalNodes>
            0 -1 508 2.7972925454378128e-03</internalNodes>
          <leafValues>
            1.2320381402969360e-01 -5.1400738954544067e-01</leafValues></_>
        <_>
          <internalNodes>
            0 -1 267 2.2710533812642097e-03</internalNodes>
          <leafValues>
            7.7565588057041168e-02 -8.0165338516235352e-01</leafValues></_>
        <_>
          <internalNodes>
            0 -1 269 -3.4255452919751406e-03</internalNodes>
          <leafValues>
            -8.0797606706619263e-01 7.5411103665828705e-02</leafValues></_></weakClassifiers></_>
    <!-- stage 4 -->
    <_>
      <maxWeakCount>19</maxWeakCount>
      <stageThreshold>-1.9474018812179565e+00</stageThreshold>
      <weakClassifiers>
        <_>
          <internalNodes>
            0 -1 150 -1.6785264015197754e-02</internalNodes>
          <leafValues>
            7.0833331346511841e-01 -7.3406720161437988e-01</leafValues></_>
        <_>
          <internalNodes>
            0 -1 244 5.8456826955080032e-03</internalNodes>
          <leafValues>
            -4.1356101632118225e-01 2.0046214759349823e-01</leafValues></_>
        <_>
          <internalNodes>
            0 -1 35 -5.6809786707162857e-02</internalNodes>
          <leafValues>
            1.2295192480087280e-01 -7.3882073163986206e-01</leafValues></_>
        <_>
          <internalNodes>
            0 -1 488 -5.3578726947307587e-03</internalNodes>
          <leafValues>
            4.1710686683654785e-01 -1.8741045892238617e-01</leafValues></_>
        <_>
          <internalNodes>
            0 -1 428 -3.0093858367763460e-04</internalNodes>
          <leafValues>
            -3.9365768432617188e-01 2.1724407374858856e-01</leafValues></_>
        <_>
          <internalNodes>
            0 -1 180 3.2820377964526415e-03</internalNodes>
          <leafValues>
            1.0980343073606491e-01 -5.9696823358535767e-01</leafValues></_>
        <_>
          <internalNodes>
            0 -1 493 5.1307277753949165e-03</internalNodes>
          <leafValues>
            -1.4776006340980530e-01 5.8413976430892944e-01</leafValues></_>
        <_>
          <internalNodes>
            0 -1 224 -2.7078106999397278e-02</internalNodes>
          <leafValues>
            -8.3331918716430664e-01 1.1319330334663391e-01</leafValues></_>
        <_>
          <internalNodes>
            0 -1 252 -1.0025717318058014e-02</internalNodes>
          <leafValues>
            4.8926457762718201e-01 -1.6837702691555023e-01</leafValues></_>
        <_>
          <internalNodes>
            0 -1 276 1.8272915622219443e-04</internalNodes>
          <leafValues>
            1.7937967181205750e-01 -3.5894268751144409e-01</leafValues></_>
        <_>
          <internalNodes>
            0 -1 50 -1.5889307484030724e-02</internalNodes>
          <leafValues>
            3.3336284756660461e-01 -1.8124598264694214e-01</leafValues></_>
        <_>
          <internalNodes>
            0 -1 120 -1.3622391968965530e-02</internalNodes>
          <leafValues>
            4.6711218357086182e-01 -1.4050291478633881e-01</leafValues></_>
        <_>
          <internalNodes>
            0 -1 496 5.4616197012364864e-03</internalNodes>
          <leafValues>
            -1.2555019557476044e-01 5.2001845836639404e-01</leafValues></_>
        <_>
          <internalNodes>
            0 -1 111 2.5449981912970543e-03</internalNodes>
          <leafValues>
            1.6187137365341187e-01 -4.6310159564018250e-01</leafValues></_>
        <_>
          <internalNodes>
            0 -1 277 -1.6522622900083661e-04</internalNodes>
          <leafValues>
            -4.1613948345184326e-01 1.5330767631530762e-01</leafValues></_>
        <_>
          <internalNodes>
            0 -1 59 -2.7962180320173502e-03</internalNodes>
          <leafValues>
            -6.9037288427352905e-01 8.1095762550830841e-02</leafValues></_>
        <_>
          <internalNodes>
            0 -1 54 4.2355470359325409e-03</internalNodes>
          <leafValues>
            9.4741605222225189e-02 -5.7878321409225464e-01</leafValues></_>
        <_>
          <internalNodes>
            0 -1 22 -1.3840775005519390e-02</internalNodes>
          <leafValues>
            2.9925715923309326e-01 -1.9995816051959991e-01</leafValues></_>
        <_>
          <internalNodes>
            0 -1 358 -3.8844347000122070e-03</internalNodes>
          <leafValues>
            5.0651311874389648e-01 -1.2771187722682953e-01</leafValues></_></weakClassifiers></_>
    <!-- stage 5 -->
    <_>
      <maxWeakCount>15</maxWeakCount>
      <stageThreshold>-1.8862872123718262e+00</stageThreshold>
      <weakClassifiers>
        <_>
          <internalNodes>
            0 -1 56 -5.7905558496713638e-03</internalNodes>
          <leafValues>
            -1.4054054021835327e-01 -7.8210860490798950e-01</leafValues></_>
        <_>
          <internalNodes>
            0 -1 387 5.6285997852683067e-03</internalNodes>
          <leafValues>
            -4.3273043632507324e-01 2.4768251180648804e-01</leafValues></_>
        <_>
          <internalNodes>
            0 -1 447 3.3312784507870674e-03</internalNodes>
          <leafValues>
            -2.7189931273460388e-01 3.5481837391853333e-01</leafValues></_>
        <_>
          <internalNodes>
            0 -1 307 -1.2477219104766846e-02</internalNodes>
          <leafValues>
            3.7753036618232727e-01 -2.1417962014675140e-01</leafValues></_>
        <_>
          <internalNodes>
            0 -1 187 -2.7948557399213314e-03</internalNodes>
          <leafValues>
            5.2020931243896484e-01 -1.5873803198337555e-01</leafValues></_>
        <_>
          <internalNodes>
            0 -1 18 -6.1920685693621635e-03</internalNodes>
          <leafValues>
            4.5577561855316162e-01 -1.6923567652702332e-01</leafValues></_>
        <_>
          <internalNodes>
            0 -1 199 -4.1501444578170776e-01</internalNodes>
          <leafValues>
            -8.9760404825210571e-01 9.7028180956840515e-02</leafValues></_>
        <_>
          <internalNodes>
            0 -1 27 8.5393637418746948e-03</internalNodes>
          <leafValues>
            -1.5105433762073517e-01 5.6540668010711670e-01</leafValues></_>
        <_>
          <internalNodes>
            0 -1 94 -3.6084235180169344e-03</internalNodes>
          <leafValues>
            4.2414292693138123e-01 -1.6451118886470795e-01</leafValues></_>
        <_>
          <internalNodes>
            0 -1 116 -8.9432680979371071e-03</internalNodes>
          <leafValues>
            4.4368112087249756e-01 -1.4013862609863281e-01</leafValues></_>
        <_>
          <internalNodes>
            0 -1 121 4.4163670390844345e-03</internalNodes>
          <leafValues>
            -8.8895566761493683e-02 5.3927320241928101e-01</leafValues></_>
        <_>
          <internalNodes>
            0 -1 238 -3.3603911288082600e-03</internalNodes>
          <leafValues>
            -4.0125212073326111e-01 1.7674298584461212e-01</leafValues></_>
        <_>
          <internalNodes>
            0 -1 458 4.9803424626588821e-03</internalNodes>
          <leafValues>
            1.3226889073848724e-01 -4.4990268349647522e-01</leafValues></_>
        <_>
          <internalNodes>
            0 -1 416 -2.1842713467776775e-03</internalNodes>
          <leafValues>
            3.6121857166290283e-01 -2.2356851398944855e-01</leafValues></_>
        <_>
          <internalNodes>
            0 -1 434 1.9693082198500633e-02</internalNodes>
          <leafValues>
            -1.3715100288391113e-01 4.6927025914192200e-01</leafValues></_></weakClassifiers></_>
    <!-- stage 6 -->
    <_>
      <maxWeakCount>16</maxWeakCount>
      <stageThreshold>-1.6972559690475464e+00</stageThreshold>
      <weakClassifiers>
        <_>
          <internalNodes>
            0 -1 346 -1.6246167942881584e-03</internalNodes>
          <leafValues>
            4.2857144027948380e-02 -7.4583333730697632e-01</leafValues></_>
        <_>
          <internalNodes>
            0 -1 362 -9.2375151813030243e-02</internalNodes>
          <leafValues>
            -5.2501607686281204e-02 -7.6257002353668213e-01</leafValues></_>
        <_>
          <internalNodes>
            0 -1 107 -2.0902120741084218e-04</internalNodes>
          <leafValues>
            2.1067678928375244e-01 -3.1845429539680481e-01</leafValues></_>
        <_>
          <internalNodes>
            0 -1 183 -6.0375086031854153e-03</internalNodes>
          <leafValues>
            4.1527771949768066e-01 -1.6086161136627197e-01</leafValues></_>
        <_>
          <internalNodes>
            0 -1 43 -2.6954008266329765e-02</internalNodes>
          <leafValues>
            4.2503499984741211e-01 -1.9727955758571625e-01</leafValues></_>
        <_>
          <internalNodes>
            0 -1 408 4.1628270410001278e-03</internalNodes>
          <leafValues>
            -1.8156285583972931e-01 4.0956416726112366e-01</leafValues></_>
        <_>
          <internalNodes>
            0 -1 159 -2.4426304735243320e-03</internalNodes>
          <leafValues>
            4.5680722594261169e-01 -1.5417307615280151e-01</leafValues></_>
        <_>
          <internalNodes>
            0 -1 450 -2.3892980534583330e-03</internalNodes>
          <leafValues>
            4.4543313980102539e-01 -1.4746484160423279e-01</leafValues></_>
        <_>
          <internalNodes>
            0 -1 453 7.4308377224951982e-04</internalNodes>
          <leafValues>
            -1.9559596478939056e-01 4.5608484745025635e-01</leafValues></_>
        <_>
          <internalNodes>
            0 -1 288 -3.2726816833019257e-02</internalNodes>
          <leafValues>
            4.2436343431472778e-01 -1.2184526771306992e-01</leafValues></_>
        <_>
          <internalNodes>
            0 -1 66 -1.1085572186857462e-03</internalNodes>
          <leafValues>
            3.6222705245018005e-01 -1.4913363754749298e-01</leafValues></_>
        <_>
          <internalNodes>
            0 -1 318 -8.7069452274590731e-04</internalNodes>
          <leafValues>
            3.4852394461631775e-01 -1.6704092919826508e-01</leafValues></_>
        <_>
          <internalNodes>
            0 -1 460 -5.0077121704816818e-03</internalNodes>
          <leafValues>
            -6.4145410060882568e-01 7.8892104327678680e-02</leafValues></_>
        <_>
          <internalNodes>
            0 -1 270 -9.9664926528930664e-03</internalNodes>
          <leafValues>
            3.6422047019004822e-01 -1.4340339601039886e-01</leafValues></_>
        <_>
          <internalNodes>
            0 -1 280 -6.9667090428993106e-05</internalNodes>
          <leafValues>
            1.7145870625972748e-01 -3.6244890093803406e-01</leafValues></_>
        <_>
          <internalNodes>
            0 -1 468 -1.3884820509701967e-03</internalNodes>
          <leafValues>
            3.7676072120666504e-01 -1.5705959498882294e-01</leafValues></_></weakClassifiers></_>
    <!-- stage 7 -->
    <_>
      <maxWeakCount>27</maxWeakCount>
      <stageThreshold>-1.9014816284179688e+00</stageThreshold>
      <weakClassifiers>
        <_>
          <internalNodes>
            0 -1 166 -2.7727223932743073e-02</internalNodes>
          <leafValues>
            -3.4939759969711304e-01 -7.6337116956710815e-01</leafValues></_>
        <_>
          <internalNodes>
            0 -1 437 1.5194399747997522e-04</internalNodes>
          <leafValues>
            -7.9297669231891632e-02 -5.7942968606948853e-01</leafValues></_>
        <_>
          <internalNodes>
            0 -1 193 -1.6743425512686372e-03</internalNodes>
          <leafValues>
            -7.1917843818664551e-01 6.0076121240854263e-02</leafValues></_>
        <_>
          <internalNodes>
            0 -1 222 3.2724712509661913e-03</internalNodes>
          <leafValues>
            -1.7047740519046783e-01 3.1556394696235657e-01</leafValues></_>
        <_>
          <internalNodes>
            0 -1 216 7.1947672404348850e-04</internalNodes>
          <leafValues>
            1.0292180627584457e-01 -5.1503932476043701e-01</leafValues></_>
        <_>
          <internalNodes>
            0 -1 477 -4.2678918689489365e-03</internalNodes>
          <leafValues>
            3.4378331899642944e-01 -1.4406016469001770e-01</leafValues></_>
        <_>
          <internalNodes>
            0 -1 382 -2.7817101217806339e-03</internalNodes>
          <leafValues>
            -6.2835180759429932e-01 6.8986602127552032e-02</leafValues></_>
        <_>
          <internalNodes>
            0 -1 231 -3.0771195888519287e-03</internalNodes>
          <leafValues>
            3.7112081050872803e-01 -1.3091386854648590e-01</leafValues></_>
        <_>
          <internalNodes>
            0 -1 4 -5.3570145973935723e-04</internalNodes>
          <leafValues>
            1.8542927503585815e-01 -2.7789542078971863e-01</leafValues></_>
        <_>
          <internalNodes>
            0 -1 315 -2.2667616605758667e-02</internalNodes>
          <leafValues>
            3.3521500229835510e-01 -1.5167334675788879e-01</leafValues></_>
        <_>
          <internalNodes>
            0 -1 498 4.0591866709291935e-03</internalNodes>
          <leafValues>
            -1.6234028339385986e-01 3.1786203384399414e-01</leafValues></_>
        <_>
          <internalNodes>
            0 -1 417 3.8862433284521103e-03</internalNodes>
          <leafValues>
            1.1164541542530060e-01 -4.7167554497718811e-01</leafValues></_>
        <_>
          <internalNodes>
            0 -1 177 2.2474011406302452e-02</internalNodes>
          <leafValues>
            -9.2695601284503937e-02 5.7155060768127441e-01</leafValues></_>
        <_>
          <internalNodes>
            0 -1 409 -1.7928828019648790e-03</internalNodes>
          <leafValues>
            -5.9058898687362671e-01 9.2690691351890564e-02</leafValues></_>
        <_>
          <internalNodes>
            0 -1 219 5.7382546365261078e-03</internalNodes>
          <leafValues>
            -1.7400133609771729e-01 2.6895976066589355e-01</leafValues></_>
        <_>
          <internalNodes>
            0 -1 65 -7.8907900024205446e-04</internalNodes>
          <leafValues>
            2.0983034372329712e-01 -2.3097835481166840e-01</leafValues></_>
        <_>
          <internalNodes>
            0 -1 439 -9.2737358063459396e-03</internalNodes>
          <leafValues>
            3.5507369041442871e-01 -1.3784785568714142e-01</leafValues></_>
        <_>
          <internalNodes>
            0 -1 412 1.4720545150339603e-02</internalNodes>
          <leafValues>
            -1.6289497911930084e-01 3.2413932681083679e-01</leafValues></_>
        <_>
          <internalNodes>
            0 -1 227 1.3439266011118889e-02</internalNodes>
          <leafValues>
            -1.3290566205978394e-01 3.4860306978225708e-01</leafValues></_>
        <_>
          <internalNodes>
            0 -1 142 -1.3243572786450386e-02</internalNodes>
          <leafValues>
            2.9017642140388489e-01 -1.6021919250488281e-01</leafValues></_>
        <_>
          <internalNodes>
            0 -1 235 7.5199478305876255e-03</internalNodes>
          <leafValues>
            -1.1975978314876556e-01 4.0566435456275940e-01</leafValues></_>
        <_>
          <internalNodes>
            0 -1 151 2.3775719106197357e-02</internalNodes>
          <leafValues>
            -9.0528100728988647e-02 5.6607502698898315e-01</leafValues></_>
        <_>
          <internalNodes>
            0 -1 99 3.8533410988748074e-03</internalNodes>
          <leafValues>
            7.0854730904102325e-02 -7.6465737819671631e-01</leafValues></_>
        <_>
          <internalNodes>
            0 -1 108 1.0312279919162393e-03</internalNodes>
          <leafValues>
            7.9817198216915131e-02 -5.1402586698532104e-01</leafValues></_>
        <_>
          <internalNodes>
            0 -1 226 1.0177951306104660e-02</internalNodes>
          <leafValues>
            6.9599345326423645e-02 -6.3082987070083618e-01</leafValues></_>
        <_>
          <internalNodes>
            0 -1 251 1.6162835891009308e-05</internalNodes>
          <leafValues>
            -2.6189091801643372e-01 1.8051944673061371e-01</leafValues></_>
        <_>
          <internalNodes>
            0 -1 265 -6.8669272586703300e-03</internalNodes>
          <leafValues>
            4.7490555793046951e-02 -9.5022511482238770e-01</leafValues></_></weakClassifiers></_>
    <!-- stage 8 -->
    <_>
      <maxWeakCount>21</maxWeakCount>
      <stageThreshold>-1.6199103593826294e+00</stageThreshold>
      <weakClassifiers>
        <_>
          <internalNodes>
            0 -1 393 2.8792187571525574e-02</internalNodes>
          <leafValues>
            -7.4080663919448853e-01 -1.5625000000000000e-02</leafValues></_>
        <_>
          <internalNodes>
            0 -1 246 -8.8619410991668701e-02</internalNodes>
          <leafValues>
            -7.3103600740432739e-01 -6.9050021469593048e-02</leafValues></_>
        <_>
          <internalNodes>
            0 -1 332 9.6774357371032238e-04</internalNodes>
          <leafValues>
            -1.3832715153694153e-01 4.0144672989845276e-01</leafValues></_>
        <_>
          <internalNodes>
            0 -1 345 -4.1338559240102768e-03</internalNodes>
          <leafValues>
            3.9440023899078369e-01 -1.2475759536027908e-01</leafValues></_>
        <_>
          <internalNodes>
            0 -1 433 -1.1804858222603798e-02</internalNodes>
          <leafValues>
            3.9044719934463501e-01 -1.0502632707357407e-01</leafValues></_>
        <_>
          <internalNodes>
            0 -1 245 2.9872020240873098e-03</internalNodes>
          <leafValues>
            -2.5344562530517578e-01 1.9172863662242889e-01</leafValues></_>
        <_>
          <internalNodes>
            0 -1 223 -9.1622620820999146e-03</internalNodes>
          <leafValues>
            6.3561713695526123e-01 -6.1063580214977264e-02</leafValues></_>
        <_>
          <internalNodes>
            0 -1 80 2.3246724158525467e-03</internalNodes>
          <leafValues>
            -1.5601763129234314e-01 3.3437111973762512e-01</leafValues></_>
        <_>
          <internalNodes>
            0 -1 349 -1.1779133230447769e-02</internalNodes>
          <leafValues>
            -1.5769000351428986e-01 3.2472074031829834e-01</leafValues></_>
        <_>
          <internalNodes>
            0 -1 214 -1.9190398234059103e-05</internalNodes>
          <leafValues>
            1.8469008803367615e-01 -2.6422017812728882e-01</leafValues></_>
        <_>
          <internalNodes>
            0 -1 82 -4.5981993898749352e-03</internalNodes>
          <leafValues>
            3.8585257530212402e-01 -1.1109616607427597e-01</leafValues></_>
        <_>
          <internalNodes>
            0 -1 72 -5.0841952906921506e-04</internalNodes>
          <leafValues>
            1.9011808931827545e-01 -2.5496491789817810e-01</leafValues></_>
        <_>
          <internalNodes>
            0 -1 352 -3.6080004647374153e-03</internalNodes>
          <leafValues>
            2.4659878015518188e-01 -1.9371646642684937e-01</leafValues></_>
        <_>
          <internalNodes>
            0 -1 305 -2.7068154886364937e-03</internalNodes>
          <leafValues>
            -4.7644567489624023e-01 1.0358295589685440e-01</leafValues></_>
        <_>
          <internalNodes>
            0 -1 60 3.2861018553376198e-03</internalNodes>
          <leafValues>
            -1.2864179909229279e-01 4.0250888466835022e-01</leafValues></_>
        <_>
          <internalNodes>
            0 -1 504 3.6941288271918893e-05</internalNodes>
          <leafValues>
            -2.9134085774421692e-01 1.7327819764614105e-01</leafValues></_>
        <_>
          <internalNodes>
            0 -1 6 -1.0728830238804221e-03</internalNodes>
          <leafValues>
            1.4998386800289154e-01 -3.0618864297866821e-01</leafValues></_>
        <_>
          <internalNodes>
            0 -1 274 -1.7037261277437210e-02</internalNodes>
          <leafValues>
            4.5199009776115417e-01 -1.1083360761404037e-01</leafValues></_>
        <_>
          <internalNodes>
            0 -1 255 1.9419765099883080e-02</internalNodes>
          <leafValues>
            -8.8052414357662201e-02 5.2264499664306641e-01</leafValues></_>
        <_>
          <internalNodes>
            0 -1 178 8.7163387797772884e-04</internalNodes>
          <leafValues>
            1.2052859365940094e-01 -4.1398662328720093e-01</leafValues></_>
        <_>
          <internalNodes>
            0 -1 184 1.2696953490376472e-02</internalNodes>
          <leafValues>
            7.5413696467876434e-02 -5.3546601533889771e-01</leafValues></_></weakClassifiers></_>
    <!-- stage 9 -->
    <_>
      <maxWeakCount>23</maxWeakCount>
      <stageThreshold>-1.6892291307449341e+00</stageThreshold>
      <weakClassifiers>
        <_>
          <internalNodes>
            0 -1 391 3.1261295080184937e-02</internalNodes>
          <leafValues>
            -7.4085003137588501e-01 8.9285716414451599e-02</leafValues></_>
        <_>
          <internalNodes>
            0 -1 49 -3.5395172890275717e-03</internalNodes>
          <leafValues>
            -6.2432968616485596e-01 -8.8801987469196320e-02</leafValues></_>
        <_>
          <internalNodes>
            0 -1 128 2.8161465888842940e-04</internalNodes>
          <leafValues>
            9.8435677587985992e-02 -4.7014376521110535e-01</leafValues></_>
        <_>
          <internalNodes>
            0 -1 402 2.6826138491742313e-04</internalNodes>
          <leafValues>
            1.3727672398090363e-01 -3.5566985607147217e-01</leafValues></_>
        <_>
          <internalNodes>
            0 -1 137 -1.9953429698944092e-02</internalNodes>
          <leafValues>
            3.8295805454254150e-01 -1.0079874843358994e-01</leafValues></_>
        <_>
          <internalNodes>
            0 -1 21 -1.3398606330156326e-02</internalNodes>
          <leafValues>
            4.3237632513046265e-01 -1.0720683634281158e-01</leafValues></_>
        <_>
          <internalNodes>
            0 -1 368 -4.5458246022462845e-03</internalNodes>
          <leafValues>
            4.3896082043647766e-01 -1.0163293778896332e-01</leafValues></_>
        <_>
          <internalNodes>
            0 -1 395 2.4253879673779011e-03</internalNodes>
          <leafValues>
            -1.9125719368457794e-01 2.4741381406784058e-01</leafValues></_>
        <_>
          <internalNodes>
            0 -1 51 2.4756891652941704e-03</internalNodes>
          <leafValues>
            -1.4071187376976013e-01 3.3996427059173584e-01</leafValues></_>
        <_>
          <internalNodes>
            0 -1 97 3.7712216726504266e-04</internalNodes>
          <leafValues>
            9.8146803677082062e-02 -4.7603213787078857e-01</leafValues></_>
        <_>
          <internalNodes>
            0 -1 39 6.0860039666295052e-03</internalNodes>
          <leafValues>
            6.6216930747032166e-02 -5.6935167312622070e-01</leafValues></_>
        <_>
          <internalNodes>
            0 -1 514 -3.2837333856150508e-04</internalNodes>
          <leafValues>
            -3.1989473104476929e-01 1.2927219271659851e-01</leafValues></_>
        <_>
          <internalNodes>
            0 -1 172 -1.0469332337379456e-02</internalNodes>
          <leafValues>
            6.4611703157424927e-01 -6.9929271936416626e-02</leafValues></_>
        <_>
          <internalNodes>
            0 -1 370 6.7791137844324112e-03</internalNodes>
          <leafValues>
            6.2844902276992798e-02 -7.7951437234878540e-01</leafValues></_>
        <_>
          <internalNodes>
            0 -1 367 -2.1092165261507034e-03</internalNodes>
          <leafValues>
            -4.3343386054039001e-01 1.0606411844491959e-01</leafValues></_>
        <_>
          <internalNodes>
            0 -1 401 1.6116712242364883e-02</internalNodes>
          <leafValues>
            -1.5277621150016785e-01 2.7114146947860718e-01</leafValues></_>
        <_>
          <internalNodes>
            0 -1 369 -1.9981111399829388e-03</internalNodes>
          <leafValues>
            3.6291179060935974e-01 -1.1988046020269394e-01</leafValues></_>
        <_>
          <internalNodes>
            0 -1 63 -3.1885770149528980e-03</internalNodes>
          <leafValues>
            -7.0469695329666138e-01 6.3528992235660553e-02</leafValues></_>
        <_>
          <internalNodes>
            0 -1 422 2.8774507809430361e-03</internalNodes>
          <leafValues>
            5.5308509618043900e-02 -6.5983098745346069e-01</leafValues></_>
        <_>
          <internalNodes>
            0 -1 485 -5.2095800638198853e-02</internalNodes>
          <leafValues>
            -7.4953013658523560e-01 4.8090714961290359e-02</leafValues></_>
        <_>
          <internalNodes>
            0 -1 296 1.5056912161526270e-05</internalNodes>
          <leafValues>
            -2.5193631649017334e-01 1.5043339133262634e-01</leafValues></_>
        <_>
          <internalNodes>
            0 -1 134 6.0005062259733677e-03</internalNodes>
          <leafValues>
            -1.2311381101608276e-01 3.3333438634872437e-01</leafValues></_>
        <_>
          <internalNodes>
            0 -1 20 -2.9189724475145340e-02</internalNodes>
          <leafValues>
            -8.2100071012973785e-02 4.9044039845466614e-01</leafValues></_></weakClassifiers></_>
    <!-- stage 10 -->
    <_>
      <maxWeakCount>28</maxWeakCount>
      <stageThreshold>-1.7008808851242065e+00</stageThreshold>
      <weakClassifiers>
        <_>
          <internalNodes>
            0 -1 202 -8.8749602437019348e-03</internalNodes>
          <leafValues>
            -1.8918919563293457e-01 -7.4358975887298584e-01</leafValues></_>
        <_>
          <internalNodes>
            0 -1 489 -5.2760345861315727e-03</internalNodes>
          <leafValues>
            1.8549275398254395e-01 -3.0469083786010742e-01</leafValues></_>
        <_>
          <internalNodes>
            0 -1 483 7.6620317995548248e-03</internalNodes>
          <leafValues>
            -1.4251275360584259e-01 3.2399049401283264e-01</leafValues></_>
        <_>
          <internalNodes>
            0 -1 248 9.5986556261777878e-03</internalNodes>
          <leafValues>
            7.8435979783535004e-02 -5.7389920949935913e-01</leafValues></_>
        <_>
          <internalNodes>
            0 -1 479 1.9119463860988617e-02</internalNodes>
          <leafValues>
            1.4757220447063446e-01 -4.0054261684417725e-01</leafValues></_>
        <_>
          <internalNodes>
            0 -1 247 -1.1863734573125839e-02</internalNodes>
          <leafValues>
            -6.4513975381851196e-01 4.0624029934406281e-02</leafValues></_>
        <_>
          <internalNodes>
            0 -1 319 1.4320729300379753e-02</internalNodes>
          <leafValues>
            -1.4280460774898529e-01 2.9887121915817261e-01</leafValues></_>
        <_>
          <internalNodes>
            0 -1 459 -4.3392684310674667e-03</internalNodes>
          <leafValues>
            -5.0707685947418213e-01 8.6348898708820343e-02</leafValues></_>
        <_>
          <internalNodes>
            0 -1 168 1.9819985609501600e-03</internalNodes>
          <leafValues>
            -1.1927338689565659e-01 3.4072414040565491e-01</leafValues></_>
        <_>
          <internalNodes>
            0 -1 185 5.5118650197982788e-04</internalNodes>
          <leafValues>
            -1.1278453469276428e-01 3.5779032111167908e-01</leafValues></_>
        <_>
          <internalNodes>
            0 -1 91 -2.5919177569448948e-03</internalNodes>
          <leafValues>
            -4.9324113130569458e-01 9.1860748827457428e-02</leafValues></_>
        <_>
          <internalNodes>
            0 -1 512 -6.3068225979804993e-02</internalNodes>
          <leafValues>
            -7.7525705099105835e-01 3.8701858371496201e-02</leafValues></_>
        <_>
          <internalNodes>
            0 -1 404 9.3558058142662048e-03</internalNodes>
          <leafValues>
            -1.6291613876819611e-01 2.6092001795768738e-01</leafValues></_>
        <_>
          <internalNodes>
            0 -1 466 -3.6927426699548960e-03</internalNodes>
          <leafValues>
            4.7311091423034668e-01 -9.2435970902442932e-02</leafValues></_>
        <_>
          <internalNodes>
            0 -1 384 3.3362495014443994e-04</internalNodes>
          <leafValues>
            1.2481600046157837e-01 -3.2335937023162842e-01</leafValues></_>
        <_>
          <internalNodes>
            0 -1 421 -1.0685063898563385e-02</internalNodes>
          <leafValues>
            -5.7246500253677368e-01 6.3854962587356567e-02</leafValues></_>
        <_>
          <internalNodes>
            0 -1 74 -5.6751195341348648e-02</internalNodes>
          <leafValues>
            -8.1698542833328247e-01 4.0649875998497009e-02</leafValues></_>
        <_>
          <internalNodes>
            0 -1 79 -6.1249564168974757e-04</internalNodes>
          <leafValues>
            1.6771374642848969e-01 -2.5495773553848267e-01</leafValues></_>
        <_>
          <internalNodes>
            0 -1 262 2.3575687408447266e-01</internalNodes>
          <leafValues>
            5.1946796476840973e-02 -7.1385282278060913e-01</leafValues></_>
        <_>
          <internalNodes>
            0 -1 484 7.3054051026701927e-03</internalNodes>
          <leafValues>
            3.3958990126848221e-02 -8.5066974163055420e-01</leafValues></_>
        <_>
          <internalNodes>
            0 -1 279 6.7098815634381026e-05</internalNodes>
          <leafValues>
            -2.5229755043983459e-01 1.3650606572628021e-01</leafValues></_>
        <_>
          <internalNodes>
            0 -1 376 1.9789965823292732e-02</internalNodes>
          <leafValues>
            -1.7223271727561951e-01 2.3575945198535919e-01</leafValues></_>
        <_>
          <internalNodes>
            0 -1 201 5.7669732719659805e-02</internalNodes>
          <leafValues>
            -1.8172229826450348e-01 2.5487869977951050e-01</leafValues></_>
        <_>
          <internalNodes>
            0 -1 7 7.8175872564315796e-02</internalNodes>
          <leafValues>
            7.0008121430873871e-02 -5.7557606697082520e-01</leafValues></_>
        <_>
          <internalNodes>
            0 -1 124 1.9947314634919167e-02</internalNodes>
          <leafValues>
            -1.2149252742528915e-01 3.5824960470199585e-01</leafValues></_>
        <_>
          <internalNodes>
            0 -1 432 1.0408099740743637e-02</internalNodes>
          <leafValues>
            -1.0382345318794250e-01 4.3672859668731689e-01</leafValues></_>
        <_>
          <internalNodes>
            0 -1 167 4.5737223699688911e-03</internalNodes>
          <leafValues>
            7.4900835752487183e-02 -6.4344441890716553e-01</leafValues></_>
        <_>
          <internalNodes>
            0 -1 197 -2.1005687303841114e-03</internalNodes>
          <leafValues>
            -6.3670033216476440e-01 6.3965082168579102e-02</leafValues></_></weakClassifiers></_>
    <!-- stage 11 -->
    <_>
      <maxWeakCount>26</maxWeakCount>
      <stageThreshold>-1.7041411399841309e+00</stageThreshold>
      <weakClassifiers>
        <_>
          <internalNodes>
            0 -1 205 1.5158930793404579e-02</internalNodes>
          <leafValues>
            -7.3007559776306152e-01 1.6129031777381897e-01</leafValues></_>
        <_>
          <internalNodes>
            0 -1 130 -3.1119602918624878e-01</internalNodes>
          <leafValues>
            -5.8822698891162872e-02 -5.9051102399826050e-01</leafValues></_>
        <_>
          <internalNodes>
            0 -1 62 1.4716458972543478e-03</internalNodes>
          <leafValues>
            6.1699237674474716e-02 -5.4964041709899902e-01</leafValues></_>
        <_>
          <internalNodes>
            0 -1 505 -4.7008751425892115e-04</internalNodes>
          <leafValues>
            -3.8073065876960754e-01 9.8637044429779053e-02</leafValues></_>
        <_>
          <internalNodes>
            0 -1 471 6.1481876764446497e-04</internalNodes>
          <leafValues>
            -9.0037792921066284e-02 3.4426206350326538e-01</leafValues></_>
        <_>
          <internalNodes>
            0 -1 468 3.1958147883415222e-03</internalNodes>
          <leafValues>
            -9.1670595109462738e-02 4.7062608599662781e-01</leafValues></_>
        <_>
          <internalNodes>
            0 -1 381 7.6101394370198250e-03</internalNodes>
          <leafValues>
            -1.0183831304311752e-01 3.8213580846786499e-01</leafValues></_>
        <_>
          <internalNodes>
            0 -1 210 5.0735648721456528e-02</internalNodes>
          <leafValues>
            -5.1685873419046402e-02 5.3290188312530518e-01</leafValues></_>
        <_>
          <internalNodes>
            0 -1 415 1.5462119132280350e-02</internalNodes>
          <leafValues>
            7.0847399532794952e-02 -5.6606924533843994e-01</leafValues></_>
        <_>
          <internalNodes>
            0 -1 271 -3.7807407788932323e-03</internalNodes>
          <leafValues>
            2.9293861985206604e-01 -1.3545320928096771e-01</leafValues></_>
        <_>
          <internalNodes>
            0 -1 230 -1.8060004711151123e-01</internalNodes>
          <leafValues>
            3.4845273941755295e-02 -9.3086391687393188e-01</leafValues></_>
        <_>
          <internalNodes>
            0 -1 419 1.2164592044427991e-04</internalNodes>
          <leafValues>
            1.1898262053728104e-01 -3.4433075785636902e-01</leafValues></_>
        <_>
          <internalNodes>
            0 -1 396 3.2022497616708279e-03</internalNodes>
          <leafValues>
            5.4715383797883987e-02 -6.4686119556427002e-01</leafValues></_>
        <_>
          <internalNodes>
            0 -1 112 2.3134881630539894e-03</internalNodes>
          <leafValues>
            -1.5638579428195953e-01 2.6208946108818054e-01</leafValues></_>
        <_>
          <internalNodes>
            0 -1 325 2.9106731526553631e-03</internalNodes>
          <leafValues>
            6.5507955849170685e-02 -6.3960945606231689e-01</leafValues></_>
        <_>
          <internalNodes>
            0 -1 3 3.3068777993321419e-03</internalNodes>
          <leafValues>
            3.6858957260847092e-02 -7.6752632856369019e-01</leafValues></_>
        <_>
          <internalNodes>
            0 -1 186 6.5004092175513506e-04</internalNodes>
          <leafValues>
            -1.1025144904851913e-01 3.3737185597419739e-01</leafValues></_>
        <_>
          <internalNodes>
            0 -1 19 -2.7740461518988013e-05</internalNodes>
          <leafValues>
            1.6060693562030792e-01 -2.2677716612815857e-01</leafValues></_>
        <_>
          <internalNodes>
            0 -1 215 -6.0714606661349535e-04</internalNodes>
          <leafValues>
            -3.4142145514488220e-01 9.7889952361583710e-02</leafValues></_>
        <_>
          <internalNodes>
            0 -1 81 5.1963169127702713e-02</internalNodes>
          <leafValues>
            4.4642869383096695e-02 -6.9240713119506836e-01</leafValues></_>
        <_>
          <internalNodes>
            0 -1 232 -6.1494298279285431e-03</internalNodes>
          <leafValues>
            4.4102403521537781e-01 -8.8222913444042206e-02</leafValues></_>
        <_>
          <internalNodes>
            0 -1 55 -3.0764369294047356e-03</internalNodes>
          <leafValues>
            3.0236035585403442e-01 -1.1379358172416687e-01</leafValues></_>
        <_>
          <internalNodes>
            0 -1 17 -3.1052737031131983e-03</internalNodes>
          <leafValues>
            3.3305966854095459e-01 -1.1348450183868408e-01</leafValues></_>
        <_>
          <internalNodes>
            0 -1 396 -2.8541991487145424e-03</internalNodes>
          <leafValues>
            -8.6624807119369507e-01 4.5819398015737534e-02</leafValues></_>
        <_>
          <internalNodes>
            0 -1 88 -3.7467551883310080e-03</internalNodes>
          <leafValues>
            -3.5678088665008545e-01 8.9011020958423615e-02</leafValues></_>
        <_>
          <internalNodes>
            0 -1 192 3.5999428946524858e-03</internalNodes>
          <leafValues>
            -2.0623819530010223e-01 1.6805024445056915e-01</leafValues></_></weakClassifiers></_>
    <!-- stage 12 -->
    <_>
      <maxWeakCount>29</maxWeakCount>
      <stageThreshold>-1.5526748895645142e+00</stageThreshold>
      <weakClassifiers>
        <_>
          <internalNodes>
            0 -1 190 3.6959879100322723e-02</internalNodes>
          <leafValues>
            -7.3258888721466064e-01 -7.2164945304393768e-02</leafValues></_>
        <_>
          <internalNodes>
            0 -1 144 1.4745215885341167e-03</internalNodes>
          <leafValues>
            -3.1592461466789246e-01 9.1197326779365540e-02</leafValues></_>
        <_>
          <internalNodes>
            0 -1 71 -5.7293288409709930e-03</internalNodes>
          <leafValues>
            1.5024615824222565e-01 -2.4916321039199829e-01</leafValues></_>
        <_>
          <internalNodes>
            0 -1 500 2.0348364487290382e-03</internalNodes>
          <leafValues>
            -1.2421742826700211e-01 2.7236646413803101e-01</leafValues></_>
        <_>
          <internalNodes>
            0 -1 495 5.6349327787756920e-03</internalNodes>
          <leafValues>
            -9.1103024780750275e-02 3.5358551144599915e-01</leafValues></_>
        <_>
          <internalNodes>
            0 -1 68 -1.4632922830060124e-03</internalNodes>
          <leafValues>
            -4.4639444351196289e-01 7.4058905243873596e-02</leafValues></_>
        <_>
          <internalNodes>
            0 -1 131 8.8896006345748901e-03</internalNodes>
          <leafValues>
            -9.1504521667957306e-02 3.2701608538627625e-01</leafValues></_>
        <_>
          <internalNodes>
            0 -1 237 -3.8446485996246338e-02</internalNodes>
          <leafValues>
            2.4658763408660889e-01 -1.4006654918193817e-01</leafValues></_>
        <_>
          <internalNodes>
            0 -1 424 8.0253109335899353e-03</internalNodes>
          <leafValues>
            -9.2477932572364807e-02 3.1440383195877075e-01</leafValues></_>
        <_>
          <internalNodes>
            0 -1 257 -8.7658325210213661e-03</internalNodes>
          <leafValues>
            6.2882798910140991e-01 -5.6119669228792191e-02</leafValues></_>
        <_>
          <internalNodes>
            0 -1 263 3.2528303563594818e-04</internalNodes>
          <leafValues>
            9.4320178031921387e-02 -4.0748405456542969e-01</leafValues></_>
        <_>
          <internalNodes>
            0 -1 291 3.6614738404750824e-02</internalNodes>
          <leafValues>
            -7.4616380035877228e-02 4.8756289482116699e-01</leafValues></_>
        <_>
          <internalNodes>
            0 -1 147 5.9350702213123441e-04</internalNodes>
          <leafValues>
            -1.6280913352966309e-01 2.1454000473022461e-01</leafValues></_>
        <_>
          <internalNodes>
            0 -1 321 -3.5461551306070760e-05</internalNodes>
          <leafValues>
            1.7299388349056244e-01 -2.0889821648597717e-01</leafValues></_>
        <_>
          <internalNodes>
            0 -1 380 -2.9311212711036205e-04</internalNodes>
          <leafValues>
            -3.0500730872154236e-01 1.1525873839855194e-01</leafValues></_>
        <_>
          <internalNodes>
            0 -1 390 6.1048204079270363e-03</internalNodes>
          <leafValues>
            -8.3432041108608246e-02 4.2297545075416565e-01</leafValues></_>
        <_>
          <internalNodes>
            0 -1 40 -2.5813350081443787e-01</internalNodes>
          <leafValues>
            -5.6731277704238892e-01 5.7489130645990372e-02</leafValues></_>
        <_>
          <internalNodes>
            0 -1 213 -4.6075280755758286e-02</internalNodes>
          <leafValues>
            4.2531085014343262e-01 -8.3991870284080505e-02</leafValues></_>
        <_>
          <internalNodes>
            0 -1 388 2.3371696472167969e-02</internalNodes>
          <leafValues>
            5.0229292362928391e-02 -6.7550134658813477e-01</leafValues></_>
        <_>
          <internalNodes>
            0 -1 513 -1.3298313133418560e-02</internalNodes>
          <leafValues>
            -8.6950623989105225e-01 2.7073444798588753e-02</leafValues></_>
        <_>
          <internalNodes>
            0 -1 324 -5.1468592137098312e-03</internalNodes>
          <leafValues>
            -4.9115887284278870e-01 5.0160422921180725e-02</leafValues></_>
        <_>
          <internalNodes>
            0 -1 359 3.6711844149976969e-03</internalNodes>
          <leafValues>
            -7.5990557670593262e-02 4.1650202870368958e-01</leafValues></_>
        <_>
          <internalNodes>
            0 -1 48 -4.4685597531497478e-03</internalNodes>
          <leafValues>
            -4.2380049824714661e-01 7.7482946217060089e-02</leafValues></_>
        <_>
          <internalNodes>
            0 -1 206 4.6199694275856018e-02</internalNodes>
          <leafValues>
            -5.7209033519029617e-02 6.5097081661224365e-01</leafValues></_>
        <_>
          <internalNodes>
            0 -1 342 1.4591820072382689e-03</internalNodes>
          <leafValues>
            6.7035086452960968e-02 -4.9788555502891541e-01</leafValues></_>
        <_>
          <internalNodes>
            0 -1 24 5.6644370779395103e-03</internalNodes>
          <leafValues>
            -1.3763785362243652e-01 2.2472900152206421e-01</leafValues></_>
        <_>
          <internalNodes>
            0 -1 110 -1.3368414714932442e-02</internalNodes>
          <leafValues>
            -6.1619019508361816e-01 5.4971612989902496e-02</leafValues></_>
        <_>
          <internalNodes>
            0 -1 225 -7.4516581371426582e-03</internalNodes>
          <leafValues>
            -7.2223061323165894e-01 3.2612867653369904e-02</leafValues></_>
        <_>
          <internalNodes>
            0 -1 452 -1.1117975227534771e-03</internalNodes>
          <leafValues>
            3.8419312238693237e-01 -8.3152651786804199e-02</leafValues></_></weakClassifiers></_>
    <!-- stage 13 -->
    <_>
      <maxWeakCount>28</maxWeakCount>
      <stageThreshold>-1.6263202428817749e+00</stageThreshold>
      <weakClassifiers>
        <_>
          <internalNodes>
            0 -1 339 1.6397461295127869e-01</internalNodes>
          <leafValues>
            -7.2290885448455811e-01 7.1428573131561279e-01</leafValues></_>
        <_>
          <internalNodes>
            0 -1 486 -2.9978135135024786e-03</internalNodes>
          <leafValues>
            1.3100256025791168e-01 -3.0362743139266968e-01</leafValues></_>
        <_>
          <internalNodes>
            0 -1 156 -1.6001291573047638e-02</internalNodes>
          <leafValues>
            3.2728672027587891e-01 -1.0778230428695679e-01</leafValues></_>
        <_>
          <internalNodes>
            0 -1 170 4.1991127654910088e-03</internalNodes>
          <leafValues>
            -8.6910583078861237e-02 3.7546783685684204e-01</leafValues></_>
        <_>
          <internalNodes>
            0 -1 242 4.4358894228935242e-03</internalNodes>
          <leafValues>
            5.6599315255880356e-02 -6.3018250465393066e-01</leafValues></_>
        <_>
          <internalNodes>
            0 -1 200 -1.0648125316947699e-03</internalNodes>
          <leafValues>
            2.5290831923484802e-01 -1.2584954500198364e-01</leafValues></_>
        <_>
          <internalNodes>
            0 -1 469 2.4103517644107342e-03</internalNodes>
          <leafValues>
            -1.0246514528989792e-01 3.1538054347038269e-01</leafValues></_>
        <_>
          <internalNodes>
            0 -1 70 -3.0333413742482662e-03</internalNodes>
          <leafValues>
            1.6597726941108704e-01 -1.8283757567405701e-01</leafValues></_>
        <_>
          <internalNodes>
            0 -1 117 6.4057230949401855e-02</internalNodes>
          <leafValues>
            -7.6518699526786804e-02 4.6021014451980591e-01</leafValues></_>
        <_>
          <internalNodes>
            0 -1 138 -2.9020695015788078e-02</internalNodes>
          <leafValues>
            -7.8370946645736694e-01 4.1968226432800293e-02</leafValues></_>
        <_>
          <internalNodes>
            0 -1 102 2.7563641779124737e-03</internalNodes>
          <leafValues>
            -9.6290469169616699e-02 3.2426673173904419e-01</leafValues></_>
        <_>
          <internalNodes>
            0 -1 241 1.0246804449707270e-03</internalNodes>
          <leafValues>
            -1.4648407697677612e-01 2.2750949859619141e-01</leafValues></_>
        <_>
          <internalNodes>
            0 -1 510 -2.4676038883626461e-03</internalNodes>
          <leafValues>
            -4.9963295459747314e-01 5.3383130580186844e-02</leafValues></_>
        <_>
          <internalNodes>
            0 -1 73 3.0576162040233612e-02</internalNodes>
          <leafValues>
            -8.3490334451198578e-02 3.7929096817970276e-01</leafValues></_>
        <_>
          <internalNodes>
            0 -1 30 -1.8559416057541966e-03</internalNodes>
          <leafValues>
            -5.6015282869338989e-01 5.7208370417356491e-02</leafValues></_>
        <_>
          <internalNodes>
            0 -1 198 1.2726954184472561e-02</internalNodes>
          <leafValues>
            3.5415563732385635e-02 -7.4352258443832397e-01</leafValues></_>
        <_>
          <internalNodes>
            0 -1 140 5.0332043319940567e-03</internalNodes>
          <leafValues>
            -1.5288496017456055e-01 2.1204003691673279e-01</leafValues></_>
        <_>
          <internalNodes>
            0 -1 441 -1.7635138705372810e-02</internalNodes>
          <leafValues>
            -6.2560325860977173e-01 4.9170318990945816e-02</leafValues></_>
        <_>
          <internalNodes>
            0 -1 430 -1.1358058545738459e-03</internalNodes>
          <leafValues>
            4.0440317988395691e-01 -8.1448629498481750e-02</leafValues></_>
        <_>
          <internalNodes>
            0 -1 93 -6.0500213876366615e-03</internalNodes>
          <leafValues>
            -5.6511801481246948e-01 5.8449454605579376e-02</leafValues></_>
        <_>
          <internalNodes>
            0 -1 114 1.0686439927667379e-03</internalNodes>
          <leafValues>
            -9.0229824185371399e-02 3.8621297478675842e-01</leafValues></_>
        <_>
          <internalNodes>
            0 -1 299 1.4769734116271138e-04</internalNodes>
          <leafValues>
            1.0794906318187714e-01 -2.9528602957725525e-01</leafValues></_>
        <_>
          <internalNodes>
            0 -1 233 -5.5187549442052841e-03</internalNodes>
          <leafValues>
            3.1747087836265564e-01 -1.0519591718912125e-01</leafValues></_>
        <_>
          <internalNodes>
            0 -1 293 -6.7411288619041443e-02</internalNodes>
          <leafValues>
            3.3572945743799210e-02 -9.1294240951538086e-01</leafValues></_>
        <_>
          <internalNodes>
            0 -1 491 -3.0385383870452642e-03</internalNodes>
          <leafValues>
            2.8717520833015442e-01 -1.0961977392435074e-01</leafValues></_>
        <_>
          <internalNodes>
            0 -1 494 -3.3780727535486221e-03</internalNodes>
          <leafValues>
            3.1105282902717590e-01 -1.0965418070554733e-01</leafValues></_>
        <_>
          <internalNodes>
            0 -1 474 2.7556292479857802e-05</internalNodes>
          <leafValues>
            -2.3994272947311401e-01 1.3247066736221313e-01</leafValues></_>
        <_>
          <internalNodes>
            0 -1 365 -1.4710219576954842e-02</internalNodes>
          <leafValues>
            4.3331024050712585e-01 -7.6895609498023987e-02</leafValues></_></weakClassifiers></_>
    <!-- stage 14 -->
    <_>
      <maxWeakCount>35</maxWeakCount>
      <stageThreshold>-1.6728160381317139e+00</stageThreshold>
      <weakClassifiers>
        <_>
          <internalNodes>
            0 -1 337 7.9519912600517273e-02</internalNodes>
          <leafValues>
            -7.2415781021118164e-01 5.5555558204650879e-01</leafValues></_>
        <_>
          <internalNodes>
            0 -1 361 5.8120138943195343e-02</internalNodes>
          <leafValues>
            -2.5455766916275024e-01 3.1248009204864502e-01</leafValues></_>
        <_>
          <internalNodes>
            0 -1 25 -2.0148362964391708e-03</internalNodes>
          <leafValues>
            2.1707117557525635e-01 -1.5802729129791260e-01</leafValues></_>
        <_>
          <internalNodes>
            0 -1 26 6.2420722097158432e-03</internalNodes>
          <leafValues>
            -1.0090903937816620e-01 3.5688257217407227e-01</leafValues></_>
        <_>
          <internalNodes>
            0 -1 196 7.4661620892584324e-03</internalNodes>
          <leafValues>
            -1.4956872165203094e-01 2.3612180352210999e-01</leafValues></_>
        <_>
          <internalNodes>
            0 -1 333 -1.9721449352800846e-03</internalNodes>
          <leafValues>
            2.6553085446357727e-01 -1.2069620192050934e-01</leafValues></_>
        <_>
          <internalNodes>
            0 -1 174 -1.8851157277822495e-02</internalNodes>
          <leafValues>
            3.1230399012565613e-01 -1.1295302957296371e-01</leafValues></_>
        <_>
          <internalNodes>
            0 -1 405 1.0439339093863964e-03</internalNodes>
          <leafValues>
            7.9051196575164795e-02 -4.1782528162002563e-01</leafValues></_>
        <_>
          <internalNodes>
            0 -1 311 1.0921154171228409e-01</internalNodes>
          <leafValues>
            -1.4724535867571831e-02 7.6878488063812256e-01</leafValues></_>
        <_>
          <internalNodes>
            0 -1 127 -3.4206714190077037e-05</internalNodes>
          <leafValues>
            1.5728184580802917e-01 -2.1059271693229675e-01</leafValues></_>
        <_>
          <internalNodes>
            0 -1 473 -1.1875201016664505e-03</internalNodes>
          <leafValues>
            -5.5549973249435425e-01 6.9824904203414917e-02</leafValues></_>
        <_>
          <internalNodes>
            0 -1 132 1.2955525889992714e-03</internalNodes>
          <leafValues>
            -7.0278018712997437e-02 5.0818705558776855e-01</leafValues></_>
        <_>
          <internalNodes>
            0 -1 322 8.1758640590123832e-05</internalNodes>
          <leafValues>
            9.9167034029960632e-02 -3.2847523689270020e-01</leafValues></_>
        <_>
          <internalNodes>
            0 -1 145 -1.4484759420156479e-02</internalNodes>
          <leafValues>
            2.9444429278373718e-01 -1.0694302618503571e-01</leafValues></_>
        <_>
          <internalNodes>
            0 -1 472 -9.7878265660256147e-04</internalNodes>
          <leafValues>
            2.5983515381813049e-01 -1.2313454598188400e-01</leafValues></_>
        <_>
          <internalNodes>
            0 -1 173 7.6961442828178406e-03</internalNodes>
          <leafValues>
            -7.3398366570472717e-02 4.2226362228393555e-01</leafValues></_>
        <_>
          <internalNodes>
            0 -1 136 1.8975536804646254e-03</internalNodes>
          <leafValues>
            7.3592051863670349e-02 -4.3051749467849731e-01</leafValues></_>
        <_>
          <internalNodes>
            0 -1 470 -2.3304477799683809e-03</internalNodes>
          <leafValues>
            3.7918338179588318e-01 -8.0603897571563721e-02</leafValues></_>
        <_>
          <internalNodes>
            0 -1 385 8.0736428499221802e-03</internalNodes>
          <leafValues>
            -1.2277172505855560e-01 2.4454191327095032e-01</leafValues></_>
        <_>
          <internalNodes>
            0 -1 461 2.8754975646734238e-03</internalNodes>
          <leafValues>
            3.7985853850841522e-02 -8.1161177158355713e-01</leafValues></_>
        <_>
          <internalNodes>
            0 -1 29 1.8556658178567886e-03</internalNodes>
          <leafValues>
            4.1944935917854309e-02 -5.9446823596954346e-01</leafValues></_>
        <_>
          <internalNodes>
            0 -1 331 2.0528999157249928e-03</internalNodes>
          <leafValues>
            -8.6837381124496460e-02 3.7454283237457275e-01</leafValues></_>
        <_>
          <internalNodes>
            0 -1 264 -1.2062177062034607e-02</internalNodes>
          <leafValues>
            2.8156766295433044e-01 -1.1145933717489243e-01</leafValues></_>
        <_>
          <internalNodes>
            0 -1 497 5.4477998055517673e-03</internalNodes>
          <leafValues>
            -1.0519964247941971e-01 2.9422360658645630e-01</leafValues></_>
        <_>
          <internalNodes>
            0 -1 0 5.3878745529800653e-04</internalNodes>
          <leafValues>
            7.2852455079555511e-02 -4.3782207369804382e-01</leafValues></_>
        <_>
          <internalNodes>
            0 -1 436 -4.5039504766464233e-04</internalNodes>
          <leafValues>
            -3.9752432703971863e-01 7.2830706834793091e-02</leafValues></_>
        <_>
          <internalNodes>
            0 -1 83 1.0099649429321289e-01</internalNodes>
          <leafValues>
            -6.1319503933191299e-02 5.1164692640304565e-01</leafValues></_>
        <_>
          <internalNodes>
            0 -1 84 -3.1080248299986124e-04</internalNodes>
          <leafValues>
            2.7290812134742737e-01 -1.0697089135646820e-01</leafValues></_>
        <_>
          <internalNodes>
            0 -1 98 3.8771447725594044e-04</internalNodes>
          <leafValues>
            8.9317187666893005e-02 -3.2017302513122559e-01</leafValues></_>
        <_>
          <internalNodes>
            0 -1 37 -1.3964871177449822e-03</internalNodes>
          <leafValues>
            2.0000949501991272e-01 -1.5828791260719299e-01</leafValues></_>
        <_>
          <internalNodes>
            0 -1 45 5.9297424741089344e-04</internalNodes>
          <leafValues>
            -1.5876792371273041e-01 1.9612650573253632e-01</leafValues></_>
        <_>
          <internalNodes>
            0 -1 46 -1.8228530883789063e-02</internalNodes>
          <leafValues>
            1.9328148663043976e-01 -1.5340748429298401e-01</leafValues></_>
        <_>
          <internalNodes>
            0 -1 179 -6.1086425557732582e-03</internalNodes>
          <leafValues>
            -3.6277723312377930e-01 8.7707184255123138e-02</leafValues></_>
        <_>
          <internalNodes>
            0 -1 338 1.3412544503808022e-03</internalNodes>
          <leafValues>
            -1.8171910941600800e-01 1.9105026125907898e-01</leafValues></_>
        <_>
          <internalNodes>
            0 -1 67 1.5921576414257288e-03</internalNodes>
          <leafValues>
            5.0200074911117554e-02 -5.5886489152908325e-01</leafValues></_></weakClassifiers></_>
    <!-- stage 15 -->
    <_>
      <maxWeakCount>40</maxWeakCount>
      <stageThreshold>-1.6875621080398560e+00</stageThreshold>
      <weakClassifiers>
        <_>
          <internalNodes>
            0 -1 373 -7.8732222318649292e-03</internalNodes>
          <leafValues>
            -3.1521740555763245e-01 -7.3642945289611816e-01</leafValues></_>
        <_>
          <internalNodes>
            0 -1 425 -1.9481999799609184e-02</internalNodes>
          <leafValues>
            2.0053696632385254e-01 -2.5949409604072571e-01</leafValues></_>
        <_>
          <internalNodes>
            0 -1 286 -3.8714208640158176e-03</internalNodes>
          <leafValues>
            -8.4702652692794800e-01 3.0442796647548676e-02</leafValues></_>
        <_>
          <internalNodes>
            0 -1 418 4.8732561990618706e-03</internalNodes>
          <leafValues>
            1.0296589881181717e-01 -2.9480385780334473e-01</leafValues></_>
        <_>
          <internalNodes>
            0 -1 16 -2.2440343163907528e-03</internalNodes>
          <leafValues>
            1.4827097952365875e-01 -1.8643549084663391e-01</leafValues></_>
        <_>
          <internalNodes>
            0 -1 115 -3.8821361958980560e-03</internalNodes>
          <leafValues>
            3.1583425402641296e-01 -8.8465891778469086e-02</leafValues></_>
        <_>
          <internalNodes>
            0 -1 492 -1.8916137050837278e-03</internalNodes>
          <leafValues>
            -7.8191727399826050e-01 7.0134416222572327e-02</leafValues></_>
        <_>
          <internalNodes>
            0 -1 243 1.4887512661516666e-03</internalNodes>
          <leafValues>
            -1.9213899970054626e-01 1.2644775211811066e-01</leafValues></_>
        <_>
          <internalNodes>
            0 -1 327 -1.1306952685117722e-02</internalNodes>
          <leafValues>
            3.4097823500633240e-01 -8.2053601741790771e-02</leafValues></_>
        <_>
          <internalNodes>
            0 -1 42 1.9107332453131676e-02</internalNodes>
          <leafValues>
            7.8570105135440826e-02 -3.3558598160743713e-01</leafValues></_>
        <_>
          <internalNodes>
            0 -1 220 1.4642361784353852e-03</internalNodes>
          <leafValues>
            -1.2640519440174103e-01 2.3925042152404785e-01</leafValues></_>
        <_>
          <internalNodes>
            0 -1 160 1.3983462005853653e-02</internalNodes>
          <leafValues>
            -1.1446105688810349e-01 2.6309517025947571e-01</leafValues></_>
        <_>
          <internalNodes>
            0 -1 502 1.2687838636338711e-02</internalNodes>
          <leafValues>
            4.8824261873960495e-02 -6.1060529947280884e-01</leafValues></_>
        <_>
          <internalNodes>
            0 -1 15 -2.0558185875415802e-02</internalNodes>
          <leafValues>
            1.9760628044605255e-01 -1.4874555170536041e-01</leafValues></_>
        <_>
          <internalNodes>
            0 -1 92 3.1411022064276040e-05</internalNodes>
          <leafValues>
            -1.7539645731449127e-01 1.9066368043422699e-01</leafValues></_>
        <_>
          <internalNodes>
            0 -1 499 1.7528720200061798e-03</internalNodes>
          <leafValues>
            -9.5408633351325989e-02 3.2173323631286621e-01</leafValues></_>
        <_>
          <internalNodes>
            0 -1 188 -1.0513057932257652e-02</internalNodes>
          <leafValues>
            3.9335781335830688e-01 -7.7436782419681549e-02</leafValues></_>
        <_>
          <internalNodes>
            0 -1 278 -7.8262579336296767e-05</internalNodes>
          <leafValues>
            -2.9493287205696106e-01 1.0413157939910889e-01</leafValues></_>
        <_>
          <internalNodes>
            0 -1 389 1.0186214931309223e-03</internalNodes>
          <leafValues>
            -2.1777132153511047e-01 1.1830066144466400e-01</leafValues></_>
        <_>
          <internalNodes>
            0 -1 427 3.1130255665630102e-03</internalNodes>
          <leafValues>
            4.3652772903442383e-02 -7.2125869989395142e-01</leafValues></_>
        <_>
          <internalNodes>
            0 -1 155 2.9608063399791718e-02</internalNodes>
          <leafValues>
            -5.8956775814294815e-02 5.2803236246109009e-01</leafValues></_>
        <_>
          <internalNodes>
            0 -1 64 -7.8335534781217575e-03</internalNodes>
          <leafValues>
            -2.9601126909255981e-01 9.0795569121837616e-02</leafValues></_>
        <_>
          <internalNodes>
            0 -1 344 2.8511981945484877e-03</internalNodes>
          <leafValues>
            5.9428744018077850e-02 -4.2497116327285767e-01</leafValues></_>
        <_>
          <internalNodes>
            0 -1 5 -5.8050896972417831e-02</internalNodes>
          <leafValues>
            -6.8869811296463013e-01 3.4085419028997421e-02</leafValues></_>
        <_>
          <internalNodes>
            0 -1 330 -2.1222108043730259e-03</internalNodes>
          <leafValues>
            -6.7184299230575562e-01 3.0721470713615417e-02</leafValues></_>
        <_>
          <internalNodes>
            0 -1 481 -2.5327377952635288e-03</internalNodes>
          <leafValues>
            2.7391347289085388e-01 -9.4458468258380890e-02</leafValues></_>
        <_>
          <internalNodes>
            0 -1 511 7.5006927363574505e-04</internalNodes>
          <leafValues>
            5.5088773369789124e-02 -5.3693747520446777e-01</leafValues></_>
        <_>
          <internalNodes>
            0 -1 482 1.0041257366538048e-02</internalNodes>
          <leafValues>
            -5.3373649716377258e-02 5.6137889623641968e-01</leafValues></_>
        <_>
          <internalNodes>
            0 -1 392 1.2276277411729097e-03</internalNodes>
          <leafValues>
            -1.5216164290904999e-01 1.9718104600906372e-01</leafValues></_>
        <_>
          <internalNodes>
            0 -1 371 -8.4218159317970276e-03</internalNodes>
          <leafValues>
            1.9202293455600739e-01 -1.3804137706756592e-01</leafValues></_>
        <_>
          <internalNodes>
            0 -1 386 -4.0853298269212246e-03</internalNodes>
          <leafValues>
            -4.6298444271087646e-01 5.9856031090021133e-02</leafValues></_>
        <_>
          <internalNodes>
            0 -1 503 -1.5193168655969203e-04</internalNodes>
          <leafValues>
            -3.1002730131149292e-01 8.9460402727127075e-02</leafValues></_>
        <_>
          <internalNodes>
            0 -1 448 1.9148528575897217e-02</internalNodes>
          <leafValues>
            4.0856257081031799e-02 -6.1609560251235962e-01</leafValues></_>
        <_>
          <internalNodes>
            0 -1 195 -1.3949307799339294e-01</internalNodes>
          <leafValues>
            -3.3955243229866028e-01 7.4115492403507233e-02</leafValues></_>
        <_>
          <internalNodes>
            0 -1 316 -4.2379833757877350e-03</internalNodes>
          <leafValues>
            2.5833239778876305e-02 -1.</leafValues></_>
        <_>
          <internalNodes>
            0 -1 294 1.3303471496328712e-04</internalNodes>
          <leafValues>
            1.0157662630081177e-01 -2.6763790845870972e-01</leafValues></_>
        <_>
          <internalNodes>
            0 -1 36 1.0197533667087555e-01</internalNodes>
          <leafValues>
            -7.0625208318233490e-02 5.1192420721054077e-01</leafValues></_>
        <_>
          <internalNodes>
            0 -1 106 -7.2604900924488902e-04</internalNodes>
          <leafValues>
            3.1384837627410889e-01 -9.0124011039733887e-02</leafValues></_>
        <_>
          <internalNodes>
            0 -1 234 2.3591591161675751e-04</internalNodes>
          <leafValues>
            1.2378785759210587e-01 -2.3503951728343964e-01</leafValues></_>
        <_>
          <internalNodes>
            0 -1 32 -2.7400325052440166e-03</internalNodes>
          <leafValues>
            -6.9179767370223999e-01 3.7936002016067505e-02</leafValues></_></weakClassifiers></_>
    <!-- stage 16 -->
    <_>
      <maxWeakCount>38</maxWeakCount>
      <stageThreshold>-1.5850278139114380e+00</stageThreshold>
      <weakClassifiers>
        <_>
          <internalNodes>
            0 -1 69 -1.2445724569261074e-03</internalNodes>
          <leafValues>
            -5.9090906381607056e-01 -7.8507196903228760e-01</leafValues></_>
        <_>
          <internalNodes>
            0 -1 407 -1.8539170268923044e-03</internalNodes>
          <leafValues>
            1.3119116425514221e-02 -3.1472459435462952e-01</leafValues></_>
        <_>
          <internalNodes>
            0 -1 410 4.6511720865964890e-03</internalNodes>
          <leafValues>
            -1.1580573022365570e-01 2.3417788743972778e-01</leafValues></_>
        <_>
          <internalNodes>
            0 -1 228 -2.2289562039077282e-03</internalNodes>
          <leafValues>
            2.6440122723579407e-01 -1.0108494013547897e-01</leafValues></_>
        <_>
          <internalNodes>
            0 -1 334 8.7847345275804400e-04</internalNodes>
          <leafValues>
            -1.3963516056537628e-01 2.0227050781250000e-01</leafValues></_>
        <_>
          <internalNodes>
            0 -1 451 1.5563152730464935e-02</internalNodes>
          <leafValues>
            4.5240648090839386e-02 -6.3350933790206909e-01</leafValues></_>
        <_>
          <internalNodes>
            0 -1 169 -2.3509049788117409e-03</internalNodes>
          <leafValues>
            2.3445466160774231e-01 -1.0312013328075409e-01</leafValues></_>
        <_>
          <internalNodes>
            0 -1 326 -4.3625510297715664e-03</internalNodes>
          <leafValues>
            -3.1524097919464111e-01 1.1070310324430466e-01</leafValues></_>
        <_>
          <internalNodes>
            0 -1 456 2.6114666979992762e-05</internalNodes>
          <leafValues>
            -1.8600544333457947e-01 1.3882820308208466e-01</leafValues></_>
        <_>
          <internalNodes>
            0 -1 181 -2.7925469912588596e-03</internalNodes>
          <leafValues>
            3.0733239650726318e-01 -7.3593482375144958e-02</leafValues></_>
        <_>
          <internalNodes>
            0 -1 182 1.8809230532497168e-03</internalNodes>
          <leafValues>
            -1.2751255929470062e-01 2.1434538066387177e-01</leafValues></_>
        <_>
          <internalNodes>
            0 -1 58 9.2539479956030846e-03</internalNodes>
          <leafValues>
            5.8710560202598572e-02 -4.1879624128341675e-01</leafValues></_>
        <_>
          <internalNodes>
            0 -1 87 1.0956351179629564e-03</internalNodes>
          <leafValues>
            -6.3726171851158142e-02 4.0316262841224670e-01</leafValues></_>
        <_>
          <internalNodes>
            0 -1 272 -9.6104654949158430e-04</internalNodes>
          <leafValues>
            -3.4381696581840515e-01 7.5501687824726105e-02</leafValues></_>
        <_>
          <internalNodes>
            0 -1 403 1.0043730435427278e-04</internalNodes>
          <leafValues>
            1.0297653079032898e-01 -2.4825942516326904e-01</leafValues></_>
        <_>
          <internalNodes>
            0 -1 57 -2.7479962445795536e-03</internalNodes>
          <leafValues>
            -6.7623817920684814e-01 3.2908201217651367e-02</leafValues></_>
        <_>
          <internalNodes>
            0 -1 314 9.0805196668952703e-04</internalNodes>
          <leafValues>
            -1.0117012262344360e-01 2.6283279061317444e-01</leafValues></_>
        <_>
          <internalNodes>
            0 -1 287 -4.9723898991942406e-03</internalNodes>
          <leafValues>
            1.4092732965946198e-01 -1.7869469523429871e-01</leafValues></_>
        <_>
          <internalNodes>
            0 -1 394 -5.0063682720065117e-03</internalNodes>
          <leafValues>
            -8.4729880094528198e-01 2.7725668624043465e-02</leafValues></_>
        <_>
          <internalNodes>
            0 -1 313 -6.4132665283977985e-04</internalNodes>
          <leafValues>
            2.0063945651054382e-01 -1.3451857864856720e-01</leafValues></_>
        <_>
          <internalNodes>
            0 -1 467 5.1390938460826874e-04</internalNodes>
          <leafValues>
            -8.9337401092052460e-02 3.0701324343681335e-01</leafValues></_>
        <_>
          <internalNodes>
            0 -1 406 2.4881650460883975e-04</internalNodes>
          <leafValues>
            1.0704380273818970e-01 -2.4165169894695282e-01</leafValues></_>
        <_>
          <internalNodes>
            0 -1 119 -8.9517328888177872e-04</internalNodes>
          <leafValues>
            3.3735543489456177e-01 -7.5062833726406097e-02</leafValues></_>
        <_>
          <internalNodes>
            0 -1 34 3.2575428485870361e-03</internalNodes>
          <leafValues>
            5.2930373698472977e-02 -5.2744603157043457e-01</leafValues></_>
        <_>
          <internalNodes>
            0 -1 12 -6.4654194284230471e-04</internalNodes>
          <leafValues>
            1.4479541778564453e-01 -1.8701988458633423e-01</leafValues></_>
        <_>
          <internalNodes>
            0 -1 295 -1.4629306271672249e-02</internalNodes>
          <leafValues>
            5.1586329936981201e-01 -5.0848171114921570e-02</leafValues></_>
        <_>
          <internalNodes>
            0 -1 221 1.7810265999287367e-03</internalNodes>
          <leafValues>
            5.9764068573713303e-02 -4.6755853295326233e-01</leafValues></_>
        <_>
          <internalNodes>
            0 -1 260 5.8859580894932151e-04</internalNodes>
          <leafValues>
            8.9942723512649536e-02 -2.6845696568489075e-01</leafValues></_>
        <_>
          <internalNodes>
            0 -1 148 4.5457094907760620e-02</internalNodes>
          <leafValues>
            -5.4675295948982239e-02 5.5246978998184204e-01</leafValues></_>
        <_>
          <internalNodes>
            0 -1 207 8.5959747433662415e-02</internalNodes>
          <leafValues>
            -8.9708179235458374e-02 2.9861083626747131e-01</leafValues></_>
        <_>
          <internalNodes>
            0 -1 23 1.1464774142950773e-03</internalNodes>
          <leafValues>
            4.5148056000471115e-02 -6.2484532594680786e-01</leafValues></_>
        <_>
          <internalNodes>
            0 -1 455 9.3052204465493560e-04</internalNodes>
          <leafValues>
            -1.1212225258350372e-01 2.4850870668888092e-01</leafValues></_>
        <_>
          <internalNodes>
            0 -1 454 -1.9246758893132210e-03</internalNodes>
          <leafValues>
            2.8175431489944458e-01 -1.0767450183629990e-01</leafValues></_>
        <_>
          <internalNodes>
            0 -1 105 -2.1764361299574375e-03</internalNodes>
          <leafValues>
            2.0457741618156433e-01 -1.2621428072452545e-01</leafValues></_>
        <_>
          <internalNodes>
            0 -1 363 -5.3353734314441681e-02</internalNodes>
          <leafValues>
            -1.6427859663963318e-01 1.6681897640228271e-01</leafValues></_>
        <_>
          <internalNodes>
            0 -1 122 -6.6141888499259949e-02</internalNodes>
          <leafValues>
            7.5406484305858612e-02 -3.8971045613288879e-01</leafValues></_>
        <_>
          <internalNodes>
            0 -1 11 -3.4032205585390329e-03</internalNodes>
          <leafValues>
            -5.1220268011093140e-02 5.6742519140243530e-01</leafValues></_>
        <_>
          <internalNodes>
            0 -1 229 -3.8616969250142574e-03</internalNodes>
          <leafValues>
            -6.5518170595169067e-01 4.4276047497987747e-02</leafValues></_></weakClassifiers></_>
    <!-- stage 17 -->
    <_>
      <maxWeakCount>39</maxWeakCount>
      <stageThreshold>-1.4929237365722656e+00</stageThreshold>
      <weakClassifiers>
        <_>
          <internalNodes>
            0 -1 290 5.2519370801746845e-03</internalNodes>
          <leafValues>
            -7.3317521810531616e-01 -2.1259842813014984e-01</leafValues></_>
        <_>
          <internalNodes>
            0 -1 86 1.0207704035565257e-03</internalNodes>
          <leafValues>
            -2.5722455978393555e-01 1.9903212785720825e-01</leafValues></_>
        <_>
          <internalNodes>
            0 -1 507 1.2834599474444985e-03</internalNodes>
          <leafValues>
            7.0797167718410492e-02 -3.9054358005523682e-01</leafValues></_>
        <_>
          <internalNodes>
            0 -1 268 1.9461943302303553e-03</internalNodes>
          <leafValues>
            4.7994125634431839e-02 -4.9208775162696838e-01</leafValues></_>
        <_>
          <internalNodes>
            0 -1 146 1.2878562556579709e-03</internalNodes>
          <leafValues>
            -2.8035948053002357e-02 4.3757459521293640e-01</leafValues></_>
        <_>
          <internalNodes>
            0 -1 292 1.3523621601052582e-04</internalNodes>
          <leafValues>
            1.0977858304977417e-01 -2.3939605057239532e-01</leafValues></_>
        <_>
          <internalNodes>
            0 -1 211 3.7536635994911194e-02</internalNodes>
          <leafValues>
            -5.5779889225959778e-02 5.2727353572845459e-01</leafValues></_>
        <_>
          <internalNodes>
            0 -1 253 5.9617329388856888e-03</internalNodes>
          <leafValues>
            -5.6347824633121490e-02 3.8197603821754456e-01</leafValues></_>
        <_>
          <internalNodes>
            0 -1 52 -3.5966818686574697e-03</internalNodes>
          <leafValues>
            2.0333091914653778e-01 -1.1708673089742661e-01</leafValues></_>
        <_>
          <internalNodes>
            0 -1 55 1.8110151868313551e-03</internalNodes>
          <leafValues>
            -1.0453324764966965e-01 2.7954214811325073e-01</leafValues></_>
        <_>
          <internalNodes>
            0 -1 413 3.7880908348597586e-04</internalNodes>
          <leafValues>
            -1.1350598931312561e-01 2.1701651811599731e-01</leafValues></_>
        <_>
          <internalNodes>
            0 -1 67 -3.2361899502575397e-04</internalNodes>
          <leafValues>
            -3.4999471902847290e-01 8.1543549895286560e-02</leafValues></_>
        <_>
          <internalNodes>
            0 -1 429 6.1382465064525604e-03</internalNodes>
          <leafValues>
            -6.8388894200325012e-02 4.1476485133171082e-01</leafValues></_>
        <_>
          <internalNodes>
            0 -1 157 5.3328499197959900e-03</internalNodes>
          <leafValues>
            3.4219078719615936e-02 -6.1808151006698608e-01</leafValues></_>
        <_>
          <internalNodes>
            0 -1 303 4.5439723180606961e-05</internalNodes>
          <leafValues>
            9.4041153788566589e-02 -2.7233272790908813e-01</leafValues></_>
        <_>
          <internalNodes>
            0 -1 465 -3.8429319392889738e-03</internalNodes>
          <leafValues>
            3.1184363365173340e-01 -8.4646105766296387e-02</leafValues></_>
        <_>
          <internalNodes>
            0 -1 355 -1.0677166283130646e-02</internalNodes>
          <leafValues>
            3.0418318510055542e-01 -9.7378060221672058e-02</leafValues></_>
        <_>
          <internalNodes>
            0 -1 139 -3.9770737290382385e-02</internalNodes>
          <leafValues>
            1.4956419169902802e-01 -1.7231377959251404e-01</leafValues></_>
        <_>
          <internalNodes>
            0 -1 258 -2.2268092632293701e-01</internalNodes>
          <leafValues>
            -2.2625164687633514e-01 1.2397672981023788e-01</leafValues></_>
        <_>
          <internalNodes>
            0 -1 164 -6.0385530814528465e-03</internalNodes>
          <leafValues>
            -7.7417224645614624e-01 3.0602229759097099e-02</leafValues></_>
        <_>
          <internalNodes>
            0 -1 208 4.1299540549516678e-02</internalNodes>
          <leafValues>
            -4.6487409621477127e-02 6.5197432041168213e-01</leafValues></_>
        <_>
          <internalNodes>
            0 -1 236 4.8464639112353325e-03</internalNodes>
          <leafValues>
            -1.3464932143688202e-01 1.8750746548175812e-01</leafValues></_>
        <_>
          <internalNodes>
            0 -1 153 -3.9659790694713593e-02</internalNodes>
          <leafValues>
            -6.3820093870162964e-01 3.9106212556362152e-02</leafValues></_>
        <_>
          <internalNodes>
            0 -1 350 -3.7776706449221820e-05</internalNodes>
          <leafValues>
            1.3609609007835388e-01 -1.7531530559062958e-01</leafValues></_>
        <_>
          <internalNodes>
            0 -1 77 4.7460431233048439e-03</internalNodes>
          <leafValues>
            -9.2150755226612091e-02 2.7669912576675415e-01</leafValues></_>
        <_>
          <internalNodes>
            0 -1 464 3.3053492661565542e-03</internalNodes>
          <leafValues>
            -8.0378569662570953e-02 3.4230148792266846e-01</leafValues></_>
        <_>
          <internalNodes>
            0 -1 123 3.6323838867247105e-03</internalNodes>
          <leafValues>
            -8.9102484285831451e-02 2.8771352767944336e-01</leafValues></_>
        <_>
          <internalNodes>
            0 -1 515 -6.4074294641613960e-04</internalNodes>
          <leafValues>
            -2.9698750376701355e-01 8.6525052785873413e-02</leafValues></_>
        <_>
          <internalNodes>
            0 -1 109 -3.1426007626578212e-04</internalNodes>
          <leafValues>
            1.1594484746456146e-01 -2.1408666670322418e-01</leafValues></_>
        <_>
          <internalNodes>
            0 -1 351 7.0908702909946442e-03</internalNodes>
          <leafValues>
            6.3910752534866333e-02 -3.8772124052047729e-01</leafValues></_>
        <_>
          <internalNodes>
            0 -1 162 -4.4218152761459351e-03</internalNodes>
          <leafValues>
            -5.9627783298492432e-01 3.7866007536649704e-02</leafValues></_>
        <_>
          <internalNodes>
            0 -1 135 -9.6155342180281878e-04</internalNodes>
          <leafValues>
            1.3955381512641907e-01 -1.8511486053466797e-01</leafValues></_>
        <_>
          <internalNodes>
            0 -1 375 -6.0133319348096848e-02</internalNodes>
          <leafValues>
            6.3531374931335449e-01 -4.4787120074033737e-02</leafValues></_>
        <_>
          <internalNodes>
            0 -1 435 -2.3247681558132172e-02</internalNodes>
          <leafValues>
            -8.0234497785568237e-01 3.6947406828403473e-02</leafValues></_>
        <_>
          <internalNodes>
            0 -1 411 2.4917153641581535e-03</internalNodes>
          <leafValues>
            -8.5786625742912292e-02 3.1481331586837769e-01</leafValues></_>
        <_>
          <internalNodes>
            0 -1 189 1.8451202660799026e-02</internalNodes>
          <leafValues>
            -6.8282708525657654e-02 3.7088817358016968e-01</leafValues></_>
        <_>
          <internalNodes>
            0 -1 101 -6.7430501803755760e-03</internalNodes>
          <leafValues>
            4.9155825376510620e-01 -5.0040803849697113e-02</leafValues></_>
        <_>
          <internalNodes>
            0 -1 212 -3.0713330954313278e-02</internalNodes>
          <leafValues>
            2.9640609398484230e-02 -9.4531965255737305e-01</leafValues></_>
        <_>
          <internalNodes>
            0 -1 475 -4.3195113539695740e-03</internalNodes>
          <leafValues>
            -7.5489275157451630e-02 3.9189478754997253e-01</leafValues></_></weakClassifiers></_>
    <!-- stage 18 -->
    <_>
      <maxWeakCount>44</maxWeakCount>
      <stageThreshold>-1.6074539422988892e+00</stageThreshold>
      <weakClassifiers>
        <_>
          <internalNodes>
            0 -1 444 -1.8800182268023491e-02</internalNodes>
          <leafValues>
            -4.6793350577354431e-01 -7.4797010421752930e-01</leafValues></_>
        <_>
          <internalNodes>
            0 -1 397 1.1472741607576609e-03</internalNodes>
          <leafValues>
            -3.5865554213523865e-01 -1.3355405069887638e-02</leafValues></_>
        <_>
          <internalNodes>
            0 -1 374 -5.9219438582658768e-02</internalNodes>
          <leafValues>
            -4.7684144973754883e-01 4.2558208107948303e-02</leafValues></_>
        <_>
          <internalNodes>
            0 -1 374 -5.8796986937522888e-02</internalNodes>
          <leafValues>
            9.5027577877044678e-01 -1.5678105410188437e-03</leafValues></_>
        <_>
          <internalNodes>
            0 -1 374 -5.7995013892650604e-02</internalNodes>
          <leafValues>
            -7.5551223754882813e-01 2.7899090200662613e-03</leafValues></_>
        <_>
          <internalNodes>
            0 -1 104 2.8818874852731824e-04</internalNodes>
          <leafValues>
            -8.9578479528427124e-02 2.4001114070415497e-01</leafValues></_>
        <_>
          <internalNodes>
            0 -1 261 1.5538468142040074e-04</internalNodes>
          <leafValues>
            9.1896668076515198e-02 -2.4201440811157227e-01</leafValues></_>
        <_>
          <internalNodes>
            0 -1 240 6.6148489713668823e-03</internalNodes>
          <leafValues>
            -9.8096922039985657e-02 2.2576512396335602e-01</leafValues></_>
        <_>
          <internalNodes>
            0 -1 191 8.4401220083236694e-02</internalNodes>
          <leafValues>
            -4.2593952268362045e-02 5.7562702894210815e-01</leafValues></_>
        <_>
          <internalNodes>
            0 -1 457 -2.8734495863318443e-03</internalNodes>
          <leafValues>
            2.2393386065959930e-01 -1.1330226063728333e-01</leafValues></_>
        <_>
          <internalNodes>
            0 -1 149 1.9256634404882789e-03</internalNodes>
          <leafValues>
            -7.4005901813507080e-02 2.9548364877700806e-01</leafValues></_>
        <_>
          <internalNodes>
            0 -1 194 7.9764984548091888e-03</internalNodes>
          <leafValues>
            -5.1897622644901276e-02 5.1325601339340210e-01</leafValues></_>
        <_>
          <internalNodes>
            0 -1 478 -1.3266426976770163e-03</internalNodes>
          <leafValues>
            -3.4405303001403809e-01 6.6627018153667450e-02</leafValues></_>
        <_>
          <internalNodes>
            0 -1 372 -1.3762714806944132e-03</internalNodes>
          <leafValues>
            2.7485874295234680e-01 -1.5971226990222931e-01</leafValues></_>
        <_>
          <internalNodes>
            0 -1 398 1.7348706023767591e-04</internalNodes>
          <leafValues>
            -1.8880926072597504e-01 1.3258479535579681e-01</leafValues></_>
        <_>
          <internalNodes>
            0 -1 165 -6.9715874269604683e-03</internalNodes>
          <leafValues>
            -6.2199181318283081e-01 4.2597196996212006e-02</leafValues></_>
        <_>
          <internalNodes>
            0 -1 509 -5.6993472389876842e-04</internalNodes>
          <leafValues>
            -3.0168661475181580e-01 7.3111943900585175e-02</leafValues></_>
        <_>
          <internalNodes>
            0 -1 89 -7.7639450319111347e-04</internalNodes>
          <leafValues>
            -3.2412043213844299e-01 6.3163079321384430e-02</leafValues></_>
        <_>
          <internalNodes>
            0 -1 453 1.3082479126751423e-03</internalNodes>
          <leafValues>
            -7.8494936227798462e-02 2.7698215842247009e-01</leafValues></_>
        <_>
          <internalNodes>
            0 -1 100 2.5021007284522057e-02</internalNodes>
          <leafValues>
            5.2822723984718323e-02 -4.3737995624542236e-01</leafValues></_>
        <_>
          <internalNodes>
            0 -1 249 2.0591431856155396e-01</internalNodes>
          <leafValues>
            2.0031401887536049e-02 -9.4870251417160034e-01</leafValues></_>
        <_>
          <internalNodes>
            0 -1 283 7.2787955403327942e-02</internalNodes>
          <leafValues>
            1.6433943063020706e-02 -8.8461005687713623e-01</leafValues></_>
        <_>
          <internalNodes>
            0 -1 317 -7.4344659224152565e-03</internalNodes>
          <leafValues>
            -7.1548342704772949e-01 2.3604312911629677e-02</leafValues></_>
        <_>
          <internalNodes>
            0 -1 143 -1.1243416229262948e-03</internalNodes>
          <leafValues>
            3.9505016803741455e-01 -5.9816326946020126e-02</leafValues></_>
        <_>
          <internalNodes>
            0 -1 113 1.6972771845757961e-03</internalNodes>
          <leafValues>
            -9.1440968215465546e-02 2.7653208374977112e-01</leafValues></_>
        <_>
          <internalNodes>
            0 -1 480 -2.4852998554706573e-02</internalNodes>
          <leafValues>
            -2.7810698747634888e-01 8.8427320122718811e-02</leafValues></_>
        <_>
          <internalNodes>
            0 -1 377 -1.0003137140301988e-04</internalNodes>
          <leafValues>
            1.3763420283794403e-01 -1.5991142392158508e-01</leafValues></_>
        <_>
          <internalNodes>
            0 -1 297 -1.2086989358067513e-02</internalNodes>
          <leafValues>
            4.7006651759147644e-01 -4.9242481589317322e-02</leafValues></_>
        <_>
          <internalNodes>
            0 -1 320 -2.0936626940965652e-02</internalNodes>
          <leafValues>
            2.8637144714593887e-02 -9.5489120483398438e-01</leafValues></_>
        <_>
          <internalNodes>
            0 -1 323 1.2755612260662019e-04</internalNodes>
          <leafValues>
            8.5750937461853027e-02 -2.4738562107086182e-01</leafValues></_>
        <_>
          <internalNodes>
            0 -1 426 2.1484079770743847e-03</internalNodes>
          <leafValues>
            -1.1423484981060028e-01 2.1173343062400818e-01</leafValues></_>
        <_>
          <internalNodes>
            0 -1 302 1.4496004208922386e-02</internalNodes>
          <leafValues>
            -1.6701190173625946e-01 1.3990344107151031e-01</leafValues></_>
        <_>
          <internalNodes>
            0 -1 176 4.4310722500085831e-02</internalNodes>
          <leafValues>
            -3.8456380367279053e-02 6.1830627918243408e-01</leafValues></_>
        <_>
          <internalNodes>
            0 -1 90 1.0650558397173882e-02</internalNodes>
          <leafValues>
            8.2872889935970306e-02 -2.9150596261024475e-01</leafValues></_>
        <_>
          <internalNodes>
            0 -1 353 -3.8083933759480715e-04</internalNodes>
          <leafValues>
            -2.8839215636253357e-01 7.7333293855190277e-02</leafValues></_>
        <_>
          <internalNodes>
            0 -1 78 -3.2969470339594409e-05</internalNodes>
          <leafValues>
            1.0993655025959015e-01 -2.0760029554367065e-01</leafValues></_>
        <_>
          <internalNodes>
            0 -1 378 -1.1843026150017977e-03</internalNodes>
          <leafValues>
            1.5571965277194977e-01 -1.4460974931716919e-01</leafValues></_>
        <_>
          <internalNodes>
            0 -1 85 1.0274305939674377e-01</internalNodes>
          <leafValues>
            -5.6512176990509033e-02 4.5887067914009094e-01</leafValues></_>
        <_>
          <internalNodes>
            0 -1 487 -5.6771552190184593e-03</internalNodes>
          <leafValues>
            2.7805784344673157e-01 -8.0000951886177063e-02</leafValues></_>
        <_>
          <internalNodes>
            0 -1 163 -5.0475639291107655e-03</internalNodes>
          <leafValues>
            2.1573363244533539e-01 -1.2473756819963455e-01</leafValues></_>
        <_>
          <internalNodes>
            0 -1 171 1.7543818801641464e-02</internalNodes>
          <leafValues>
            -1.1158535629510880e-01 2.1874448657035828e-01</leafValues></_>
        <_>
          <internalNodes>
            0 -1 256 -6.4772232435643673e-03</internalNodes>
          <leafValues>
            5.3090822696685791e-01 -4.3615162372589111e-02</leafValues></_>
        <_>
          <internalNodes>
            0 -1 203 4.8122115433216095e-02</internalNodes>
          <leafValues>
            -5.1178537309169769e-02 4.6566998958587646e-01</leafValues></_>
        <_>
          <internalNodes>
            0 -1 250 -4.4007627293467522e-03</internalNodes>
          <leafValues>
            2.2032482922077179e-01 -1.2847761809825897e-01</leafValues></_></weakClassifiers></_>
    <!-- stage 19 -->
    <_>
      <maxWeakCount>46</maxWeakCount>
      <stageThreshold>-1.4813878536224365e+00</stageThreshold>
      <weakClassifiers>
        <_>
          <internalNodes>
            0 -1 152 -1.2338452041149139e-01</internalNodes>
          <leafValues>
            1.7948718369007111e-01 -7.2435712814331055e-01</leafValues></_>
        <_>
          <internalNodes>
            0 -1 61 -4.7293365933001041e-03</internalNodes>
          <leafValues>
            9.5331288874149323e-02 -2.7008625864982605e-01</leafValues></_>
        <_>
          <internalNodes>
            0 -1 103 -4.9808984622359276e-03</internalNodes>
          <leafValues>
            2.2015213966369629e-01 -1.1485692858695984e-01</leafValues></_>
        <_>
          <internalNodes>
            0 -1 329 3.5353689454495907e-03</internalNodes>
          <leafValues>
            -7.8683502972126007e-02 2.9175886511802673e-01</leafValues></_>
        <_>
          <internalNodes>
            0 -1 348 1.1762855201959610e-01</internalNodes>
          <leafValues>
            -4.1306778788566589e-02 5.2834814786911011e-01</leafValues></_>
        <_>
          <internalNodes>
            0 -1 8 -7.1259546279907227e-01</internalNodes>
          <leafValues>
            1.1713051795959473e-01 -2.1116282045841217e-01</leafValues></_>
