<?xml version="1.0"?>
<opencv_storage>
<stage12>
  <maxWeakCount>29</maxWeakCount>
  <stageThreshold>-1.5526748895645142e+00</stageThreshold>
  <weakClassifiers>
    <_>
      <internalNodes>
        0 -1 65279 3.6959879100322723e-02</internalNodes>
      <leafValues>
        -7.3258888721466064e-01 -7.2164945304393768e-02</leafValues></_>
    <_>
      <internalNodes>
        0 -1 39082 1.4745215885341167e-03</internalNodes>
      <leafValues>
        -3.1592461466789246e-01 9.1197326779365540e-02</leafValues></_>
    <_>
      <internalNodes>
        0 -1 13228 -5.7293288409709930e-03</internalNodes>
      <leafValues>
        1.5024615824222565e-01 -2.4916321039199829e-01</leafValues></_>
    <_>
      <internalNodes>
        0 -1 161951 2.0348364487290382e-03</internalNodes>
      <leafValues>
        -1.2421742826700211e-01 2.7236646413803101e-01</leafValues></_>
    <_>
      <internalNodes>
        0 -1 161886 5.6349327787756920e-03</internalNodes>
      <leafValues>
        -9.1103024780750275e-02 3.5358551144599915e-01</leafValues></_>
    <_>
      <internalNodes>
        0 -1 13006 -1.4632922830060124e-03</internalNodes>
      <leafValues>
        -4.4639444351196289e-01 7.4058905243873596e-02</leafValues></_>
    <_>
      <internalNodes>
        0 -1 37005 8.8896006345748901e-03</internalNodes>
      <leafValues>
        -9.1504521667957306e-02 3.2701608538627625e-01</leafValues></_>
    <_>
      <internalNodes>
        0 -1 89022 -3.8446485996246338e-02</internalNodes>
      <leafValues>
        2.4658763408660889e-01 -1.4006654918193817e-01</leafValues></_>
    <_>
      <internalNodes>
        0 -1 157373 8.0253109335899353e-03</internalNodes>
      <leafValues>
        -9.2477932572364807e-02 3.1440383195877075e-01</leafValues></_>
    <_>
      <internalNodes>
        0 -1 93853 -8.7658325210213661e-03</internalNodes>
      <leafValues>
        6.2882798910140991e-01 -5.6119669228792191e-02</leafValues></_>
    <_>
      <internalNodes>
        0 -1 96463 3.2528303563594818e-04</internalNodes>
      <leafValues>
        9.4320178031921387e-02 -4.0748405456542969e-01</leafValues></_>
    <_>
      <internalNodes>
        0 -1 110892 3.6614738404750824e-02</internalNodes>
      <leafValues>
        -7.4616380035877228e-02 4.8756289482116699e-01</leafValues></_>
    <_>
      <internalNodes>
        0 -1 39821 5.9350702213123441e-04</internalNodes>
      <leafValues>
        -1.6280913352966309e-01 2.1454000473022461e-01</leafValues></_>
    <_>
      <internalNodes>
        0 -1 125347 -3.5461551306070760e-05</internalNodes>
      <leafValues>
        1.7299388349056244e-01 -2.0889821648597717e-01</leafValues></_>
    <_>
      <internalNodes>
        0 -1 147088 -2.9311212711036205e-04</internalNodes>
      <leafValues>
        -3.0500730872154236e-01 1.1525873839855194e-01</leafValues></_>
    <_>
      <internalNodes>
        0 -1 148620 6.1048204079270363e-03</internalNodes>
      <leafValues>
        -8.3432041108608246e-02 4.2297545075416565e-01</leafValues></_>
    <_>
      <internalNodes>
        0 -1 7978 -2.5813350081443787e-01</internalNodes>
      <leafValues>
        -5.6731277704238892e-01 5.7489130645990372e-02</leafValues></_>
    <_>
      <internalNodes>
        0 -1 77576 -4.6075280755758286e-02</internalNodes>
      <leafValues>
        4.2531085014343262e-01 -8.3991870284080505e-02</leafValues></_>
    <_>
      <internalNodes>
        0 -1 148255 2.3371696472167969e-02</internalNodes>
      <leafValues>
        5.0229292362928391e-02 -6.7550134658813477e-01</leafValues></_>
    <_>
      <internalNodes>
        0 -1 162303 -1.3298313133418560e-02</internalNodes>
      <leafValues>
        -8.6950623989105225e-01 2.7073444798588753e-02</leafValues></_>
    <_>
      <internalNodes>
        0 -1 127774 -5.1468592137098312e-03</internalNodes>
      <leafValues>
        -4.9115887284278870e-01 5.0160422921180725e-02</leafValues></_>
    <_>
      <internalNodes>
        0 -1 139212 3.6711844149976969e-03</internalNodes>
      <leafValues>
        -7.5990557670593262e-02 4.1650202870368958e-01</leafValues></_>
    <_>
      <internalNodes>
        0 -1 9775 -4.4685597531497478e-03</internalNodes>
      <leafValues>
        -4.2380049824714661e-01 7.7482946217060089e-02</leafValues></_>
    <_>
      <internalNodes>
        0 -1 74778 4.6199694275856018e-02</internalNodes>
      <leafValues>
        -5.7209033519029617e-02 6.5097081661224365e-01</leafValues></_>
    <_>
      <internalNodes>
        0 -1 133720 1.4591820072382689e-03</internalNodes>
      <leafValues>
        6.7035086452960968e-02 -4.9788555502891541e-01</leafValues></_>
    <_>
      <internalNodes>
        0 -1 4165 5.6644370779395103e-03</internalNodes>
      <leafValues>
        -1.3763785362243652e-01 2.2472900152206421e-01</leafValues></_>
    <_>
      <internalNodes>
        0 -1 25899 -1.3368414714932442e-02</internalNodes>
      <leafValues>
        -6.1619019508361816e-01 5.4971612989902496e-02</leafValues></_>
    <_>
      <internalNodes>
        0 -1 80850 -7.4516581371426582e-03</internalNodes>
      <leafValues>
        -7.2223061323165894e-01 3.2612867653369904e-02</leafValues></_>
    <_>
      <internalNodes>
        0 -1 160076 -1.1117975227534771e-03</internalNodes>
      <leafValues>
        3.8419312238693237e-01 -8.3152651786804199e-02</leafValues></_></weakClassifiers></stage12>
</opencv_storage>
