<?xml version="1.0"?>
<opencv_storage>
<stage13>
  <maxWeakCount>28</maxWeakCount>
  <stageThreshold>-1.6263202428817749e+00</stageThreshold>
  <weakClassifiers>
    <_>
      <internalNodes>
        0 -1 131967 1.6397461295127869e-01</internalNodes>
      <leafValues>
        -7.2290885448455811e-01 7.1428573131561279e-01</leafValues></_>
    <_>
      <internalNodes>
        0 -1 161414 -2.9978135135024786e-03</internalNodes>
      <leafValues>
        1.3100256025791168e-01 -3.0362743139266968e-01</leafValues></_>
    <_>
      <internalNodes>
        0 -1 46147 -1.6001291573047638e-02</internalNodes>
      <leafValues>
        3.2728672027587891e-01 -1.0778230428695679e-01</leafValues></_>
    <_>
      <internalNodes>
        0 -1 52251 4.1991127654910088e-03</internalNodes>
      <leafValues>
        -8.6910583078861237e-02 3.7546783685684204e-01</leafValues></_>
    <_>
      <internalNodes>
        0 -1 89770 4.4358894228935242e-03</internalNodes>
      <leafValues>
        5.6599315255880356e-02 -6.3018250465393066e-01</leafValues></_>
    <_>
      <internalNodes>
        0 -1 72394 -1.0648125316947699e-03</internalNodes>
      <leafValues>
        2.5290831923484802e-01 -1.2584954500198364e-01</leafValues></_>
    <_>
      <internalNodes>
        0 -1 161068 2.4103517644107342e-03</internalNodes>
      <leafValues>
        -1.0246514528989792e-01 3.1538054347038269e-01</leafValues></_>
    <_>
      <internalNodes>
        0 -1 13199 -3.0333413742482662e-03</internalNodes>
      <leafValues>
        1.6597726941108704e-01 -1.8283757567405701e-01</leafValues></_>
    <_>
      <internalNodes>
        0 -1 28962 6.4057230949401855e-02</internalNodes>
      <leafValues>
        -7.6518699526786804e-02 4.6021014451980591e-01</leafValues></_>
    <_>
      <internalNodes>
        0 -1 38160 -2.9020695015788078e-02</internalNodes>
      <leafValues>
        -7.8370946645736694e-01 4.1968226432800293e-02</leafValues></_>
    <_>
      <internalNodes>
        0 -1 24747 2.7563641779124737e-03</internalNodes>
      <leafValues>
        -9.6290469169616699e-02 3.2426673173904419e-01</leafValues></_>
    <_>
      <internalNodes>
        0 -1 89731 1.0246804449707270e-03</internalNodes>
      <leafValues>
        -1.4648407697677612e-01 2.2750949859619141e-01</leafValues></_>
    <_>
      <internalNodes>
        0 -1 162191 -2.4676038883626461e-03</internalNodes>
      <leafValues>
        -4.9963295459747314e-01 5.3383130580186844e-02</leafValues></_>
    <_>
      <internalNodes>
        0 -1 13586 3.0576162040233612e-02</internalNodes>
      <leafValues>
        -8.3490334451198578e-02 3.7929096817970276e-01</leafValues></_>
    <_>
      <internalNodes>
        0 -1 5893 -1.8559416057541966e-03</internalNodes>
      <leafValues>
        -5.6015282869338989e-01 5.7208370417356491e-02</leafValues></_>
    <_>
      <internalNodes>
        0 -1 70816 1.2726954184472561e-02</internalNodes>
      <leafValues>
        3.5415563732385635e-02 -7.4352258443832397e-01</leafValues></_>
    <_>
      <internalNodes>
        0 -1 38309 5.0332043319940567e-03</internalNodes>
      <leafValues>
        -1.5288496017456055e-01 2.1204003691673279e-01</leafValues></_>
    <_>
      <internalNodes>
        0 -1 159276 -1.7635138705372810e-02</internalNodes>
      <leafValues>
        -6.2560325860977173e-01 4.9170318990945816e-02</leafValues></_>
    <_>
      <internalNodes>
        0 -1 157943 -1.1358058545738459e-03</internalNodes>
      <leafValues>
        4.0440317988395691e-01 -8.1448629498481750e-02</leafValues></_>
    <_>
      <internalNodes>
        0 -1 22356 -6.0500213876366615e-03</internalNodes>
      <leafValues>
        -5.6511801481246948e-01 5.8449454605579376e-02</leafValues></_>
    <_>
      <internalNodes>
        0 -1 27743 1.0686439927667379e-03</internalNodes>
      <leafValues>
        -9.0229824185371399e-02 3.8621297478675842e-01</leafValues></_>
    <_>
      <internalNodes>
        0 -1 112250 1.4769734116271138e-04</internalNodes>
      <leafValues>
        1.0794906318187714e-01 -2.9528602957725525e-01</leafValues></_>
    <_>
      <internalNodes>
        0 -1 84489 -5.5187549442052841e-03</internalNodes>
      <leafValues>
        3.1747087836265564e-01 -1.0519591718912125e-01</leafValues></_>
    <_>
      <internalNodes>
        0 -1 111595 -6.7411288619041443e-02</internalNodes>
      <leafValues>
        3.3572945743799210e-02 -9.1294240951538086e-01</leafValues></_>
    <_>
      <internalNodes>
        0 -1 161809 -3.0385383870452642e-03</internalNodes>
      <leafValues>
        2.8717520833015442e-01 -1.0961977392435074e-01</leafValues></_>
    <_>
      <internalNodes>
        0 -1 161847 -3.3780727535486221e-03</internalNodes>
      <leafValues>
        3.1105282902717590e-01 -1.0965418070554733e-01</leafValues></_>
    <_>
      <internalNodes>
        0 -1 161181 2.7556292479857802e-05</internalNodes>
      <leafValues>
        -2.3994272947311401e-01 1.3247066736221313e-01</leafValues></_>
    <_>
      <internalNodes>
        0 -1 142713 -1.4710219576954842e-02</internalNodes>
      <leafValues>
        4.3331024050712585e-01 -7.6895609498023987e-02</leafValues></_></weakClassifiers></stage13>
</opencv_storage>
