<?xml version="1.0"?>
<opencv_storage>
<stage5>
  <maxWeakCount>15</maxWeakCount>
  <stageThreshold>-1.8862872123718262e+00</stageThreshold>
  <weakClassifiers>
    <_>
      <internalNodes>
        0 -1 11054 -5.7905558496713638e-03</internalNodes>
      <leafValues>
        -1.4054054021835327e-01 -7.8210860490798950e-01</leafValues></_>
    <_>
      <internalNodes>
        0 -1 148222 5.6285997852683067e-03</internalNodes>
      <leafValues>
        -4.3273043632507324e-01 2.4768251180648804e-01</leafValues></_>
    <_>
      <internalNodes>
        0 -1 159625 3.3312784507870674e-03</internalNodes>
      <leafValues>
        -2.7189931273460388e-01 3.5481837391853333e-01</leafValues></_>
    <_>
      <internalNodes>
        0 -1 115762 -1.2477219104766846e-02</internalNodes>
      <leafValues>
        3.7753036618232727e-01 -2.1417962014675140e-01</leafValues></_>
    <_>
      <internalNodes>
        0 -1 63771 -2.7948557399213314e-03</internalNodes>
      <leafValues>
        5.2020931243896484e-01 -1.5873803198337555e-01</leafValues></_>
    <_>
      <internalNodes>
        0 -1 2171 -6.1920685693621635e-03</internalNodes>
      <leafValues>
        4.5577561855316162e-01 -1.6923567652702332e-01</leafValues></_>
    <_>
      <internalNodes>
        0 -1 71447 -4.1501444578170776e-01</internalNodes>
      <leafValues>
        -8.9760404825210571e-01 9.7028180956840515e-02</leafValues></_>
    <_>
      <internalNodes>
        0 -1 5032 8.5393637418746948e-03</internalNodes>
      <leafValues>
        -1.5105433762073517e-01 5.6540668010711670e-01</leafValues></_>
    <_>
      <internalNodes>
        0 -1 22697 -3.6084235180169344e-03</internalNodes>
      <leafValues>
        4.2414292693138123e-01 -1.6451118886470795e-01</leafValues></_>
    <_>
      <internalNodes>
        0 -1 28804 -8.9432680979371071e-03</internalNodes>
      <leafValues>
        4.4368112087249756e-01 -1.4013862609863281e-01</leafValues></_>
    <_>
      <internalNodes>
        0 -1 29848 4.4163670390844345e-03</internalNodes>
      <leafValues>
        -8.8895566761493683e-02 5.3927320241928101e-01</leafValues></_>
    <_>
      <internalNodes>
        0 -1 89195 -3.3603911288082600e-03</internalNodes>
      <leafValues>
        -4.0125212073326111e-01 1.7674298584461212e-01</leafValues></_>
    <_>
      <internalNodes>
        0 -1 160435 4.9803424626588821e-03</internalNodes>
      <leafValues>
        1.3226889073848724e-01 -4.4990268349647522e-01</leafValues></_>
    <_>
      <internalNodes>
        0 -1 156329 -2.1842713467776775e-03</internalNodes>
      <leafValues>
        3.6121857166290283e-01 -2.2356851398944855e-01</leafValues></_>
    <_>
      <internalNodes>
        0 -1 158494 1.9693082198500633e-02</internalNodes>
      <leafValues>
        -1.3715100288391113e-01 4.6927025914192200e-01</leafValues></_></weakClassifiers></stage5>
</opencv_storage>
