<?xml version="1.0"?>
<opencv_storage>
<stage17>
  <maxWeakCount>39</maxWeakCount>
  <stageThreshold>-1.4929237365722656e+00</stageThreshold>
  <weakClassifiers>
    <_>
      <internalNodes>
        0 -1 109697 5.2519370801746845e-03</internalNodes>
      <leafValues>
        -7.3317521810531616e-01 -2.1259842813014984e-01</leafValues></_>
    <_>
      <internalNodes>
        0 -1 18803 1.0207704035565257e-03</internalNodes>
      <leafValues>
        -2.5722455978393555e-01 1.9903212785720825e-01</leafValues></_>
    <_>
      <internalNodes>
        0 -1 162102 1.2834599474444985e-03</internalNodes>
      <leafValues>
        7.0797167718410492e-02 -3.9054358005523682e-01</leafValues></_>
    <_>
      <internalNodes>
        0 -1 98667 1.9461943302303553e-03</internalNodes>
      <leafValues>
        4.7994125634431839e-02 -4.9208775162696838e-01</leafValues></_>
    <_>
      <internalNodes>
        0 -1 39811 1.2878562556579709e-03</internalNodes>
      <leafValues>
        -2.8035948053002357e-02 4.3757459521293640e-01</leafValues></_>
    <_>
      <internalNodes>
        0 -1 111476 1.3523621601052582e-04</internalNodes>
      <leafValues>
        1.0977858304977417e-01 -2.3939605057239532e-01</leafValues></_>
    <_>
      <internalNodes>
        0 -1 76742 3.7536635994911194e-02</internalNodes>
      <leafValues>
        -5.5779889225959778e-02 5.2727353572845459e-01</leafValues></_>
    <_>
      <internalNodes>
        0 -1 92166 5.9617329388856888e-03</internalNodes>
      <leafValues>
        -5.6347824633121490e-02 3.8197603821754456e-01</leafValues></_>
    <_>
      <internalNodes>
        0 -1 10582 -3.5966818686574697e-03</internalNodes>
      <leafValues>
        2.0333091914653778e-01 -1.1708673089742661e-01</leafValues></_>
    <_>
      <internalNodes>
        0 -1 11050 1.8110151868313551e-03</internalNodes>
      <leafValues>
        -1.0453324764966965e-01 2.7954214811325073e-01</leafValues></_>
    <_>
      <internalNodes>
        0 -1 155504 3.7880908348597586e-04</internalNodes>
      <leafValues>
        -1.1350598931312561e-01 2.1701651811599731e-01</leafValues></_>
    <_>
      <internalNodes>
        0 -1 13001 -3.2361899502575397e-04</internalNodes>
      <leafValues>
        -3.4999471902847290e-01 8.1543549895286560e-02</leafValues></_>
    <_>
      <internalNodes>
        0 -1 157687 6.1382465064525604e-03</internalNodes>
      <leafValues>
        -6.8388894200325012e-02 4.1476485133171082e-01</leafValues></_>
    <_>
      <internalNodes>
        0 -1 46174 5.3328499197959900e-03</internalNodes>
      <leafValues>
        3.4219078719615936e-02 -6.1808151006698608e-01</leafValues></_>
    <_>
      <internalNodes>
        0 -1 112805 4.5439723180606961e-05</internalNodes>
      <leafValues>
        9.4041153788566589e-02 -2.7233272790908813e-01</leafValues></_>
    <_>
      <internalNodes>
        0 -1 160896 -3.8429319392889738e-03</internalNodes>
      <leafValues>
        3.1184363365173340e-01 -8.4646105766296387e-02</leafValues></_>
    <_>
      <internalNodes>
        0 -1 138706 -1.0677166283130646e-02</internalNodes>
      <leafValues>
        3.0418318510055542e-01 -9.7378060221672058e-02</leafValues></_>
    <_>
      <internalNodes>
        0 -1 38302 -3.9770737290382385e-02</internalNodes>
      <leafValues>
        1.4956419169902802e-01 -1.7231377959251404e-01</leafValues></_>
    <_>
      <internalNodes>
        0 -1 93937 -2.2268092632293701e-01</internalNodes>
      <leafValues>
        -2.2625164687633514e-01 1.2397672981023788e-01</leafValues></_>
    <_>
      <internalNodes>
        0 -1 49496 -6.0385530814528465e-03</internalNodes>
      <leafValues>
        -7.7417224645614624e-01 3.0602229759097099e-02</leafValues></_>
    <_>
      <internalNodes>
        0 -1 75455 4.1299540549516678e-02</internalNodes>
      <leafValues>
        -4.6487409621477127e-02 6.5197432041168213e-01</leafValues></_>
    <_>
      <internalNodes>
        0 -1 87661 4.8464639112353325e-03</internalNodes>
      <leafValues>
        -1.3464932143688202e-01 1.8750746548175812e-01</leafValues></_>
    <_>
      <internalNodes>
        0 -1 44571 -3.9659790694713593e-02</internalNodes>
      <leafValues>
        -6.3820093870162964e-01 3.9106212556362152e-02</leafValues></_>
    <_>
      <internalNodes>
        0 -1 136686 -3.7776706449221820e-05</internalNodes>
      <leafValues>
        1.3609609007835388e-01 -1.7531530559062958e-01</leafValues></_>
    <_>
      <internalNodes>
        0 -1 14336 4.7460431233048439e-03</internalNodes>
      <leafValues>
        -9.2150755226612091e-02 2.7669912576675415e-01</leafValues></_>
    <_>
      <internalNodes>
        0 -1 160892 3.3053492661565542e-03</internalNodes>
      <leafValues>
        -8.0378569662570953e-02 3.4230148792266846e-01</leafValues></_>
    <_>
      <internalNodes>
        0 -1 31351 3.6323838867247105e-03</internalNodes>
      <leafValues>
        -8.9102484285831451e-02 2.8771352767944336e-01</leafValues></_>
    <_>
      <internalNodes>
        0 -1 162326 -6.4074294641613960e-04</internalNodes>
      <leafValues>
        -2.9698750376701355e-01 8.6525052785873413e-02</leafValues></_>
    <_>
      <internalNodes>
        0 -1 25889 -3.1426007626578212e-04</internalNodes>
      <leafValues>
        1.1594484746456146e-01 -2.1408666670322418e-01</leafValues></_>
    <_>
      <internalNodes>
        0 -1 137154 7.0908702909946442e-03</internalNodes>
      <leafValues>
        6.3910752534866333e-02 -3.8772124052047729e-01</leafValues></_>
    <_>
      <internalNodes>
        0 -1 49461 -4.4218152761459351e-03</internalNodes>
      <leafValues>
        -5.9627783298492432e-01 3.7866007536649704e-02</leafValues></_>
    <_>
      <internalNodes>
        0 -1 37909 -9.6155342180281878e-04</internalNodes>
      <leafValues>
        1.3955381512641907e-01 -1.8511486053466797e-01</leafValues></_>
    <_>
      <internalNodes>
        0 -1 145774 -6.0133319348096848e-02</internalNodes>
      <leafValues>
        6.3531374931335449e-01 -4.4787120074033737e-02</leafValues></_>
    <_>
      <internalNodes>
        0 -1 158841 -2.3247681558132172e-02</internalNodes>
      <leafValues>
        -8.0234497785568237e-01 3.6947406828403473e-02</leafValues></_>
    <_>
      <internalNodes>
        0 -1 155222 2.4917153641581535e-03</internalNodes>
      <leafValues>
        -8.5786625742912292e-02 3.1481331586837769e-01</leafValues></_>
    <_>
      <internalNodes>
        0 -1 65163 1.8451202660799026e-02</internalNodes>
      <leafValues>
        -6.8282708525657654e-02 3.7088817358016968e-01</leafValues></_>
    <_>
      <internalNodes>
        0 -1 24744 -6.7430501803755760e-03</internalNodes>
      <leafValues>
        4.9155825376510620e-01 -5.0040803849697113e-02</leafValues></_>
    <_>
      <internalNodes>
        0 -1 77477 -3.0713330954313278e-02</internalNodes>
      <leafValues>
        2.9640609398484230e-02 -9.4531965255737305e-01</leafValues></_>
    <_>
      <internalNodes>
        0 -1 161183 -4.3195113539695740e-03</internalNodes>
      <leafValues>
        -7.5489275157451630e-02 3.9189478754997253e-01</leafValues></_></weakClassifiers></stage17>
</opencv_storage>
