<?xml version="1.0"?>
<opencv_storage>
<stage19>
  <maxWeakCount>46</maxWeakCount>
  <stageThreshold>-1.4813878536224365e+00</stageThreshold>
  <weakClassifiers>
    <_>
      <internalNodes>
        0 -1 43149 -1.2338452041149139e-01</internalNodes>
      <leafValues>
        1.7948718369007111e-01 -7.2435712814331055e-01</leafValues></_>
    <_>
      <internalNodes>
        0 -1 11897 -4.7293365933001041e-03</internalNodes>
      <leafValues>
        9.5331288874149323e-02 -2.7008625864982605e-01</leafValues></_>
    <_>
      <internalNodes>
        0 -1 24766 -4.9808984622359276e-03</internalNodes>
      <leafValues>
        2.2015213966369629e-01 -1.1485692858695984e-01</leafValues></_>
    <_>
      <internalNodes>
        0 -1 128013 3.5353689454495907e-03</internalNodes>
      <leafValues>
        -7.8683502972126007e-02 2.9175886511802673e-01</leafValues></_>
    <_>
      <internalNodes>
        0 -1 135980 1.1762855201959610e-01</internalNodes>
      <leafValues>
        -4.1306778788566589e-02 5.2834814786911011e-01</leafValues></_>
    <_>
      <internalNodes>
        0 -1 975 -7.1259546279907227e-01</internalNodes>
      <leafValues>
        1.1713051795959473e-01 -2.1116282045841217e-01</leafValues></_>
    <_>
      <internalNodes>
        0 -1 135116 -3.9401724934577942e-03</internalNodes>
      <leafValues>
        3.1076547503471375e-01 -7.6387628912925720e-02</leafValues></_>
    <_>
      <internalNodes>
        0 -1 161184 -7.9105084296315908e-05</internalNodes>
      <leafValues>
        -2.1474914252758026e-01 1.0624489933252335e-01</leafValues></_>
    <_>
      <internalNodes>
        0 -1 3 -4.3094102293252945e-03</internalNodes>
      <leafValues>
        -4.3082933872938156e-02 4.3100726604461670e-01</leafValues></_>
    <_>
      <internalNodes>
        0 -1 133690 -1.4149749651551247e-02</internalNodes>
      <leafValues>
        -8.2711005210876465e-01 5.6753709912300110e-02</leafValues></_>
    <_>
      <internalNodes>
        0 -1 159599 9.1646297369152308e-04</internalNodes>
      <leafValues>
        -9.5857165753841400e-02 2.9124683141708374e-01</leafValues></_>
    <_>
      <internalNodes>
        0 -1 6813 -2.8692133724689484e-02</internalNodes>
      <leafValues>
        2.1919390559196472e-01 -9.8709754645824432e-02</leafValues></_>
    <_>
      <internalNodes>
        0 -1 157313 -4.1148398071527481e-02</internalNodes>
      <leafValues>
        -8.7812227010726929e-01 3.4131910651922226e-02</leafValues></_>
    <_>
      <internalNodes>
        0 -1 98293 -2.9407138936221600e-03</internalNodes>
      <leafValues>
        -2.7755275368690491e-01 7.5552269816398621e-02</leafValues></_>
    <_>
      <internalNodes>
        0 -1 106571 6.9776410236954689e-04</internalNodes>
      <leafValues>
        8.7674111127853394e-02 -2.7503299713134766e-01</leafValues></_>
    <_>
      <internalNodes>
        0 -1 78686 -3.5462756641209126e-03</internalNodes>
      <leafValues>
        2.4185489118099213e-01 -9.3443401157855988e-02</leafValues></_>
    <_>
      <internalNodes>
        0 -1 35074 2.3212346713989973e-03</internalNodes>
      <leafValues>
        -1.3862755894660950e-01 1.6217835247516632e-01</leafValues></_>
    <_>
      <internalNodes>
        0 -1 55636 -1.9548766314983368e-02</internalNodes>
      <leafValues>
        2.7339082956314087e-01 -1.2622152268886566e-01</leafValues></_>
    <_>
      <internalNodes>
        0 -1 157005 -3.1352683436125517e-04</internalNodes>
      <leafValues>
        -3.0455023050308228e-01 8.1044130027294159e-02</leafValues></_>
    <_>
      <internalNodes>
        0 -1 94122 -1.4500157535076141e-01</internalNodes>
      <leafValues>
        4.5461240410804749e-01 -5.3087908774614334e-02</leafValues></_>
    <_>
      <internalNodes>
        0 -1 101514 8.2407947629690170e-03</internalNodes>
      <leafValues>
        -7.9132862389087677e-02 3.0114838480949402e-01</leafValues></_>
    <_>
      <internalNodes>
        0 -1 132358 -9.7101728897541761e-04</internalNodes>
      <leafValues>
        -4.3947538733482361e-01 5.6558087468147278e-02</leafValues></_>
    <_>
      <internalNodes>
        0 -1 116592 2.5380982551723719e-03</internalNodes>
      <leafValues>
        -6.4316764473915100e-02 3.8399952650070190e-01</leafValues></_>
    <_>
      <internalNodes>
        0 -1 159433 1.4023859985172749e-03</internalNodes>
      <leafValues>
        -4.7046065330505371e-02 5.1466143131256104e-01</leafValues></_>
    <_>
      <internalNodes>
        0 -1 10669 -4.0670484304428101e-03</internalNodes>
      <leafValues>
        -8.3385396003723145e-01 3.2237593084573746e-02</leafValues></_>
    <_>
      <internalNodes>
        0 -1 116516 -9.8665125668048859e-02</internalNodes>
      <leafValues>
        -5.9613013267517090e-01 3.1472485512495041e-02</leafValues></_>
    <_>
      <internalNodes>
        0 -1 1105 2.8213360928930342e-04</internalNodes>
      <leafValues>
        7.0177122950553894e-02 -3.0185756087303162e-01</leafValues></_>
    <_>
      <internalNodes>
        0 -1 130696 -1.8785119056701660e-01</internalNodes>
      <leafValues>
        -9.4345621764659882e-02 2.6003128290176392e-01</leafValues></_>
    <_>
      <internalNodes>
        0 -1 153539 -1.0134056210517883e-01</internalNodes>
      <leafValues>
        7.8800700604915619e-02 -3.2413029670715332e-01</leafValues></_>
    <_>
      <internalNodes>
        0 -1 138123 -1.1233016848564148e-03</internalNodes>
      <leafValues>
        1.8442161381244659e-01 -1.4254701137542725e-01</leafValues></_>
    <_>
      <internalNodes>
        0 -1 116319 -4.6480663120746613e-02</internalNodes>
      <leafValues>
        4.9416306614875793e-01 -4.4212218374013901e-02</leafValues></_>
    <_>
      <internalNodes>
        0 -1 38390 2.1008219569921494e-02</internalNodes>
      <leafValues>
        5.3967796266078949e-02 -4.4627803564071655e-01</leafValues></_>
    <_>
      <internalNodes>
        0 -1 9085 1.4993414515629411e-03</internalNodes>
      <leafValues>
        6.5889172255992889e-02 -3.1779175996780396e-01</leafValues></_>
    <_>
      <internalNodes>
        0 -1 108452 3.7972563505172729e-01</internalNodes>
      <leafValues>
        2.1806903183460236e-02 -8.6617153882980347e-01</leafValues></_>
    <_>
      <internalNodes>
        0 -1 142703 3.0939686112105846e-03</internalNodes>
      <leafValues>
        -1.0410568863153458e-01 2.3447343707084656e-01</leafValues></_>
    <_>
      <internalNodes>
        0 -1 155864 6.8705575540661812e-03</internalNodes>
      <leafValues>
        -7.8645206987857819e-02 2.8818503022193909e-01</leafValues></_>
    <_>
      <internalNodes>
        0 -1 152805 -1.5910000074654818e-03</internalNodes>
      <leafValues>
        2.0274966955184937e-01 -1.1837729066610336e-01</leafValues></_>
    <_>
      <internalNodes>
        0 -1 142814 -1.3017765013501048e-04</internalNodes>
      <leafValues>
        1.2758359313011169e-01 -1.7522522807121277e-01</leafValues></_>
    <_>
      <internalNodes>
        0 -1 44921 7.6448604464530945e-02</internalNodes>
      <leafValues>
        -5.6998789310455322e-02 4.2144110798835754e-01</leafValues></_>
    <_>
      <internalNodes>
        0 -1 147225 5.2019779104739428e-05</internalNodes>
      <leafValues>
        9.8313048481941223e-02 -2.3174110054969788e-01</leafValues></_>
    <_>
      <internalNodes>
        0 -1 118786 1.2444095918908715e-03</internalNodes>
      <leafValues>
        -1.4278411865234375e-01 1.7354142665863037e-01</leafValues></_>
    <_>
      <internalNodes>
        0 -1 29260 -1.4777863025665283e-01</internalNodes>
      <leafValues>
        -5.9619951248168945e-01 3.9383701980113983e-02</leafValues></_>
    <_>
      <internalNodes>
        0 -1 139323 -6.0991980135440826e-02</internalNodes>
      <leafValues>
        -7.6355820894241333e-01 2.3073405027389526e-02</leafValues></_>
    <_>
      <internalNodes>
        0 -1 6669 -6.9745851214975119e-04</internalNodes>
      <leafValues>
        2.0989640057086945e-01 -1.0695517063140869e-01</leafValues></_>
    <_>
      <internalNodes>
        0 -1 37793 6.5871942788362503e-03</internalNodes>
      <leafValues>
        2.2193595767021179e-02 -1.</leafValues></_>
    <_>
      <internalNodes>
        0 -1 162064 -7.2428304702043533e-04</internalNodes>
      <leafValues>
        3.1800436973571777e-01 -7.6416246592998505e-02</leafValues></_></weakClassifiers></stage19>
</opencv_storage>
