<?xml version="1.0"?>
<opencv_storage>
<stage6>
  <maxWeakCount>16</maxWeakCount>
  <stageThreshold>-1.6972559690475464e+00</stageThreshold>
  <weakClassifiers>
    <_>
      <internalNodes>
        0 -1 134631 -1.6246167942881584e-03</internalNodes>
      <leafValues>
        4.2857144027948380e-02 -7.4583333730697632e-01</leafValues></_>
    <_>
      <internalNodes>
        0 -1 141010 -9.2375151813030243e-02</internalNodes>
      <leafValues>
        -5.2501607686281204e-02 -7.6257002353668213e-01</leafValues></_>
    <_>
      <internalNodes>
        0 -1 25814 -2.0902120741084218e-04</internalNodes>
      <leafValues>
        2.1067678928375244e-01 -3.1845429539680481e-01</leafValues></_>
    <_>
      <internalNodes>
        0 -1 60462 -6.0375086031854153e-03</internalNodes>
      <leafValues>
        4.1527771949768066e-01 -1.6086161136627197e-01</leafValues></_>
    <_>
      <internalNodes>
        0 -1 8977 -2.6954008266329765e-02</internalNodes>
      <leafValues>
        4.2503499984741211e-01 -1.9727955758571625e-01</leafValues></_>
    <_>
      <internalNodes>
        0 -1 155121 4.1628270410001278e-03</internalNodes>
      <leafValues>
        -1.8156285583972931e-01 4.0956416726112366e-01</leafValues></_>
    <_>
      <internalNodes>
        0 -1 47484 -2.4426304735243320e-03</internalNodes>
      <leafValues>
        4.5680722594261169e-01 -1.5417307615280151e-01</leafValues></_>
    <_>
      <internalNodes>
        0 -1 159977 -2.3892980534583330e-03</internalNodes>
      <leafValues>
        4.4543313980102539e-01 -1.4746484160423279e-01</leafValues></_>
    <_>
      <internalNodes>
        0 -1 160081 7.4308377224951982e-04</internalNodes>
      <leafValues>
        -1.9559596478939056e-01 4.5608484745025635e-01</leafValues></_>
    <_>
      <internalNodes>
        0 -1 108325 -3.2726816833019257e-02</internalNodes>
      <leafValues>
        4.2436343431472778e-01 -1.2184526771306992e-01</leafValues></_>
    <_>
      <internalNodes>
        0 -1 12812 -1.1085572186857462e-03</internalNodes>
      <leafValues>
        3.6222705245018005e-01 -1.4913363754749298e-01</leafValues></_>
    <_>
      <internalNodes>
        0 -1 121508 -8.7069452274590731e-04</internalNodes>
      <leafValues>
        3.4852394461631775e-01 -1.6704092919826508e-01</leafValues></_>
    <_>
      <internalNodes>
        0 -1 160604 -5.0077121704816818e-03</internalNodes>
      <leafValues>
        -6.4145410060882568e-01 7.8892104327678680e-02</leafValues></_>
    <_>
      <internalNodes>
        0 -1 98683 -9.9664926528930664e-03</internalNodes>
      <leafValues>
        3.6422047019004822e-01 -1.4340339601039886e-01</leafValues></_>
    <_>
      <internalNodes>
        0 -1 105578 -6.9667090428993106e-05</internalNodes>
      <leafValues>
        1.7145870625972748e-01 -3.6244890093803406e-01</leafValues></_>
    <_>
      <internalNodes>
        0 -1 161026 -1.3884820509701967e-03</internalNodes>
      <leafValues>
        3.7676072120666504e-01 -1.5705959498882294e-01</leafValues></_></weakClassifiers></stage6>
</opencv_storage>
