<?xml version="1.0"?>
<opencv_storage>
<stage11>
  <maxWeakCount>26</maxWeakCount>
  <stageThreshold>-1.7041411399841309e+00</stageThreshold>
  <weakClassifiers>
    <_>
      <internalNodes>
        0 -1 74706 1.5158930793404579e-02</internalNodes>
      <leafValues>
        -7.3007559776306152e-01 1.6129031777381897e-01</leafValues></_>
    <_>
      <internalNodes>
        0 -1 36446 -3.1119602918624878e-01</internalNodes>
      <leafValues>
        -5.8822698891162872e-02 -5.9051102399826050e-01</leafValues></_>
    <_>
      <internalNodes>
        0 -1 11933 1.4716458972543478e-03</internalNodes>
      <leafValues>
        6.1699237674474716e-02 -5.4964041709899902e-01</leafValues></_>
    <_>
      <internalNodes>
        0 -1 162092 -4.7008751425892115e-04</internalNodes>
      <leafValues>
        -3.8073065876960754e-01 9.8637044429779053e-02</leafValues></_>
    <_>
      <internalNodes>
        0 -1 161095 6.1481876764446497e-04</internalNodes>
      <leafValues>
        -9.0037792921066284e-02 3.4426206350326538e-01</leafValues></_>
    <_>
      <internalNodes>
        0 -1 161026 3.1958147883415222e-03</internalNodes>
      <leafValues>
        -9.1670595109462738e-02 4.7062608599662781e-01</leafValues></_>
    <_>
      <internalNodes>
        0 -1 147094 7.6101394370198250e-03</internalNodes>
      <leafValues>
        -1.0183831304311752e-01 3.8213580846786499e-01</leafValues></_>
    <_>
      <internalNodes>
        0 -1 76415 5.0735648721456528e-02</internalNodes>
      <leafValues>
        -5.1685873419046402e-02 5.3290188312530518e-01</leafValues></_>
    <_>
      <internalNodes>
        0 -1 156254 1.5462119132280350e-02</internalNodes>
      <leafValues>
        7.0847399532794952e-02 -5.6606924533843994e-01</leafValues></_>
    <_>
      <internalNodes>
        0 -1 99204 -3.7807407788932323e-03</internalNodes>
      <leafValues>
        2.9293861985206604e-01 -1.3545320928096771e-01</leafValues></_>
    <_>
      <internalNodes>
        0 -1 83718 -1.8060004711151123e-01</internalNodes>
      <leafValues>
        3.4845273941755295e-02 -9.3086391687393188e-01</leafValues></_>
    <_>
      <internalNodes>
        0 -1 156904 1.2164592044427991e-04</internalNodes>
      <leafValues>
        1.1898262053728104e-01 -3.4433075785636902e-01</leafValues></_>
    <_>
      <internalNodes>
        0 -1 151834 3.2022497616708279e-03</internalNodes>
      <leafValues>
        5.4715383797883987e-02 -6.4686119556427002e-01</leafValues></_>
    <_>
      <internalNodes>
        0 -1 26208 2.3134881630539894e-03</internalNodes>
      <leafValues>
        -1.5638579428195953e-01 2.6208946108818054e-01</leafValues></_>
    <_>
      <internalNodes>
        0 -1 127855 2.9106731526553631e-03</internalNodes>
      <leafValues>
        6.5507955849170685e-02 -6.3960945606231689e-01</leafValues></_>
    <_>
      <internalNodes>
        0 -1 80 3.3068777993321419e-03</internalNodes>
      <leafValues>
        3.6858957260847092e-02 -7.6752632856369019e-01</leafValues></_>
    <_>
      <internalNodes>
        0 -1 63573 6.5004092175513506e-04</internalNodes>
      <leafValues>
        -1.1025144904851913e-01 3.3737185597419739e-01</leafValues></_>
    <_>
      <internalNodes>
        0 -1 3132 -2.7740461518988013e-05</internalNodes>
      <leafValues>
        1.6060693562030792e-01 -2.2677716612815857e-01</leafValues></_>
    <_>
      <internalNodes>
        0 -1 78303 -6.0714606661349535e-04</internalNodes>
      <leafValues>
        -3.4142145514488220e-01 9.7889952361583710e-02</leafValues></_>
    <_>
      <internalNodes>
        0 -1 16529 5.1963169127702713e-02</internalNodes>
      <leafValues>
        4.4642869383096695e-02 -6.9240713119506836e-01</leafValues></_>
    <_>
      <internalNodes>
        0 -1 84387 -6.1494298279285431e-03</internalNodes>
      <leafValues>
        4.4102403521537781e-01 -8.8222913444042206e-02</leafValues></_>
    <_>
      <internalNodes>
        0 -1 11050 -3.0764369294047356e-03</internalNodes>
      <leafValues>
        3.0236035585403442e-01 -1.1379358172416687e-01</leafValues></_>
    <_>
      <internalNodes>
        0 -1 2162 -3.1052737031131983e-03</internalNodes>
      <leafValues>
        3.3305966854095459e-01 -1.1348450183868408e-01</leafValues></_>
    <_>
      <internalNodes>
        0 -1 151834 -2.8541991487145424e-03</internalNodes>
      <leafValues>
        -8.6624807119369507e-01 4.5819398015737534e-02</leafValues></_>
    <_>
      <internalNodes>
        0 -1 20478 -3.7467551883310080e-03</internalNodes>
      <leafValues>
        -3.5678088665008545e-01 8.9011020958423615e-02</leafValues></_>
    <_>
      <internalNodes>
        0 -1 67388 3.5999428946524858e-03</internalNodes>
      <leafValues>
        -2.0623819530010223e-01 1.6805024445056915e-01</leafValues></_></weakClassifiers></stage11>
</opencv_storage>
