<?xml version="1.0"?>
<opencv_storage>
<stage9>
  <maxWeakCount>11</maxWeakCount>
  <stageThreshold>-9.6146619319915771e-01</stageThreshold>
  <weakClassifiers>
    <_>
      <internalNodes>
        0 -1 733756 1.0140746831893921e-02</internalNodes>
      <leafValues>
        -2.4232082068920135e-01 6.6355139017105103e-01</leafValues></_>
    <_>
      <internalNodes>
        0 -1 807302 8.8455330114811659e-04</internalNodes>
      <leafValues>
        -5.1675033569335938e-01 3.3033129572868347e-01</leafValues></_>
    <_>
      <internalNodes>
        0 -1 296 2.1402696147561073e-03</internalNodes>
      <leafValues>
        -4.5222866535186768e-01 4.0808811783790588e-01</leafValues></_>
    <_>
      <internalNodes>
        0 -1 429725 -9.4846051069907844e-05</internalNodes>
      <leafValues>
        -7.3636060953140259e-01 2.1408531069755554e-01</leafValues></_>
    <_>
      <internalNodes>
        0 -1 406687 6.0225918423384428e-04</internalNodes>
      <leafValues>
        -4.3216741085052490e-01 3.9410865306854248e-01</leafValues></_>
    <_>
      <internalNodes>
        0 -1 815583 -1.5714785549789667e-03</internalNodes>
      <leafValues>
        6.2591356039047241e-01 -2.6612696051597595e-01</leafValues></_>
    <_>
      <internalNodes>
        0 -1 71155 -4.2638229206204414e-03</internalNodes>
      <leafValues>
        8.6375576257705688e-01 -1.9496101140975952e-01</leafValues></_>
    <_>
      <internalNodes>
        0 -1 313243 -4.6637095510959625e-04</internalNodes>
      <leafValues>
        5.3425663709640503e-01 -2.9423552751541138e-01</leafValues></_>
    <_>
      <internalNodes>
        0 -1 154138 -2.6446623727679253e-02</internalNodes>
      <leafValues>
        4.2141219973564148e-01 -4.0769252181053162e-01</leafValues></_>
    <_>
      <internalNodes>
        0 -1 65318 2.4296534320455976e-05</internalNodes>
      <leafValues>
        -3.4740671515464783e-01 4.9618059396743774e-01</leafValues></_>
    <_>
      <internalNodes>
        0 -1 777401 -1.3188058801461011e-04</internalNodes>
      <leafValues>
        -4.8046329617500305e-01 3.4672582149505615e-01</leafValues></_></weakClassifiers></stage9>
</opencv_storage>
