<?xml version="1.0"?>
<opencv_storage>
<stage19>
  <maxWeakCount>13</maxWeakCount>
  <stageThreshold>-9.2882806062698364e-01</stageThreshold>
  <weakClassifiers>
    <_>
      <internalNodes>
        0 -1 205895 1.6648652672301978e-04</internalNodes>
      <leafValues>
        2.5274726748466492e-01 -5.4330706596374512e-01</leafValues></_>
    <_>
      <internalNodes>
        0 -1 731696 4.1407388634979725e-03</internalNodes>
      <leafValues>
        -3.1767773628234863e-01 3.8283556699752808e-01</leafValues></_>
    <_>
      <internalNodes>
        0 -1 189419 -1.2039795517921448e-02</internalNodes>
      <leafValues>
        -8.3785432577133179e-01 1.5168409049510956e-01</leafValues></_>
    <_>
      <internalNodes>
        0 -1 495090 -2.1837679669260979e-03</internalNodes>
      <leafValues>
        8.0180525779724121e-01 -1.5885287523269653e-01</leafValues></_>
    <_>
      <internalNodes>
        0 -1 564597 6.1845908930990845e-05</internalNodes>
      <leafValues>
        2.7415350079536438e-01 -5.2740889787673950e-01</leafValues></_>
    <_>
      <internalNodes>
        0 -1 798545 9.7718166216509417e-06</internalNodes>
      <leafValues>
        -4.1342386603355408e-01 3.1524151563644409e-01</leafValues></_>
    <_>
      <internalNodes>
        0 -1 7230 4.9073970876634121e-04</internalNodes>
      <leafValues>
        -4.3574020266532898e-01 3.9046013355255127e-01</leafValues></_>
    <_>
      <internalNodes>
        0 -1 813017 9.0205930973752402e-06</internalNodes>
      <leafValues>
        -4.3546187877655029e-01 2.9298102855682373e-01</leafValues></_>
    <_>
      <internalNodes>
        0 -1 816295 1.1156082618981600e-03</internalNodes>
      <leafValues>
        1.8270869553089142e-01 -7.1387708187103271e-01</leafValues></_>
    <_>
      <internalNodes>
        0 -1 687538 -3.6505125463008881e-03</internalNodes>
      <leafValues>
        7.3216676712036133e-01 -2.1299365162849426e-01</leafValues></_>
    <_>
      <internalNodes>
        0 -1 356355 2.5711329653859138e-03</internalNodes>
      <leafValues>
        -2.9774808883666992e-01 4.7644269466400146e-01</leafValues></_>
    <_>
      <internalNodes>
        0 -1 815039 1.1445170093793422e-04</internalNodes>
      <leafValues>
        -3.5209217667579651e-01 4.5740804076194763e-01</leafValues></_>
    <_>
      <internalNodes>
        0 -1 787113 -1.5487163909710944e-04</internalNodes>
      <leafValues>
        -7.4410706758499146e-01 2.0018655061721802e-01</leafValues></_></weakClassifiers></stage19>
</opencv_storage>
