<?xml version="1.0"?>
<opencv_storage>
<stage3>
  <maxWeakCount>6</maxWeakCount>
  <stageThreshold>-1.1538050174713135e+00</stageThreshold>
  <weakClassifiers>
    <_>
      <internalNodes>
        0 -1 687058 -1.4395175501704216e-02</internalNodes>
      <leafValues>
        6.8852460384368896e-01 -3.0215826630592346e-01</leafValues></_>
    <_>
      <internalNodes>
        0 -1 816292 -3.3589397207833827e-04</internalNodes>
      <leafValues>
        -7.1884965896606445e-01 2.9647576808929443e-01</leafValues></_>
    <_>
      <internalNodes>
        0 -1 33236 -1.3711843639612198e-02</internalNodes>
      <leafValues>
        3.5834431648254395e-01 -5.6935697793960571e-01</leafValues></_>
    <_>
      <internalNodes>
        0 -1 777593 -1.2141817715018988e-03</internalNodes>
      <leafValues>
        -8.5992974042892456e-01 2.5040435791015625e-01</leafValues></_>
    <_>
      <internalNodes>
        0 -1 406881 3.8135470822453499e-03</internalNodes>
      <leafValues>
        -5.2170455455780029e-01 3.5060665011405945e-01</leafValues></_>
    <_>
      <internalNodes>
        0 -1 33398 2.4224054068326950e-02</internalNodes>
      <leafValues>
        -3.0746528506278992e-01 7.1183604001998901e-01</leafValues></_></weakClassifiers></stage3>
</opencv_storage>
