<?xml version="1.0"?>
<opencv_storage>
<stage10>
  <maxWeakCount>7</maxWeakCount>
  <stageThreshold>-6.5182381868362427e-01</stageThreshold>
  <weakClassifiers>
    <_>
      <internalNodes>
        0 -1 812150 -2.3274354171007872e-03</internalNodes>
      <leafValues>
        4.3005180358886719e-01 -4.0096619725227356e-01</leafValues></_>
    <_>
      <internalNodes>
        0 -1 11401 -4.1828042594715953e-04</internalNodes>
      <leafValues>
        4.5926555991172791e-01 -4.3202918767929077e-01</leafValues></_>
    <_>
      <internalNodes>
        0 -1 34037 2.0750816911458969e-03</internalNodes>
      <leafValues>
        -3.5893160104751587e-01 5.1120334863662720e-01</leafValues></_>
    <_>
      <internalNodes>
        0 -1 807286 1.6290356870740652e-04</internalNodes>
      <leafValues>
        -4.2125359177589417e-01 4.8826935887336731e-01</leafValues></_>
    <_>
      <internalNodes>
        0 -1 469170 9.8605528473854065e-03</internalNodes>
      <leafValues>
        -2.0988187193870544e-01 7.8326427936553955e-01</leafValues></_>
    <_>
      <internalNodes>
        0 -1 686483 -4.6982597559690475e-03</internalNodes>
      <leafValues>
        7.0461326837539673e-01 -1.9346217811107635e-01</leafValues></_>
    <_>
      <internalNodes>
        0 -1 563566 -5.5973243433982134e-04</internalNodes>
      <leafValues>
        6.0738635063171387e-01 -3.3645215630531311e-01</leafValues></_></weakClassifiers></stage10>
</opencv_storage>
