<?xml version="1.0"?>
<opencv_storage>
<stage4>
  <maxWeakCount>16</maxWeakCount>
  <stageThreshold>-1.3331533670425415e+00</stageThreshold>
  <weakClassifiers>
    <_>
      <internalNodes>
        0 -1 7400 430969012 1073486297 1073699839 469700021 -1929576449
        -4583746 999870460 783817912</internalNodes>
      <leafValues>
        -1.9815994799137115e-01 7.1506428718566895e-01</leafValues></_>
    <_>
      <internalNodes>
        0 -1 7691 409995517 536611052 1068998653 521932509 -1080233985
        -90883 -1129594883 -1087633240</internalNodes>
      <leafValues>
        -3.2055479288101196e-01 5.4470646381378174e-01</leafValues></_>
    <_>
      <internalNodes>
        0 -1 5457 339220989 -537245731 -33685505 -572620803 -1125322753
        -1078265861 -1360093185 -1163391848</internalNodes>
      <leafValues>
        -3.6040323972702026e-01 5.0683504343032837e-01</leafValues></_>
    <_>
      <internalNodes>
        0 -1 9189 -6291467 -1388708651 -35938564 349685999 -74449051
        175720611 -17906448 213896380</internalNodes>
      <leafValues>
        -5.2677190303802490e-01 3.4064379334449768e-01</leafValues></_>
    <_>
      <internalNodes>
        0 -1 6144 431495389 -105024016 -117587969 -1074064403
        -1299390533 -1074820407 -1543979585 179834040</internalNodes>
      <leafValues>
        -4.2623057961463928e-01 3.6285600066184998e-01</leafValues></_>
    <_>
      <internalNodes>
        0 -1 8882 -21233665 -1598073261 -194022164 -2005736532 -71434339
        -1134822915 -1534067460 -1930954499</internalNodes>
      <leafValues>
        -4.2642745375633240e-01 3.4716105461120605e-01</leafValues></_>
    <_>
      <internalNodes>
        0 -1 6168 213420121 236196061 -1944066563 712882909 -1702639105
        -38075975 -1176860691 -1885601712</internalNodes>
      <leafValues>
        -4.1511684656143188e-01 3.7177577614784241e-01</leafValues></_>
    <_>
      <internalNodes>
        0 -1 355 -286785569 -486738443 -95420978 -397627921 -270053389
        1880194889 -134744233 2004352471</internalNodes>
      <leafValues>
        -3.7956109642982483e-01 3.7464004755020142e-01</leafValues></_>
    <_>
      <internalNodes>
        0 -1 5355 -1619505155 1005915379 2029820415 1043340788 -4461059
        -587662948 -1400307875 -1355769412</internalNodes>
      <leafValues>
        -3.6220437288284302e-01 3.8728109002113342e-01</leafValues></_>
    <_>
      <internalNodes>
        0 -1 7495 691019133 -682993155 -1617330209 1441275308
        -1737032742 -228656135 800784367 405282044</internalNodes>
      <leafValues>
        -4.4116598367691040e-01 3.2296982407569885e-01</leafValues></_>
    <_>
      <internalNodes>
        0 -1 8753 405561156 882244628 -1629749825 -1862926788
        -1079967756 -1864995523 -902107480 8966075</internalNodes>
      <leafValues>
        -5.4651159048080444e-01 2.4084010720252991e-01</leafValues></_>
    <_>
      <internalNodes>
        0 -1 7326 -54145441 -1134702127 283047266 1760865180 -8709001
        -1359806877 1511317060 -2068212004</internalNodes>
      <leafValues>
        -4.2424303293228149e-01 3.0486378073692322e-01</leafValues></_>
    <_>
      <internalNodes>
        0 -1 9392 -536887515 217185462 -1247097260 547482775 -1166282801
        20442546 662691036 1557122271</internalNodes>
      <leafValues>
        -3.5394471883773804e-01 3.7171557545661926e-01</leafValues></_>
    <_>
      <internalNodes>
        0 -1 6447 758658653 681201149 1564234239 1035471229 -352489729
        -373708600 134938076 447220136</internalNodes>
      <leafValues>
        -4.5290860533714294e-01 2.8473317623138428e-01</leafValues></_>
    <_>
      <internalNodes>
        0 -1 6192 615514228 -1657268020 -1153306625 273158237
        -1399276033 -50548492 -1156972578 414980592</internalNodes>
      <leafValues>
        -5.4369187355041504e-01 2.3609450459480286e-01</leafValues></_>
    <_>
      <internalNodes>
        0 -1 4254 -790364986 276551590 -233310882 -2147296294 -237299708
        -240279515 -1283230746 26259620</internalNodes>
      <leafValues>
        -6.2909233570098877e-01 2.1157872676849365e-01</leafValues></_></weakClassifiers></stage4>
</opencv_storage>
