<?xml version="1.0"?>
<opencv_storage>
<stage7>
  <maxWeakCount>23</maxWeakCount>
  <stageThreshold>-1.3786989450454712e+00</stageThreshold>
  <weakClassifiers>
    <_>
      <internalNodes>
        0 -1 379 -86245402 -156041422 -85001374 34258650 -603983905
        1891039710 -537198850 1348793827</internalNodes>
      <leafValues>
        -2.2980163991451263e-01 6.5186750888824463e-01</leafValues></_>
    <_>
      <internalNodes>
        0 -1 9353 -33687820 -167922585 -118952067 -1650087688 -554440800
        964350164 -1454257400 139973691</internalNodes>
      <leafValues>
        -3.5809701681137085e-01 4.0084984898567200e-01</leafValues></_>
    <_>
      <internalNodes>
        0 -1 9101 -269484385 1064275704 -1997812516 -4862732 -1363149058
        -1095849794 141280504 -536881955</internalNodes>
      <leafValues>
        -2.7498909831047058e-01 4.6244814991950989e-01</leafValues></_>
    <_>
      <internalNodes>
        0 -1 6839 -34866209 6935756 823418104 301082064 -1289703969
        144805352 -1182553091 214691279</internalNodes>
      <leafValues>
        -4.4459363818168640e-01 2.8582438826560974e-01</leafValues></_>
    <_>
      <internalNodes>
        0 -1 9127 -146812922 462928410 -1725245417 1897288221
        -1544311637 -1913770958 -919875910 1646517547</internalNodes>
      <leafValues>
        -3.3643570542335510e-01 3.6334675550460815e-01</leafValues></_>
    <_>
      <internalNodes>
        0 -1 222 -286261590 1074565286 1092195296 -683488735 1078067690
        142671873 286621712 1413996643</internalNodes>
      <leafValues>
        -4.1899278759956360e-01 2.8306347131729126e-01</leafValues></_>
    <_>
      <internalNodes>
        0 -1 3976 -25231914 -80808332 -845752866 687875186 -385226244
        -51402665 2072637656 -924007171</internalNodes>
      <leafValues>
        -4.1267278790473938e-01 2.7113682031631470e-01</leafValues></_>
    <_>
      <internalNodes>
        0 -1 13 -840171861 -139926086 -1541433635 -5386686 57042609
        -390100860 84484828 1431786290</internalNodes>
      <leafValues>
        -3.3140644431114197e-01 2.9803827404975891e-01</leafValues></_>
    <_>
      <internalNodes>
        0 -1 9227 -68420041 -1082135197 -1796288431 522927607
        -1073751065 -1982464780 484438269 -909125205</internalNodes>
      <leafValues>
        -2.1631740033626556e-01 4.7247830033302307e-01</leafValues></_>
    <_>
      <internalNodes>
        0 -1 2243 -794312589 1984873959 -2029021831 1900201077
        -199260707 -538164014 -1619036211 1082085589</internalNodes>
      <leafValues>
        -3.0437329411506653e-01 3.3620470762252808e-01</leafValues></_>
    <_>
      <internalNodes>
        0 -1 550 -538713617 1231463176 1658980946 -80732017 811275570
        1476867685 1765207807 -820778757</internalNodes>
      <leafValues>
        -2.3412933945655823e-01 4.4290041923522949e-01</leafValues></_>
    <_>
      <internalNodes>
        0 -1 8733 -117481967 964038187 -1159497089 944859659 -549789729
        -1613242418 -71306550 -1998853585</internalNodes>
      <leafValues>
        -2.5289437174797058e-01 3.9737242460250854e-01</leafValues></_>
    <_>
      <internalNodes>
        0 -1 7209 -2090363395 -604840910 -814846465 1241308284
        -563620609 -596851540 -898659158 1754581135</internalNodes>
      <leafValues>
        -2.9442793130874634e-01 3.2351016998291016e-01</leafValues></_>
    <_>
      <internalNodes>
        0 -1 6477 -1129582099 940048412 404295262 865655228 139315401
        -1666147926 760082744 -1192604418</internalNodes>
      <leafValues>
        -3.5695153474807739e-01 2.6989436149597168e-01</leafValues></_>
    <_>
      <internalNodes>
        0 -1 7356 1406131263 -1360554006 1153490658 -935003576
        -132410794 -1036908196 -1503190204 -2078895620</internalNodes>
      <leafValues>
        -4.4289174675941467e-01 2.1044804155826569e-01</leafValues></_>
    <_>
      <internalNodes>
        0 -1 7783 -55847693 -48660000 2109404671 -112966402 -97086531
        -1645888010 -1615137090 -1333097235</internalNodes>
      <leafValues>
        -2.0418949425220490e-01 4.7391825914382935e-01</leafValues></_>
    <_>
      <internalNodes>
        0 -1 1673 -614794498 527544059 -68885320 901833707 -279936868
        -582712876 1608831196 -80571764</internalNodes>
      <leafValues>
        -2.5718975067138672e-01 3.7674981355667114e-01</leafValues></_>
    <_>
      <internalNodes>
        0 -1 16 2086858282 1603961288 1410388413 2009749290 -1843524722
        -613252967 1262510286 1091716305</internalNodes>
      <leafValues>
        -4.0935796499252319e-01 2.4655532836914063e-01</leafValues></_>
    <_>
      <internalNodes>
        0 -1 9129 -1323766010 -1145580638 474140863 511699258
        -1216162668 713900049 -1207396647 11662886</internalNodes>
      <leafValues>
        -4.3913194537162781e-01 2.1738243103027344e-01</leafValues></_>
    <_>
      <internalNodes>
        0 -1 9402 -7342422 -2080404830 -1862974185 -671517456
        -1136794528 216725480 1191044232 -672930565</internalNodes>
      <leafValues>
        -2.6551872491836548e-01 3.6431100964546204e-01</leafValues></_>
    <_>
      <internalNodes>
        0 -1 561 -81006661 -76075176 -897290413 1929537066 -813730482
        -347113904 -976306177 -552772065</internalNodes>
      <leafValues>
        -2.0860545337200165e-01 4.4599658250808716e-01</leafValues></_>
    <_>
      <internalNodes>
        0 -1 310 -969217394 -2108694070 1644269750 -1429433515
        1761812714 88248404 1171521686 -771229114</internalNodes>
      <leafValues>
        -3.4148931503295898e-01 2.8236639499664307e-01</leafValues></_>
    <_>
      <internalNodes>
        0 -1 1852 1434089078 -2085515244 -1882990214 -2102336879
        -532725778 -1901012473 164120154 -951215813</internalNodes>
      <leafValues>
        -3.1730467081069946e-01 3.0473095178604126e-01</leafValues></_></weakClassifiers></stage7>
</opencv_storage>
