<?xml version="1.0"?>
<opencv_storage>
<stage15>
  <maxWeakCount>33</maxWeakCount>
  <stageThreshold>-1.2788519859313965e+00</stageThreshold>
  <weakClassifiers>
    <_>
      <internalNodes>
        0 -1 3974 -823205372 -155916588 -1090584794 -524353546
        -134754636 -1744898598 2071461648 -722213198</internalNodes>
      <leafValues>
        -7.1651093661785126e-02 6.0929125547409058e-01</leafValues></_>
    <_>
      <internalNodes>
        0 -1 7382 -1656752007 -323432004 1577056765 2042260413
        -1281623049 217627376 1034537962 1056838911</internalNodes>
      <leafValues>
        -2.5894483923912048e-01 3.6365607380867004e-01</leafValues></_>
    <_>
      <internalNodes>
        0 -1 9073 -68193193 -1242436839 -865941560 1651297110 -268503051
        1408427386 -378013884 -267846948</internalNodes>
      <leafValues>
        -3.5168564319610596e-01 2.5183990597724915e-01</leafValues></_>
    <_>
      <internalNodes>
        0 -1 9386 -67633233 934847994 -1145492424 -1916040963 1002433503
        60460576 1305824412 1609551099</internalNodes>
      <leafValues>
        -2.7995190024375916e-01 2.8975772857666016e-01</leafValues></_>
    <_>
      <internalNodes>
        0 -1 569 -243767649 488850432 -2028904971 463278224 -526888739
        990908448 1073822937 973370553</internalNodes>
      <leafValues>
        -2.8712376952171326e-01 2.6266533136367798e-01</leafValues></_>
    <_>
      <internalNodes>
        0 -1 7960 -262223683 -214544109 957676191 1944049161 -50398841
        -73547998 -545538245 -100455925</internalNodes>
      <leafValues>
        -2.3444628715515137e-01 3.4898677468299866e-01</leafValues></_>
    <_>
      <internalNodes>
        0 -1 1594 -295962993 -17847125 -387170134 -1106069402 1965638876
        290806807 -1150302050 -143923985</internalNodes>
      <leafValues>
        -2.1386794745922089e-01 3.4323197603225708e-01</leafValues></_>
    <_>
      <internalNodes>
        0 -1 8173 1136894885 -203762178 -2062801573 1104358166
        -1416667921 -1456158991 -1430275137 31359482</internalNodes>
      <leafValues>
        -2.5397148728370667e-01 2.7563592791557312e-01</leafValues></_>
    <_>
      <internalNodes>
        0 -1 7122 423233276 1499276533 701919710 1493516556 -1322450447
        -8893736 354191029 -1620244248</internalNodes>
      <leafValues>
        -2.8024110198020935e-01 2.4438245594501495e-01</leafValues></_>
    <_>
      <internalNodes>
        0 -1 9228 -206835201 -754285144 1962013541 -685425415
        -1499469857 262068650 1600124148 -10624540</internalNodes>
      <leafValues>
        -1.8597312271595001e-01 3.6756277084350586e-01</leafValues></_>
    <_>
      <internalNodes>
        0 -1 1095 -347435270 1373127567 -1983886210 -112568384
        1518953876 1543577109 1622110462 2031843106</internalNodes>
      <leafValues>
        -3.0722787976264954e-01 2.3372736573219299e-01</leafValues></_>
    <_>
      <internalNodes>
        0 -1 8862 -73400581 -1876978760 -661276478 275368526 -1365397001
        -1270247114 -1093020728 -788533050</internalNodes>
      <leafValues>
        -2.5860595703125000e-01 2.6517108082771301e-01</leafValues></_>
    <_>
      <internalNodes>
        0 -1 6975 852645077 -2227147 2026403820 -562558980 1056596959
        -1199522902 797376501 880811260</internalNodes>
      <leafValues>
        -3.5458144545555115e-01 1.9827309250831604e-01</leafValues></_>
    <_>
      <internalNodes>
        0 -1 1141 -1557451599 1045495956 -1992220961 -107535657
        1808985002 -70303584 -2113710614 -1931520827</internalNodes>
      <leafValues>
        -2.5442746281623840e-01 2.7317237854003906e-01</leafValues></_>
    <_>
      <internalNodes>
        0 -1 9366 -1208186534 -1748774469 -2146850174 607490509
        -1577007346 1920434184 110935006 -1073489765</internalNodes>
      <leafValues>
        -2.6081755757331848e-01 2.5518763065338135e-01</leafValues></_>
    <_>
      <internalNodes>
        0 -1 32 -1568194526 -941623019 -745958053 1236043119 -18690780
        1053483392 -16246388 1467957717</internalNodes>
      <leafValues>
        -3.2911205291748047e-01 2.0349359512329102e-01</leafValues></_>
    <_>
      <internalNodes>
        0 -1 9401 -1832060362 543205936 222627344 15999568 -1679270867
        175169668 223681665 108393947</internalNodes>
      <leafValues>
        -4.4106745719909668e-01 1.4884240925312042e-01</leafValues></_>
    <_>
      <internalNodes>
        0 -1 540 -670566358 -822610057 918741299 1379590843 1983340554
        1231042123 -2058959725 -178001221</internalNodes>
      <leafValues>
        -2.4097019433975220e-01 2.7840796113014221e-01</leafValues></_>
    <_>
      <internalNodes>
        0 -1 7434 -1035976184 333064743 -623275974 2318345 1115273950
        1872823432 -83252225 31295</internalNodes>
      <leafValues>
        -3.9903587102890015e-01 1.7112989723682404e-01</leafValues></_>
    <_>
      <internalNodes>
        0 -1 834 -872416770 1643609701 -1078002757 230623871 -1607009736
        -806669028 -637944834 -151377</internalNodes>
      <leafValues>
        -1.9292856752872467e-01 3.5690328478813171e-01</leafValues></_>
    <_>
      <internalNodes>
        0 -1 7300 -1183352105 293426425 -267232573 1483618800 -229442326
        -306341397 -452925632 115382740</internalNodes>
      <leafValues>
        -3.2948422431945801e-01 2.1032200753688812e-01</leafValues></_>
    <_>
      <internalNodes>
        0 -1 8717 -691609803 -1970675259 -1876769656 1566300890
        -528311538 -1949709685 -1470235476 -1935187794</internalNodes>
      <leafValues>
        -2.7772757411003113e-01 2.6476871967315674e-01</leafValues></_>
    <_>
      <internalNodes>
        0 -1 2736 -1438121952 -70772290 -2105400708 1031651656
        -1298394217 1402667665 -2028939367 -917176320</internalNodes>
      <leafValues>
        -3.2839611172676086e-01 2.1157547831535339e-01</leafValues></_>
    <_>
      <internalNodes>
        0 -1 9211 -1219512809 -576508686 1935604927 1435263640 644838647
        -936145907 525371628 -615647007</internalNodes>
      <leafValues>
        -2.1002933382987976e-01 3.2916298508644104e-01</leafValues></_>
    <_>
      <internalNodes>
        0 -1 1131 -814800302 1006109158 -1366791704 1528973779
        -350812886 1852836377 -498435590 959668547</internalNodes>
      <leafValues>
        -3.1866422295570374e-01 2.1087943017482758e-01</leafValues></_>
    <_>
      <internalNodes>
        0 -1 5915 1190127006 297796645 -39586818 -1804160256 689782952
        -2053330549 1061691963 1127974415</internalNodes>
      <leafValues>
        -2.9932767152786255e-01 2.3125720024108887e-01</leafValues></_>
    <_>
      <internalNodes>
        0 -1 7531 -737321313 -683634559 1242340636 -1641459363
        -1898244080 -1348919215 -381922676 -1232945828</internalNodes>
      <leafValues>
        -2.6471021771430969e-01 2.6037049293518066e-01</leafValues></_>
    <_>
      <internalNodes>
        0 -1 9403 -715461718 -1580684610 -2084850847 -746215991
        -1820534959 121413997 1366646915 -1744851618</internalNodes>
      <leafValues>
        -2.5458079576492310e-01 2.6996269822120667e-01</leafValues></_>
    <_>
      <internalNodes>
        0 -1 6023 -610623600 -1825418910 1373085760 -211424164 89843820
        -633664255 341682389 499685439</internalNodes>
      <leafValues>
        -3.0993983149528503e-01 2.3224043846130371e-01</leafValues></_>
    <_>
      <internalNodes>
        0 -1 1738 820139908 2061722548 1124570391 200151878 -2043706975
        -1302935200 903834026 54055057</internalNodes>
      <leafValues>
        -3.8213887810707092e-01 1.8362915515899658e-01</leafValues></_>
    <_>
      <internalNodes>
        0 -1 3651 -110688033 -98484585 791346923 -2041334991 -1079620075
        -952615701 1570945005 -1219964481</internalNodes>
      <leafValues>
        -2.1605491638183594e-01 3.1990143656730652e-01</leafValues></_>
    <_>
      <internalNodes>
        0 -1 452 -344392746 1697587607 806017302 1495454643 1769960675
        604715355 669324036 1329455790</internalNodes>
      <leafValues>
        -2.5219357013702393e-01 2.6687496900558472e-01</leafValues></_>
    <_>
      <internalNodes>
        0 -1 6830 -1440941859 126356409 1273461757 462264061 -1942873174
        -546771444 -1414530118 -1142257415</internalNodes>
      <leafValues>
        -2.2763393819332123e-01 3.1506523489952087e-01</leafValues></_></weakClassifiers></stage15>
</opencv_storage>
