<?xml version="1.0"?>
<opencv_storage>
<stage6>
  <maxWeakCount>22</maxWeakCount>
  <stageThreshold>-1.3728233575820923e+00</stageThreshold>
  <weakClassifiers>
    <_>
      <internalNodes>
        0 -1 7392 -1718953731 431491312 234765501 431496689 314113019
        149998737 182977272 150603002</internalNodes>
      <leafValues>
        -1.0244593769311905e-01 6.8515086174011230e-01</leafValues></_>
    <_>
      <internalNodes>
        0 -1 9386 -75767877 1068737698 -2101610184 934783231 436206542
        186355336 99812488 503303423</internalNodes>
      <leafValues>
        -3.0435374379158020e-01 4.5884817838668823e-01</leafValues></_>
    <_>
      <internalNodes>
        0 -1 8194 1348616192 289503249 303233272 290603859 -658376005
        -1442589168 1073938106 574355963</internalNodes>
      <leafValues>
        -4.7784200310707092e-01 2.7984309196472168e-01</leafValues></_>
    <_>
      <internalNodes>
        0 -1 520 -1837109 -642062404 -462656798 -232637650 1984583235
        1879517779 -753425101 -143133637</internalNodes>
      <leafValues>
        -3.1816500425338745e-01 4.0573158860206604e-01</leafValues></_>
    <_>
      <internalNodes>
        0 -1 8882 -134226007 348077163 -1577937804 1027463857
        -1174405237 -1385699731 -922887940 -1933576065</internalNodes>
      <leafValues>
        -3.3890086412429810e-01 3.8820928335189819e-01</leafValues></_>
    <_>
      <internalNodes>
        0 -1 7305 -558441449 -671350829 -1671636012 -731764902
        -635641037 -393297054 -132057264 -2134885708</internalNodes>
      <leafValues>
        -4.3176996707916260e-01 2.5702741742134094e-01</leafValues></_>
    <_>
      <internalNodes>
        0 -1 601 805478400 -750616367 35341791 2144861661 673743519
        -838723375 856815551 1073954897</internalNodes>
      <leafValues>
        -4.1723018884658813e-01 2.6403403282165527e-01</leafValues></_>
    <_>
      <internalNodes>
        0 -1 9396 -371212254 -2125741781 -2129079536 -757936021
        -611082234 2001681 819060944 -741344261</internalNodes>
      <leafValues>
        -3.5314309597015381e-01 3.1934621930122375e-01</leafValues></_>
    <_>
      <internalNodes>
        0 -1 1028 2084209674 1901757906 676735184 1058708656 1342772168
        1494815016 1638087642 2145118106</internalNodes>
      <leafValues>
        -3.6699390411376953e-01 2.8752231597900391e-01</leafValues></_>
    <_>
      <internalNodes>
        0 -1 72 -1408573222 -611774310 2030368979 -590134960 573260516
        -607780558 1361134310 -172526617</internalNodes>
      <leafValues>
        -3.2235363125801086e-01 3.3877092599868774e-01</leafValues></_>
    <_>
      <internalNodes>
        0 -1 4012 -688409364 -1320170867 717486292 559644706 -1987317365
        -595814247 -1742999044 1220075007</internalNodes>
      <leafValues>
        -3.9927661418914795e-01 2.6605150103569031e-01</leafValues></_>
    <_>
      <internalNodes>
        0 -1 9005 -105056259 -2133313412 284683517 1035546814 228261764
        703393108 368436476 -1947230054</internalNodes>
      <leafValues>
        -2.8211680054664612e-01 3.7134698033332825e-01</leafValues></_>
    <_>
      <internalNodes>
        0 -1 8721 -1943008040 2097623761 427848601 -671935083 160084443
        -1374107768 -1836403768 -1683357560</internalNodes>
      <leafValues>
        -3.2806190848350525e-01 3.0950191617012024e-01</leafValues></_>
    <_>
      <internalNodes>
        0 -1 71 1926118294 1582694927 1363984794 -686143232 1216364955
        -1843182911 1250184586 1392729379</internalNodes>
      <leafValues>
        -3.8344624638557434e-01 2.5834462046623230e-01</leafValues></_>
    <_>
      <internalNodes>
        0 -1 9403 -1145244766 -2104703284 -1036750148 403461662
        -996544965 -2012741504 1079763083 -950010117</internalNodes>
      <leafValues>
        -3.2544785737991333e-01 3.3024892210960388e-01</leafValues></_>
    <_>
      <internalNodes>
        0 -1 6751 1006376381 2139119824 -233842722 -1265082148 -92102216
        799957643 -796855491 -1191397926</internalNodes>
      <leafValues>
        -3.5688209533691406e-01 2.8389510512351990e-01</leafValues></_>
    <_>
      <internalNodes>
        0 -1 170 -450036854 1271261836 -877852768 -149483383 -410466624
        711642256 1147187393 -983305743</internalNodes>
      <leafValues>
        -2.9516008496284485e-01 3.3654108643531799e-01</leafValues></_>
    <_>
      <internalNodes>
        0 -1 7181 -533281184 1370934812 -2145860898 1092131723
        -1294300435 -662302568 -1869647880 541243</internalNodes>
      <leafValues>
        -4.7109219431877136e-01 2.2008734941482544e-01</leafValues></_>
    <_>
      <internalNodes>
        0 -1 8267 -243802545 1997924903 -565644673 277278529 -117517748
        -3318222 1383995202 -237305891</internalNodes>
      <leafValues>
        -2.8755271434783936e-01 3.5064521431922913e-01</leafValues></_>
    <_>
      <internalNodes>
        0 -1 480 -529542417 1348990810 -1803794784 1483800287 -6888430
        1383536195 -680139089 -217319977</internalNodes>
      <leafValues>
        -2.3531435430049896e-01 4.2462229728698730e-01</leafValues></_>
    <_>
      <internalNodes>
        0 -1 8317 -542126333 324915758 -1401948250 1407647660 -404757017
        -1933222204 -168438294 -2065170953</internalNodes>
      <leafValues>
        -3.0481719970703125e-01 3.3795979619026184e-01</leafValues></_>
    <_>
      <internalNodes>
        0 -1 9361 -1092818880 -1691148011 -1205352064 -1067203245
        425239556 139004538 -71162546 -1073548565</internalNodes>
      <leafValues>
        -3.6683034896850586e-01 2.8131359815597534e-01</leafValues></_></weakClassifiers></stage6>
</opencv_storage>
