<?xml version="1.0"?>
<opencv_storage>
<stage16>
  <maxWeakCount>34</maxWeakCount>
  <stageThreshold>-1.0958967208862305e+00</stageThreshold>
  <weakClassifiers>
    <_>
      <internalNodes>
        0 -1 905 -320147546 -155952142 -269549854 -1595605470 645918715
        -488185985 -956311605 1190460926</internalNodes>
      <leafValues>
        -5.2484903484582901e-02 6.2079823017120361e-01</leafValues></_>
    <_>
      <internalNodes>
        0 -1 8690 -169869825 -136391690 1073737717 -100994596
        -1095368705 -826354185 429981563 -1075845121</internalNodes>
      <leafValues>
        -1.1213994771242142e-01 5.4227185249328613e-01</leafValues></_>
    <_>
      <internalNodes>
        0 -1 4376 1662516982 1402004596 -316971306 -2066701638
        1503917807 -508780245 -224137345 83674142</internalNodes>
      <leafValues>
        -5.0013130903244019e-01 1.6927354037761688e-01</leafValues></_>
    <_>
      <internalNodes>
        0 -1 8 -338736658 -2099475 -1376264193 -1313505 1276615057
        -1989673067 1156527295 -441995245</internalNodes>
      <leafValues>
        -2.4152293801307678e-01 3.2594275474548340e-01</leafValues></_>
    <_>
      <internalNodes>
        0 -1 6559 -660362595 858980999 -99877409 1608506699 -1094983798
        -704916 -1200509253 -1692443619</internalNodes>
      <leafValues>
        -2.3258079588413239e-01 3.3979049324989319e-01</leafValues></_>
    <_>
      <internalNodes>
        0 -1 6777 1060452863 -383904486 -786971448 -24724468 -249300264
        -1398087174 -251935164 -1868909060</internalNodes>
      <leafValues>
        -3.1977295875549316e-01 2.3162651062011719e-01</leafValues></_>
    <_>
      <internalNodes>
        0 -1 562 -3150401 -139249923 -273092897 -15564840 1802447089
        -5472678 -1067946005 -311199421</internalNodes>
      <leafValues>
        -1.9981235265731812e-01 3.5715478658676147e-01</leafValues></_>
    <_>
      <internalNodes>
        0 -1 9342 -14694726 -1619318722 499928184 -543353824 -1644430093
        1039910100 258459868 -556808979</internalNodes>
      <leafValues>
        -2.1605888009071350e-01 3.1589165329933167e-01</leafValues></_>
    <_>
      <internalNodes>
        0 -1 4635 -1692218312 -544093799 1375891547 415104745
        -1912428817 -923283732 -1413946949 -863089624</internalNodes>
      <leafValues>
        -2.3241859674453735e-01 2.9100608825683594e-01</leafValues></_>
    <_>
      <internalNodes>
        0 -1 8267 -159396265 523740835 1248522796 1353641805 -654382902
        -137961798 -721443252 -232808467</internalNodes>
      <leafValues>
        -2.4922952055931091e-01 2.8474611043930054e-01</leafValues></_>
    <_>
      <internalNodes>
        0 -1 8882 -424480855 -1126891693 -1723607819 -1671705817
        -1095714099 -1971048913 412440825 218100127</internalNodes>
      <leafValues>
        -2.9474869370460510e-01 2.2325539588928223e-01</leafValues></_>
    <_>
      <internalNodes>
        0 -1 6972 -885280481 -743485934 1207891884 1963457521 1065301438
        -713318466 -98836 -1283720449</internalNodes>
      <leafValues>
        -1.7842632532119751e-01 3.9549642801284790e-01</leafValues></_>
    <_>
      <internalNodes>
        0 -1 8783 420675491 -1141375688 1723789838 -1243939216
        -1408074326 -1728480064 1513810749 -1183123461</internalNodes>
      <leafValues>
        -1.9772444665431976e-01 3.1720754504203796e-01</leafValues></_>
    <_>
      <internalNodes>
        0 -1 2284 1795329952 -240251672 -47933513 -1712205979
        -1432884289 -1171261704 -867461746 -925916534</internalNodes>
      <leafValues>
        -2.0656518638134003e-01 3.0115979909896851e-01</leafValues></_>
    <_>
      <internalNodes>
        0 -1 2735 -909449267 30622945 757454813 467247157 -1576791831
        150508744 -2147262192 135261690</internalNodes>
      <leafValues>
        -3.4099751710891724e-01 1.9016200304031372e-01</leafValues></_>
    <_>
      <internalNodes>
        0 -1 6204 -1196902279 -566117903 542349533 -983624207 -553073220
        -1107657090 -2054183457 -1692716932</internalNodes>
      <leafValues>
        -2.0138871669769287e-01 3.2518875598907471e-01</leafValues></_>
    <_>
      <internalNodes>
        0 -1 1024 1759959971 -83909701 -1062956832 -626732991 1756078970
        1181958667 -447160150 1433608511</internalNodes>
      <leafValues>
        -2.6322120428085327e-01 2.5033262372016907e-01</leafValues></_>
    <_>
      <internalNodes>
        0 -1 9389 -83829980 864793272 1360101496 -1111293881 -2083345762
        172460456 1653251320 -919359313</internalNodes>
      <leafValues>
        -2.2794218361377716e-01 2.8179046511650085e-01</leafValues></_>
    <_>
      <internalNodes>
        0 -1 9012 2047515162 39523220 -219117775 20632704 -1428951338
        -1360645215 -762052870 -1204623477</internalNodes>
      <leafValues>
        -2.4869625270366669e-01 2.6080262660980225e-01</leafValues></_>
    <_>
      <internalNodes>
        0 -1 2967 1895746194 1622209493 -707166758 586674034 -771078058
        158818561 61925400 1425643091</internalNodes>
      <leafValues>
        -3.7293949723243713e-01 1.6899590194225311e-01</leafValues></_>
    <_>
      <internalNodes>
        0 -1 7454 -1436001264 -944088909 -1294629154 -1226672527
        2037292676 -1736900571 -91604003 -1549133247</internalNodes>
      <leafValues>
        -3.5119730234146118e-01 1.8206086754798889e-01</leafValues></_>
    <_>
      <internalNodes>
        0 -1 104 -101195162 1676266083 -1811612130 1073664751 887845014
        -1237315550 -1804970701 1867628837</internalNodes>
      <leafValues>
        -2.6122081279754639e-01 2.4924133718013763e-01</leafValues></_>
    <_>
      <internalNodes>
        0 -1 1968 -199098314 804987615 1745749266 1054504286 852209385
        592600120 110308428 320393213</internalNodes>
      <leafValues>
        -3.8790330290794373e-01 1.6931453347206116e-01</leafValues></_>
    <_>
      <internalNodes>
        0 -1 6396 661345311 1108529599 -335307648 2553906 -1162085858
        -1149106236 -557393145 617926304</internalNodes>
      <leafValues>
        -4.2207524180412292e-01 1.5405698120594025e-01</leafValues></_>
    <_>
      <internalNodes>
        0 -1 7345 823605049 -385343341 1912963874 -242552535 -612232945
        -2003234521 -582945547 12754419</internalNodes>
      <leafValues>
        -2.9058989882469177e-01 2.2126962244510651e-01</leafValues></_>
    <_>
      <internalNodes>
        0 -1 6331 424628635 -1789822239 1937747576 95541629 -790910977
        -1107921223 425458030 10475512</internalNodes>
      <leafValues>
        -2.2372274100780487e-01 2.9712361097335815e-01</leafValues></_>
    <_>
      <internalNodes>
        0 -1 6004 206517983 -655096169 -209560586 1246650840 -1605858689
        -542445437 319486796 380828233</internalNodes>
      <leafValues>
        -3.1542739272117615e-01 2.1167118847370148e-01</leafValues></_>
    <_>
      <internalNodes>
        0 -1 4107 1528105587 2031314160 1962951639 706745154 -1959520248
        -1411761616 -297484581 -163557283</internalNodes>
      <leafValues>
        -2.5700324773788452e-01 2.4822747707366943e-01</leafValues></_>
    <_>
      <internalNodes>
        0 -1 5016 -1632579880 -14009384 -1592525857 -1617488656
        -594623580 1017692360 -1979040648 -2130163696</internalNodes>
      <leafValues>
        -2.9348164796829224e-01 2.2947090864181519e-01</leafValues></_>
    <_>
      <internalNodes>
        0 -1 9402 -154229982 178762272 275811024 -688233254 -2063867348
        -2053971647 1089106033 -981482821</internalNodes>
      <leafValues>
        -3.0417034029960632e-01 2.1688492596149445e-01</leafValues></_>
    <_>
      <internalNodes>
        0 -1 695 -368318210 -376645952 -594428209 -573769712 19285425
        2086863081 344146563 -775196249</internalNodes>
      <leafValues>
        -2.5590920448303223e-01 2.6723450422286987e-01</leafValues></_>
    <_>
      <internalNodes>
        0 -1 8768 1599789062 520299706 -1337012154 296276248 -956285952
        -1741192407 53536947 286258279</internalNodes>
      <leafValues>
        -3.4968394041061401e-01 1.8800145387649536e-01</leafValues></_>
    <_>
      <internalNodes>
        0 -1 3656 1675364463 527499345 1929937679 286450355 508622241
        1956266256 1548782265 -1078243279</internalNodes>
      <leafValues>
        -2.4346876144409180e-01 2.7437636256217957e-01</leafValues></_>
    <_>
      <internalNodes>
        0 -1 6293 2074232881 1404524611 2103506811 269750412 -1935139733
        -75239283 739809365 808454644</internalNodes>
      <leafValues>
        -3.3162489533424377e-01 2.0489974319934845e-01</leafValues></_></weakClassifiers></stage16>
</opencv_storage>
