<?xml version="1.0"?>
<opencv_storage>
<stage2>
  <maxWeakCount>16</maxWeakCount>
  <stageThreshold>-1.2283344268798828e+00</stageThreshold>
  <weakClassifiers>
    <_>
      <internalNodes>
        0 -1 9197 -268436759 213904632 805022392 218074814 -1887701791
        208140541 1085523152 213896445</internalNodes>
      <leafValues>
        -2.3647932708263397e-01 7.2718352079391479e-01</leafValues></_>
    <_>
      <internalNodes>
        0 -1 9387 -153 -286789437 -429394398 -1065620905 -201328894
        1148319560 -171182780 -253231105</internalNodes>
      <leafValues>
        -2.7907830476760864e-01 6.0357207059860229e-01</leafValues></_>
    <_>
      <internalNodes>
        0 -1 3248 -172363777 162893277 -1162379265 431979005 -30692609
        213441788 -1077946178 144636108</internalNodes>
      <leafValues>
        -4.0506210923194885e-01 4.5835533738136292e-01</leafValues></_>
    <_>
      <internalNodes>
        0 -1 350 -262205 -926210353 1714184194 -1066493489 1509905924
        19119878 1661931879 -144705705</internalNodes>
      <leafValues>
        -3.7384235858917236e-01 4.6919068694114685e-01</leafValues></_>
    <_>
      <internalNodes>
        0 -1 2789 -989855830 1154868674 -28847682 -522218353 -749471559
        -57765805 -819205217 -293871365</internalNodes>
      <leafValues>
        -4.4325935840606689e-01 3.8866728544235229e-01</leafValues></_>
    <_>
      <internalNodes>
        0 -1 9233 -1342252547 -1879191553 1905901515 -537667329
        -159400715 166657407 -1845513035 -1912604209</internalNodes>
      <leafValues>
        -2.9297500848770142e-01 5.2716815471649170e-01</leafValues></_>
    <_>
      <internalNodes>
        0 -1 8881 -205527133 95878095 -1359087904 -1496584211 -8399121
        -1899044887 -324278816 -822083841</internalNodes>
      <leafValues>
        -3.8792249560356140e-01 3.9411595463752747e-01</leafValues></_>
    <_>
      <internalNodes>
        0 -1 7919 406323356 -1416818564 2010338015 1442383528 1024375487
        -272685638 450537967 -1141368360</internalNodes>
      <leafValues>
        -4.2865827679634094e-01 3.5527223348617554e-01</leafValues></_>
    <_>
      <internalNodes>
        0 -1 238 -353382770 1783284143 -1496391348 -813001938
        -2134685705 1074864507 1195602754 1398234931</internalNodes>
      <leafValues>
        -4.8370906710624695e-01 3.1740587949752808e-01</leafValues></_>
    <_>
      <internalNodes>
        0 -1 7435 4670464 278201603 -702956809 299834815 -101974818
        -1644037239 -362872884 2358025</internalNodes>
      <leafValues>
        -5.3723263740539551e-01 2.5730216503143311e-01</leafValues></_>
    <_>
      <internalNodes>
        0 -1 550 -67113041 -785943767 586702881 -160762921 660566311
        123108987 -550029533 -11537677</internalNodes>
      <leafValues>
        -2.9713350534439087e-01 5.0365608930587769e-01</leafValues></_>
    <_>
      <internalNodes>
        0 -1 9403 -67109917 -1947209870 -1230793439 -605817349
        -1553084661 1569256 -772868869 -807403521</internalNodes>
      <leafValues>
        -2.1682053804397583e-01 6.5013635158538818e-01</leafValues></_>
    <_>
      <internalNodes>
        0 -1 6828 41424989 1071206613 -1793172001 446449495 -1128738369
        -73522804 1066326527 -1635251080</internalNodes>
      <leafValues>
        -3.9625811576843262e-01 3.6439305543899536e-01</leafValues></_>
    <_>
      <internalNodes>
        0 -1 8888 -536936465 -1392519763 -1265145648 1005450067
        -51581539 -1599352385 -1116228412 -2068580100</internalNodes>
      <leafValues>
        -3.9110112190246582e-01 3.6436918377876282e-01</leafValues></_>
    <_>
      <internalNodes>
        0 -1 9365 -10934 -1437604097 1936663266 1351014199 -696882361
        1182791524 1466629991 -800653361</internalNodes>
      <leafValues>
        -3.7650668621063232e-01 3.9451825618743896e-01</leafValues></_>
    <_>
      <internalNodes>
        0 -1 1886 -491331641 -1599016265 556435931 391823862 -1800217150
        -1825357665 879291361 1207932283</internalNodes>
      <leafValues>
        -3.7315109372138977e-01 3.8461092114448547e-01</leafValues></_></weakClassifiers></stage2>
</opencv_storage>
