<?xml version="1.0"?>
<opencv_storage>
<stage10>
  <maxWeakCount>34</maxWeakCount>
  <stageThreshold>-1.4514002799987793e+00</stageThreshold>
  <weakClassifiers>
    <_>
      <internalNodes>
        0 -1 161847 -2.8286259621381760e-03</internalNodes>
      <leafValues>
        -3.6883115768432617e-01 -6.8805462121963501e-01</leafValues></_>
    <_>
      <internalNodes>
        0 -1 157082 5.5028719361871481e-04</internalNodes>
      <leafValues>
        -2.0581921562552452e-02 -4.5575746893882751e-01</leafValues></_>
    <_>
      <internalNodes>
        0 -1 816 8.4230095148086548e-02</internalNodes>
      <leafValues>
        4.0683146566152573e-02 -6.7916458845138550e-01</leafValues></_>
    <_>
      <internalNodes>
        0 -1 156254 1.5454634092748165e-02</internalNodes>
      <leafValues>
        7.1570210158824921e-02 -5.8476001024246216e-01</leafValues></_>
    <_>
      <internalNodes>
        0 -1 161438 5.5977022275328636e-03</internalNodes>
      <leafValues>
        -9.7482427954673767e-02 2.9811874032020569e-01</leafValues></_>
    <_>
      <internalNodes>
        0 -1 156399 -6.7842900753021240e-03</internalNodes>
      <leafValues>
        -3.9972719550132751e-01 9.2997319996356964e-02</leafValues></_>
    <_>
      <internalNodes>
        0 -1 158597 -5.9067253023386002e-03</internalNodes>
      <leafValues>
        2.6290577650070190e-01 -1.1756396293640137e-01</leafValues></_>
    <_>
      <internalNodes>
        0 -1 16305 -1.1730077676475048e-03</internalNodes>
      <leafValues>
        3.1130588054656982e-01 -9.4808511435985565e-02</leafValues></_>
    <_>
      <internalNodes>
        0 -1 56936 5.5676683783531189e-02</internalNodes>
      <leafValues>
        -9.4236500561237335e-02 3.5017219185829163e-01</leafValues></_>
    <_>
      <internalNodes>
        0 -1 16305 1.4732801355421543e-03</internalNodes>
      <leafValues>
        -1.1491230875253677e-01 3.2180038094520569e-01</leafValues></_>
    <_>
      <internalNodes>
        0 -1 109324 -1.5602490864694118e-02</internalNodes>
      <leafValues>
        4.3245819211006165e-01 -6.7772999405860901e-02</leafValues></_>
    <_>
      <internalNodes>
        0 -1 71279 -1.6187097877264023e-02</internalNodes>
      <leafValues>
        2.3143468797206879e-01 -1.7767287790775299e-01</leafValues></_>
    <_>
      <internalNodes>
        0 -1 57374 3.9886990562081337e-03</internalNodes>
      <leafValues>
        7.9281933605670929e-02 -3.7138405442237854e-01</leafValues></_>
    <_>
      <internalNodes>
        0 -1 35213 -2.1885547321289778e-03</internalNodes>
      <leafValues>
        -3.9874798059463501e-01 8.5017479956150055e-02</leafValues></_>
    <_>
      <internalNodes>
        0 -1 12581 -2.2848644293844700e-03</internalNodes>
      <leafValues>
        1.6946204006671906e-01 -1.7672395706176758e-01</leafValues></_>
    <_>
      <internalNodes>
        0 -1 162332 -4.4010046985931695e-04</internalNodes>
      <leafValues>
        -2.9929694533348083e-01 9.9609181284904480e-02</leafValues></_>
    <_>
      <internalNodes>
        0 -1 144006 -1.3613780029118061e-03</internalNodes>
      <leafValues>
        -5.1968723535537720e-01 5.1273528486490250e-02</leafValues></_>
    <_>
      <internalNodes>
        0 -1 157533 -2.4513271637260914e-04</internalNodes>
      <leafValues>
        2.0874813199043274e-01 -1.3644607365131378e-01</leafValues></_>
    <_>
      <internalNodes>
        0 -1 106615 1.2054950930178165e-03</internalNodes>
      <leafValues>
        -1.1996725946664810e-01 2.5681963562965393e-01</leafValues></_>
    <_>
      <internalNodes>
        0 -1 50756 3.9511658251285553e-03</internalNodes>
      <leafValues>
        -8.7910667061805725e-02 3.2633611559867859e-01</leafValues></_>
    <_>
      <internalNodes>
        0 -1 71313 -1.0972516611218452e-02</internalNodes>
      <leafValues>
        3.0110621452331543e-01 -1.2142426520586014e-01</leafValues></_>
    <_>
      <internalNodes>
        0 -1 80 -3.4335218369960785e-03</internalNodes>
      <leafValues>
        -4.2647081613540649e-01 6.9042243063449860e-02</leafValues></_>
    <_>
      <internalNodes>
        0 -1 62076 9.2620350187644362e-04</internalNodes>
      <leafValues>
        -1.1556411534547806e-01 2.4120284616947174e-01</leafValues></_>
    <_>
      <internalNodes>
        0 -1 5066 -7.0305913686752319e-03</internalNodes>
      <leafValues>
        2.3841893672943115e-01 -1.3096597790718079e-01</leafValues></_>
    <_>
      <internalNodes>
        0 -1 106602 -1.4479001984000206e-03</internalNodes>
      <leafValues>
        2.4298955500125885e-01 -1.1394219100475311e-01</leafValues></_>
    <_>
      <internalNodes>
        0 -1 127644 -3.4545320086181164e-03</internalNodes>
      <leafValues>
        -3.4651833772659302e-01 7.9530723392963409e-02</leafValues></_>
    <_>
      <internalNodes>
        0 -1 11548 -1.1687617748975754e-02</internalNodes>
      <leafValues>
        -9.0138185024261475e-01 2.7139576151967049e-02</leafValues></_>
    <_>
      <internalNodes>
        0 -1 144467 -8.4959220839664340e-04</internalNodes>
      <leafValues>
        2.5425192713737488e-01 -1.0729841142892838e-01</leafValues></_>
    <_>
      <internalNodes>
        0 -1 128045 -2.1263211965560913e-03</internalNodes>
      <leafValues>
        -6.3538104295730591e-01 4.2064387351274490e-02</leafValues></_>
    <_>
      <internalNodes>
        0 -1 130275 -3.5767734050750732e-02</internalNodes>
      <leafValues>
        5.1419621706008911e-01 -5.8904811739921570e-02</leafValues></_>
    <_>
      <internalNodes>
        0 -1 25909 -2.0112611353397369e-02</internalNodes>
      <leafValues>
        -6.0648703575134277e-01 4.7481324523687363e-02</leafValues></_>
    <_>
      <internalNodes>
        0 -1 159977 2.7682897634804249e-03</internalNodes>
      <leafValues>
        -7.9646870493888855e-02 3.6222723126411438e-01</leafValues></_>
    <_>
      <internalNodes>
        0 -1 58838 3.7696305662393570e-03</internalNodes>
      <leafValues>
        9.3463398516178131e-02 -3.0472928285598755e-01</leafValues></_>
    <_>
      <internalNodes>
        0 -1 136489 -1.3258517719805241e-02</internalNodes>
      <leafValues>
        -1.9760873913764954e-01 1.5235356986522675e-01</leafValues></_></weakClassifiers></stage10>
</opencv_storage>
