<?xml version="1.0"?>
<opencv_storage>
<stage2>
  <maxWeakCount>13</maxWeakCount>
  <stageThreshold>-1.4637513160705566e+00</stageThreshold>
  <weakClassifiers>
    <_>
      <internalNodes>
        0 -1 33335 -5.7848893105983734e-02</internalNodes>
      <leafValues>
        3.1979694962501526e-01 -6.7456465959548950e-01</leafValues></_>
    <_>
      <internalNodes>
        0 -1 1238 -2.3721266537904739e-02</internalNodes>
      <leafValues>
        4.2708522081375122e-01 -3.0101162195205688e-01</leafValues></_>
    <_>
      <internalNodes>
        0 -1 155427 -1.1677581071853638e-01</internalNodes>
      <leafValues>
        -6.4904695749282837e-01 1.2128569930791855e-01</leafValues></_>
    <_>
      <internalNodes>
        0 -1 89816 -4.4882245361804962e-02</internalNodes>
      <leafValues>
        -9.5084720849990845e-01 6.9313690066337585e-02</leafValues></_>
    <_>
      <internalNodes>
        0 -1 159168 -1.7326161265373230e-02</internalNodes>
      <leafValues>
        5.2536439895629883e-01 -1.4321790635585785e-01</leafValues></_>
    <_>
      <internalNodes>
        0 -1 161858 4.5295706950128078e-03</internalNodes>
      <leafValues>
        -1.7796035110950470e-01 4.1608056426048279e-01</leafValues></_>
    <_>
      <internalNodes>
        0 -1 157177 2.2076233290135860e-03</internalNodes>
      <leafValues>
        1.4400623738765717e-01 -6.6524529457092285e-01</leafValues></_>
    <_>
      <internalNodes>
        0 -1 9104 2.2564422339200974e-02</internalNodes>
      <leafValues>
        -2.4161623418331146e-01 3.0432277917861938e-01</leafValues></_>
    <_>
      <internalNodes>
        0 -1 156994 3.5142251290380955e-03</internalNodes>
      <leafValues>
        8.2323610782623291e-02 -9.1440522670745850e-01</leafValues></_>
    <_>
      <internalNodes>
        0 -1 9605 -2.7615549042820930e-03</internalNodes>
      <leafValues>
        -7.5092256069183350e-01 4.8071861267089844e-02</leafValues></_>
    <_>
      <internalNodes>
        0 -1 162316 -4.7059130156412721e-04</internalNodes>
      <leafValues>
        -3.5928967595100403e-01 1.6843953728675842e-01</leafValues></_>
    <_>
      <internalNodes>
        0 -1 49136 -3.3024720847606659e-02</internalNodes>
      <leafValues>
        5.3650647401809692e-01 -1.1871432512998581e-01</leafValues></_>
    <_>
      <internalNodes>
        0 -1 153868 1.5837792307138443e-02</internalNodes>
      <leafValues>
        -1.6625258326530457e-01 4.2143264412879944e-01</leafValues></_></weakClassifiers></stage2>
</opencv_storage>
