<?xml version="1.0"?>
<opencv_storage>
<stage9>
  <maxWeakCount>34</maxWeakCount>
  <stageThreshold>-1.5727467536926270e+00</stageThreshold>
  <weakClassifiers>
    <_>
      <internalNodes>
        0 -1 44432 4.0215887129306793e-02</internalNodes>
      <leafValues>
        -6.4758700132369995e-01 5.8823529630899429e-02</leafValues></_>
    <_>
      <internalNodes>
        0 -1 162156 4.1467102710157633e-04</internalNodes>
      <leafValues>
        -1.8445713445544243e-02 -5.3426635265350342e-01</leafValues></_>
    <_>
      <internalNodes>
        0 -1 45043 -1.7444225028157234e-02</internalNodes>
      <leafValues>
        3.7751638889312744e-01 -1.1555128544569016e-01</leafValues></_>
    <_>
      <internalNodes>
        0 -1 156892 2.4376292712986469e-03</internalNodes>
      <leafValues>
        6.8002514541149139e-02 -5.9853780269622803e-01</leafValues></_>
    <_>
      <internalNodes>
        0 -1 147360 6.5617874497547746e-04</internalNodes>
      <leafValues>
        1.3445685803890228e-01 -3.0164197087287903e-01</leafValues></_>
    <_>
      <internalNodes>
        0 -1 89799 3.2093992922455072e-03</internalNodes>
      <leafValues>
        -1.3627097010612488e-01 2.4735641479492188e-01</leafValues></_>
    <_>
      <internalNodes>
        0 -1 98599 4.3325838632881641e-03</internalNodes>
      <leafValues>
        7.2504028677940369e-02 -5.1428472995758057e-01</leafValues></_>
    <_>
      <internalNodes>
        0 -1 154494 -1.2358182575553656e-03</internalNodes>
      <leafValues>
        -3.5650786757469177e-01 8.4379062056541443e-02</leafValues></_>
    <_>
      <internalNodes>
        0 -1 22756 -3.2600509002804756e-03</internalNodes>
      <leafValues>
        -4.0531495213508606e-01 7.3406144976615906e-02</leafValues></_>
    <_>
      <internalNodes>
        0 -1 23293 1.1181675828993320e-02</internalNodes>
      <leafValues>
        3.0229676514863968e-02 -8.1193643808364868e-01</leafValues></_>
    <_>
      <internalNodes>
        0 -1 161184 -1.1274740973021835e-04</internalNodes>
      <leafValues>
        -2.6603066921234131e-01 1.0264200717210770e-01</leafValues></_>
    <_>
      <internalNodes>
        0 -1 161026 -1.5999679453670979e-03</internalNodes>
      <leafValues>
        3.0698400735855103e-01 -9.9278673529624939e-02</leafValues></_>
    <_>
      <internalNodes>
        0 -1 121166 6.5341256558895111e-03</internalNodes>
      <leafValues>
        6.3882716000080109e-02 -4.7281095385551453e-01</leafValues></_>
    <_>
      <internalNodes>
        0 -1 61363 1.1942802229896188e-03</internalNodes>
      <leafValues>
        -1.0952815413475037e-01 2.9583522677421570e-01</leafValues></_>
    <_>
      <internalNodes>
        0 -1 80850 3.7861429154872894e-03</internalNodes>
      <leafValues>
        6.4384154975414276e-02 -4.6012905240058899e-01</leafValues></_>
    <_>
      <internalNodes>
        0 -1 25018 -2.8881342150270939e-03</internalNodes>
      <leafValues>
        3.2170903682708740e-01 -9.9914610385894775e-02</leafValues></_>
    <_>
      <internalNodes>
        0 -1 133729 -2.4527171626687050e-03</internalNodes>
      <leafValues>
        3.8733109831809998e-01 -8.0704525113105774e-02</leafValues></_>
    <_>
      <internalNodes>
        0 -1 89823 -8.2910340279340744e-03</internalNodes>
      <leafValues>
        -4.7269463539123535e-01 7.1496471762657166e-02</leafValues></_>
    <_>
      <internalNodes>
        0 -1 11494 -2.1593421697616577e-03</internalNodes>
      <leafValues>
        3.1059381365776062e-01 -1.0168837755918503e-01</leafValues></_>
    <_>
      <internalNodes>
        0 -1 136493 7.9213529825210571e-03</internalNodes>
      <leafValues>
        -5.8260913938283920e-02 5.2601695060729980e-01</leafValues></_>
    <_>
      <internalNodes>
        0 -1 13472 9.7717833705246449e-04</internalNodes>
      <leafValues>
        7.9117245972156525e-02 -3.9691746234893799e-01</leafValues></_>
    <_>
      <internalNodes>
        0 -1 74706 3.3920377027243376e-03</internalNodes>
      <leafValues>
        -9.7584746778011322e-02 3.1436651945114136e-01</leafValues></_>
    <_>
      <internalNodes>
        0 -1 7462 -1.2425899039953947e-03</internalNodes>
      <leafValues>
        -4.6276134252548218e-01 7.1431539952754974e-02</leafValues></_>
    <_>
      <internalNodes>
        0 -1 161927 3.2008532434701920e-03</internalNodes>
      <leafValues>
        -1.2337836623191833e-01 2.5471881031990051e-01</leafValues></_>
    <_>
      <internalNodes>
        0 -1 5884 5.1048994064331055e-03</internalNodes>
      <leafValues>
        -1.2247468531131744e-01 2.7688032388687134e-01</leafValues></_>
    <_>
      <internalNodes>
        0 -1 5009 -2.0825611427426338e-03</internalNodes>
      <leafValues>
        2.4151802062988281e-01 -1.3513460755348206e-01</leafValues></_>
    <_>
      <internalNodes>
        0 -1 183 -6.3429445028305054e-02</internalNodes>
      <leafValues>
        -1.0200604051351547e-01 3.8280728459358215e-01</leafValues></_>
    <_>
      <internalNodes>
        0 -1 42857 -1.1177035421133041e-01</internalNodes>
      <leafValues>
        4.1877605020999908e-02 -8.3905708789825439e-01</leafValues></_>
    <_>
      <internalNodes>
        0 -1 104105 1.6938908083830029e-04</internalNodes>
      <leafValues>
        1.2123522162437439e-01 -2.6940387487411499e-01</leafValues></_>
    <_>
      <internalNodes>
        0 -1 2134 3.6645540967583656e-04</internalNodes>
      <leafValues>
        1.1005046218633652e-01 -2.9941934347152710e-01</leafValues></_>
    <_>
      <internalNodes>
        0 -1 104108 2.3167794570326805e-03</internalNodes>
      <leafValues>
        6.0410313308238983e-02 -5.1473617553710938e-01</leafValues></_>
    <_>
      <internalNodes>
        0 -1 44945 7.1881592273712158e-02</internalNodes>
      <leafValues>
        -7.6245978474617004e-02 4.7825115919113159e-01</leafValues></_>
    <_>
      <internalNodes>
        0 -1 138835 -7.1455864235758781e-03</internalNodes>
      <leafValues>
        3.3218547701835632e-01 -9.3345865607261658e-02</leafValues></_>
    <_>
      <internalNodes>
        0 -1 121327 1.9537080079317093e-03</internalNodes>
      <leafValues>
        -1.4273017644882202e-01 2.2510488331317902e-01</leafValues></_></weakClassifiers></stage9>
</opencv_storage>
