<?xml version="1.0"?>
<opencv_storage>
<stage6>
  <maxWeakCount>24</maxWeakCount>
  <stageThreshold>-1.6280235052108765e+00</stageThreshold>
  <weakClassifiers>
    <_>
      <internalNodes>
        0 -1 161072 2.4396651424467564e-03</internalNodes>
      <leafValues>
        -7.0531088113784790e-01 -1.9934640824794769e-01</leafValues></_>
    <_>
      <internalNodes>
        0 -1 95 -1.5168269164860249e-03</internalNodes>
      <leafValues>
        1.4238370954990387e-01 -3.7554037570953369e-01</leafValues></_>
    <_>
      <internalNodes>
        0 -1 156181 -1.4439196093007922e-03</internalNodes>
      <leafValues>
        3.1284984946250916e-01 -1.9066379964351654e-01</leafValues></_>
    <_>
      <internalNodes>
        0 -1 14570 1.6214298084378242e-03</internalNodes>
      <leafValues>
        -1.3878133893013000e-01 3.9497071504592896e-01</leafValues></_>
    <_>
      <internalNodes>
        0 -1 104646 -5.0972774624824524e-03</internalNodes>
      <leafValues>
        2.2870655357837677e-01 -2.4975016713142395e-01</leafValues></_>
    <_>
      <internalNodes>
        0 -1 161072 -2.6026500854641199e-03</internalNodes>
      <leafValues>
        5.4924589395523071e-01 -9.9847368896007538e-02</leafValues></_>
    <_>
      <internalNodes>
        0 -1 91666 -2.7052842080593109e-02</internalNodes>
      <leafValues>
        3.3164969086647034e-01 -1.1528213322162628e-01</leafValues></_>
    <_>
      <internalNodes>
        0 -1 92033 -4.4287815690040588e-03</internalNodes>
      <leafValues>
        3.5301765799522400e-01 -1.5260410308837891e-01</leafValues></_>
    <_>
      <internalNodes>
        0 -1 6660 4.1899422649294138e-04</internalNodes>
      <leafValues>
        -1.5004554390907288e-01 3.3798596262931824e-01</leafValues></_>
    <_>
      <internalNodes>
        0 -1 13374 -5.0848902901634574e-04</internalNodes>
      <leafValues>
        2.4875126779079437e-01 -1.9127503037452698e-01</leafValues></_>
    <_>
      <internalNodes>
        0 -1 50609 2.5882101617753506e-03</internalNodes>
      <leafValues>
        -1.1957979947328568e-01 3.6725896596908569e-01</leafValues></_>
    <_>
      <internalNodes>
        0 -1 155694 7.2317980229854584e-03</internalNodes>
      <leafValues>
        -1.0970535874366760e-01 4.0194252133369446e-01</leafValues></_>
    <_>
      <internalNodes>
        0 -1 154996 1.0402780026197433e-02</internalNodes>
      <leafValues>
        -1.1863444000482559e-01 3.7063315510749817e-01</leafValues></_>
    <_>
      <internalNodes>
        0 -1 53565 -1.3072179863229394e-03</internalNodes>
      <leafValues>
        3.9308902621269226e-01 -1.0982049256563187e-01</leafValues></_>
    <_>
      <internalNodes>
        0 -1 125218 -1.0235824156552553e-03</internalNodes>
      <leafValues>
        2.3804382979869843e-01 -1.7151845991611481e-01</leafValues></_>
    <_>
      <internalNodes>
        0 -1 13373 -1.6624484211206436e-02</internalNodes>
      <leafValues>
        -8.9154094457626343e-01 4.5659989118576050e-02</leafValues></_>
    <_>
      <internalNodes>
        0 -1 70697 -7.6901903375983238e-03</internalNodes>
      <leafValues>
        4.0605866909027100e-01 -1.1411774903535843e-01</leafValues></_>
    <_>
      <internalNodes>
        0 -1 80741 3.6026621237397194e-03</internalNodes>
      <leafValues>
        -1.6441251337528229e-01 2.7585065364837646e-01</leafValues></_>
    <_>
      <internalNodes>
        0 -1 10155 -1.6672061756253242e-02</internalNodes>
      <leafValues>
        2.7293780446052551e-01 -1.4968225359916687e-01</leafValues></_>
    <_>
      <internalNodes>
        0 -1 22251 1.7797786742448807e-02</internalNodes>
      <leafValues>
        -1.1752881854772568e-01 4.5110693573951721e-01</leafValues></_>
    <_>
      <internalNodes>
        0 -1 128121 1.0416399454697967e-03</internalNodes>
      <leafValues>
        -1.0591405630111694e-01 3.6512485146522522e-01</leafValues></_>
    <_>
      <internalNodes>
        0 -1 138448 3.5155902151018381e-03</internalNodes>
      <leafValues>
        7.8106351196765900e-02 -5.7408314943313599e-01</leafValues></_>
    <_>
      <internalNodes>
        0 -1 110931 5.6782871484756470e-02</internalNodes>
      <leafValues>
        -9.2613510787487030e-02 5.1903438568115234e-01</leafValues></_>
    <_>
      <internalNodes>
        0 -1 46376 5.1760993665084243e-04</internalNodes>
      <leafValues>
        1.5438456833362579e-01 -3.1587439775466919e-01</leafValues></_></weakClassifiers></stage6>
</opencv_storage>
