<?xml version="1.0"?>
<opencv_storage>
<stage6>
  <maxWeakCount>13</maxWeakCount>
  <stageThreshold>-1.2736170291900635e+00</stageThreshold>
  <weakClassifiers>
    <_>
      <internalNodes>
        0 -1 8342 -609223432 531562170 2080372988 838859006 -1966604806
        80006264 -1737237250 144702590</internalNodes>
      <leafValues>
        -1.3852048665285110e-02 7.0256769657135010e-01</leafValues></_>
    <_>
      <internalNodes>
        0 -1 9215 -289935737 464256059 -1937775364 -572791245
        -1400963334 -1904476949 -1981428484 -838861569</internalNodes>
      <leafValues>
        -2.2848077118396759e-01 5.5787295103073120e-01</leafValues></_>
    <_>
      <internalNodes>
        0 -1 4887 -77596690 -150571258 1896962046 -1317096858 -378541859
        -726999165 -213256988 -1596458250</internalNodes>
      <leafValues>
        -3.9470100402832031e-01 3.7281522154808044e-01</leafValues></_>
    <_>
      <internalNodes>
        0 -1 9403 -103093590 -1467290450 11010069 -654265144 -1913728342
        -1956857428 1089392811 -822084353</internalNodes>
      <leafValues>
        -3.1789967417716980e-01 4.6891030669212341e-01</leafValues></_>
    <_>
      <internalNodes>
        0 -1 523 -470817797 -101035198 -855484330 1393717810 1230963690
        1328695315 2064740255 1597209387</internalNodes>
      <leafValues>
        -3.8193774223327637e-01 3.6419439315795898e-01</leafValues></_>
    <_>
      <internalNodes>
        0 -1 8733 -744497651 961355163 -1326752679 288455233 -691017073
        -1882939642 -117656854 -2001998881</internalNodes>
      <leafValues>
        -2.8227430582046509e-01 4.5789626240730286e-01</leafValues></_>
    <_>
      <internalNodes>
        0 -1 20 -267394552 -1324425160 973161643 1469038812 -2147057216
        -367845076 1619706315 1158087750</internalNodes>
      <leafValues>
        -4.5221877098083496e-01 2.7766156196594238e-01</leafValues></_>
    <_>
      <internalNodes>
        0 -1 9398 -741870590 47153512 -2100838030 1364977635 -2142535546
        110232584 -1878003296 -704655117</internalNodes>
      <leafValues>
        -3.5345119237899780e-01 3.4858608245849609e-01</leafValues></_>
    <_>
      <internalNodes>
        0 -1 17 -548476498 -176634356 689363103 1594513950 -1606236962
        -871481176 449758154 1395867923</internalNodes>
      <leafValues>
        -3.9208436012268066e-01 2.9639622569084167e-01</leafValues></_>
    <_>
      <internalNodes>
        0 -1 8194 1355960320 292880404 542700029 826106487 -900155158
        -30240128 -263284040 275245499</internalNodes>
      <leafValues>
        -4.3410322070121765e-01 2.6823115348815918e-01</leafValues></_>
    <_>
      <internalNodes>
        0 -1 270 -205263890 -506779064 -424975858 -15738624 -2055282034
        -234576079 1088566675 -240659805</internalNodes>
      <leafValues>
        -2.5897419452667236e-01 4.4788253307342529e-01</leafValues></_>
    <_>
      <internalNodes>
        0 -1 535 -160246542 992019077 -794587952 834687760 1883570908
        1862271266 1908990184 2037412055</internalNodes>
      <leafValues>
        -4.2713740468025208e-01 2.7267172932624817e-01</leafValues></_>
    <_>
      <internalNodes>
        0 -1 9189 -148899951 -551715608 784195198 -639703956 1874763663
        -2014360331 -416299284 -857223986</internalNodes>
      <leafValues>
        -2.9538306593894958e-01 4.2009738087654114e-01</leafValues></_></weakClassifiers></stage6>
</opencv_storage>
