<?xml version="1.0"?>
<opencv_storage>
<stage9>
  <maxWeakCount>19</maxWeakCount>
  <stageThreshold>-9.1476464271545410e-01</stageThreshold>
  <weakClassifiers>
    <_>
      <internalNodes>
        0 -1 4616 -84284677 146335992 -386728451 27303149 -1909403656
        143705312 -352527108 135843052</internalNodes>
      <leafValues>
        -9.2630714178085327e-02 6.5040224790573120e-01</leafValues></_>
    <_>
      <internalNodes>
        0 -1 9187 -137 -81801451 -1139680 -233931906 -2891917 1173741241
        -61604032 -800784401</internalNodes>
      <leafValues>
        -3.2661789655685425e-01 3.9176625013351440e-01</leafValues></_>
    <_>
      <internalNodes>
        0 -1 7435 1350762496 294720025 -803680047 294785979 -236848898
        -1678557174 1790705407 518963</internalNodes>
      <leafValues>
        -4.9245297908782959e-01 2.3430827260017395e-01</leafValues></_>
    <_>
      <internalNodes>
        0 -1 391 -487589745 -85983740 -521357120 -50677010 -1303134257
        1080065126 1676522098 -228065317</internalNodes>
      <leafValues>
        -2.6967567205429077e-01 4.2749169468879700e-01</leafValues></_>
    <_>
      <internalNodes>
        0 -1 9395 -746590413 -1812732384 167745393 -746877776 297729523
        16237782 360563916 1576785151</internalNodes>
      <leafValues>
        -2.9314410686492920e-01 3.6873212456703186e-01</leafValues></_>
    <_>
      <internalNodes>
        0 -1 1735 1109606400 1504920216 960689663 1936179549 143180539
        -71503677 -82591847 1073823957</internalNodes>
      <leafValues>
        -4.1963335871696472e-01 2.3522037267684937e-01</leafValues></_>
    <_>
      <internalNodes>
        0 -1 8891 -78368 -1928153707 -615130979 231338965 -382676004
        -1927114075 -590658308 144570623</internalNodes>
      <leafValues>
        -4.2260062694549561e-01 2.4544620513916016e-01</leafValues></_>
    <_>
      <internalNodes>
        0 -1 5357 -2467841 421135869 1494834303 997326964 -368129858
        -280459256 1267433150 -1433925474</internalNodes>
      <leafValues>
        -3.2281139492988586e-01 3.1148701906204224e-01</leafValues></_>
    <_>
      <internalNodes>
        0 -1 4698 -265028154 844565949 -653383330 1080247158 1523811668
        1923137988 2043189710 598668708</internalNodes>
      <leafValues>
        -4.4597670435905457e-01 2.2905063629150391e-01</leafValues></_>
    <_>
      <internalNodes>
        0 -1 7 -844375553 -542639213 -1514550337 -577554847 37975752
        -1623753126 71816695 -706751081</internalNodes>
      <leafValues>
        -2.2611445188522339e-01 4.4894814491271973e-01</leafValues></_>
    <_>
      <internalNodes>
        0 -1 9138 1383848479 811366930 1533735256 808180536 -360719730
        -521704097 -17637634 -2136218693</internalNodes>
      <leafValues>
        -2.6002636551856995e-01 3.5121446847915649e-01</leafValues></_>
    <_>
      <internalNodes>
        0 -1 7531 -1126359531 -720170976 -1072341128 307429441 -86325673
        -211838115 -334561284 -1307923844</internalNodes>
      <leafValues>
        -3.0762261152267456e-01 3.0778101086616516e-01</leafValues></_>
    <_>
      <internalNodes>
        0 -1 9370 -201338770 -1712375166 -252255375 1350398202
        -589908416 611689744 -1393887422 -800326737</internalNodes>
      <leafValues>
        -3.0559563636779785e-01 3.0864486098289490e-01</leafValues></_>
    <_>
      <internalNodes>
        0 -1 7608 -763889921 1800787961 -1474765442 1212709550 -22254794
        -122500134 -208888074 -1060847940</internalNodes>
      <leafValues>
        -3.2480242848396301e-01 2.8724738955497742e-01</leafValues></_>
    <_>
      <internalNodes>
        0 -1 6153 -810884515 2131755097 796842751 2134839476 771230927
        -1089053668 -1115968531 -1078523730</internalNodes>
      <leafValues>
        -2.1937772631645203e-01 4.3615818023681641e-01</leafValues></_>
    <_>
      <internalNodes>
        0 -1 768 -493957202 -1296282377 286396786 534299134 549882348
        -2038846562 1369480155 1735476319</internalNodes>
      <leafValues>
        -3.9485839009284973e-01 2.4345794320106506e-01</leafValues></_>
    <_>
      <internalNodes>
        0 -1 9283 -1377045062 -1686056912 88715408 -114499328
        -1098210564 721528912 269977676 -641475344</internalNodes>
      <leafValues>
        -3.2547920942306519e-01 2.9172167181968689e-01</leafValues></_>
    <_>
      <internalNodes>
        0 -1 560 -18390393 1878863487 1810080731 1400074951 1455372042
        -478804941 1350559743 -276842001</internalNodes>
      <leafValues>
        -2.2764106094837189e-01 4.2792338132858276e-01</leafValues></_>
    <_>
      <internalNodes>
        0 -1 6950 941623392 -790948764 1162212351 1052250389 -1719084085
        -1198996514 310551777 915406864</internalNodes>
      <leafValues>
        -5.1519447565078735e-01 1.9042114913463593e-01</leafValues></_></weakClassifiers></stage9>
</opencv_storage>
