<?xml version="1.0"?>
<opencv_storage>
<stage10>
  <maxWeakCount>17</maxWeakCount>
  <stageThreshold>-1.0872914791107178e+00</stageThreshold>
  <weakClassifiers>
    <_>
      <internalNodes>
        0 -1 9391 -1049822 33785915 -173072160 39527082 -50625852 410624
        1383555136 1364718039</internalNodes>
      <leafValues>
        -2.7479892596602440e-02 6.7457854747772217e-01</leafValues></_>
    <_>
      <internalNodes>
        0 -1 5668 -33563033 -285331537 -287318258 -327352834 -550401
        -10499125 -524544 -138938386</internalNodes>
      <leafValues>
        -3.1934785842895508e-01 4.2861193418502808e-01</leafValues></_>
    <_>
      <internalNodes>
        0 -1 6829 437784796 1541214429 -749003329 498797437 782807006
        -1163050273 -1441465348 -1079240212</internalNodes>
      <leafValues>
        -3.7066188454627991e-01 3.1146961450576782e-01</leafValues></_>
    <_>
      <internalNodes>
        0 -1 8272 -335557081 -142931089 -1033573690 1075876418
        -1562704651 1920410033 -142083083 -525674529</internalNodes>
      <leafValues>
        -4.1764011979103088e-01 2.7620297670364380e-01</leafValues></_>
    <_>
      <internalNodes>
        0 -1 352 -721442838 842719626 1812518986 -804199829 1119180659
        1882193985 2095255873 1936975223</internalNodes>
      <leafValues>
        -3.6880293488502502e-01 3.0214112997055054e-01</leafValues></_>
    <_>
      <internalNodes>
        0 -1 8114 -1724121220 -540134032 -11320258 -603998122
        -1540638211 943486086 -1702108695 501215423</internalNodes>
      <leafValues>
        -3.8290214538574219e-01 2.6190090179443359e-01</leafValues></_>
    <_>
      <internalNodes>
        0 -1 8888 -25 -2005405185 -1004682944 -1996820901 -1375666499
        -1997932157 -120475404 -2067793169</internalNodes>
      <leafValues>
        -4.2396068572998047e-01 2.4409013986587524e-01</leafValues></_>
    <_>
      <internalNodes>
        0 -1 25 1118027938 -2995640 -1140807573 -547372899 1158107839
        -315947706 789265983 1162298897</internalNodes>
      <leafValues>
        -3.7812209129333496e-01 2.4703830480575562e-01</leafValues></_>
    <_>
      <internalNodes>
        0 -1 9401 -1073742861 -1978695078 1434529105 2108767058
        264431470 579371716 232609835 167499151</internalNodes>
      <leafValues>
        -3.3303090929985046e-01 2.8767469525337219e-01</leafValues></_>
    <_>
      <internalNodes>
        0 -1 1026 -268456433 -136318449 -702620466 -334850829
        -2094048177 1411319552 1927278942 -234889345</internalNodes>
      <leafValues>
        -3.1176954507827759e-01 3.0759745836257935e-01</leafValues></_>
    <_>
      <internalNodes>
        0 -1 9149 2113920015 987208543 1882078587 1366540091 -704717246
        176095050 -16851893 -621805569</internalNodes>
      <leafValues>
        -2.5300151109695435e-01 3.7195813655853271e-01</leafValues></_>
    <_>
      <internalNodes>
        0 -1 4898 1190678901 2004752283 -1794099985 162560954 1704391160
        -89881684 -58677076 799029230</internalNodes>
      <leafValues>
        -4.0497240424156189e-01 2.3526242375373840e-01</leafValues></_>
    <_>
      <internalNodes>
        0 -1 1130 -201627941 -542151841 1676358798 2072120498 1666676835
        -298289568 -209801221 -295013</internalNodes>
      <leafValues>
        -2.2244590520858765e-01 4.5813524723052979e-01</leafValues></_>
    <_>
      <internalNodes>
        0 -1 6168 671631385 573573460 80120059 708805273 -543013834
        -1772614853 1300076911 -1617943276</internalNodes>
      <leafValues>
        -4.1430321335792542e-01 2.2054059803485870e-01</leafValues></_>
    <_>
      <internalNodes>
        0 -1 9284 -1097139253 -1525683132 -766970447 -685253434
        -1553991018 227493828 -2076359472 -951067416</internalNodes>
      <leafValues>
        -2.6841440796852112e-01 3.3337008953094482e-01</leafValues></_>
    <_>
      <internalNodes>
        0 -1 284 -894439542 1366929662 -788364252 1978294758 -1341451293
        1648378267 294663493 1947419987</internalNodes>
      <leafValues>
        -4.3352732062339783e-01 2.1891579031944275e-01</leafValues></_>
    <_>
      <internalNodes>
        0 -1 9361 -1074471672 288615681 -1805131746 1078135714 391161604
        1097294347 42132366 1080226475</internalNodes>
      <leafValues>
        -4.0682983398437500e-01 2.2376839816570282e-01</leafValues></_></weakClassifiers></stage10>
</opencv_storage>
