<?xml version="1.0"?>
<opencv_storage>
<stage7>
  <maxWeakCount>11</maxWeakCount>
  <stageThreshold>-1.6189785003662109e+00</stageThreshold>
  <weakClassifiers>
    <_>
      <internalNodes>
        0 -1 146429 -1.5096595510840416e-02</internalNodes>
      <leafValues>
        2.8000000119209290e-01 -7.0782607793807983e-01</leafValues></_>
    <_>
      <internalNodes>
        0 -1 44426 -1.3495121151208878e-02</internalNodes>
      <leafValues>
        4.0542113780975342e-01 -3.2636862993240356e-01</leafValues></_>
    <_>
      <internalNodes>
        0 -1 123813 -2.9539629817008972e-01</internalNodes>
      <leafValues>
        1.2099362909793854e-01 -7.7640700340270996e-01</leafValues></_>
    <_>
      <internalNodes>
        0 -1 148299 1.1893112678080797e-03</internalNodes>
      <leafValues>
        -4.2237693071365356e-01 2.5741279125213623e-01</leafValues></_>
    <_>
      <internalNodes>
        0 -1 119755 -1.1819184874184430e-04</internalNodes>
      <leafValues>
        2.2539162635803223e-01 -4.0686485171318054e-01</leafValues></_>
    <_>
      <internalNodes>
        0 -1 93367 -2.1290712058544159e-02</internalNodes>
      <leafValues>
        6.4804846048355103e-01 -1.6232328116893768e-01</leafValues></_>
    <_>
      <internalNodes>
        0 -1 160277 2.9235560214146972e-04</internalNodes>
      <leafValues>
        -2.0419748127460480e-01 4.3293854594230652e-01</leafValues></_>
    <_>
      <internalNodes>
        0 -1 17311 2.0582373254001141e-03</internalNodes>
      <leafValues>
        -1.8948557972908020e-01 5.3063440322875977e-01</leafValues></_>
    <_>
      <internalNodes>
        0 -1 12542 -1.8039902206510305e-03</internalNodes>
      <leafValues>
        4.0830522775650024e-01 -2.0445643365383148e-01</leafValues></_>
    <_>
      <internalNodes>
        0 -1 159250 -6.9142179563641548e-03</internalNodes>
      <leafValues>
        4.4231897592544556e-01 -2.1074667572975159e-01</leafValues></_>
    <_>
      <internalNodes>
        0 -1 160896 -2.1745520643889904e-03</internalNodes>
      <leafValues>
        4.5753780007362366e-01 -2.0101836323738098e-01</leafValues></_></weakClassifiers></stage7>
</opencv_storage>
