<?xml version="1.0"?>
<opencv_storage>
<stage8>
  <maxWeakCount>13</maxWeakCount>
  <stageThreshold>-1.5711845159530640e+00</stageThreshold>
  <weakClassifiers>
    <_>
      <internalNodes>
        0 -1 24013 -1.4642667770385742e-01</internalNodes>
      <leafValues>
        -2.0731706917285919e-01 -7.3938226699829102e-01</leafValues></_>
    <_>
      <internalNodes>
        0 -1 159722 -3.3396318554878235e-02</internalNodes>
      <leafValues>
        -9.4043421745300293e-01 -2.1258110180497169e-02</leafValues></_>
    <_>
      <internalNodes>
        0 -1 62509 -5.6137512437999249e-03</internalNodes>
      <leafValues>
        4.5166903734207153e-01 -2.2296792268753052e-01</leafValues></_>
    <_>
      <internalNodes>
        0 -1 45635 -9.8219292704015970e-04</internalNodes>
      <leafValues>
        -5.8181631565093994e-01 2.0002640783786774e-01</leafValues></_>
    <_>
      <internalNodes>
        0 -1 53259 -5.5033769458532333e-03</internalNodes>
      <leafValues>
        5.6302326917648315e-01 -1.7259408533573151e-01</leafValues></_>
    <_>
      <internalNodes>
        0 -1 8809 3.8600634434260428e-04</internalNodes>
      <leafValues>
        1.3402065634727478e-01 -6.4655405282974243e-01</leafValues></_>
    <_>
      <internalNodes>
        0 -1 45626 -2.7604361996054649e-02</internalNodes>
      <leafValues>
        5.6933301687240601e-01 -1.5829811990261078e-01</leafValues></_>
    <_>
      <internalNodes>
        0 -1 44422 1.7984233796596527e-02</internalNodes>
      <leafValues>
        -1.1669471859931946e-01 6.5816277265548706e-01</leafValues></_>
    <_>
      <internalNodes>
        0 -1 165 7.4319550767540932e-03</internalNodes>
      <leafValues>
        9.8539143800735474e-02 -9.1258198022842407e-01</leafValues></_>
    <_>
      <internalNodes>
        0 -1 33957 8.1835023593157530e-04</internalNodes>
      <leafValues>
        1.3239578902721405e-01 -4.7506836056709290e-01</leafValues></_>
    <_>
      <internalNodes>
        0 -1 42737 -2.4865544401109219e-03</internalNodes>
      <leafValues>
        4.0131595730781555e-01 -1.9002765417098999e-01</leafValues></_>
    <_>
      <internalNodes>
        0 -1 3277 -9.4005167484283447e-02</internalNodes>
      <leafValues>
        -9.0385496616363525e-01 9.1314621269702911e-02</leafValues></_>
    <_>
      <internalNodes>
        0 -1 162321 -7.5873118476010859e-05</internalNodes>
      <leafValues>
        -4.7553393244743347e-01 1.7431648075580597e-01</leafValues></_></weakClassifiers></stage8>
</opencv_storage>
