<?xml version="1.0"?>
<opencv_storage>
<stage2>
  <maxWeakCount>9</maxWeakCount>
  <stageThreshold>-1.4651477336883545e+00</stageThreshold>
  <weakClassifiers>
    <_>
      <internalNodes>
        0 -1 85051 3.0120041221380234e-02</internalNodes>
      <leafValues>
        -7.0547944307327271e-01 7.5000000000000000e-01</leafValues></_>
    <_>
      <internalNodes>
        0 -1 21651 -7.4309599585831165e-04</internalNodes>
      <leafValues>
        -7.5571602582931519e-01 5.9708677232265472e-02</leafValues></_>
    <_>
      <internalNodes>
        0 -1 13001 -2.8410274535417557e-04</internalNodes>
      <leafValues>
        -6.8367278575897217e-01 1.8994335830211639e-01</leafValues></_>
    <_>
      <internalNodes>
        0 -1 35442 -7.0547231007367373e-04</internalNodes>
      <leafValues>
        -7.1469885110855103e-01 2.0533569157123566e-01</leafValues></_>
    <_>
      <internalNodes>
        0 -1 35407 7.4280069384258240e-05</internalNodes>
      <leafValues>
        2.5595048069953918e-01 -4.9900060892105103e-01</leafValues></_>
    <_>
      <internalNodes>
        0 -1 68444 9.1092399088665843e-04</internalNodes>
      <leafValues>
        1.7018774151802063e-01 -7.0022261142730713e-01</leafValues></_>
    <_>
      <internalNodes>
        0 -1 89929 -4.3293498456478119e-03</internalNodes>
      <leafValues>
        -7.5973439216613770e-01 1.5092025697231293e-01</leafValues></_>
    <_>
      <internalNodes>
        0 -1 3199 -1.4611352235078812e-02</internalNodes>
      <leafValues>
        6.5804463624954224e-01 -2.1032853424549103e-01</leafValues></_>
    <_>
      <internalNodes>
        0 -1 111476 1.3616212527267635e-04</internalNodes>
      <leafValues>
        2.1226480603218079e-01 -6.3461655378341675e-01</leafValues></_></weakClassifiers></stage2>
</opencv_storage>
