<?xml version="1.0"?>
<opencv_storage>
<stage5>
  <maxWeakCount>9</maxWeakCount>
  <stageThreshold>-1.4577749967575073e+00</stageThreshold>
  <weakClassifiers>
    <_>
      <internalNodes>
        0 -1 100697 5.1675653085112572e-03</internalNodes>
      <leafValues>
        -7.3153156042098999e-01 1.3333334028720856e-01</leafValues></_>
    <_>
      <internalNodes>
        0 -1 149119 6.4270285656675696e-04</internalNodes>
      <leafValues>
        6.3235945999622345e-02 -6.3838517665863037e-01</leafValues></_>
    <_>
      <internalNodes>
        0 -1 11026 1.4383647590875626e-02</internalNodes>
      <leafValues>
        9.6073754131793976e-02 -8.4742635488510132e-01</leafValues></_>
    <_>
      <internalNodes>
        0 -1 45727 8.9819927234202623e-04</internalNodes>
      <leafValues>
        1.3654081523418427e-01 -6.1997628211975098e-01</leafValues></_>
    <_>
      <internalNodes>
        0 -1 109707 1.0322165675461292e-02</internalNodes>
      <leafValues>
        -1.7403881251811981e-01 5.8121758699417114e-01</leafValues></_>
    <_>
      <internalNodes>
        0 -1 13312 -4.5697051100432873e-03</internalNodes>
      <leafValues>
        3.9701431989669800e-01 -2.7457392215728760e-01</leafValues></_>
    <_>
      <internalNodes>
        0 -1 160837 -3.6429034080356359e-03</internalNodes>
      <leafValues>
        5.6875288486480713e-01 -2.0242737233638763e-01</leafValues></_>
    <_>
      <internalNodes>
        0 -1 80744 2.6528197340667248e-03</internalNodes>
      <leafValues>
        -3.7167897820472717e-01 2.7279838919639587e-01</leafValues></_>
    <_>
      <internalNodes>
        0 -1 144029 1.0349715594202280e-03</internalNodes>
      <leafValues>
        1.1266483366489410e-01 -8.3899635076522827e-01</leafValues></_></weakClassifiers></stage5>
</opencv_storage>
