<?xml version="1.0"?>
<opencv_storage>
<stage0>
  <maxWeakCount>8</maxWeakCount>
  <stageThreshold>-1.6725386381149292e+00</stageThreshold>
  <weakClassifiers>
    <_>
      <internalNodes>
        0 -1 159407 9.1340010985732079e-03</internalNodes>
      <leafValues>
        -8.3231085538864136e-01 6.3063062727451324e-02</leafValues></_>
    <_>
      <internalNodes>
        0 -1 25784 5.3483806550502777e-03</internalNodes>
      <leafValues>
        -5.8424884080886841e-01 3.2347813248634338e-01</leafValues></_>
    <_>
      <internalNodes>
        0 -1 100335 -4.2379647493362427e-02</internalNodes>
      <leafValues>
        6.5789353847503662e-01 -2.8679057955741882e-01</leafValues></_>
    <_>
      <internalNodes>
        0 -1 112250 1.4941637346055359e-04</internalNodes>
      <leafValues>
        2.8272804617881775e-01 -6.4324307441711426e-01</leafValues></_>
    <_>
      <internalNodes>
        0 -1 153732 -1.6433385014533997e-01</internalNodes>
      <leafValues>
        2.1123164892196655e-01 -8.1073957681655884e-01</leafValues></_>
    <_>
      <internalNodes>
        0 -1 125988 3.2045066356658936e-02</internalNodes>
      <leafValues>
        -3.8496685028076172e-01 4.6548378467559814e-01</leafValues></_>
    <_>
      <internalNodes>
        0 -1 60335 3.9841951802372932e-03</internalNodes>
      <leafValues>
        -2.7837893366813660e-01 5.0945621728897095e-01</leafValues></_>
    <_>
      <internalNodes>
        0 -1 151883 5.6503351515857503e-05</internalNodes>
      <leafValues>
        -5.1180219650268555e-01 2.7571824193000793e-01</leafValues></_></weakClassifiers></stage0>
</opencv_storage>
