<?xml version="1.0"?>
<opencv_storage>
<stage7>
  <maxWeakCount>25</maxWeakCount>
  <stageThreshold>-1.1769284009933472e+00</stageThreshold>
  <weakClassifiers>
    <_>
      <internalNodes>
        0 -1 42803 -358351171 801110716 1874586364 1033633340
        -1426083843 259843315 683393192 212856041</internalNodes>
      <leafValues>
        1.4344261959195137e-02 6.9082605838775635e-01</leafValues></_>
    <_>
      <internalNodes>
        0 -1 32216 -1115957763 -1111949832 -1108348673 1001414137
        -1480999941 418425085 1069389818 -1430484226</internalNodes>
      <leafValues>
        -2.5778239965438843e-01 4.6290341019630432e-01</leafValues></_>
    <_>
      <internalNodes>
        0 -1 41701 -8849 -75540706 -126025746 -230490273 -671088829
        -708378633 -36439740 -186843170</internalNodes>
      <leafValues>
        -3.2846814393997192e-01 3.5503271222114563e-01</leafValues></_>
    <_>
      <internalNodes>
        0 -1 43928 -25175361 -1783366609 -2065652574 732936363
        -831035471 2971085 -303492952 218094847</internalNodes>
      <leafValues>
        -3.0221623182296753e-01 3.6044639348983765e-01</leafValues></_>
    <_>
      <internalNodes>
        0 -1 933 -1562448186 1989304214 -641050674 -1296274474 5730238
        -1330193684 1472916443 1950645727</internalNodes>
      <leafValues>
        -5.1793277263641357e-01 2.0874093472957611e-01</leafValues></_>
    <_>
      <internalNodes>
        0 -1 27285 202900181 -38448711 1573445113 1530810772 -1131757893
        -1092885269 -1821991941 -1733685004</internalNodes>
      <leafValues>
        -3.3127456903457642e-01 3.1473034620285034e-01</leafValues></_>
    <_>
      <internalNodes>
        0 -1 1685 -302519825 -1448379077 1979350758 459438443 1994089087
        986936163 1302031435 -28049617</internalNodes>
      <leafValues>
        -2.3988677561283112e-01 4.2582070827484131e-01</leafValues></_>
    <_>
      <internalNodes>
        0 -1 15112 201327889 1597965716 -82051585 496843205 -1430739025
        -612168 -1766604545 135282688</internalNodes>
      <leafValues>
        -3.9893490076065063e-01 2.4599033594131470e-01</leafValues></_>
    <_>
      <internalNodes>
        0 -1 31776 -721455585 -751730925 1023377390 831500151 -327188529
        -1075856515 -1090519320 -1308894435</internalNodes>
      <leafValues>
        -2.3239609599113464e-01 4.2878872156143188e-01</leafValues></_>
    <_>
      <internalNodes>
        0 -1 43977 -875299902 -2084157248 1344127586 1381187287
        312450240 1075784006 297193936 -791677969</internalNodes>
      <leafValues>
        -3.1890630722045898e-01 3.0015990138053894e-01</leafValues></_>
    <_>
      <internalNodes>
        0 -1 28134 240913149 332416221 404378591 536483586 -1195760932
        -818206581 795016125 -1086567172</internalNodes>
      <leafValues>
        -3.3946180343627930e-01 2.9152998328208923e-01</leafValues></_>
    <_>
      <internalNodes>
        0 -1 417 -271581193 -306320283 708757413 -135287011 -291844869
        -859345692 -683149869 -967838637</internalNodes>
      <leafValues>
        -2.1481902897357941e-01 4.4921961426734924e-01</leafValues></_>
    <_>
      <internalNodes>
        0 -1 38077 1539454372 -714849817 -1962385178 361069490
        -874106709 -387174228 710998691 1081655486</internalNodes>
      <leafValues>
        -4.5052808523178101e-01 2.2528611123561859e-01</leafValues></_>
    <_>
      <internalNodes>
        0 -1 42583 -1946684934 257503618 360689969 -611067975
        -2084581252 -1918386552 88119489 -1883254564</internalNodes>
      <leafValues>
        -2.9674866795539856e-01 3.2474541664123535e-01</leafValues></_>
    <_>
      <internalNodes>
        0 -1 3622 -573250725 972117449 -929450382 -1325559598 908603436
        724711464 889404907 1536364730</internalNodes>
      <leafValues>
        -3.2337698340415955e-01 3.0500921607017517e-01</leafValues></_>
    <_>
      <internalNodes>
        0 -1 12968 -260535690 449792087 -258547874 805225506 -894732355
        148573035 -91293208 2063160543</internalNodes>
      <leafValues>
        -3.6658668518066406e-01 2.6067307591438293e-01</leafValues></_>
    <_>
      <internalNodes>
        0 -1 30341 -2144731119 -359003116 -894764161 2101467161
        -364320771 -2387381 -1497698757 -1912531947</internalNodes>
      <leafValues>
        -3.5852307081222534e-01 2.6671916246414185e-01</leafValues></_>
    <_>
      <internalNodes>
        0 -1 32175 177815007 -1363916059 -1798868521 80280297 -84395446
        -1100254528 -111741224 -1355234100</internalNodes>
      <leafValues>
        -2.9436933994293213e-01 3.1684058904647827e-01</leafValues></_>
    <_>
      <internalNodes>
        0 -1 189 -323590622 -205503607 1355070036 -723093006 -2038545964
        -1060993846 1123860968 1949782037</internalNodes>
      <leafValues>
        -4.5918479561805725e-01 2.1217949688434601e-01</leafValues></_>
    <_>
      <internalNodes>
        0 -1 41446 -642131371 457067537 2012176137 2137734983 960167643
        -1959362670 -891946017 -2143814401</internalNodes>
      <leafValues>
        -2.3686274886131287e-01 4.1015338897705078e-01</leafValues></_>
    <_>
      <internalNodes>
        0 -1 1793 -610307537 389034530 681626542 289399083 398853126
        1213600822 1929876019 -137365637</internalNodes>
      <leafValues>
        -2.3419666290283203e-01 4.0648242831230164e-01</leafValues></_>
    <_>
      <internalNodes>
        0 -1 42224 -1389110529 -1890941152 -1092652367 -72570204
        -1815153231 -1913983983 498358484 -670188535</internalNodes>
      <leafValues>
        -2.6447510719299316e-01 3.7667462229728699e-01</leafValues></_>
    <_>
      <internalNodes>
        0 -1 43870 -1279529271 -1342229848 -1829670640 -751600177
        -1344483579 -1908887651 1168614595 -942672129</internalNodes>
      <leafValues>
        -2.2418217360973358e-01 4.0027773380279541e-01</leafValues></_>
    <_>
      <internalNodes>
        0 -1 40477 -1430752869 528093689 -1614916100 -941935111
        2123021230 -416409857 732223994 -1145564247</internalNodes>
      <leafValues>
        -2.8415971994400024e-01 3.3090689778327942e-01</leafValues></_>
    <_>
      <internalNodes>
        0 -1 35348 -165693433 -749266357 571941594 -1878335818 615476797
        581119988 -527311728 -1597113131</internalNodes>
      <leafValues>
        -3.3646440505981445e-01 2.8532940149307251e-01</leafValues></_></weakClassifiers></stage7>
</opencv_storage>
