<?xml version="1.0"?>
<opencv_storage>
<stage11>
  <maxWeakCount>28</maxWeakCount>
  <stageThreshold>-1.3320721387863159e+00</stageThreshold>
  <weakClassifiers>
    <_>
      <internalNodes>
        0 -1 35671 -1674339108 -1666547978 1019151614 -1141752070
        -1192755203 142640096 956041720 150741134</internalNodes>
      <leafValues>
        -3.6133695393800735e-02 6.5640646219253540e-01</leafValues></_>
    <_>
      <internalNodes>
        0 -1 43946 -361 832089258 576544784 -1813303102 938443758
        4828497 32720264 417324271</internalNodes>
      <leafValues>
        -2.4597035348415375e-01 4.2035800218582153e-01</leafValues></_>
    <_>
      <internalNodes>
        0 -1 30249 -1677919235 1538792669 2098601885 529822207
        -1424953665 -91447847 896072684 -1081567096</internalNodes>
      <leafValues>
        -2.8400698304176331e-01 3.7829327583312988e-01</leafValues></_>
    <_>
      <internalNodes>
        0 -1 41449 481099522 -4326087 -147072001 -116179394 -311795765
        -1074111085 -645861430 -803475617</internalNodes>
      <leafValues>
        -3.1037297844886780e-01 3.2038414478302002e-01</leafValues></_>
    <_>
      <internalNodes>
        0 -1 24218 -1355548745 -136335017 1444270012 -890309636
        -1275473985 -69817831 -541065472 -466289074</internalNodes>
      <leafValues>
        -3.1247437000274658e-01 3.0349606275558472e-01</leafValues></_>
    <_>
      <internalNodes>
        0 -1 1584 -853 -53493778 348295302 1348984540 -90448281
        358070356 -1300302234 -739249169</internalNodes>
      <leafValues>
        -2.7336990833282471e-01 3.4200683236122131e-01</leafValues></_>
    <_>
      <internalNodes>
        0 -1 18219 -257427058 272090885 -805088418 -2078016558
        -1320867483 165355727 -1579707913 28115940</internalNodes>
      <leafValues>
        -4.4080060720443726e-01 1.9538965821266174e-01</leafValues></_>
    <_>
      <internalNodes>
        0 -1 27277 201868797 1372393940 -574425857 1608325488
        -1289552705 -1125281362 -1692738563 -1165753715</internalNodes>
      <leafValues>
        -3.1347328424453735e-01 2.9814556241035461e-01</leafValues></_>
    <_>
      <internalNodes>
        0 -1 42884 -25693405 -1086744424 -1342319715 536072945
        -545280033 -1345737496 -1979982371 -572523441</internalNodes>
      <leafValues>
        -2.1790055930614471e-01 4.3146616220474243e-01</leafValues></_>
    <_>
      <internalNodes>
        0 -1 33966 862718199 648976543 154125675 -1930627160 -1159948033
        -2052863229 1064046240 531377372</internalNodes>
      <leafValues>
        -4.0735125541687012e-01 2.0641224086284637e-01</leafValues></_>
    <_>
      <internalNodes>
        0 -1 43872 -202509958 187420578 2130008322 1901409784
        -1302532324 62156322 297640429 -950272017</internalNodes>
      <leafValues>
        -2.5488197803497314e-01 3.4055072069168091e-01</leafValues></_>
    <_>
      <internalNodes>
        0 -1 4876 1946306754 -216358224 1396970978 2072165300
        -2003035496 405878800 839588602 1005813678</internalNodes>
      <leafValues>
        -3.7283930182456970e-01 2.3459805548191071e-01</leafValues></_>
    <_>
      <internalNodes>
        0 -1 35039 -790245131 1373773812 -266024741 299559798 1949559003
        -1082671919 1727643608 -1960069117</internalNodes>
      <leafValues>
        -2.0996414124965668e-01 3.8365182280540466e-01</leafValues></_>
    <_>
      <internalNodes>
        0 -1 24687 519051764 -169933168 474747070 -175419028 -1432307202
        -358157173 731950045 -1693970244</internalNodes>
      <leafValues>
        -3.0942150950431824e-01 2.6460555195808411e-01</leafValues></_>
    <_>
      <internalNodes>
        0 -1 40328 -690493717 1371760058 -1906724628 815202268
        -537173777 654486448 -146811396 -2132935937</internalNodes>
      <leafValues>
        -3.0917140841484070e-01 2.6652362942695618e-01</leafValues></_>
    <_>
      <internalNodes>
        0 -1 17967 429181557 454258711 541087998 542393328 28051928
        2141495789 843095000 531629308</internalNodes>
      <leafValues>
        -3.7180855870246887e-01 2.2296258807182312e-01</leafValues></_>
    <_>
      <internalNodes>
        0 -1 43395 -16122893 -2091596409 1895141984 -222591151
        -205990306 -1907457950 -708742528 -990381699</internalNodes>
      <leafValues>
        -2.7611970901489258e-01 2.9155129194259644e-01</leafValues></_>
    <_>
      <internalNodes>
        0 -1 26939 1538217727 2073628797 305755773 443827816 -1634854725
        -21481670 -1421886469 -1173857124</internalNodes>
      <leafValues>
        -2.4144995212554932e-01 3.3043736219406128e-01</leafValues></_>
    <_>
      <internalNodes>
        0 -1 1760 -4829 1432090575 -392797461 1917320043 134157398
        1177503094 1201653727 -498348337</internalNodes>
      <leafValues>
        -2.2182473540306091e-01 3.8664469122886658e-01</leafValues></_>
    <_>
      <internalNodes>
        0 -1 33556 343433333 -1693824743 211237367 472911254 -1710173445
        -541926274 -1628427019 613423600</internalNodes>
      <leafValues>
        -4.3049204349517822e-01 1.9341386854648590e-01</leafValues></_>
    <_>
      <internalNodes>
        0 -1 36261 232777255 -538716747 1626269669 1642522321 1599493623
        1466144119 435609336 -1847198273</internalNodes>
      <leafValues>
        -2.4609786272048950e-01 3.2670220732688904e-01</leafValues></_>
    <_>
      <internalNodes>
        0 -1 43466 -598659 -1688860609 935318371 1374385023 -822688178
        362381151 -304175457 -251925969</internalNodes>
      <leafValues>
        -2.0279194414615631e-01 4.0362682938575745e-01</leafValues></_>
    <_>
      <internalNodes>
        0 -1 42938 -1657472081 33018513 -147703973 2136588144
        -1663389989 172663256 -1296597313 -2097467461</internalNodes>
      <leafValues>
        -2.4121123552322388e-01 3.3531582355499268e-01</leafValues></_>
    <_>
      <internalNodes>
        0 -1 12374 -803209542 -1777017088 873401813 -402517502
        2027783272 -525113087 1147783215 -2093489973</internalNodes>
      <leafValues>
        -3.6992132663726807e-01 2.2429591417312622e-01</leafValues></_>
    <_>
      <internalNodes>
        0 -1 423 -1017478006 1985371215 -66891386 2093106447 -510654518
        -1073082366 -805241342 2004348263</internalNodes>
      <leafValues>
        -3.0086138844490051e-01 2.7439033985137939e-01</leafValues></_>
    <_>
      <internalNodes>
        0 -1 34626 -1111664291 1594367688 1538561906 2029193065
        -1626695235 -134215077 -288970889 272407260</internalNodes>
      <leafValues>
        -3.3829811215400696e-01 2.3795247077941895e-01</leafValues></_>
    <_>
      <internalNodes>
        0 -1 13299 -983872545 234430769 585528041 -1159017089
        -1082446500 -327271565 -12460196 -25624647</internalNodes>
      <leafValues>
        -2.4363064765930176e-01 3.3918064832687378e-01</leafValues></_>
    <_>
      <internalNodes>
        0 -1 15203 -2139376416 5590641 1960402269 -1148071931 -242484749
        -1325203228 -108875941 38903812</internalNodes>
      <leafValues>
        -3.5720726847648621e-01 2.4100311100482941e-01</leafValues></_></weakClassifiers></stage11>
</opencv_storage>
