<?xml version="1.0"?>
<opencv_storage>
<stage9>
  <maxWeakCount>26</maxWeakCount>
  <stageThreshold>-1.1263805627822876e+00</stageThreshold>
  <weakClassifiers>
    <_>
      <internalNodes>
        0 -1 43953 -69218302 -425852414 -165542752 1746560 -1001339392
        4383750 1929504000 1073931842</internalNodes>
      <leafValues>
        -3.1648170202970505e-02 6.6972649097442627e-01</leafValues></_>
    <_>
      <internalNodes>
        0 -1 43596 -525393 -1682708941 767548607 -538970925 -1145119233
        -2133201487 1279261917 -536871681</internalNodes>
      <leafValues>
        -1.1642097681760788e-01 6.3242125511169434e-01</leafValues></_>
    <_>
      <internalNodes>
        0 -1 1154 -84944470 -157030866 -1610438016 -1060243002
        1425686662 1073743407 -804814825 -228328909</internalNodes>
      <leafValues>
        -2.6191619038581848e-01 4.1725817322731018e-01</leafValues></_>
    <_>
      <internalNodes>
        0 -1 41885 -1579494469 -2055752135 2101327839 -1107445825
        -8471041 -1913651463 2105408249 -1998587921</internalNodes>
      <leafValues>
        -2.8034210205078125e-01 3.8920113444328308e-01</leafValues></_>
    <_>
      <internalNodes>
        0 -1 16564 -1626304815 1005924057 888332127 525417232 1027871224
        -1140303847 1419826172 455776702</internalNodes>
      <leafValues>
        -3.7314942479133606e-01 2.8114640712738037e-01</leafValues></_>
    <_>
      <internalNodes>
        0 -1 33648 1426056757 -235672932 -1231056724 7581877 1588306605
        2006131617 -420486436 -1328678147</internalNodes>
      <leafValues>
        -3.4178906679153442e-01 2.9176217317581177e-01</leafValues></_>
    <_>
      <internalNodes>
        0 -1 1927 -503062334 1539018962 721633495 -14822797 50464387
        -336892525 218690296 1162302913</internalNodes>
      <leafValues>
        -3.6592838168144226e-01 2.6415589451789856e-01</leafValues></_>
    <_>
      <internalNodes>
        0 -1 14390 -1362636885 -160105729 -807342498 -352929050 76973240
        -185186168 -902500162 -420499529</internalNodes>
      <leafValues>
        -3.1165587902069092e-01 2.9987373948097229e-01</leafValues></_>
    <_>
      <internalNodes>
        0 -1 39934 1450100228 423370555 1544156253 291072287 -131858722
        -1412724125 -1299072516 129599</internalNodes>
      <leafValues>
        -3.7254318594932556e-01 2.3648840188980103e-01</leafValues></_>
    <_>
      <internalNodes>
        0 -1 1075 -272499770 -827858450 -1508651410 -497624810 88302147
        1176314979 1633147217 1982330471</internalNodes>
      <leafValues>
        -5.0704365968704224e-01 1.7786292731761932e-01</leafValues></_>
    <_>
      <internalNodes>
        0 -1 43978 -614476873 17786406 1287636032 -573474093 -1696665461
        198305488 412210636 -672401749</internalNodes>
      <leafValues>
        -2.1617648005485535e-01 4.3583062291145325e-01</leafValues></_>
    <_>
      <internalNodes>
        0 -1 36615 404752637 426384088 206790619 521892057 939851182
        -1414914958 193501406 -1410398008</internalNodes>
      <leafValues>
        -3.0802914500236511e-01 2.9466208815574646e-01</leafValues></_>
    <_>
      <internalNodes>
        0 -1 16717 585099974 -1847070875 -68419683 320323513 -76548229
        -1409290396 1525924955 195776833</internalNodes>
      <leafValues>
        -2.9901763796806335e-01 3.0599856376647949e-01</leafValues></_>
    <_>
      <internalNodes>
        0 -1 1729 -55053233 -528011641 69940970 1399566286 1708220938
        1462906904 1677889454 -15993237</internalNodes>
      <leafValues>
        -1.9684071838855743e-01 4.5788869261741638e-01</leafValues></_>
    <_>
      <internalNodes>
        0 -1 43622 -170328313 830443060 205371497 292926825 -948448137
        -2119243877 1308062925 1576006811</internalNodes>
      <leafValues>
        -2.4835279583930969e-01 3.5702049732208252e-01</leafValues></_>
    <_>
      <internalNodes>
        0 -1 367 -202377500 121550430 -722251381 804908703 52489240
        1538376275 -757480210 1398867083</internalNodes>
      <leafValues>
        -3.6084538698196411e-01 2.6290008425712585e-01</leafValues></_>
    <_>
      <internalNodes>
        0 -1 24345 1901542804 400321157 -674151812 28779162 -1102335419
        -932473539 -357441424 149720126</internalNodes>
      <leafValues>
        -4.0564224123954773e-01 2.0256447792053223e-01</leafValues></_>
    <_>
      <internalNodes>
        0 -1 19285 854460671 2062747741 854613719 1379413355 -1620552775
        -1099555518 1793616829 -814010626</internalNodes>
      <leafValues>
        -2.4183510243892670e-01 3.4141963720321655e-01</leafValues></_>
    <_>
      <internalNodes>
        0 -1 43322 -111165089 -1283784173 -1332486582 1884270766
        46386966 1077063681 -114660752 -1847854341</internalNodes>
      <leafValues>
        -2.8730183839797974e-01 2.8801903128623962e-01</leafValues></_>
    <_>
      <internalNodes>
        0 -1 38025 -1743257452 -55309255 72155357 1371673949 -1098872879
        -230161784 -1182752069 -1196932740</internalNodes>
      <leafValues>
        -3.3731174468994141e-01 2.4687759578227997e-01</leafValues></_>
    <_>
      <internalNodes>
        0 -1 1680 -218105657 -622633852 -2105740632 -792583193
        -227565560 138772827 -785661084 -134796593</internalNodes>
      <leafValues>
        -2.4494430422782898e-01 3.6568230390548706e-01</leafValues></_>
    <_>
      <internalNodes>
        0 -1 34950 -1526808325 535693357 821673941 825495389 -1100425313
        -312302602 -1281163845 -1710745092</internalNodes>
      <leafValues>
        -2.6720905303955078e-01 3.2464227080345154e-01</leafValues></_>
    <_>
      <internalNodes>
        0 -1 6177 -654592394 1644167084 -1059073 197067380 918185320
        -1686414252 -633890306 -84283281</internalNodes>
      <leafValues>
        -2.4690055847167969e-01 3.6565303802490234e-01</leafValues></_>
    <_>
      <internalNodes>
        0 -1 40466 -287383584 148478214 92369028 373057923 -1467171846
        168489885 1552212220 204602847</internalNodes>
      <leafValues>
        -4.8204818367958069e-01 1.8796430528163910e-01</leafValues></_>
    <_>
      <internalNodes>
        0 -1 42636 456169798 -1248633769 -1949242042 -520500298
        -1094236684 -2132471647 -62531336 276159738</internalNodes>
      <leafValues>
        -3.8976350426673889e-01 2.2324189543724060e-01</leafValues></_>
    <_>
      <internalNodes>
        0 -1 1910 1644218370 -1718104184 -643225450 1362786081
        -1056953898 -1305272860 -930884723 1076299014</internalNodes>
      <leafValues>
        -4.1846725344657898e-01 2.1285124123096466e-01</leafValues></_></weakClassifiers></stage9>
</opencv_storage>
