<?xml version="1.0"?>
<opencv_storage>
<stage22>
  <maxWeakCount>41</maxWeakCount>
  <stageThreshold>-1.0214037895202637e+00</stageThreshold>
  <weakClassifiers>
    <_>
      <internalNodes>
        0 -1 602 -1224999006 1886805686 -956498322 -1295712546
        1928264354 850718405 -185676290 1632948810</internalNodes>
      <leafValues>
        7.7782548964023590e-02 6.3890188932418823e-01</leafValues></_>
    <_>
      <internalNodes>
        0 -1 39798 -537395713 1467938206 -39882761 -541404486
        -1140850689 535871479 -1153646917 -2097153</internalNodes>
      <leafValues>
        -6.3741251826286316e-02 5.8470481634140015e-01</leafValues></_>
    <_>
      <internalNodes>
        0 -1 1858 -67638021 -36751105 1332280575 -49109217 -347125919
        -86554841 -340542209 -76054949</internalNodes>
      <leafValues>
        -1.7618213593959808e-01 3.7790015339851379e-01</leafValues></_>
    <_>
      <internalNodes>
        0 -1 24268 -958408721 -281078850 -367100546 -1365376314
        1259904986 977902346 -1420125940 -134235650</internalNodes>
      <leafValues>
        -2.9820108413696289e-01 2.1529819071292877e-01</leafValues></_>
    <_>
      <internalNodes>
        0 -1 40476 -14488625 -2011177287 2001818076 -1720248459
        -1417627202 -1430290313 -318600964 -1996498805</internalNodes>
      <leafValues>
        -2.6520437002182007e-01 2.4048721790313721e-01</leafValues></_>
    <_>
      <internalNodes>
        0 -1 1918 1174594082 1385855120 1812023961 -1248862057
        1613239880 -1421951248 -905879393 1157846272</internalNodes>
      <leafValues>
        -3.7547701597213745e-01 1.4925843477249146e-01</leafValues></_>
    <_>
      <internalNodes>
        0 -1 43889 -1667170496 -1861279673 4665725 85530851 -1550784182
        -1914993791 2092718284 1678143219</internalNodes>
      <leafValues>
        -3.2215535640716553e-01 1.8556047976016998e-01</leafValues></_>
    <_>
      <internalNodes>
        0 -1 2473 -406325533 -519073818 1710309018 -12208827 -1553644376
        1091197778 1360221411 -1047005981</internalNodes>
      <leafValues>
        -1.9320584833621979e-01 3.1307768821716309e-01</leafValues></_>
    <_>
      <internalNodes>
        0 -1 29287 -100628395 1114245136 -1191817731 -921462151
        -1740059911 -268775217 -1180246019 -292877155</internalNodes>
      <leafValues>
        -2.0642614364624023e-01 2.8588014841079712e-01</leafValues></_>
    <_>
      <internalNodes>
        0 -1 34743 783766557 -1127572840 34804535 149573701 -1169468921
        -285519617 697528181 7355888</internalNodes>
      <leafValues>
        -3.9979130029678345e-01 1.4478743076324463e-01</leafValues></_>
    <_>
      <internalNodes>
        0 -1 43604 1482971680 -1890339326 525484061 1025097940 789052120
        -1971152734 227231885 432010493</internalNodes>
      <leafValues>
        -3.3846279978752136e-01 1.7042410373687744e-01</leafValues></_>
    <_>
      <internalNodes>
        0 -1 17116 -55053569 -717789963 -1721960101 1570527844
        -1898453337 -807677746 1163056983 -1311289027</internalNodes>
      <leafValues>
        -1.7023020982742310e-01 3.4643453359603882e-01</leafValues></_>
    <_>
      <internalNodes>
        0 -1 38120 1482627590 323495680 -802827829 488052978 -581320986
        -1626637697 -225596464 14412331</internalNodes>
      <leafValues>
        -3.2086709141731262e-01 1.9642099738121033e-01</leafValues></_>
    <_>
      <internalNodes>
        0 -1 24979 -233586603 -1816455917 -1967587843 1301241278
        -1967649059 -1078362739 838661777 480335751</internalNodes>
      <leafValues>
        -2.1499057114124298e-01 2.6659786701202393e-01</leafValues></_>
    <_>
      <internalNodes>
        0 -1 28048 516952569 1026103767 -1323572325 1065753745
        -1278681990 -1994926961 -71795650 246159849</internalNodes>
      <leafValues>
        -3.8097971677780151e-01 1.5116710960865021e-01</leafValues></_>
    <_>
      <internalNodes>
        0 -1 21 32049344 -1711557595 -1177067238 -1116606140 8536492
        1250613812 1436512478 1079080208</internalNodes>
      <leafValues>
        -3.7388148903846741e-01 1.5309785306453705e-01</leafValues></_>
    <_>
      <internalNodes>
        0 -1 32749 -1068674661 1503086754 -1606821780 20237554
        -2133929865 -51023351 -2007385338 -1056319108</internalNodes>
      <leafValues>
        -2.3392695188522339e-01 2.3208762705326080e-01</leafValues></_>
    <_>
      <internalNodes>
        0 -1 27441 423315677 1577796809 -1427940899 1513647605 484495482
        -94412617 -1306528557 -751875907</internalNodes>
      <leafValues>
        -2.0735669136047363e-01 2.7321380376815796e-01</leafValues></_>
    <_>
      <internalNodes>
        0 -1 15199 -802951374 -803346653 -1105308909 -773314377
        -1658475495 -1625030120 1334111983 1197688366</internalNodes>
      <leafValues>
        -2.4747104942798615e-01 2.2056388854980469e-01</leafValues></_>
    <_>
      <internalNodes>
        0 -1 43985 -604132792 1820820514 14152880 819026635 -1263461490
        12789192 76277246 -994315361</internalNodes>
      <leafValues>
        -2.4376514554023743e-01 2.3342187702655792e-01</leafValues></_>
    <_>
      <internalNodes>
        0 -1 1073 1859256543 -755215517 -908697322 1802666307 45042378
        816986267 -859095119 1463017774</internalNodes>
      <leafValues>
        -2.6852190494537354e-01 2.0678709447383881e-01</leafValues></_>
    <_>
      <internalNodes>
        0 -1 34718 1987413151 -389705707 -1538977444 1382535413
        -1991779726 -644658837 1737440767 -2142985796</internalNodes>
      <leafValues>
        -2.3524112999439240e-01 2.4481275677680969e-01</leafValues></_>
    <_>
      <internalNodes>
        0 -1 43765 -135770720 1061360657 537100536 -2027994943 124856970
        -1564397438 352626826 72434478</internalNodes>
      <leafValues>
        -3.7654757499694824e-01 1.5225847065448761e-01</leafValues></_>
    <_>
      <internalNodes>
        0 -1 19347 2020648988 3940368 1175572822 404561104 678470128
        171923056 5360012 703072664</internalNodes>
      <leafValues>
        -3.7842991948127747e-01 1.5020494163036346e-01</leafValues></_>
    <_>
      <internalNodes>
        0 -1 43633 -80545222 -1958759953 -1831520106 -709090712
        1466441686 -1982885890 -722607892 -1041273169</internalNodes>
      <leafValues>
        -2.3404496908187866e-01 2.4972145259380341e-01</leafValues></_>
    <_>
      <internalNodes>
        0 -1 41190 -594263811 1398477141 2020888596 -1569171937
        -665939686 453767501 -174409062 807458746</internalNodes>
      <leafValues>
        -2.7636945247650146e-01 2.0609514415264130e-01</leafValues></_>
    <_>
      <internalNodes>
        0 -1 4950 1879032779 -305236153 1883499032 -1081836922
        -794246133 1879926869 1387064265 1382804955</internalNodes>
      <leafValues>
        -2.4210125207901001e-01 2.4404454231262207e-01</leafValues></_>
    <_>
      <internalNodes>
        0 -1 34451 -1942224683 1551113500 2138536731 948581373
        -1381473893 -1096216167 239121054 369106196</internalNodes>
      <leafValues>
        -3.1892886757850647e-01 1.8519401550292969e-01</leafValues></_>
    <_>
      <internalNodes>
        0 -1 35277 2094059731 2090688941 -1717666977 1361139775
        -740309387 -1379443416 -95077686 -551815483</internalNodes>
      <leafValues>
        -1.5691991150379181e-01 3.7969779968261719e-01</leafValues></_>
    <_>
      <internalNodes>
        0 -1 43861 -202648926 -579655030 296171584 1945503748 352359704
        21419880 362797272 -615777145</internalNodes>
      <leafValues>
        -1.8440173566341400e-01 3.1825754046440125e-01</leafValues></_>
    <_>
      <internalNodes>
        0 -1 1633 -53026642 2097242765 303686170 1378228836 1343848990
        1532300407 828404256 560066623</internalNodes>
      <leafValues>
        -3.0235564708709717e-01 2.0240901410579681e-01</leafValues></_>
    <_>
      <internalNodes>
        0 -1 38723 188382207 463874565 766327543 832053657 658176762
        -387563913 1006346735 -1947215729</internalNodes>
      <leafValues>
        -1.9902627170085907e-01 2.9377931356430054e-01</leafValues></_>
    <_>
      <internalNodes>
        0 -1 19622 2096322 -1299754396 -96213464 43103318 1935351564
        1830846545 -1815665888 10557744</internalNodes>
      <leafValues>
        -4.9747011065483093e-01 1.1969222873449326e-01</leafValues></_>
    <_>
      <internalNodes>
        0 -1 30069 779820829 -2065940232 -1692237094 409864229
        -854950851 -376747519 -1708495406 213430457</internalNodes>
      <leafValues>
        -3.7542137503623962e-01 1.5539444983005524e-01</leafValues></_>
    <_>
      <internalNodes>
        0 -1 38772 -2011167492 -36410815 -787749900 962402780 682375585
        -1531883391 -573531650 -1659486060</internalNodes>
      <leafValues>
        -2.8923740983009338e-01 2.0650702714920044e-01</leafValues></_>
    <_>
      <internalNodes>
        0 -1 40870 -616966221 1133085338 -1413549288 -1045807452
        -310393061 231517415 -1762748856 -722469620</internalNodes>
      <leafValues>
        -2.3122446238994598e-01 2.5771039724349976e-01</leafValues></_>
    <_>
      <internalNodes>
        0 -1 529 -45094439 -773244340 813116699 -1644853717 1877220027
        598672132 1168312030 -1048066729</internalNodes>
      <leafValues>
        -1.5524430572986603e-01 3.8068616390228271e-01</leafValues></_>
    <_>
      <internalNodes>
        0 -1 13821 -510238237 1549585101 -1039225953 771643551 652616373
        2053276041 -2113392734 1973830091</internalNodes>
      <leafValues>
        -2.4116203188896179e-01 2.4052004516124725e-01</leafValues></_>
    <_>
      <internalNodes>
        0 -1 2216 -1711080926 470794675 -805226222 -1466089073
        1781545745 -1440922623 -436031225 1099256379</internalNodes>
      <leafValues>
        -3.3853703737258911e-01 1.7275810241699219e-01</leafValues></_>
    <_>
      <internalNodes>
        0 -1 42570 -302255967 -202186200 -1074302755 1978203445
        -1343324235 1877524057 754812412 -349191943</internalNodes>
      <leafValues>
        -1.8045677244663239e-01 3.4599366784095764e-01</leafValues></_>
    <_>
      <internalNodes>
        0 -1 15459 439520019 536346102 -293871619 -2114913383
        -1022115173 -90495594 -1509894709 -606400359</internalNodes>
      <leafValues>
        -1.7154234647750854e-01 3.5463795065879822e-01</leafValues></_></weakClassifiers></stage22>
</opencv_storage>
