<?xml version="1.0"?>
<opencv_storage>
<stage13>
  <maxWeakCount>33</maxWeakCount>
  <stageThreshold>-1.1755088567733765e+00</stageThreshold>
  <weakClassifiers>
    <_>
      <internalNodes>
        0 -1 28166 -376438792 148946412 -243878668 11561192 -1426391812
        135548132 -1292642051 150916333</internalNodes>
      <leafValues>
        -1.3647958636283875e-01 6.3103568553924561e-01</leafValues></_>
    <_>
      <internalNodes>
        0 -1 27867 -1514405889 -19156514 2085441826 -487818268
        -1428964841 -1351384929 -1886671036 -173737740</internalNodes>
      <leafValues>
        -3.1188189983367920e-01 3.3453106880187988e-01</leafValues></_>
    <_>
      <internalNodes>
        0 -1 38648 -1757684235 -542185036 -1110573123 -140063270
        -1178918951 516739070 -1485202180 -1075902513</internalNodes>
      <leafValues>
        -2.4035252630710602e-01 3.8561207056045532e-01</leafValues></_>
    <_>
      <internalNodes>
        0 -1 42938 -1667564302 -2080767723 -1221689345 -1118310155
        -540500069 -1882674375 699269119 -1930437185</internalNodes>
      <leafValues>
        -2.6819753646850586e-01 3.1181734800338745e-01</leafValues></_>
    <_>
      <internalNodes>
        0 -1 43508 -137669530 871308369 1907899450 1379074598 2132987906
        1987785234 -672243365 -160443393</internalNodes>
      <leafValues>
        -3.2116487622261047e-01 2.6203531026840210e-01</leafValues></_>
    <_>
      <internalNodes>
        0 -1 13724 1111703653 1433276516 -750042153 1372017909
        -796572201 -1292150962 -459278865 12517585</internalNodes>
      <leafValues>
        -3.7347286939620972e-01 2.0352746546268463e-01</leafValues></_>
    <_>
      <internalNodes>
        0 -1 1900 -469509703 -537605991 -1321814817 -671114635
        1222255869 -134556447 1904821721 -813219627</internalNodes>
      <leafValues>
        -2.2084106504917145e-01 3.5795116424560547e-01</leafValues></_>
    <_>
      <internalNodes>
        0 -1 42607 -75768801 455181870 798513335 1400756738 -1103954194
        -1077878806 -117703250 -1606424897</internalNodes>
      <leafValues>
        -2.0285983383655548e-01 3.7313759326934814e-01</leafValues></_>
    <_>
      <internalNodes>
        0 -1 10790 -797776589 -254112186 1455808764 1899767520
        -1609314314 -94234994 546018545 -705728335</internalNodes>
      <leafValues>
        -2.5158843398094177e-01 3.0273756384849548e-01</leafValues></_>
    <_>
      <internalNodes>
        0 -1 28340 -1994410724 -784637535 -1282756005 -199224573
        -102048628 -1931615663 -1097058898 568833980</internalNodes>
      <leafValues>
        -3.4088125824928284e-01 2.2171691060066223e-01</leafValues></_>
    <_>
      <internalNodes>
        0 -1 30278 37374616 427314716 538695799 175919125 447227996
        1294952575 -1214846049 -1658299908</internalNodes>
      <leafValues>
        -3.5318666696548462e-01 2.1032102406024933e-01</leafValues></_>
    <_>
      <internalNodes>
        0 -1 31422 814924025 2079726516 -583868495 -744842833 -374612560
        -572735857 -788835094 -1693715445</internalNodes>
      <leafValues>
        -2.1256199479103088e-01 3.5826984047889709e-01</leafValues></_>
    <_>
      <internalNodes>
        0 -1 43630 -536880259 -1745633453 -1120263120 -236326817
        -1225412362 -1959482130 -973412901 -1938568065</internalNodes>
      <leafValues>
        -1.8011827766895294e-01 4.0685293078422546e-01</leafValues></_>
    <_>
      <internalNodes>
        0 -1 4253 -397005630 -505216130 -1865802296 -820375204 823755498
        1251678462 -419265700 1397998426</internalNodes>
      <leafValues>
        -3.1580254435539246e-01 2.4147376418113708e-01</leafValues></_>
    <_>
      <internalNodes>
        0 -1 1857 -605896393 -651419804 -963222913 -1286343497
        1752900671 -580101321 -386155621 -41943521</internalNodes>
      <leafValues>
        -1.8250037729740143e-01 3.9112690091133118e-01</leafValues></_>
    <_>
      <internalNodes>
        0 -1 6986 -206373122 -2105736797 -345613390 972683711 -547766544
        -562541456 2003954906 -277163073</internalNodes>
      <leafValues>
        -1.8464010953903198e-01 3.7049055099487305e-01</leafValues></_>
    <_>
      <internalNodes>
        0 -1 33673 1005674033 -1761672139 1821861215 1349569495
        -1231504281 -1380865840 -1288382350 3183836</internalNodes>
      <leafValues>
        -3.5185000300407410e-01 2.0487700402736664e-01</leafValues></_>
    <_>
      <internalNodes>
        0 -1 14392 -353305508 1456607859 353802802 962222355 1355472088
        -1598805669 42500820 536931066</internalNodes>
      <leafValues>
        -3.9004552364349365e-01 1.7745488882064819e-01</leafValues></_>
    <_>
      <internalNodes>
        0 -1 43860 -215489886 -743506367 -523522030 -245424180
        -1108240885 1079365188 -729234733 -779363073</internalNodes>
      <leafValues>
        -2.1875879168510437e-01 3.1897377967834473e-01</leafValues></_>
    <_>
      <internalNodes>
        0 -1 34162 -233070885 193524096 -953159362 364991501 235697057
        582164632 -1862101027 167693044</internalNodes>
      <leafValues>
        -3.1536290049552917e-01 2.2621284425258636e-01</leafValues></_>
    <_>
      <internalNodes>
        0 -1 43922 -1090332466 2081936158 -258808320 1342926773
        -334865402 457873471 -1432956190 -535245937</internalNodes>
      <leafValues>
        -2.8619506955146790e-01 2.5213363766670227e-01</leafValues></_>
    <_>
      <internalNodes>
        0 -1 27497 -2103551745 -138389763 792715223 -1127852161
        2078981887 -1679856449 -1078657538 -2051402247</internalNodes>
      <leafValues>
        -2.2499196231365204e-01 3.1542643904685974e-01</leafValues></_>
    <_>
      <internalNodes>
        0 -1 752 -852495452 1091299204 274047490 -219462353 2083760648
        554228069 1999668662 -2060467529</internalNodes>
      <leafValues>
        -2.7123472094535828e-01 2.6254245638847351e-01</leafValues></_>
    <_>
      <internalNodes>
        0 -1 31122 674961535 208425934 -794680922 134240128 955935609
        -1496979115 932098084 78662896</internalNodes>
      <leafValues>
        -5.3213137388229370e-01 1.3205809891223907e-01</leafValues></_>
    <_>
      <internalNodes>
        0 -1 30233 -145168219 446958825 989474108 300383537 800726699
        -1612833170 -1160443417 -1431371626</internalNodes>
      <leafValues>
        -2.4213548004627228e-01 3.0451789498329163e-01</leafValues></_>
    <_>
      <internalNodes>
        0 -1 32360 -893730780 -1823329346 -1548585411 -517931665
        1521630141 1761379244 1535283322 51049888</internalNodes>
      <leafValues>
        -3.5245031118392944e-01 1.9925394654273987e-01</leafValues></_>
    <_>
      <internalNodes>
        0 -1 5393 -1917120349 -611167590 -776814829 2039484697
        -1936424208 -89233505 193528525 -999336764</internalNodes>
      <leafValues>
        -2.7391323447227478e-01 2.6314899325370789e-01</leafValues></_>
    <_>
      <internalNodes>
        0 -1 42818 1321991217 756349648 354927736 -765467408 -368906591
        -1900087094 -1743858504 147324156</internalNodes>
      <leafValues>
        -3.7549749016761780e-01 1.9558241963386536e-01</leafValues></_>
    <_>
      <internalNodes>
        0 -1 38288 1378569791 1540746695 719326445 1895663349 2069322331
        -583303353 -132383524 -259790067</internalNodes>
      <leafValues>
        -2.2944740951061249e-01 3.0975154042243958e-01</leafValues></_>
    <_>
      <internalNodes>
        0 -1 25849 -1150117635 430447305 276324285 171661817 -1163252340
        -1367882388 -1401165602 -1141363748</internalNodes>
      <leafValues>
        -2.3954476416110992e-01 2.9546198248863220e-01</leafValues></_>
    <_>
      <internalNodes>
        0 -1 8239 -836098921 1918029038 337148056 970113970 -473543603
        -1471917552 29102104 1338591097</internalNodes>
      <leafValues>
        -3.1925749778747559e-01 2.2250461578369141e-01</leafValues></_>
    <_>
      <internalNodes>
        0 -1 41445 -888932001 37727509 117349489 858881552 494909916
        -1930952916 1056423131 -1464086890</internalNodes>
      <leafValues>
        -1.9078160822391510e-01 3.7630948424339294e-01</leafValues></_>
    <_>
      <internalNodes>
        0 -1 23808 1953155703 -795525872 955643759 221609567 -1438872150
        -541151870 -1965704396 -1766597137</internalNodes>
      <leafValues>
        -1.9690398871898651e-01 3.4953650832176208e-01</leafValues></_></weakClassifiers></stage13>
</opencv_storage>
