<?xml version="1.0"?>
<opencv_storage>
<stage6>
  <maxWeakCount>22</maxWeakCount>
  <stageThreshold>-1.2648763656616211e+00</stageThreshold>
  <weakClassifiers>
    <_>
      <internalNodes>
        0 -1 43424 -33694476 -1778549743 -1081836420 -1510898563
        -9125744 364143736 -1676620616 203932831</internalNodes>
      <leafValues>
        -1.1036174371838570e-02 7.2253030538558960e-01</leafValues></_>
    <_>
      <internalNodes>
        0 -1 21699 -289669521 -826351873 -832373112 239505148 -805373220
        -824705204 -304104176 -947913010</internalNodes>
      <leafValues>
        -3.6752027273178101e-01 4.3539786338806152e-01</leafValues></_>
    <_>
      <internalNodes>
        0 -1 1859 -266501 -134745089 1316953759 -1900685 1780679771
        -74300401 -17859077 -8948905</internalNodes>
      <leafValues>
        -2.3475921154022217e-01 5.7156974077224731e-01</leafValues></_>
    <_>
      <internalNodes>
        0 -1 42911 -83888577 -1613235826 350871153 489944563 509081049
        -1882342145 148717821 234877179</internalNodes>
      <leafValues>
        -3.2682877779006958e-01 4.1779989004135132e-01</leafValues></_>
    <_>
      <internalNodes>
        0 -1 43863 -756817278 -884078456 1912693296 -786452020
        -1307713022 42281476 1345380560 -772804641</internalNodes>
      <leafValues>
        -3.5058644413948059e-01 3.2082191109657288e-01</leafValues></_>
    <_>
      <internalNodes>
        0 -1 19720 -595601930 -799543040 2089875423 -2133838330
        -642128660 -2004021103 164553391 -2136476502</internalNodes>
      <leafValues>
        -4.2087870836257935e-01 2.6701420545578003e-01</leafValues></_>
    <_>
      <internalNodes>
        0 -1 40949 -1158228993 685358628 814695737 938731885 -663254374
        -1946215304 1215666316 -1998620583</internalNodes>
      <leafValues>
        -3.2652944326400757e-01 3.3989515900611877e-01</leafValues></_>
    <_>
      <internalNodes>
        0 -1 3312 -75837702 -560307344 606223218 1394763618 -1331934568
        1528304436 -231802626 2065431763</internalNodes>
      <leafValues>
        -3.1119331717491150e-01 3.6151984333992004e-01</leafValues></_>
    <_>
      <internalNodes>
        0 -1 37 -519314215 -620181336 -2010135139 1607943856 206644474
        -8553412 1156826075 -954777263</internalNodes>
      <leafValues>
        -2.8881159424781799e-01 3.8105341792106628e-01</leafValues></_>
    <_>
      <internalNodes>
        0 -1 43450 -362886126 862290698 -1726853615 1880568162
        -1342013686 690569242 -1853298229 -1073555157</internalNodes>
      <leafValues>
        -3.3292752504348755e-01 3.1444364786148071e-01</leafValues></_>
    <_>
      <internalNodes>
        0 -1 8179 -257504422 1493876862 -313207852 298988498 -1446064948
        1751187633 -181672467 992507548</internalNodes>
      <leafValues>
        -4.0721684694290161e-01 2.6218786835670471e-01</leafValues></_>
    <_>
      <internalNodes>
        0 -1 39784 -15739445 219115690 361877734 2002440954 1092338297
        1085513798 -795883344 -1001134369</internalNodes>
      <leafValues>
        -3.5276666283607483e-01 2.8263205289840698e-01</leafValues></_>
    <_>
      <internalNodes>
        0 -1 23 -827923570 -133269158 -754787887 1935667800 168252142
        -1934662519 69751007 1090733585</internalNodes>
      <leafValues>
        -3.9523404836654663e-01 2.5307407975196838e-01</leafValues></_>
    <_>
      <internalNodes>
        0 -1 23366 -15991055 227856868 -758675248 21072385 1120422329
        15237256 -1165375508 -1931943430</internalNodes>
      <leafValues>
        -3.5677522420883179e-01 2.7049037814140320e-01</leafValues></_>
    <_>
      <internalNodes>
        0 -1 12348 325829878 -771586682 1477767484 706090770 -1594324214
        -2009323470 1306328543 1227968863</internalNodes>
      <leafValues>
        -3.8235747814178467e-01 2.6057842373847961e-01</leafValues></_>
    <_>
      <internalNodes>
        0 -1 1632 -362020977 -750126842 -300725780 -765243737 -227868608
        438493284 -465299790 -213125137</internalNodes>
      <leafValues>
        -2.5973474979400635e-01 3.8432252407073975e-01</leafValues></_>
    <_>
      <internalNodes>
        0 -1 43865 -1677725005 -1288537934 -1682784683 2034046048
        -1945203030 -1572631366 165102703 -810560205</internalNodes>
      <leafValues>
        -2.1435098350048065e-01 4.6608331799507141e-01</leafValues></_>
    <_>
      <internalNodes>
        0 -1 56 572704898 1420272136 453019671 1564595085 69751212
        -633835388 36110449 1160237652</internalNodes>
      <leafValues>
        -4.5543435215950012e-01 2.1908116340637207e-01</leafValues></_>
    <_>
      <internalNodes>
        0 -1 31784 -290483426 -1286441439 1377892284 1613952089
        595808438 -1520500526 -2146721576 -248251429</internalNodes>
      <leafValues>
        -3.3210009336471558e-01 3.0273190140724182e-01</leafValues></_>
    <_>
      <internalNodes>
        0 -1 39975 1509939206 859788044 -1005336373 806947612
        -1710368570 -1641955259 -901061666 -2144863398</internalNodes>
      <leafValues>
        -3.4086519479751587e-01 2.8896236419677734e-01</leafValues></_>
    <_>
      <internalNodes>
        0 -1 35452 502471479 -657632140 -1986954159 -1225715453
        -668416294 -2103295313 140962082 3201336</internalNodes>
      <leafValues>
        -3.9436438679695129e-01 2.5805681943893433e-01</leafValues></_>
    <_>
      <internalNodes>
        0 -1 27805 -786661933 -1144990974 -715927351 -1857406732
        -267734436 -117391214 -1207164216 732583934</internalNodes>
      <leafValues>
        -3.6737471818923950e-01 2.7961900830268860e-01</leafValues></_></weakClassifiers></stage6>
</opencv_storage>
