<?xml version="1.0"?>
<opencv_storage>
<stage16>
  <maxWeakCount>34</maxWeakCount>
  <stageThreshold>-1.0110051631927490e+00</stageThreshold>
  <weakClassifiers>
    <_>
      <internalNodes>
        0 -1 35717 -1854407248 -1801389652 -167778050 435710140
        -1074270738 137428204 -1363282786 148167774</internalNodes>
      <leafValues>
        7.6511092483997345e-02 6.5472751855850220e-01</leafValues></_>
    <_>
      <internalNodes>
        0 -1 40210 -13569 -291177 -1434455041 1616891127 -20984736
        -82321865 -1158685112 -487858707</internalNodes>
      <leafValues>
        -1.6833513975143433e-01 4.3846511840820313e-01</leafValues></_>
    <_>
      <internalNodes>
        0 -1 31302 -1145254915 1392003581 294731247 196677564
        -2003240519 -1365452048 949493243 -1431696228</internalNodes>
      <leafValues>
        -2.9160469770431519e-01 2.8695714473724365e-01</leafValues></_>
    <_>
      <internalNodes>
        0 -1 43424 -241568652 -665085910 -1291222071 -2061383106
        -1316882304 599802634 -116875607 70503615</internalNodes>
      <leafValues>
        -3.9778438210487366e-01 2.0611888170242310e-01</leafValues></_>
    <_>
      <internalNodes>
        0 -1 6423 -225707154 -1829051593 2035880774 964610894
        -1544881669 -1843362913 -223679777 393281531</internalNodes>
      <leafValues>
        -3.4721761941909790e-01 2.2523362934589386e-01</leafValues></_>
    <_>
      <internalNodes>
        0 -1 20 -815009809 -539160645 624635347 -1614158959 151784349
        -919095410 1204688890 -1059065643</internalNodes>
      <leafValues>
        -2.6987859606742859e-01 3.1527051329612732e-01</leafValues></_>
    <_>
      <internalNodes>
        0 -1 42587 -549720069 -2049499523 -1142121089 2113723737
        -1615353505 -2019559458 -827288101 -1912603173</internalNodes>
      <leafValues>
        -2.0176090300083160e-01 3.6314472556114197e-01</leafValues></_>
    <_>
      <internalNodes>
        0 -1 42608 2099960838 990752123 1498829855 -251448527
        -1151405382 -1371846598 961174190 1650188151</internalNodes>
      <leafValues>
        -2.7493849396705627e-01 2.4802343547344208e-01</leafValues></_>
    <_>
      <internalNodes>
        0 -1 15460 -233576841 -153661963 -557577 1498369517 -868531517
        -958852192 1447006971 1537152501</internalNodes>
      <leafValues>
        -2.0812995731830597e-01 3.2126739621162415e-01</leafValues></_>
    <_>
      <internalNodes>
        0 -1 32252 294654205 2013267293 772949239 837379029 967487391
        1953022126 1042947919 1032588792</internalNodes>
      <leafValues>
        -3.7133374810218811e-01 1.8622466921806335e-01</leafValues></_>
    <_>
      <internalNodes>
        0 -1 23507 -1632439052 2134639183 -714145865 834488657
        -1205022987 -341000280 975489787 -1971168048</internalNodes>
      <leafValues>
        -2.3592498898506165e-01 2.8083419799804688e-01</leafValues></_>
    <_>
      <internalNodes>
        0 -1 43987 -78251798 -811161854 412688384 1912302496 -508000696
        42434660 100661247 -981471233</internalNodes>
      <leafValues>
        -2.3286125063896179e-01 2.9571130871772766e-01</leafValues></_>
    <_>
      <internalNodes>
        0 -1 1688 -372659677 -358979205 1209167986 1385191416 1582501356
        1059270775 1592749695 1314081119</internalNodes>
      <leafValues>
        -2.9705011844635010e-01 2.3654405772686005e-01</leafValues></_>
    <_>
      <internalNodes>
        0 -1 31972 -1684382595 -339308832 -1020657444 1727792564
        -256709913 -877729664 1610408052 10014676</internalNodes>
      <leafValues>
        -3.9188787341117859e-01 1.6945752501487732e-01</leafValues></_>
    <_>
      <internalNodes>
        0 -1 564 1124327586 -246509368 809465970 -137455180 806625555
        1150298136 1649513422 2002740438</internalNodes>
      <leafValues>
        -3.4786570072174072e-01 1.8780978024005890e-01</leafValues></_>
    <_>
      <internalNodes>
        0 -1 39233 -650117193 -615580810 431371388 -1152890 -1237323905
        -96700813 1037403823 -681852581</internalNodes>
      <leafValues>
        -1.5584886074066162e-01 4.2936432361602783e-01</leafValues></_>
    <_>
      <internalNodes>
        0 -1 31706 1089345727 -742819037 -202413090 -2095907055
        -117859081 -1162101569 1360704238 -1843705543</internalNodes>
      <leafValues>
        -2.1829107403755188e-01 3.1582728028297424e-01</leafValues></_>
    <_>
      <internalNodes>
        0 -1 647 -712780376 -303962876 336445802 -92351127 -1831800438
        1157849602 59208418 554406803</internalNodes>
      <leafValues>
        -3.0970346927642822e-01 2.2412535548210144e-01</leafValues></_>
    <_>
      <internalNodes>
        0 -1 10175 -2134981893 1530536746 1622840311 1408280755
        -587485864 1830280660 -5207304 -613596247</internalNodes>
      <leafValues>
        -2.2666828334331512e-01 3.0907347798347473e-01</leafValues></_>
    <_>
      <internalNodes>
        0 -1 43754 -1208026165 -1682361670 -1657005457 -544405729
        779926611 -2143653296 366120687 -67118885</internalNodes>
      <leafValues>
        -1.8367537856101990e-01 3.6805459856987000e-01</leafValues></_>
    <_>
      <internalNodes>
        0 -1 20128 1076583318 1345255312 -2129448102 30916568 -925105962
        -436355035 -1989346124 -2070825677</internalNodes>
      <leafValues>
        -3.3289101719856262e-01 2.2325307130813599e-01</leafValues></_>
    <_>
      <internalNodes>
        0 -1 33 -999543922 1424900397 1076501214 -40175202 -2133359409
        -1375159381 41822691 1145062673</internalNodes>
      <leafValues>
        -4.5716094970703125e-01 1.4992640912532806e-01</leafValues></_>
    <_>
      <internalNodes>
        0 -1 32790 1459608315 -707192410 -499958300 1354955741
        1189068516 -69529780 1968684363 -724708100</internalNodes>
      <leafValues>
        -2.2811798751354218e-01 3.0897200107574463e-01</leafValues></_>
    <_>
      <internalNodes>
        0 -1 23390 -1750594842 1138311391 1370078591 -1675809606
        -1966458230 -1567475681 -1218650709 -1107675383</internalNodes>
      <leafValues>
        -2.5580024719238281e-01 2.6701435446739197e-01</leafValues></_>
    <_>
      <internalNodes>
        0 -1 39925 1583107100 322507222 1418290474 957882896 -1202128436
        150203608 2017944804 -2143770105</internalNodes>
      <leafValues>
        -3.4022939205169678e-01 2.0294041931629181e-01</leafValues></_>
    <_>
      <internalNodes>
        0 -1 42722 -313008613 959553823 -1308599802 268859910 -783640562
        571410787 -82654650 -2095322453</internalNodes>
      <leafValues>
        -2.9781234264373779e-01 2.3127159476280212e-01</leafValues></_>
    <_>
      <internalNodes>
        0 -1 10780 1755508899 -1820030900 -765224042 1536552388
        -125069382 -930554699 -1574856409 -1881159713</internalNodes>
      <leafValues>
        -1.9515828788280487e-01 3.5001835227012634e-01</leafValues></_>
    <_>
      <internalNodes>
        0 -1 28564 414187642 -617542935 502467550 1921929617 141621483
        -1144537050 -1249722825 573197521</internalNodes>
      <leafValues>
        -3.3390435576438904e-01 2.1581685543060303e-01</leafValues></_>
    <_>
      <internalNodes>
        0 -1 43857 -812396446 193623082 -753751040 -205366713 1918931994
        55266191 1607184576 -1760864529</internalNodes>
      <leafValues>
        -2.7296510338783264e-01 2.5327748060226440e-01</leafValues></_>
    <_>
      <internalNodes>
        0 -1 3492 -743592305 -715160243 1517273104 -227263961 -112604597
        1750009106 -1223716933 -716193377</internalNodes>
      <leafValues>
        -1.9417347013950348e-01 3.5400134325027466e-01</leafValues></_>
    <_>
      <internalNodes>
        0 -1 34542 481956020 -136377135 -1370033718 -739704440
        -1165313362 -991237031 -1297429532 917636172</internalNodes>
      <leafValues>
        -3.4359809756278992e-01 2.0083232223987579e-01</leafValues></_>
    <_>
      <internalNodes>
        0 -1 19525 -2113167162 -1878281371 1771631377 -1296704768
        1931464850 1800429584 -206354605 34884660</internalNodes>
      <leafValues>
        -3.9822447299957275e-01 1.7325688898563385e-01</leafValues></_>
    <_>
      <internalNodes>
        0 -1 35030 -667170155 1363298135 -89367088 1001077341 -214827526
        -76284085 -48775843 -681713645</internalNodes>
      <leafValues>
        -1.9349125027656555e-01 3.6025336384773254e-01</leafValues></_>
    <_>
      <internalNodes>
        0 -1 27797 -1196008257 1658987744 -900257535 47318202
        -1281762582 -886926771 525229430 1151355276</internalNodes>
      <leafValues>
        -4.0764367580413818e-01 1.6970680654048920e-01</leafValues></_></weakClassifiers></stage16>
</opencv_storage>
