<?xml version="1.0"?>
<opencv_storage>
<stage2>
  <maxWeakCount>15</maxWeakCount>
  <stageThreshold>-1.3281149864196777e+00</stageThreshold>
  <weakClassifiers>
    <_>
      <internalNodes>
        0 -1 31274 -1644176132 136882232 -84018948 16304376 -1463812882
        144768202 -1191251716 150916314</internalNodes>
      <leafValues>
        -4.2726230621337891e-01 6.8828862905502319e-01</leafValues></_>
    <_>
      <internalNodes>
        0 -1 42848 -272630033 127896735 -1463832936 -1929387269
        800846781 -1897529667 -2134909704 218094847</internalNodes>
      <leafValues>
        -3.8967692852020264e-01 5.1445651054382324e-01</leafValues></_>
    <_>
      <internalNodes>
        0 -1 6607 -524306 -147139747 -703007506 -629352490 -623181873
        -611350097 -1957516033 -255857781</internalNodes>
      <leafValues>
        -4.4774547219276428e-01 4.1913443803787231e-01</leafValues></_>
    <_>
      <internalNodes>
        0 -1 41885 -1073807361 -1879067819 -80743589 503166845
        -1109721605 -1951531395 -50397987 -1929388065</internalNodes>
      <leafValues>
        -2.9970753192901611e-01 5.5038964748382568e-01</leafValues></_>
    <_>
      <internalNodes>
        0 -1 25 -359993682 -32864226 1716769239 -2109285 -1026339398
        -300019242 1145525575 1462982451</internalNodes>
      <leafValues>
        -4.2029666900634766e-01 4.0361487865447998e-01</leafValues></_>
    <_>
      <internalNodes>
        0 -1 43977 -67109149 -1020012599 -263593470 1941828479
        -2019569197 160422853 -252971561 -743441441</internalNodes>
      <leafValues>
        -2.8638473153114319e-01 5.5480325222015381e-01</leafValues></_>
    <_>
      <internalNodes>
        0 -1 49 -527769600 -219153440 1073989077 1607447664 -1020345792
        -1306574236 232934045 1732461121</internalNodes>
      <leafValues>
        -5.4951614141464233e-01 2.6839601993560791e-01</leafValues></_>
    <_>
      <internalNodes>
        0 -1 30261 177035517 2078034397 -1647120033 530254303
        -1414987777 -1141128823 -1701250561 -1342950724</internalNodes>
      <leafValues>
        -3.7157654762268066e-01 3.9082330465316772e-01</leafValues></_>
    <_>
      <internalNodes>
        0 -1 42780 -29360529 1088401992 -1873613530 411000187 -346294201
        80623992 -467014912 -256902177</internalNodes>
      <leafValues>
        -4.1049244999885559e-01 3.3746835589408875e-01</leafValues></_>
    <_>
      <internalNodes>
        0 -1 12752 -603980690 -1073284364 -251931946 149193250
        -1282676022 -1456377135 -1193582095 686671103</internalNodes>
      <leafValues>
        -5.3787076473236084e-01 2.5637549161911011e-01</leafValues></_>
    <_>
      <internalNodes>
        0 -1 41336 -1148461701 -1960653926 -268763145 591722832
        -1678318596 -1908867203 1035621629 -1364531472</internalNodes>
      <leafValues>
        -3.5388064384460449e-01 3.9344918727874756e-01</leafValues></_>
    <_>
      <internalNodes>
        0 -1 35978 104619445 -34801187 -1163960359 2036363511 1784523175
        -538531837 911800015 -1087372132</internalNodes>
      <leafValues>
        -4.2331281304359436e-01 3.4674307703971863e-01</leafValues></_>
    <_>
      <internalNodes>
        0 -1 1793 -16827861 -507549071 1294118499 481525555 286402319
        1452737591 -1527502989 -370151681</internalNodes>
      <leafValues>
        -2.9818376898765564e-01 4.6353262662887573e-01</leafValues></_>
    <_>
      <internalNodes>
        0 -1 41409 1893727691 150913221 1902078080 143544374 -1550982948
        -2067927735 1906428352 -2130716996</internalNodes>
      <leafValues>
        -4.3271279335021973e-01 3.0621221661567688e-01</leafValues></_>
    <_>
      <internalNodes>
        0 -1 35054 203423859 -1412738623 -2138680079 437465112 405212815
        -374640103 -1530979335 -1413873260</internalNodes>
      <leafValues>
        -3.8369441032409668e-01 3.4912759065628052e-01</leafValues></_></weakClassifiers></stage2>
</opencv_storage>
