<?xml version="1.0"?>
<opencv_storage>
<stage14>
  <maxWeakCount>33</maxWeakCount>
  <stageThreshold>-1.0482007265090942e+00</stageThreshold>
  <weakClassifiers>
    <_>
      <internalNodes>
        0 -1 40765 -45306 -682930602 -353705470 -2113499510 -411041979
        1447556692 -269247936 -1065025547</internalNodes>
      <leafValues>
        4.0325865149497986e-02 6.5443336963653564e-01</leafValues></_>
    <_>
      <internalNodes>
        0 -1 43968 -13918 262658210 -1424162576 -170175511 577750015
        163701776 88720516 1174394111</internalNodes>
      <leafValues>
        -2.2160948812961578e-01 3.8705489039421082e-01</leafValues></_>
    <_>
      <internalNodes>
        0 -1 32894 -704775361 -211841283 2105393006 -109191169
        -1128278201 -255872529 -320881420 -503338244</internalNodes>
      <leafValues>
        -2.3579184710979462e-01 3.8016626238822937e-01</leafValues></_>
    <_>
      <internalNodes>
        0 -1 39848 -1951137795 -1174621678 370331992 -1120106248
        -1691353859 -1673340788 -1655599908 -1110671106</internalNodes>
      <leafValues>
        -3.1352883577346802e-01 2.7544939517974854e-01</leafValues></_>
    <_>
      <internalNodes>
        0 -1 1061 -1048576341 2066001002 1638546338 2093002403
        1761489918 83891717 1258368779 1997762099</internalNodes>
      <leafValues>
        -2.5282046198844910e-01 3.3825227618217468e-01</leafValues></_>
    <_>
      <internalNodes>
        0 -1 41873 -2427955 -1886211425 872763457 123431893 -1428646723
        -1904234277 -1466796547 218103039</internalNodes>
      <leafValues>
        -3.6760210990905762e-01 2.0379671454429626e-01</leafValues></_>
    <_>
      <internalNodes>
        0 -1 35151 -658044928 326248751 1353446132 319371732 -1793999675
        -653227903 1583197028 303971019</internalNodes>
      <leafValues>
        -3.9639508724212646e-01 1.9099578261375427e-01</leafValues></_>
    <_>
      <internalNodes>
        0 -1 46 -536764242 -601915197 -450064897 -35659555 1747194069
        -119877 1802194687 1194811415</internalNodes>
      <leafValues>
        -3.1725671887397766e-01 2.3765285313129425e-01</leafValues></_>
    <_>
      <internalNodes>
        0 -1 21578 646017023 -568423459 1788012686 177347166 -1413748551
        -823734322 1515428204 -411071506</internalNodes>
      <leafValues>
        -2.8217402100563049e-01 2.6898762583732605e-01</leafValues></_>
    <_>
      <internalNodes>
        0 -1 30726 314051772 -615836303 -715394056 506206261 -1130972977
        -343180225 142800595 782768320</internalNodes>
      <leafValues>
        -4.0909317135810852e-01 1.7434783279895782e-01</leafValues></_>
    <_>
      <internalNodes>
        0 -1 43747 -547882277 -1146413006 50250752 2069845212
        -1909720854 790818018 487715273 -612639496</internalNodes>
      <leafValues>
        -2.0071616768836975e-01 3.6439374089241028e-01</leafValues></_>
    <_>
      <internalNodes>
        0 -1 1870 -744689987 982777954 -45003556 1035538550 539538415
        37898272 964743679 977424395</internalNodes>
      <leafValues>
        -2.7643531560897827e-01 2.7510809898376465e-01</leafValues></_>
    <_>
      <internalNodes>
        0 -1 20847 1216488517 -1757695203 1503121637 -1144639731
        -2109605731 -372303473 -649343529 35986433</internalNodes>
      <leafValues>
        -3.6204749345779419e-01 1.9661465287208557e-01</leafValues></_>
    <_>
      <internalNodes>
        0 -1 42874 -213921377 -570520347 -548448421 2009810946
        1164954778 -1416900107 310105253 -670281524</internalNodes>
      <leafValues>
        -2.2828163206577301e-01 3.1114640831947327e-01</leafValues></_>
    <_>
      <internalNodes>
        0 -1 420 -1069068318 -1361774209 1807964694 352348507 167137747
        -361871290 1949503488 1098075073</internalNodes>
      <leafValues>
        -3.6136046051979065e-01 2.0722708106040955e-01</leafValues></_>
    <_>
      <internalNodes>
        0 -1 38114 -118568483 -218893387 -1867653377 331750966
        -558440680 -8782003 2047801037 -482093413</internalNodes>
      <leafValues>
        -2.1041050553321838e-01 3.6053618788719177e-01</leafValues></_>
    <_>
      <internalNodes>
        0 -1 36429 970368799 -444168046 -1609151480 -1547125495
        1769403212 91052095 505589980 366189587</internalNodes>
      <leafValues>
        -3.0203899741172791e-01 2.5000450015068054e-01</leafValues></_>
    <_>
      <internalNodes>
        0 -1 32277 683166845 1508722266 -962134659 425634268 -1679779082
        -325168245 1049296893 -1146598664</internalNodes>
      <leafValues>
        -2.8600785136222839e-01 2.4519179761409760e-01</leafValues></_>
    <_>
      <internalNodes>
        0 -1 43983 -809764182 -2115000800 36167858 -238290572 -27012146
        11257550 -1282019074 -680006945</internalNodes>
      <leafValues>
        -2.3048579692840576e-01 3.0782204866409302e-01</leafValues></_>
    <_>
      <internalNodes>
        0 -1 1761 -621296822 1500606326 707412686 1884234279 1551787852
        708781916 613145178 -1332497</internalNodes>
      <leafValues>
        -1.9770988821983337e-01 3.4786060452461243e-01</leafValues></_>
    <_>
      <internalNodes>
        0 -1 23499 -1626337027 -544732240 117189625 1506487671
        -1464291895 -1951707185 -1173183329 -1421992744</internalNodes>
      <leafValues>
        -2.4825681746006012e-01 2.9050433635711670e-01</leafValues></_>
    <_>
      <internalNodes>
        0 -1 42632 -654320553 -1952624077 -776222357 2025713983
        -1141321834 -1923678420 -390926513 -1434461217</internalNodes>
      <leafValues>
        -1.9053825736045837e-01 3.6623123288154602e-01</leafValues></_>
    <_>
      <internalNodes>
        0 -1 2772 -1044722110 -875954652 1933886664 -988894431 355680906
        256382532 1408685446 -786966637</internalNodes>
      <leafValues>
        -2.5316026806831360e-01 2.7762639522552490e-01</leafValues></_>
    <_>
      <internalNodes>
        0 -1 12363 1088275106 9610020 1414717536 606560278 -395761152
        -1465661389 -1047948463 1102431</internalNodes>
      <leafValues>
        -5.7738733291625977e-01 1.2101072072982788e-01</leafValues></_>
    <_>
      <internalNodes>
        0 -1 26309 1088416031 1901883344 1929347055 1430765022
        -1560398001 -151700609 -67114566 -1610639394</internalNodes>
      <leafValues>
        -1.7855370044708252e-01 4.1829580068588257e-01</leafValues></_>
    <_>
      <internalNodes>
        0 -1 32924 236633143 -827962477 1242084658 270045333 -1461978397
        -1558746300 1075443972 81804176</internalNodes>
      <leafValues>
        -4.2198187112808228e-01 1.8278390169143677e-01</leafValues></_>
    <_>
      <internalNodes>
        0 -1 43623 -1489903830 656883848 1350826561 1173509476
        -998038898 139298824 3654087 -579877739</internalNodes>
      <leafValues>
        -2.7535879611968994e-01 2.6798689365386963e-01</leafValues></_>
    <_>
      <internalNodes>
        0 -1 5860 -252599170 628613491 -16778245 1664087797 -1275332472
        1593163132 1107040956 -9108293</internalNodes>
      <leafValues>
        -2.1638168394565582e-01 3.2661148905754089e-01</leafValues></_>
    <_>
      <internalNodes>
        0 -1 35801 -976038694 48030176 -1090513188 278779017 -1191134785
        798884237 1803997224 12515736</internalNodes>
      <leafValues>
        -4.4754928350448608e-01 1.6712708771228790e-01</leafValues></_>
    <_>
      <internalNodes>
        0 -1 35492 129263867 -197442731 105961695 1952616597 305059535
        -20440171 -2104989602 5778876</internalNodes>
      <leafValues>
        -3.4174841642379761e-01 2.1712520718574524e-01</leafValues></_>
    <_>
      <internalNodes>
        0 -1 818 1646259620 -230702784 1079137652 1674488638 -1257545029
        820455957 811735491 1078214710</internalNodes>
      <leafValues>
        -4.1906198859214783e-01 1.7938520014286041e-01</leafValues></_>
    <_>
      <internalNodes>
        0 -1 25601 807013085 -895982868 -1809899526 14455764 -1417017322
        935014579 -1731132559 70160876</internalNodes>
      <leafValues>
        -4.5632362365722656e-01 1.5938544273376465e-01</leafValues></_>
    <_>
      <internalNodes>
        0 -1 34235 1929400412 -858760476 931186673 823892727 -1706542230
        -1355028271 176196029 -1928656500</internalNodes>
      <leafValues>
        -2.7692428231239319e-01 2.6975333690643311e-01</leafValues></_></weakClassifiers></stage14>
</opencv_storage>
