<?xml version="1.0"?>
<opencv_storage>
<stage12>
  <maxWeakCount>29</maxWeakCount>
  <stageThreshold>-9.8863875865936279e-01</stageThreshold>
  <weakClassifiers>
    <_>
      <internalNodes>
        0 -1 20717 -58851588 148946172 -1325669634 16308445 -1107527937
        215539068 -570579729 144492764</internalNodes>
      <leafValues>
        -1.0386473685503006e-01 6.3222849369049072e-01</leafValues></_>
    <_>
      <internalNodes>
        0 -1 25921 245 297599034 379567413 359896369 -1317287169
        -72741731 -290779717 -1683353577</internalNodes>
      <leafValues>
        -1.9579333066940308e-01 4.4792577624320984e-01</leafValues></_>
    <_>
      <internalNodes>
        0 -1 1797 -270545921 -41978881 -169840901 825393120 -79266517
        2100969243 -852788293 -76322957</internalNodes>
      <leafValues>
        -2.3691444098949432e-01 3.9697575569152832e-01</leafValues></_>
    <_>
      <internalNodes>
        0 -1 43580 -541066615 332645915 956535252 -42090287 -31850565
        169460352 498407676 500161787</internalNodes>
      <leafValues>
        -3.2567232847213745e-01 2.9865625500679016e-01</leafValues></_>
    <_>
      <internalNodes>
        0 -1 26568 -136839706 -216250 1534172990 -100779690 -1674186651
        -173043906 -506286964 -2113949154</internalNodes>
      <leafValues>
        -3.4635943174362183e-01 2.3850809037685394e-01</leafValues></_>
    <_>
      <internalNodes>
        0 -1 961 -2113589 -995802333 818750530 -245630117 -723281238
        1142314306 -1321741150 -482083881</internalNodes>
      <leafValues>
        -1.9426921010017395e-01 4.2550465464591980e-01</leafValues></_>
    <_>
      <internalNodes>
        0 -1 38021 321585407 456786041 22632959 1060183501 679615197
        -1075248942 -1777358353 188420605</internalNodes>
      <leafValues>
        -2.8919386863708496e-01 2.9038432240486145e-01</leafValues></_>
    <_>
      <internalNodes>
        0 -1 28508 446171217 -626572680 338328831 34771396 -1915387393
        -13408038 -1492066182 -1708387199</internalNodes>
      <leafValues>
        -3.1057548522949219e-01 2.5805142521858215e-01</leafValues></_>
    <_>
      <internalNodes>
        0 -1 43984 -568853774 -2086431742 818495760 1372559461 239114444
        114877354 282443919 -778305794</internalNodes>
      <leafValues>
        -2.3742218315601349e-01 3.4034124016761780e-01</leafValues></_>
    <_>
      <internalNodes>
        0 -1 39976 2021638278 -1315350715 -803833642 832573169 -19333142
        -1412458495 -635118835 330277143</internalNodes>
      <leafValues>
        -3.0622941255569458e-01 2.7502807974815369e-01</leafValues></_>
    <_>
      <internalNodes>
        0 -1 13196 1098845439 1383540947 1252682654 145380855 -926914228
        305813119 1471741948 -1626669089</internalNodes>
      <leafValues>
        -2.7845415472984314e-01 2.9546114802360535e-01</leafValues></_>
    <_>
      <internalNodes>
        0 -1 10539 -1172296455 -79990408 -480008033 -716881450
        -1498818311 -1403497428 -947085347 -1624555311</internalNodes>
      <leafValues>
        -2.1567587554454803e-01 3.4391984343528748e-01</leafValues></_>
    <_>
      <internalNodes>
        0 -1 43853 -152575829 -812675177 450875424 -771764498
        -1371280690 40301895 -247884373 -676351493</internalNodes>
      <leafValues>
        -1.7059852182865143e-01 4.3335977196693420e-01</leafValues></_>
    <_>
      <internalNodes>
        0 -1 8319 585267412 347472095 -1785455782 425390934 -1834376963
        454365648 1611298777 2098808784</internalNodes>
      <leafValues>
        -3.7448996305465698e-01 2.1171744167804718e-01</leafValues></_>
    <_>
      <internalNodes>
        0 -1 271 -763380594 71601032 -28556508 1112326889 -135852510
        -158589326 147360121 45146716</internalNodes>
      <leafValues>
        -5.5704623460769653e-01 1.3651446998119354e-01</leafValues></_>
    <_>
      <internalNodes>
        0 -1 3447 -210906066 -706877306 -1435189178 -1308347802
        1927464014 637565197 1967895787 -147088421</internalNodes>
      <leafValues>
        -2.3711192607879639e-01 3.2148337364196777e-01</leafValues></_>
    <_>
      <internalNodes>
        0 -1 41813 -17107017 -1215271494 -16029440 -1644960100
        -1082805505 -1505005045 -1463063303 15658187</internalNodes>
      <leafValues>
        -3.1135147809982300e-01 2.5561609864234924e-01</leafValues></_>
    <_>
      <internalNodes>
        0 -1 8269 1635920766 1392591231 -2078345864 261491223
        -1953834844 1713456831 637761112 987780347</internalNodes>
      <leafValues>
        -3.8168141245841980e-01 2.0516389608383179e-01</leafValues></_>
    <_>
      <internalNodes>
        0 -1 43930 -101298514 -57975481 1228369978 -1878905198
        -1604678644 642442256 -462638914 -1061433637</internalNodes>
      <leafValues>
        -2.4749623239040375e-01 3.1031683087348938e-01</leafValues></_>
    <_>
      <internalNodes>
        0 -1 32052 729439453 -288539495 419481883 2019826213 128119247
        -290248483 -1298728009 76049768</internalNodes>
      <leafValues>
        -3.8957431912422180e-01 2.0266520977020264e-01</leafValues></_>
    <_>
      <internalNodes>
        0 -1 43749 -608502374 -137568823 23503056 -136973839 -1485849074
        -1895470781 1348329723 -146548483</internalNodes>
      <leafValues>
        -1.8122416734695435e-01 4.3719145655632019e-01</leafValues></_>
    <_>
      <internalNodes>
        0 -1 36572 -1666703975 -1726476120 927584369 1529696343
        -1178830181 -1813352360 -1822754081 -1348973315</internalNodes>
      <leafValues>
        -2.7015250921249390e-01 3.0027860403060913e-01</leafValues></_>
    <_>
      <internalNodes>
        0 -1 8920 -425544416 -48007764 -1316568163 -16371455 1750825982
        -287004020 1982063768 1142113415</internalNodes>
      <leafValues>
        -3.2246577739715576e-01 2.4451601505279541e-01</leafValues></_>
    <_>
      <internalNodes>
        0 -1 20804 -705130277 -743295300 1916008185 275221880 780730060
        -1155846598 482799101 -1104278152</internalNodes>
      <leafValues>
        -2.1756194531917572e-01 3.7023562192916870e-01</leafValues></_>
    <_>
      <internalNodes>
        0 -1 37081 -1490056469 -246481166 -1885112590 1173287840
        1098374399 403101089 -38367057 -707292689</internalNodes>
      <leafValues>
        -2.1733017265796661e-01 3.6650225520133972e-01</leafValues></_>
    <_>
      <internalNodes>
        0 -1 1856 -751307857 -243833679 713344747 -1688783961 1174479450
        1679262998 -405387589 -2100341</internalNodes>
      <leafValues>
        -1.6375446319580078e-01 4.8314952850341797e-01</leafValues></_>
    <_>
      <internalNodes>
        0 -1 10422 -1574901514 -76209496 -1565260045 1576786655
        -279394631 -1075034295 -841169476 -620691440</internalNodes>
      <leafValues>
        -2.3590694367885590e-01 3.3615693449974060e-01</leafValues></_>
    <_>
      <internalNodes>
        0 -1 33809 1013275859 981663761 -1341097770 144535761 1022589632
        -281402786 1109571667 1345638612</internalNodes>
      <leafValues>
        -3.7592247128486633e-01 2.1301063895225525e-01</leafValues></_>
    <_>
      <internalNodes>
        0 -1 33453 1209452565 -661120872 478080729 1476401103
        -1710468278 -1363768135 35306218 -1626318695</internalNodes>
      <leafValues>
        -2.9574313759803772e-01 2.6574736833572388e-01</leafValues></_></weakClassifiers></stage12>
</opencv_storage>
