<?xml version="1.0"?>
<opencv_storage>
<stage20>
  <maxWeakCount>40</maxWeakCount>
  <stageThreshold>-1.0713515281677246e+00</stageThreshold>
  <weakClassifiers>
    <_>
      <internalNodes>
        0 -1 6854 -625554698 737381019 -402468 40050943 -579 502541500
        1641318908 1209008631</internalNodes>
      <leafValues>
        1.3486725091934204e-01 6.5051597356796265e-01</leafValues></_>
    <_>
      <internalNodes>
        0 -1 33350 1354745021 856888879 -658393761 1931205019 -256509041
        -5976148 -654840581 1930395403</internalNodes>
      <leafValues>
        -1.4717584848403931e-01 4.1518270969390869e-01</leafValues></_>
    <_>
      <internalNodes>
        0 -1 42433 -39847435 2145255423 -1112805634 1600519927
        2146062491 -10125900 -561855271 -540283650</internalNodes>
      <leafValues>
        -1.6651855409145355e-01 4.1202017664909363e-01</leafValues></_>
    <_>
      <internalNodes>
        0 -1 24051 -9442930 -183092442 -653454994 1974418922 -343236357
        -522467216 -14965812 -2064139333</internalNodes>
      <leafValues>
        -2.8568789362907410e-01 2.4272719025611877e-01</leafValues></_>
    <_>
      <internalNodes>
        0 -1 413 -424722514 -325158386 26156631 1609421015 -425917972
        -1147272497 1732314594 1881626163</internalNodes>
      <leafValues>
        -3.3244925737380981e-01 1.8244428932666779e-01</leafValues></_>
    <_>
      <internalNodes>
        0 -1 43634 -539036685 -1912661573 974348767 2012329759
        2080109751 -1895940232 485482703 -839656465</internalNodes>
      <leafValues>
        -2.0562542974948883e-01 3.1907564401626587e-01</leafValues></_>
    <_>
      <internalNodes>
        0 -1 41180 -543210813 -134748205 1794066954 1656673623
        -598087463 2145691244 743173192 -140067684</internalNodes>
      <leafValues>
        -2.1692094206809998e-01 2.7755579352378845e-01</leafValues></_>
    <_>
      <internalNodes>
        0 -1 163 -894934584 -387202129 -1328231777 -37513959 -1058585163
        -1975606089 1343191896 -780143549</internalNodes>
      <leafValues>
        -2.6652362942695618e-01 2.2597387433052063e-01</leafValues></_>
    <_>
      <internalNodes>
        0 -1 33183 -1320556323 304105612 294551614 968413781 565378295
        1054379389 -1121955076 -1342238488</internalNodes>
      <leafValues>
        -2.6388740539550781e-01 2.2887708246707916e-01</leafValues></_>
    <_>
      <internalNodes>
        0 -1 3523 -788817265 356457910 1311124380 2033722852 1702561226
        2103190273 1870330859 -26484241</internalNodes>
      <leafValues>
        -1.6054691374301910e-01 3.5224288702011108e-01</leafValues></_>
    <_>
      <internalNodes>
        0 -1 41446 1507250177 697073947 -720315878 386792721 -139920695
        -1642380646 -364741889 2879031</internalNodes>
      <leafValues>
        -2.6693984866142273e-01 2.1333055198192596e-01</leafValues></_>
    <_>
      <internalNodes>
        0 -1 38218 148884151 -1858349201 -990054707 -705603971
        -1278314854 -322411196 -1737646109 17483419</internalNodes>
      <leafValues>
        -2.0084398984909058e-01 2.8384327888488770e-01</leafValues></_>
    <_>
      <internalNodes>
        0 -1 27019 456802328 482035928 34067163 312021145 298004218
        -1980523085 -1129596933 -1954020616</internalNodes>
      <leafValues>
        -2.7787521481513977e-01 2.1236301958560944e-01</leafValues></_>
    <_>
      <internalNodes>
        0 -1 10255 -668040994 641902299 756343025 2081483271 1898696712
        1869883729 -96408982 -170266151</internalNodes>
      <leafValues>
        -2.4885895848274231e-01 2.3590171337127686e-01</leafValues></_>
    <_>
      <internalNodes>
        0 -1 43863 -609754398 -70276886 1647014576 1440210670 421300142
        -921803198 851030227 1167064347</internalNodes>
      <leafValues>
        -2.2420996427536011e-01 2.6519241929054260e-01</leafValues></_>
    <_>
      <internalNodes>
        0 -1 40775 -650164513 -67173117 -810321829 1784634495 -189214310
        -1095987912 -567079971 1896480361</internalNodes>
      <leafValues>
        -2.0401202142238617e-01 2.8653821349143982e-01</leafValues></_>
    <_>
      <internalNodes>
        0 -1 35073 -222650607 -558125893 -139034883 -85197109 -660550504
        -570782283 2114008280 -1865738229</internalNodes>
      <leafValues>
        -2.1216464042663574e-01 2.6988303661346436e-01</leafValues></_>
    <_>
      <internalNodes>
        0 -1 31094 32852117 -1965308906 -1728220366 35545240 781765950
        1610827855 -1978797200 80247248</internalNodes>
      <leafValues>
        -4.6214324235916138e-01 1.2443307042121887e-01</leafValues></_>
    <_>
      <internalNodes>
        0 -1 38022 -55838213 314386314 972323615 488245045 934120907
        670727926 -76648214 -1880370705</internalNodes>
      <leafValues>
        -1.8429179489612579e-01 3.3268833160400391e-01</leafValues></_>
    <_>
      <internalNodes>
        0 -1 43941 -746595957 -607188569 1708548682 -1873944602 76343887
        1080839765 -1672301362 -2090075157</internalNodes>
      <leafValues>
        -1.8561252951622009e-01 2.9972100257873535e-01</leafValues></_>
    <_>
      <internalNodes>
        0 -1 439 -30642460 1561886871 34161780 -674277538 1346528505
        -762623857 1379828188 1378964797</internalNodes>
      <leafValues>
        -3.3545830845832825e-01 1.7144989967346191e-01</leafValues></_>
    <_>
      <internalNodes>
        0 -1 1856 -224668316 360394476 -2113533584 1369285205 1930577992
        1817525526 -1516501029 -962602821</internalNodes>
      <leafValues>
        -2.1064968407154083e-01 2.7388298511505127e-01</leafValues></_>
    <_>
      <internalNodes>
        0 -1 43393 -5243973 -34931800 1398904309 -33958283 -568007749
        -1892938310 1704918523 -547357189</internalNodes>
      <leafValues>
        -9.9565677344799042e-02 5.8767169713973999e-01</leafValues></_>
    <_>
      <internalNodes>
        0 -1 6387 -1374732577 -33684595 2092854024 434133435 -328469284
        1324537342 933494346 -544237158</internalNodes>
      <leafValues>
        -1.6420719027519226e-01 3.4873479604721069e-01</leafValues></_>
    <_>
      <internalNodes>
        0 -1 43169 -1836527329 -2139590343 -268633387 -80327171 49473021
        -1932876643 542149771 -1141908023</internalNodes>
      <leafValues>
        -1.9581374526023865e-01 3.1200310587882996e-01</leafValues></_>
    <_>
      <internalNodes>
        0 -1 19833 1107609815 -538540468 845113179 491994336 -1576490766
        -293925249 -1072171789 -8686167</internalNodes>
      <leafValues>
        -1.8270058929920197e-01 3.3765166997909546e-01</leafValues></_>
    <_>
      <internalNodes>
        0 -1 42632 2077400066 -1705503213 2030226776 -1316041392
        -1190093885 -1794321240 1506980028 541583223</internalNodes>
      <leafValues>
        -2.8859505057334900e-01 2.0530293881893158e-01</leafValues></_>
    <_>
      <internalNodes>
        0 -1 12090 1344454691 1607232710 -1872890386 -1125649547
        -1858123786 -576748604 -635563522 1075536593</internalNodes>
      <leafValues>
        -2.8106904029846191e-01 2.0955768227577209e-01</leafValues></_>
    <_>
      <internalNodes>
        0 -1 10772 -836576895 -868432797 534005527 -1357883164
        -1372604518 -1193651028 182955971 1277116735</internalNodes>
      <leafValues>
        -2.3430895805358887e-01 2.6010644435882568e-01</leafValues></_>
    <_>
      <internalNodes>
        0 -1 29844 901657823 -22080056 1746580330 -95631163 -1508331302
        -385172983 -1597314938 343057284</internalNodes>
      <leafValues>
        -2.8398850560188293e-01 2.0422571897506714e-01</leafValues></_>
    <_>
      <internalNodes>
        0 -1 8042 -353181865 -160194695 -268437638 -1418755266 150520409
        -962539777 1798962569 -20070337</internalNodes>
      <leafValues>
        -1.6835968196392059e-01 3.4346815943717957e-01</leafValues></_>
    <_>
      <internalNodes>
        0 -1 23248 2129682159 2137328241 -1645246409 859044048 217895295
        -1881610115 925957050 -1073783301</internalNodes>
      <leafValues>
        -1.5790553390979767e-01 3.8088312745094299e-01</leafValues></_>
    <_>
      <internalNodes>
        0 -1 43981 -73270190 702266354 -644001712 -781873600 13100765
        775958170 1509053679 -573491477</internalNodes>
      <leafValues>
        -2.0221704244613647e-01 2.9277259111404419e-01</leafValues></_>
    <_>
      <internalNodes>
        0 -1 35782 322488976 -1199043032 1385747957 420171989 205630607
        -353750883 -1472156774 -1087751688</internalNodes>
      <leafValues>
        -2.6200500130653381e-01 2.3407730460166931e-01</leafValues></_>
    <_>
      <internalNodes>
        0 -1 15486 -1243349449 -169499099 1023278404 -438440794
        -1175859642 -1721594055 1625125950 1205563775</internalNodes>
      <leafValues>
        -1.7090584337711334e-01 3.6123234033584595e-01</leafValues></_>
    <_>
      <internalNodes>
        0 -1 4915 -1856868998 1473678495 -1912482300 719862018 176421134
        38830253 1092346907 1879142656</internalNodes>
      <leafValues>
        -4.5744144916534424e-01 1.4936064183712006e-01</leafValues></_>
    <_>
      <internalNodes>
        0 -1 146 -41421071 -1048466278 980237958 -1088629759 27368921
        1387656356 -990767655 -720936701</internalNodes>
      <leafValues>
        -2.0358745753765106e-01 3.0942156910896301e-01</leafValues></_>
    <_>
      <internalNodes>
        0 -1 35863 1396728232 -608128550 -1983790623 1403843780 61145090
        -251002720 114375491 150267064</internalNodes>
      <leafValues>
        -4.0530788898468018e-01 1.6208887100219727e-01</leafValues></_>
    <_>
      <internalNodes>
        0 -1 36082 -1735386015 -555197309 1991270366 1036833765
        562876505 -36281057 -1934571394 672295060</internalNodes>
      <leafValues>
        -3.4820899367332458e-01 1.7046986520290375e-01</leafValues></_>
    <_>
      <internalNodes>
        0 -1 24439 1667018364 2076370582 -785652756 1977344170
        -1065281267 -457729543 -846683017 69966267</internalNodes>
      <leafValues>
        -2.5741335749626160e-01 2.3712861537933350e-01</leafValues></_></weakClassifiers></stage20>
</opencv_storage>
