<?xml version="1.0"?>
<opencv_storage>
<stage25>
  <maxWeakCount>44</maxWeakCount>
  <stageThreshold>-1.1466442346572876e+00</stageThreshold>
  <weakClassifiers>
    <_>
      <internalNodes>
        0 -1 20246 -1359218908 -1159791658 1325072032 -1899955026
        -1763868706 -571081516 2146557508 -1017925818</internalNodes>
      <leafValues>
        1.4744932949542999e-01 6.4884591102600098e-01</leafValues></_>
    <_>
      <internalNodes>
        0 -1 32663 1585398205 -611096300 -989907780 -2144208643
        2013263551 -221118788 -1711493443 -242355378</internalNodes>
      <leafValues>
        -1.6677819192409515e-01 3.7104326486587524e-01</leafValues></_>
    <_>
      <internalNodes>
        0 -1 28100 -1788362755 -214428167 771508476 430463485
        -1418344196 -1667969667 -1073808385 -1364545809</internalNodes>
      <leafValues>
        -2.2661814093589783e-01 2.8633922338485718e-01</leafValues></_>
    <_>
      <internalNodes>
        0 -1 43977 1501552810 1138181069 1682809648 -740297861
        -1258563642 265091912 871343061 -743442725</internalNodes>
      <leafValues>
        -2.3600113391876221e-01 2.6439881324768066e-01</leafValues></_>
    <_>
      <internalNodes>
        0 -1 19486 -1708097487 -1617625071 1518330685 -751365703
        1646504666 -5538144 -1082327041 -5275157</internalNodes>
      <leafValues>
        -2.0708267390727997e-01 3.1327852606773376e-01</leafValues></_>
    <_>
      <internalNodes>
        0 -1 1859 -270275077 -12619782 -831633669 2032205666 2134325091
        -274524326 -16945989 -12096681</internalNodes>
      <leafValues>
        -2.0700676739215851e-01 2.8100648522377014e-01</leafValues></_>
    <_>
      <internalNodes>
        0 -1 42431 -143189385 -1120886436 -1127821908 -141974434
        -46823478 2023089524 -25654172 -200607649</internalNodes>
      <leafValues>
        -2.2646838426589966e-01 2.4761578440666199e-01</leafValues></_>
    <_>
      <internalNodes>
        0 -1 28541 1745862928 -240928876 1921173954 -1799231198
        -1966358282 -1462751069 -1149140040 13341483</internalNodes>
      <leafValues>
        -3.2769629359245300e-01 1.7539826035499573e-01</leafValues></_>
    <_>
      <internalNodes>
        0 -1 16 -292553733 1404500473 -218154243 -638862453 -1864676888
        -30253638 -654961175 1949777959</internalNodes>
      <leafValues>
        -2.0848786830902100e-01 2.5832507014274597e-01</leafValues></_>
    <_>
      <internalNodes>
        0 -1 42929 -604606505 -1783312587 1429841235 489815997
        -1083008612 -1546447364 -1183263489 -1938818821</internalNodes>
      <leafValues>
        -1.7176501452922821e-01 3.1207755208015442e-01</leafValues></_>
    <_>
      <internalNodes>
        0 -1 13836 -513325641 2110257109 -40240129 897515775 -732740358
        -1091320676 -595694657 -945994547</internalNodes>
      <leafValues>
        -1.7458057403564453e-01 3.1957030296325684e-01</leafValues></_>
    <_>
      <internalNodes>
        0 -1 31896 -1612987663 2041725427 1107955842 274098066
        -1195488936 -1355275701 2021749015 349754032</internalNodes>
      <leafValues>
        -2.8755536675453186e-01 1.8097430467605591e-01</leafValues></_>
    <_>
      <internalNodes>
        0 -1 42153 1072140403 1675665748 1094873745 1272992176
        1936640422 143891511 71601608 -658184980</internalNodes>
      <leafValues>
        -2.5724318623542786e-01 2.0158527791500092e-01</leafValues></_>
    <_>
      <internalNodes>
        0 -1 17919 -120012075 532575421 1782471563 322593299 -1669536976
        -1186319247 -1733767734 -67439425</internalNodes>
      <leafValues>
        -1.8018566071987152e-01 3.0575445294380188e-01</leafValues></_>
    <_>
      <internalNodes>
        0 -1 16379 -1270762004 242677019 -637349804 6106692 -1786199676
        208970025 157370147 1162363</internalNodes>
      <leafValues>
        -4.6806365251541138e-01 1.1958800256252289e-01</leafValues></_>
    <_>
      <internalNodes>
        0 -1 11697 -308287233 -637785558 -1552104450 1846940618
        -1110712996 1868379415 -1818821154 -1828736802</internalNodes>
      <leafValues>
        -1.8590193986892700e-01 2.9922509193420410e-01</leafValues></_>
    <_>
      <internalNodes>
        0 -1 35472 492280854 -136862188 2142940770 1674566323 801064118
        2086541177 462659838 1200722431</internalNodes>
      <leafValues>
        -2.0176069438457489e-01 2.6699683070182800e-01</leafValues></_>
    <_>
      <internalNodes>
        0 -1 36600 765466773 2045788953 84632030 471472593 -1595896068
        982272203 -1366098563 188223929</internalNodes>
      <leafValues>
        -3.8507577776908875e-01 1.3887046277523041e-01</leafValues></_>
    <_>
      <internalNodes>
        0 -1 3555 -104075410 2124569139 1379015565 1561352428 -175931958
        1960990258 485462750 -681326673</internalNodes>
      <leafValues>
        -1.8903332948684692e-01 2.8917911648750305e-01</leafValues></_>
    <_>
      <internalNodes>
        0 -1 43895 -134679547 2136934175 -1834078498 -1390431465
        487712169 -1916895899 462122142 -534512102</internalNodes>
      <leafValues>
        -1.8628695607185364e-01 2.8870710730552673e-01</leafValues></_>
    <_>
      <internalNodes>
        0 -1 40637 462126723 1429209022 250342575 -1231423114 -652478708
        1836778699 -96436408 1740829243</internalNodes>
      <leafValues>
        -2.2843381762504578e-01 2.3974275588989258e-01</leafValues></_>
    <_>
      <internalNodes>
        0 -1 43750 -544227929 -210023368 -2058232675 -638381667
        268144106 -2082068240 862095535 -1053441</internalNodes>
      <leafValues>
        -1.0405652970075607e-01 4.9367529153823853e-01</leafValues></_>
    <_>
      <internalNodes>
        0 -1 43125 -606087077 -1350413696 1356204226 1151370312
        -2128295164 37786416 385066256 1077407045</internalNodes>
      <leafValues>
        -4.0438050031661987e-01 1.3630370795726776e-01</leafValues></_>
    <_>
      <internalNodes>
        0 -1 25955 -2070406000 -576706888 -1857884555 487067797
        -2038237512 -1182684757 -1465870343 -1987949420</internalNodes>
      <leafValues>
        -2.7359670400619507e-01 1.9445562362670898e-01</leafValues></_>
    <_>
      <internalNodes>
        0 -1 4422 18576244 575135270 1427305723 658440795 1251625528
        -2133717329 -2111157336 -1075453575</internalNodes>
      <leafValues>
        -2.1787114441394806e-01 2.5639602541923523e-01</leafValues></_>
    <_>
      <internalNodes>
        0 -1 43988 -74058017 -1619586882 252779797 1635299199
        -1718178286 -1369991988 -2030963493 -19212261</internalNodes>
      <leafValues>
        -1.3767302036285400e-01 4.0107619762420654e-01</leafValues></_>
    <_>
      <internalNodes>
        0 -1 42848 -1965411456 163192082 -997277927 423732944 772010758
        -1235050332 741071673 142598269</internalNodes>
      <leafValues>
        -3.6591291427612305e-01 1.5018852055072784e-01</leafValues></_>
    <_>
      <internalNodes>
        0 -1 25839 280023636 500957251 16571669 1658129816 -1064521720
        1762315269 311123417 -1089983575</internalNodes>
      <leafValues>
        -2.6766291260719299e-01 2.0312194526195526e-01</leafValues></_>
    <_>
      <internalNodes>
        0 -1 20459 1884218794 314574084 1598160502 810389720 25233491
        -2111086438 -1604296073 272406738</internalNodes>
      <leafValues>
        -3.8756722211837769e-01 1.4740233123302460e-01</leafValues></_>
    <_>
      <internalNodes>
        0 -1 17819 -71163173 1480840055 -283677055 191963202 1921836192
        2020000069 -737482694 196650056</internalNodes>
      <leafValues>
        -2.6771020889282227e-01 2.0337064564228058e-01</leafValues></_>
    <_>
      <internalNodes>
        0 -1 41904 -99171503 -1968825461 -71336331 893468493 2083423966
        -2098569234 1748680434 -2139439594</internalNodes>
      <leafValues>
        -2.0182453095912933e-01 2.6414155960083008e-01</leafValues></_>
    <_>
      <internalNodes>
        0 -1 147 -813108597 -646987926 1793363050 -844654965 1183205506
        1835980404 -850569793 -989367087</internalNodes>
      <leafValues>
        -2.0304253697395325e-01 2.6981738209724426e-01</leafValues></_>
    <_>
      <internalNodes>
        0 -1 43618 -541371408 327357682 495820085 1474239976 1844295082
        759320160 1293161918 -543100996</internalNodes>
      <leafValues>
        -2.1086837351322174e-01 2.6393508911132813e-01</leafValues></_>
    <_>
      <internalNodes>
        0 -1 30358 -2005804805 -1758453583 -480580301 23064950
        -1279939273 -120021249 -403555269 -1681033459</internalNodes>
      <leafValues>
        -1.7242632806301117e-01 3.2262474298477173e-01</leafValues></_>
    <_>
      <internalNodes>
        0 -1 43954 -1330626430 228473526 302187800 561980304 -247390044
        41983317 1959320644 1073846183</internalNodes>
      <leafValues>
        -3.6256840825080872e-01 1.5505956113338470e-01</leafValues></_>
    <_>
      <internalNodes>
        0 -1 15553 -266084477 1831739030 1023339771 1868232686
        -1301328501 -95984404 1843297673 -1013987849</internalNodes>
      <leafValues>
        -1.7707797884941101e-01 3.2006436586380005e-01</leafValues></_>
    <_>
      <internalNodes>
        0 -1 36041 -1206758131 -636333414 207904735 446333363
        -1413227761 -1355922923 581236958 -1845059664</internalNodes>
      <leafValues>
        -2.6781415939331055e-01 2.1235604584217072e-01</leafValues></_>
    <_>
      <internalNodes>
        0 -1 1957 1653064214 62357894 -1207954030 -2071304290 923492417
        -1558406301 1929589414 1074795672</internalNodes>
      <leafValues>
        -4.1039240360260010e-01 1.4129571616649628e-01</leafValues></_>
    <_>
      <internalNodes>
        0 -1 15323 67143217 -1742602046 555174397 -554829392 313233897
        -1969626228 -491583309 1150108131</internalNodes>
      <leafValues>
        -2.9231962561607361e-01 1.9309906661510468e-01</leafValues></_>
    <_>
      <internalNodes>
        0 -1 36462 153311282 1317421234 823218198 -531692502 914668657
        201855219 374392793 69999635</internalNodes>
      <leafValues>
        -3.9298111200332642e-01 1.4449557662010193e-01</leafValues></_>
    <_>
      <internalNodes>
        0 -1 3553 -440671574 1096835497 759309870 1932483659 640185594
        1819434092 917078014 -177471553</internalNodes>
      <leafValues>
        -1.8221528828144073e-01 3.2370084524154663e-01</leafValues></_>
    <_>
      <internalNodes>
        0 -1 43869 -1219149904 -1150594542 423204056 899287860
        -1856567430 -2099143894 871560600 -547633985</internalNodes>
      <leafValues>
        -2.2554983198642731e-01 2.5937125086784363e-01</leafValues></_>
    <_>
      <internalNodes>
        0 -1 14587 1252020821 2147113618 221875 -1730788481 1132338049
        1011489292 -1433915816 -1976802334</internalNodes>
      <leafValues>
        -3.0595764517784119e-01 1.9286704063415527e-01</leafValues></_>
    <_>
      <internalNodes>
        0 -1 32084 184372593 -2083765068 -1835903962 1483762900
        -380962860 -2072436521 359283076 279477244</internalNodes>
      <leafValues>
        -4.1630133986473083e-01 1.3943633437156677e-01</leafValues></_></weakClassifiers></stage25>
</opencv_storage>
