<?xml version="1.0"?>
<opencv_storage>
<stage21>
  <maxWeakCount>40</maxWeakCount>
  <stageThreshold>-1.1220117807388306e+00</stageThreshold>
  <weakClassifiers>
    <_>
      <internalNodes>
        0 -1 16496 -318899208 15788276 -84193030 11565297 -1124208131
        207377780 -705888517 409525502</internalNodes>
      <leafValues>
        -2.4970272555947304e-02 6.2219470739364624e-01</leafValues></_>
    <_>
      <internalNodes>
        0 -1 27104 1613461854 807331701 -218137285 1899421502 -237060289
        917944013 -1817300996 -1278214212</internalNodes>
      <leafValues>
        -2.3199293017387390e-01 3.3316892385482788e-01</leafValues></_>
    <_>
      <internalNodes>
        0 -1 36976 1593822811 1939819073 779069996 270592820 -136328449
        -141149190 -1211629572 -1244660071</internalNodes>
      <leafValues>
        -2.6564821600914001e-01 2.8078639507293701e-01</leafValues></_>
    <_>
      <internalNodes>
        0 -1 41880 -671884545 -1644877577 1375597001 -572669955
        -1406272806 -1349272394 -1262430036 -1996834596</internalNodes>
      <leafValues>
        -1.9544403254985809e-01 3.6811998486518860e-01</leafValues></_>
    <_>
      <internalNodes>
        0 -1 1393 2129911790 -61087028 -1071573438 -624438454
        -1047088277 4426259 -250480893 -716443361</internalNodes>
      <leafValues>
        -2.6665407419204712e-01 2.4283114075660706e-01</leafValues></_>
    <_>
      <internalNodes>
        0 -1 24717 571884292 329489300 -234733063 133528525 -360985106
        -1082654131 -444875909 168755372</internalNodes>
      <leafValues>
        -3.8516104221343994e-01 1.5998661518096924e-01</leafValues></_>
    <_>
      <internalNodes>
        0 -1 43567 -605333897 -797049483 2038352426 1932389124
        -270546282 -2070418172 -102119312 -1054410846</internalNodes>
      <leafValues>
        -2.4107274413108826e-01 2.4746002256870270e-01</leafValues></_>
    <_>
      <internalNodes>
        0 -1 10123 1315668223 2066425211 -742392905 335372563 -596417188
        1747329313 2094792632 -41985027</internalNodes>
      <leafValues>
        -2.0438088476657867e-01 2.9690223932266235e-01</leafValues></_>
    <_>
      <internalNodes>
        0 -1 43920 -120599142 -1117166040 448597160 153423528 -163862604
        -2101180000 1578495115 1220787855</internalNodes>
      <leafValues>
        -2.1912311017513275e-01 2.7221754193305969e-01</leafValues></_>
    <_>
      <internalNodes>
        0 -1 43159 -1413483529 -620059990 -1119881773 -142613319
        -1413369942 -1373939888 368370899 -548414331</internalNodes>
      <leafValues>
        -1.5950363874435425e-01 3.6759948730468750e-01</leafValues></_>
    <_>
      <internalNodes>
        0 -1 8762 -619743525 -69783333 248672765 -1221383398 1218775980
        -269845555 1375104955 -13468897</internalNodes>
      <leafValues>
        -1.5106977522373199e-01 3.8415655493736267e-01</leafValues></_>
    <_>
      <internalNodes>
        0 -1 34219 -252231464 1896878916 -129436206 458786163 2035544248
        -1615857623 -205086086 426540647</internalNodes>
      <leafValues>
        -2.3977576196193695e-01 2.3680086433887482e-01</leafValues></_>
    <_>
      <internalNodes>
        0 -1 2959 -526440945 1894939594 711887688 677181864 -419560815
        -1379502751 1627043905 -174075649</internalNodes>
      <leafValues>
        -2.3506116867065430e-01 2.4518276751041412e-01</leafValues></_>
    <_>
      <internalNodes>
        0 -1 34934 226497944 1195919492 -1177035269 -543880412
        -1210666082 1841315977 999600373 504895740</internalNodes>
      <leafValues>
        -3.9318382740020752e-01 1.4323142170906067e-01</leafValues></_>
    <_>
      <internalNodes>
        0 -1 30382 -1021078601 -179638534 1258213957 -705233585
        761203711 -100912020 -1087567829 1522005147</internalNodes>
      <leafValues>
        -1.7823848128318787e-01 3.2559388875961304e-01</leafValues></_>
    <_>
      <internalNodes>
        0 -1 24785 -1667755883 1927618832 170004723 998399445
        -1366232856 -78305042 -1756172101 134875324</internalNodes>
      <leafValues>
        -2.8317809104919434e-01 2.0936457812786102e-01</leafValues></_>
    <_>
      <internalNodes>
        0 -1 40329 -951094841 -781715984 1455649610 1375464110
        1480181069 1149882532 1095761592 336838787</internalNodes>
      <leafValues>
        -2.8463929891586304e-01 2.1069325506687164e-01</leafValues></_>
    <_>
      <internalNodes>
        0 -1 41818 -698357545 -1960688898 -1721876846 1770571816
        -1565145351 -1957859168 440817369 -1928535888</internalNodes>
      <leafValues>
        -2.5657534599304199e-01 2.2738501429557800e-01</leafValues></_>
    <_>
      <internalNodes>
        0 -1 30130 534747945 -2013413463 2053098648 -1785745547
        917831162 -1963196720 1820226757 -821316417</internalNodes>
      <leafValues>
        -1.8563143908977509e-01 2.9903993010520935e-01</leafValues></_>
    <_>
      <internalNodes>
        0 -1 35850 -1868380147 -1283034691 -494216033 1535138966
        -143523891 -881035967 2086395644 -318705641</internalNodes>
      <leafValues>
        -2.1931955218315125e-01 2.5207450985908508e-01</leafValues></_>
    <_>
      <internalNodes>
        0 -1 2017 -1997840998 -205012093 -1583486748 763747858 140984475
        -1701996499 -1050582033 -531328686</internalNodes>
      <leafValues>
        -2.3561684787273407e-01 2.3429481685161591e-01</leafValues></_>
    <_>
      <internalNodes>
        0 -1 8730 1908926346 251987567 -1962761536 161677769 -728501732
        425465860 -1014655607 275486008</internalNodes>
      <leafValues>
        -3.3195739984512329e-01 1.6967257857322693e-01</leafValues></_>
    <_>
      <internalNodes>
        0 -1 43481 -79526 1064425937 -161266830 1368392012 -1084572412
        -1709793980 -1346446389 -767325301</internalNodes>
      <leafValues>
        -2.2557631134986877e-01 2.4803039431571960e-01</leafValues></_>
    <_>
      <internalNodes>
        0 -1 1873 -680986748 421862070 1495686340 -1304215420 604979956
        1275396244 -2043988743 -795623104</internalNodes>
      <leafValues>
        -2.4712987244129181e-01 2.3547250032424927e-01</leafValues></_>
    <_>
      <internalNodes>
        0 -1 14017 1979635271 -876579637 -1955048969 -997430303
        -509892184 -691617617 1418166918 -1527302955</internalNodes>
      <leafValues>
        -2.2168038785457611e-01 2.6139888167381287e-01</leafValues></_>
    <_>
      <internalNodes>
        0 -1 43989 -1881833926 40469480 674468656 280171416 -906670195
        190093512 -547862273 -1599380769</internalNodes>
      <leafValues>
        -2.6936250925064087e-01 2.1790608763694763e-01</leafValues></_>
    <_>
      <internalNodes>
        0 -1 33192 -1799358245 1231113462 -1338222117 335393663
        -2135244037 -1076048139 863451625 -1409803011</internalNodes>
      <leafValues>
        -1.8658196926116943e-01 3.0801886320114136e-01</leafValues></_>
    <_>
      <internalNodes>
        0 -1 34574 -2066280424 -135925298 -2112427788 296935666
        -1392042780 1908115595 -1037377955 -1296302563</internalNodes>
      <leafValues>
        -2.5641384720802307e-01 2.1856467425823212e-01</leafValues></_>
    <_>
      <internalNodes>
        0 -1 16976 -993730508 1117466948 -746335785 37986360 -1470680480
        467730489 443218013 1114759227</internalNodes>
      <leafValues>
        -3.3512365818023682e-01 1.7671845853328705e-01</leafValues></_>
    <_>
      <internalNodes>
        0 -1 42522 -650300661 -412095873 567693847 61512702 -745669812
        1125108224 -1300852518 1601967568</internalNodes>
      <leafValues>
        -2.5975906848907471e-01 2.2478759288787842e-01</leafValues></_>
    <_>
      <internalNodes>
        0 -1 13664 1212269092 453017728 -318631464 -1629519407 293693555
        -1207721664 -1164059871 201442309</internalNodes>
      <leafValues>
        -3.5665771365165710e-01 1.6724812984466553e-01</leafValues></_>
    <_>
      <internalNodes>
        0 -1 37350 1490767061 -315751935 520066527 823202549 1119168250
        -1883308330 -304091169 -821444537</internalNodes>
      <leafValues>
        -1.5990285575389862e-01 3.7180733680725098e-01</leafValues></_>
    <_>
      <internalNodes>
        0 -1 32948 -1146089227 1806538588 822866215 1115200668 -10602263
        1126860394 1687747941 1082168824</internalNodes>
      <leafValues>
        -3.7646391987800598e-01 1.5827551484107971e-01</leafValues></_>
    <_>
      <internalNodes>
        0 -1 34554 -149579111 -1611477797 -1707297002 311688557
        -1149791546 -1381403712 1673476604 -2100567124</internalNodes>
      <leafValues>
        -2.1114508807659149e-01 2.8584253787994385e-01</leafValues></_>
    <_>
      <internalNodes>
        0 -1 7391 -81078369 -105438498 -1356033 -177112457 -1962838037
        -543383606 114255531 -607435509</internalNodes>
      <leafValues>
        -1.0667084157466888e-01 5.2559226751327515e-01</leafValues></_>
    <_>
      <internalNodes>
        0 -1 5113 -17847314 1366146094 -18709608 1393730918 -659838842
        1207189008 -524626295 -898726129</internalNodes>
      <leafValues>
        -1.7939758300781250e-01 3.1726709008216858e-01</leafValues></_>
    <_>
      <internalNodes>
        0 -1 22972 1564999823 -1193639201 1459690884 847122623
        -1362964140 -1410995997 -665169620 -32872453</internalNodes>
      <leafValues>
        -2.4342766404151917e-01 2.4261301755905151e-01</leafValues></_>
    <_>
      <internalNodes>
        0 -1 43775 -312557201 -283390232 1446651522 285501913 -940124029
        -1978712768 -1821313073 -1287917637</internalNodes>
      <leafValues>
        -1.5328694880008698e-01 3.7295755743980408e-01</leafValues></_>
    <_>
      <internalNodes>
        0 -1 1682 -272645173 2113875313 597569197 693364713 1943219963
        1571913562 1467887403 -561255585</internalNodes>
      <leafValues>
        -1.4229245483875275e-01 3.9381554722785950e-01</leafValues></_>
    <_>
      <internalNodes>
        0 -1 40980 -735847292 -1159881611 1587738972 317039083
        -709331397 -1920326883 1267351689 459578446</internalNodes>
      <leafValues>
        -2.7187734842300415e-01 2.1475104987621307e-01</leafValues></_></weakClassifiers></stage21>
</opencv_storage>
