<?xml version="1.0"?>
<opencv_storage>
<stage5>
  <maxWeakCount>20</maxWeakCount>
  <stageThreshold>-1.2055318355560303e+00</stageThreshold>
  <weakClassifiers>
    <_>
      <internalNodes>
        0 -1 40256 -68159268 -738665218 1994386684 25143498 -1669742598
        215919061 139459832 210759738</internalNodes>
      <leafValues>
        -8.6163744330406189e-02 7.0969325304031372e-01</leafValues></_>
    <_>
      <internalNodes>
        0 -1 24686 -658519041 14975200 -335544451 295162336 -1733570562
        144207520 -369317377 150983837</internalNodes>
      <leafValues>
        -3.5599002242088318e-01 4.5179194211959839e-01</leafValues></_>
    <_>
      <internalNodes>
        0 -1 43604 -608960733 -1680124381 53702773 -42991947 -1671692357
        147762347 217909468 1239404799</internalNodes>
      <leafValues>
        -3.1430235505104065e-01 4.6833798289299011e-01</leafValues></_>
    <_>
      <internalNodes>
        0 -1 927 -221776914 -224210095 -777334316 861982814 540013278
        -1766358583 312139263 1717859306</internalNodes>
      <leafValues>
        -4.6521776914596558e-01 3.0612400174140930e-01</leafValues></_>
    <_>
      <internalNodes>
        0 -1 960 -542377266 -1058290656 -1610477564 1377554662
        1359200514 1544208 335966980 -686825469</internalNodes>
      <leafValues>
        -3.7798541784286499e-01 3.4471732378005981e-01</leafValues></_>
    <_>
      <internalNodes>
        0 -1 41447 1499977734 320669206 276844765 -780963181 -658313078
        -1406513142 -728575813 274986111</internalNodes>
      <leafValues>
        -4.0330061316490173e-01 3.1467887759208679e-01</leafValues></_>
    <_>
      <internalNodes>
        0 -1 28106 -109053475 486583396 1761607547 301521880 -289538099
        -1931713052 -88413958 -1998598417</internalNodes>
      <leafValues>
        -3.0185541510581970e-01 4.2383584380149841e-01</leafValues></_>
    <_>
      <internalNodes>
        0 -1 43870 -489696574 -1963999104 -1193447392 289764625
        -1547072678 4681613 92659936 -673456961</internalNodes>
      <leafValues>
        -3.1538048386573792e-01 3.8177102804183960e-01</leafValues></_>
    <_>
      <internalNodes>
        0 -1 1531 -605601041 1407770289 134647928 321967128 570559151
        453015818 675679771 2066971215</internalNodes>
      <leafValues>
        -3.6118179559707642e-01 3.5145905613899231e-01</leafValues></_>
    <_>
      <internalNodes>
        0 -1 1929 -232070544 2078769616 -2139015219 533197136
        -1607956856 -1173615544 8471279 17258006</internalNodes>
      <leafValues>
        -3.9627900719642639e-01 2.8933545947074890e-01</leafValues></_>
    <_>
      <internalNodes>
        0 -1 42680 2132270082 1566525235 34738430 1348162344 -336931840
        -10393597 -1201475890 -521666741</internalNodes>
      <leafValues>
        -3.2952168583869934e-01 3.3874395489692688e-01</leafValues></_>
    <_>
      <internalNodes>
        0 -1 37986 -1735347047 -1686110000 1929860533 999838096
        -1123144707 -1679122038 62947806 -1157074596</internalNodes>
      <leafValues>
        -3.8135376572608948e-01 2.9896783828735352e-01</leafValues></_>
    <_>
      <internalNodes>
        0 -1 43981 -51644213 -2084628446 60642328 1434435761 -1981943589
        -2004200310 32031947 -622859553</internalNodes>
      <leafValues>
        -2.0722588896751404e-01 5.4309302568435669e-01</leafValues></_>
    <_>
      <internalNodes>
        0 -1 1795 -339248433 -642444786 -785375082 285232930 1244465434
        2037325147 -903479585 -1421610449</internalNodes>
      <leafValues>
        -2.5417649745941162e-01 4.4398888945579529e-01</leafValues></_>
    <_>
      <internalNodes>
        0 -1 35863 1380217476 1360274770 1635926410 1439225681
        1403194290 -1445951356 -2004854225 1073806503</internalNodes>
      <leafValues>
        -5.2404129505157471e-01 2.2185790538787842e-01</leafValues></_>
    <_>
      <internalNodes>
        0 -1 32422 1486605844 500731024 877707280 290214057 -238895720
        -398845917 1212193244 1073968911</internalNodes>
      <leafValues>
        -4.0617623925209045e-01 2.7914360165596008e-01</leafValues></_>
    <_>
      <internalNodes>
        0 -1 764 -828061526 -622981401 191840210 -751301179 69997770
        -1743106189 17957539 -750520745</internalNodes>
      <leafValues>
        -3.1488505005836487e-01 3.7245237827301025e-01</leafValues></_>
    <_>
      <internalNodes>
        0 -1 43632 -1078266649 -1258026782 -1364918948 -680961903
        -1099726667 -1390029612 413592747 -1074801411</internalNodes>
      <leafValues>
        -2.5830748677253723e-01 4.4093149900436401e-01</leafValues></_>
    <_>
      <internalNodes>
        0 -1 22729 749864119 -1814670649 291903317 -1221059630 -93349622
        -108467829 -103359540 418799582</internalNodes>
      <leafValues>
        -3.7085402011871338e-01 3.0567947030067444e-01</leafValues></_>
    <_>
      <internalNodes>
        0 -1 17652 -506616602 1929887756 1627863120 54231216 235793461
        -1414753943 671961332 1223024639</internalNodes>
      <leafValues>
        -3.9285570383071899e-01 2.8687652945518494e-01</leafValues></_></weakClassifiers></stage5>
</opencv_storage>
