<?xml version="1.0"?>
<opencv_storage>
<stage12>
  <maxWeakCount>21</maxWeakCount>
  <stageThreshold>-1.1650949716567993e+00</stageThreshold>
  <weakClassifiers>
    <_>
      <internalNodes>
        0 -1 6809 -574621388 -1735869076 -168903747 280820988
        -1209010466 142670924 -1106648838 148822975</internalNodes>
      <leafValues>
        9.2421444132924080e-03 6.4281874895095825e-01</leafValues></_>
    <_>
      <internalNodes>
        0 -1 4899 2130148863 -3 -555425842 -291734658 -134221858
        -11804849 -135924480 -201392914</internalNodes>
      <leafValues>
        -2.8924530744552612e-01 3.7419849634170532e-01</leafValues></_>
    <_>
      <internalNodes>
        0 -1 173 -488906034 -521766226 1557001706 -672142449 1153688751
        -2135494296 1935884546 -263719373</internalNodes>
      <leafValues>
        -2.6909515261650085e-01 3.9102068543434143e-01</leafValues></_>
    <_>
      <internalNodes>
        0 -1 7430 1351797981 1941348501 -222703617 1471848379 -117900035
        -70254680 -218726465 -1290798293</internalNodes>
      <leafValues>
        -2.7165630459785461e-01 4.0534764528274536e-01</leafValues></_>
    <_>
      <internalNodes>
        0 -1 9392 -616562774 130523698 -1681841584 1398000279 22787567
        255576208 79632604 497800443</internalNodes>
      <leafValues>
        -4.2113941907882690e-01 2.2885504364967346e-01</leafValues></_>
    <_>
      <internalNodes>
        0 -1 9004 -1214587431 -612879440 532667737 1006569980
        -1288131137 -1107836930 771014588 -1141240712</internalNodes>
      <leafValues>
        -3.0199894309043884e-01 3.4250438213348389e-01</leafValues></_>
    <_>
      <internalNodes>
        0 -1 6830 -1198491427 330825789 402029431 468292349 -1277126228
        -336603445 -1410814471 -1347807092</internalNodes>
      <leafValues>
        -2.7523443102836609e-01 3.3889845013618469e-01</leafValues></_>
    <_>
      <internalNodes>
        0 -1 9 -923874582 -604340228 -637960205 -23 1285510649
        -554182788 -968913253 -998812521</internalNodes>
      <leafValues>
        -2.8007331490516663e-01 3.2181844115257263e-01</leafValues></_>
    <_>
      <internalNodes>
        0 -1 8751 1524026890 152911366 -938755461 289363835 -538206580
        -1542616431 -1328753956 14674682</internalNodes>
      <leafValues>
        -3.7087091803550720e-01 2.3107214272022247e-01</leafValues></_>
    <_>
      <internalNodes>
        0 -1 1404 -929301762 1076352052 1977049050 720355932 -1164434518
        -1494193635 -761287942 -85067521</internalNodes>
      <leafValues>
        -3.1684550642967224e-01 2.7370175719261169e-01</leafValues></_>
    <_>
      <internalNodes>
        0 -1 521 -236210770 1364927201 1538535178 1629497292 1926177919
        940073302 -42244501 -416286866</internalNodes>
      <leafValues>
        -2.4901464581489563e-01 3.6872258782386780e-01</leafValues></_>
    <_>
      <internalNodes>
        0 -1 1724 -659439616 -221356793 -1786686855 -1141912629
        -190097986 -336699252 -422876449 1331635330</internalNodes>
      <leafValues>
        -2.9451137781143188e-01 2.9072654247283936e-01</leafValues></_>
    <_>
      <internalNodes>
        0 -1 6570 70785365 -656800287 1640062425 1566067037 -642598931
        -550832307 -1097158950 -1162345303</internalNodes>
      <leafValues>
        -3.1763660907745361e-01 2.7497524023056030e-01</leafValues></_>
    <_>
      <internalNodes>
        0 -1 7409 1391655934 164554448 1380490488 5945817 -1452254501
        146886887 765545469 211788712</internalNodes>
      <leafValues>
        -4.9132642149925232e-01 1.7420843243598938e-01</leafValues></_>
    <_>
      <internalNodes>
        0 -1 520 -142614097 -738361678 -243355053 1883945965 1582281787
        572983892 1881862799 -480804085</internalNodes>
      <leafValues>
        -2.1717822551727295e-01 4.0903136134147644e-01</leafValues></_>
    <_>
      <internalNodes>
        0 -1 9402 -67648542 -1965511706 -1292627311 -1781703694
        -689965884 -1905338504 905962566 -841220865</internalNodes>
      <leafValues>
        -2.8191417455673218e-01 3.1641790270805359e-01</leafValues></_>
    <_>
      <internalNodes>
        0 -1 9129 -1223625978 -13000551 526893310 1842830035 -745276461
        1577289465 -487993108 1438310</internalNodes>
      <leafValues>
        -3.8360565900802612e-01 2.2161278128623962e-01</leafValues></_>
    <_>
      <internalNodes>
        0 -1 851 1726432474 1372914127 -511572216 1136534321 1693434046
        1178615885 -1046227688 1126363373</internalNodes>
      <leafValues>
        -3.5314470529556274e-01 2.4605308473110199e-01</leafValues></_>
    <_>
      <internalNodes>
        0 -1 9384 -300161280 -1616911593 -401104720 148588264 1598077139
        42697105 -691302272 -1073488418</internalNodes>
      <leafValues>
        -3.1436219811439514e-01 2.7555260062217712e-01</leafValues></_>
    <_>
      <internalNodes>
        0 -1 5003 -2009589547 2010808553 1007878107 -518714793 715176084
        -1729415155 155888124 -1342434120</internalNodes>
      <leafValues>
        -2.9066431522369385e-01 2.9575827717781067e-01</leafValues></_>
    <_>
      <internalNodes>
        0 -1 6268 -775465227 -659169104 2115895007 44416500 -1292381572
        -361368464 -1689141317 -1950889671</internalNodes>
      <leafValues>
        -2.3278714716434479e-01 3.8051635026931763e-01</leafValues></_></weakClassifiers></stage12>
</opencv_storage>
