<?xml version="1.0"?>
<opencv_storage>
<stage3>
  <maxWeakCount>12</maxWeakCount>
  <stageThreshold>-8.4571558237075806e-01</stageThreshold>
  <weakClassifiers>
    <_>
      <internalNodes>
        0 -1 2932 -16777242 1352990368 -66306 -2063931790 -587744012
        -723132425 -101712675 -1056965410</internalNodes>
      <leafValues>
        -2.1304872632026672e-01 6.8603551387786865e-01</leafValues></_>
    <_>
      <internalNodes>
        0 -1 8882 -1073742161 83884799 -1309149956 -1916801284
        -1107427329 -1393564161 -1191314180 -1929388803</internalNodes>
      <leafValues>
        -3.7789064645767212e-01 5.1127511262893677e-01</leafValues></_>
    <_>
      <internalNodes>
        0 -1 7406 144182525 1037567212 2141301749 1036848381 -1114980354
        -4449540 -1180123411 -1143995160</internalNodes>
      <leafValues>
        -4.1976675391197205e-01 4.0826553106307983e-01</leafValues></_>
    <_>
      <internalNodes>
        0 -1 9207 -2097161 -2133342758 -53740030 1349423838 -252182668
        148750452 -18350524 -520094222</internalNodes>
      <leafValues>
        -4.6328860521316528e-01 3.5457432270050049e-01</leafValues></_>
    <_>
      <internalNodes>
        0 -1 390 -6291985 -892342295 -625734142 -967114781 1459309351
        1181973868 1412428407 -679483433</internalNodes>
      <leafValues>
        -3.6861187219619751e-01 4.1750708222389221e-01</leafValues></_>
    <_>
      <internalNodes>
        0 -1 6169 3145780 546461817 -1313410689 -1444953987 -1407271170
        -12101 -1495597130 -1950744575</internalNodes>
      <leafValues>
        -5.1731681823730469e-01 2.8131055831909180e-01</leafValues></_>
    <_>
      <internalNodes>
        0 -1 8378 -1946484785 720427497 -1868039944 7820777 -1428562705
        -1999777499 -1992496964 -1996490497</internalNodes>
      <leafValues>
        -4.4444072246551514e-01 3.2071796059608459e-01</leafValues></_>
    <_>
      <internalNodes>
        0 -1 6822 948437245 -1612901123 427677695 991911325 1034706175
        -4551944 -1157973313 -1346889288</internalNodes>
      <leafValues>
        -3.8288435339927673e-01 3.6479741334915161e-01</leafValues></_>
    <_>
      <internalNodes>
        0 -1 9400 -67896397 -2116178945 -344195824 -692061865
        -1954026781 128969728 1709110465 -1040187685</internalNodes>
      <leafValues>
        -3.0487230420112610e-01 4.9185127019882202e-01</leafValues></_>
    <_>
      <internalNodes>
        0 -1 7410 62395637 -6928176 -8689793 2080165361 -1721970945
        -840999301 -1968505601 -1096937316</internalNodes>
      <leafValues>
        -3.3021008968353271e-01 4.0989282727241516e-01</leafValues></_>
    <_>
      <internalNodes>
        0 -1 7435 -1058551774 847515488 -770260225 320211197 -105776897
        -550765784 -522195460 135527227</internalNodes>
      <leafValues>
        -4.4823586940765381e-01 3.0201652646064758e-01</leafValues></_>
    <_>
      <internalNodes>
        0 -1 354 -293732373 -1431445511 1855968386 -290522882 -493919437
        641696485 1998796567 -134751113</internalNodes>
      <leafValues>
        -3.9904034137725830e-01 3.3914494514465332e-01</leafValues></_></weakClassifiers></stage3>
</opencv_storage>
