<?xml version="1.0"?>
<opencv_storage>
<stage4>
  <maxWeakCount>12</maxWeakCount>
  <stageThreshold>-1.2116465568542480e+00</stageThreshold>
  <weakClassifiers>
    <_>
      <internalNodes>
        0 -1 7121 137887997 282662064 152829951 533798301 -1364672549
        -180621 -1157840897 137890988</internalNodes>
      <leafValues>
        -1.0824587941169739e-01 7.3410272598266602e-01</leafValues></_>
    <_>
      <internalNodes>
        0 -1 9197 -4456451 -1883244835 -279982344 -1358958946
        -1520435203 248507625 2092685816 218089725</internalNodes>
      <leafValues>
        -4.4370052218437195e-01 4.5334184169769287e-01</leafValues></_>
    <_>
      <internalNodes>
        0 -1 5801 948178173 -1145237251 236764671 461205881 -1424426244
        -25505 208469243 800588220</internalNodes>
      <leafValues>
        -3.9851397275924683e-01 4.1074767708778381e-01</leafValues></_>
    <_>
      <internalNodes>
        0 -1 5457 504386813 -537242338 -33685505 -33927756 -1648706053
        -24197383 -1343315969 -1095234392</internalNodes>
      <leafValues>
        -3.4926548600196838e-01 4.2359235882759094e-01</leafValues></_>
    <_>
      <internalNodes>
        0 -1 4255 -1000342066 -726191792 -8423586 -1527360298
        -1078217475 -572566359 -879034881 -1057020690</internalNodes>
      <leafValues>
        -4.7890684008598328e-01 3.0926433205604553e-01</leafValues></_>
    <_>
      <internalNodes>
        0 -1 8157 139464925 -120254575 1783676415 861147189 -1129778690
        -4248578 -1432602118 -1660942312</internalNodes>
      <leafValues>
        -3.8850912451744080e-01 3.5357055068016052e-01</leafValues></_>
    <_>
      <internalNodes>
        0 -1 7392 -1309217315 948719832 -639673025 330846704 1066720255
        12112727 988459160 417993145</internalNodes>
      <leafValues>
        -4.7304311394691467e-01 2.7012974023818970e-01</leafValues></_>
    <_>
      <internalNodes>
        0 -1 392 -69210129 -527401505 -285302678 -1162167765 1744402303
        1629542242 1655137042 -149686285</internalNodes>
      <leafValues>
        -2.8046849370002747e-01 4.7628772258758545e-01</leafValues></_>
    <_>
      <internalNodes>
        0 -1 9392 -537723339 105752236 -1794404776 133390322 -1153504300
        259254400 1104908528 1350555882</internalNodes>
      <leafValues>
        -3.8125151395797729e-01 3.3731389045715332e-01</leafValues></_>
    <_>
      <internalNodes>
        0 -1 7115 284712441 -50525443 1073512319 503188541 -1204504577
        -545276419 -1220919329 -1346626051</internalNodes>
      <leafValues>
        -3.3892133831977844e-01 3.6796656250953674e-01</leafValues></_>
    <_>
      <internalNodes>
        0 -1 7562 -838865337 -781007524 -1898656064 4234964 -440428690
        2005624905 -416556972 816566265</internalNodes>
      <leafValues>
        -4.7972699999809265e-01 2.7288815379142761e-01</leafValues></_>
    <_>
      <internalNodes>
        0 -1 6630 180112889 -186695235 -139961889 -1097396015
        -1162167297 -21037643 -1150564116 196218328</internalNodes>
      <leafValues>
        -3.9151325821876526e-01 3.2591915130615234e-01</leafValues></_></weakClassifiers></stage4>
</opencv_storage>
