<?xml version="1.0"?>
<opencv_storage>
<stage17>
  <maxWeakCount>24</maxWeakCount>
  <stageThreshold>-8.0321568250656128e-01</stageThreshold>
  <weakClassifiers>
    <_>
      <internalNodes>
        0 -1 5718 1061137717 -289685507 -1427248280 -1595654432
        -1208811724 -9568257 920974656 882121916</internalNodes>
      <leafValues>
        -4.9009386450052261e-02 6.0444355010986328e-01</leafValues></_>
    <_>
      <internalNodes>
        0 -1 6865 1353171189 865142807 1331625467 530571253 -1036517377
        -4603915 1794621439 -1021319589</internalNodes>
      <leafValues>
        -1.6029945015907288e-01 4.6062999963760376e-01</leafValues></_>
    <_>
      <internalNodes>
        0 -1 6992 -595870697 -8728047 -419531340 834403319 -33554434
        -201329154 1736373964 -235932931</internalNodes>
      <leafValues>
        -2.2140061855316162e-01 3.6354839801788330e-01</leafValues></_>
    <_>
      <internalNodes>
        0 -1 3674 -69940515 1004339929 -1982533674 433416032 -1698654732
        2090338452 994900989 1006131708</internalNodes>
      <leafValues>
        -3.2087340950965881e-01 2.5116038322448730e-01</leafValues></_>
    <_>
      <internalNodes>
        0 -1 7655 -1758217617 -1965280655 394483392 1864106061
        -1422921555 481055842 -2113766176 263868654</internalNodes>
      <leafValues>
        -3.8465169072151184e-01 1.7701807618141174e-01</leafValues></_>
    <_>
      <internalNodes>
        0 -1 2 -855643397 -876124758 1827839924 -141179226 1144374719
        -282497037 1760549083 -1056444349</internalNodes>
      <leafValues>
        -2.0284564793109894e-01 3.7046208977699280e-01</leafValues></_>
    <_>
      <internalNodes>
        0 -1 9005 -1111819009 -1110705827 837262205 1509147757
        -1080098920 -1894055952 217439404 -1896888130</internalNodes>
      <leafValues>
        -2.3909051716327667e-01 3.1511390209197998e-01</leafValues></_>
    <_>
      <internalNodes>
        0 -1 9127 -71640058 459112731 -1111191362 -753157313 -1556025093
        -1984959813 -507326785 1112198215</internalNodes>
      <leafValues>
        -2.8839087486267090e-01 2.5802150368690491e-01</leafValues></_>
    <_>
      <internalNodes>
        0 -1 5736 532362237 752160980 958134208 214833404 1589293004
        1606203470 -1143410084 -1750158344</internalNodes>
      <leafValues>
        -3.6284142732620239e-01 2.1528482437133789e-01</leafValues></_>
    <_>
      <internalNodes>
        0 -1 6852 -2011133735 1488626160 15046397 78590409 -284578819
        -577048433 -1349906689 -1103624112</internalNodes>
      <leafValues>
        -2.8125768899917603e-01 2.6487019658088684e-01</leafValues></_>
    <_>
      <internalNodes>
        0 -1 9399 -17041118 115846154 1438521623 -1816664249 -1645152114
        249486584 1162855625 -571476513</internalNodes>
      <leafValues>
        -2.5602200627326965e-01 2.8620550036430359e-01</leafValues></_>
    <_>
      <internalNodes>
        0 -1 1131 -102578593 -33593346 -332076301 2041724794 -269397080
        -1021134 -18328609 -80255205</internalNodes>
      <leafValues>
        -1.8507103621959686e-01 3.9500871300697327e-01</leafValues></_>
    <_>
      <internalNodes>
        0 -1 1196 5759206 7542066 1409406870 1354554119 1837755195
        -1193113448 -1660045235 6902800</internalNodes>
      <leafValues>
        -4.8864826560020447e-01 1.5624997019767761e-01</leafValues></_>
    <_>
      <internalNodes>
        0 -1 582 -939143791 -88702724 -1786885153 -75246400 1167082872
        -12671931 696102366 -574135055</internalNodes>
      <leafValues>
        -2.3118726909160614e-01 3.2030871510505676e-01</leafValues></_>
    <_>
      <internalNodes>
        0 -1 8170 1355792578 856699204 1345116140 394244567 -94592360
        -1118187223 1490876713 20556779</internalNodes>
      <leafValues>
        -3.4053206443786621e-01 2.1719896793365479e-01</leafValues></_>
    <_>
      <internalNodes>
        0 -1 828 951305254 -1340951433 -1652173474 670147187 547752330
        872579373 -858139540 1148227531</internalNodes>
      <leafValues>
        -3.8034152984619141e-01 1.8543621897697449e-01</leafValues></_>
    <_>
      <internalNodes>
        0 -1 6836 279972605 1574109808 407323103 1671239133 -2101982229
        -28506112 -1366189267 -1422968452</internalNodes>
      <leafValues>
        -2.8972426056861877e-01 2.5709334015846252e-01</leafValues></_>
    <_>
      <internalNodes>
        0 -1 7079 -574624531 -709955596 771735224 -134515464 800832501
        421541630 430607334 -1845568929</internalNodes>
      <leafValues>
        -2.3076418042182922e-01 3.1743767857551575e-01</leafValues></_>
    <_>
      <internalNodes>
        0 -1 7783 479334420 1566196096 1988713438 1420825844 -1429277154
        -1528297037 295369650 805439720</internalNodes>
      <leafValues>
        -4.4653031229972839e-01 1.6876931488513947e-01</leafValues></_>
    <_>
      <internalNodes>
        0 -1 8697 420209203 -1343352496 -687615532 -137576308 -518164361
        246960776 351425924 212527172</internalNodes>
      <leafValues>
        -4.0541484951972961e-01 1.7653535306453705e-01</leafValues></_>
    <_>
      <internalNodes>
        0 -1 7815 -27539955 1398523211 -2143168442 272972439 395473867
        1469688370 -1592975064 -170919699</internalNodes>
      <leafValues>
        -3.1773775815963745e-01 2.3588347434997559e-01</leafValues></_>
    <_>
      <internalNodes>
        0 -1 503 2072446946 642446250 25315412 -492699517 1541503582
        840069168 1646455914 1394690835</internalNodes>
      <leafValues>
        -4.1842812299728394e-01 1.7397218942642212e-01</leafValues></_>
    <_>
      <internalNodes>
        0 -1 6884 288683028 -256673523 -397262341 31463851 -660958492
        -1176890661 -201053187 -2127859305</internalNodes>
      <leafValues>
        -3.0263552069664001e-01 2.4165043234825134e-01</leafValues></_>
    <_>
      <internalNodes>
        0 -1 4550 1607599089 2018594291 -2143034241 737804624 1862297709
        -836982512 -399871784 -294955746</internalNodes>
      <leafValues>
        -2.6112714409828186e-01 2.8560647368431091e-01</leafValues></_></weakClassifiers></stage17>
</opencv_storage>
