<?xml version="1.0"?>
<opencv_storage>
<stage18>
  <maxWeakCount>25</maxWeakCount>
  <stageThreshold>-8.7981969118118286e-01</stageThreshold>
  <weakClassifiers>
    <_>
      <internalNodes>
        0 -1 476 -604318990 737635315 -1359192340 41001655 1390017788
        1751183837 1995504836 1414554103</internalNodes>
      <leafValues>
        -2.2593764588236809e-03 6.1356902122497559e-01</leafValues></_>
    <_>
      <internalNodes>
        0 -1 9101 786402493 1006038678 -2146988964 924025360 916189951
        719110280 -1997551367 250601724</internalNodes>
      <leafValues>
        -3.7457245588302612e-01 2.6572322845458984e-01</leafValues></_>
    <_>
      <internalNodes>
        0 -1 7960 -796472163 -216596143 2086010523 1943786761 -289226833
        -67371230 -303046661 -225756373</internalNodes>
      <leafValues>
        -2.2344124317169189e-01 3.8554990291595459e-01</leafValues></_>
    <_>
      <internalNodes>
        0 -1 6618 1312248084 -235687214 -753697058 -706216986
        -1975864615 -455355741 -74458652 -1041292745</internalNodes>
      <leafValues>
        -2.8585502505302429e-01 2.6811859011650085e-01</leafValues></_>
    <_>
      <internalNodes>
        0 -1 19 1073922152 -202930851 -1718514497 832503896 336258991
        -1090687265 -988876865 1159157509</internalNodes>
      <leafValues>
        -3.8637575507164001e-01 2.0412296056747437e-01</leafValues></_>
    <_>
      <internalNodes>
        0 -1 6135 -1117985795 2008548724 2004111994 496588276
        -1189942869 -1198755358 -1174098961 -1093759877</internalNodes>
      <leafValues>
        -2.9217839241027832e-01 2.6572111248970032e-01</leafValues></_>
    <_>
      <internalNodes>
        0 -1 9373 -59912144 10059994 2021707834 84771458 -222187312
        41945098 2135196288 1076988126</internalNodes>
      <leafValues>
        -4.2753234505653381e-01 1.7855788767337799e-01</leafValues></_>
    <_>
      <internalNodes>
        0 -1 2660 -1062436129 2145986985 -885064801 -1682375405
        -405181864 789339477 2069821688 -37748817</internalNodes>
      <leafValues>
        -2.2487469017505646e-01 3.3849933743476868e-01</leafValues></_>
    <_>
      <internalNodes>
        0 -1 560 -2915832 -721978826 -1348045836 2100520835 2002986274
        1249250641 56606651 -680529493</internalNodes>
      <leafValues>
        -2.3581854999065399e-01 2.9743894934654236e-01</leafValues></_>
    <_>
      <internalNodes>
        0 -1 9012 1392136209 168763482 1911969115 998333451 -133694530
        -891670400 -386793985 -1474125181</internalNodes>
      <leafValues>
        -2.6421752572059631e-01 2.7528023719787598e-01</leafValues></_>
    <_>
      <internalNodes>
        0 -1 8256 601853857 1435747270 985665762 292516656 1934663871
        522383515 -383301443 -1864315409</internalNodes>
      <leafValues>
        -2.9064327478408813e-01 2.4695369601249695e-01</leafValues></_>
    <_>
      <internalNodes>
        0 -1 5891 439375957 -767092371 -1720418537 419386837 -1171357443
        -539307134 -1760973889 187305181</internalNodes>
      <leafValues>
        -2.7798333764076233e-01 2.5642210245132446e-01</leafValues></_>
    <_>
      <internalNodes>
        0 -1 4206 43515078 311932749 292704532 579886978 1977060709
        571549600 54919902 43301124</internalNodes>
      <leafValues>
        -5.4400640726089478e-01 1.2811250984668732e-01</leafValues></_>
    <_>
      <internalNodes>
        0 -1 1050 -79706934 -738305597 417880838 -1600061607 -55646582
        1526814214 -759119222 -988807505</internalNodes>
      <leafValues>
        -2.2771678864955902e-01 3.0546516180038452e-01</leafValues></_>
    <_>
      <internalNodes>
        0 -1 7406 141035772 240911612 689018193 454891097 -1094418248
        -220380019 671263919 464324860</internalNodes>
      <leafValues>
        -4.5691022276878357e-01 1.5530116856098175e-01</leafValues></_>
    <_>
      <internalNodes>
        0 -1 9003 -621020961 -580228984 150966897 -823048 -587563010
        -2116796437 301766032 -1656825414</internalNodes>
      <leafValues>
        -1.9985987246036530e-01 3.6716374754905701e-01</leafValues></_>
    <_>
      <internalNodes>
        0 -1 4436 -414988522 1398931720 1528546516 933569050 -1945976770
        -693093183 663480373 9227391</internalNodes>
      <leafValues>
        -3.6352795362472534e-01 1.9435045123100281e-01</leafValues></_>
    <_>
      <internalNodes>
        0 -1 1742 1917306198 1439868300 -2087591937 1807062527
        2112519011 -140902144 -74720774 111428697</internalNodes>
      <leafValues>
        -2.9974105954170227e-01 2.3110927641391754e-01</leafValues></_>
    <_>
      <internalNodes>
        0 -1 6846 -1875900299 -1910960111 -1061773825 180032253
        -228013874 -1666354149 -333518339 -1145962439</internalNodes>
      <leafValues>
        -3.0737850069999695e-01 2.3151446878910065e-01</leafValues></_>
    <_>
      <internalNodes>
        0 -1 7280 705106997 -577957035 344422770 -87811618 523039288
        -1147548451 25688676 6611948</internalNodes>
      <leafValues>
        -4.2672669887542725e-01 1.7446117103099823e-01</leafValues></_>
    <_>
      <internalNodes>
        0 -1 9386 -232215796 865156376 -2146347910 635406546 411820701
        185238144 2216 225152250</internalNodes>
      <leafValues>
        -4.2058476805686951e-01 1.6902217268943787e-01</leafValues></_>
    <_>
      <internalNodes>
        0 -1 198 1186420610 747913687 -2049305238 1070482826 605706822
        1601979679 46830070 1735508255</internalNodes>
      <leafValues>
        -3.9848345518112183e-01 1.7983175814151764e-01</leafValues></_>
    <_>
      <internalNodes>
        0 -1 6529 -895237948 302393462 -515844788 323602245 1803788516
        2007631872 -617140359 18201871</internalNodes>
      <leafValues>
        -3.8349577784538269e-01 1.8582402169704437e-01</leafValues></_>
    <_>
      <internalNodes>
        0 -1 131 -299698432 1447198176 -1323584812 -40975774 -972614188
        1552058382 -1001171743 375870711</internalNodes>
      <leafValues>
        -4.1105145215988159e-01 1.7883653938770294e-01</leafValues></_>
    <_>
      <internalNodes>
        0 -1 9280 -36194885 2139264866 124340377 2067198370 483508990
        -1953774144 1423234269 -74997269</internalNodes>
      <leafValues>
        -1.6219533979892731e-01 4.6819159388542175e-01</leafValues></_></weakClassifiers></stage18>
</opencv_storage>
