<?xml version="1.0"?>
<opencv_storage>
<stage16>
  <maxWeakCount>28</maxWeakCount>
  <stageThreshold>-8.0664670467376709e-01</stageThreshold>
  <weakClassifiers>
    <_>
      <internalNodes>
        0 -1 41452 -16748496 -1073909581 -136282148 -532778890
        -545118070 -1079766600 -70213921 1087692026</internalNodes>
      <leafValues>
        1.8051576614379883e-01 6.9593709707260132e-01</leafValues></_>
    <_>
      <internalNodes>
        0 -1 43965 -763407693 420194434 491867536 863478241 15354539
        111994508 73123016 1325385983</internalNodes>
      <leafValues>
        -1.4338004589080811e-01 4.1885083913803101e-01</leafValues></_>
    <_>
      <internalNodes>
        0 -1 36619 177991890 11255930 -1815864488 299393136 730910205
        162501288 -1903342851 148424924</internalNodes>
      <leafValues>
        -4.4514402747154236e-01 1.8113489449024200e-01</leafValues></_>
    <_>
      <internalNodes>
        0 -1 38807 1357834756 1945368387 303091934 301027604 -1482687992
        -1324375036 2048588494 856927007</internalNodes>
      <leafValues>
        -3.5635435581207275e-01 2.1068149805068970e-01</leafValues></_>
    <_>
      <internalNodes>
        0 -1 37244 -1642408867 1822196916 500520287 -80021515
        -1087832899 483955333 -1828132438 -1078066961</internalNodes>
      <leafValues>
        -2.6414698362350464e-01 2.7851372957229614e-01</leafValues></_>
    <_>
      <internalNodes>
        0 -1 7164 -567555341 -247474652 2145832831 -1066347 -1863686210
        -68598799 2128529903 -1613017003</internalNodes>
      <leafValues>
        -2.0335914194583893e-01 4.2074251174926758e-01</leafValues></_>
    <_>
      <internalNodes>
        0 -1 765 -87535110 602546178 319084050 959095944 -792197442
        2046903704 1532506930 1245931475</internalNodes>
      <leafValues>
        -3.5258692502975464e-01 2.1756628155708313e-01</leafValues></_>
    <_>
      <internalNodes>
        0 -1 43866 -676333470 -2092305086 -805285072 1359140421
        -213412088 4622534 73900177 1431297247</internalNodes>
      <leafValues>
        -3.2229253649711609e-01 2.2581851482391357e-01</leafValues></_>
    <_>
      <internalNodes>
        0 -1 31722 258455318 -404806894 -1248642434 1429124706
        -1379159649 -443817798 -1181042448 -1324672726</internalNodes>
      <leafValues>
        -2.7723407745361328e-01 2.5550818443298340e-01</leafValues></_>
    <_>
      <internalNodes>
        0 -1 14483 -1575293188 853755167 239262750 728252600 -1427674721
        -1471059553 1746112012 1751145593</internalNodes>
      <leafValues>
        -4.4222205877304077e-01 1.6035367548465729e-01</leafValues></_>
    <_>
      <internalNodes>
        0 -1 1680 -13645105 -548993488 -1876365678 1376168631
        -1595152887 843470347 -956654665 -217345793</internalNodes>
      <leafValues>
        -2.1598803997039795e-01 3.2646173238754272e-01</leafValues></_>
    <_>
      <internalNodes>
        0 -1 42911 -358155232 54887579 75592756 19985282 411000769
        251930768 99156220 211024111</internalNodes>
      <leafValues>
        -4.4719129800796509e-01 1.6667729616165161e-01</leafValues></_>
    <_>
      <internalNodes>
        0 -1 32286 404252913 211685584 685314143 395974109 1902643916
        -1141153329 617331647 -1380251396</internalNodes>
      <leafValues>
        -2.9210194945335388e-01 2.2771418094635010e-01</leafValues></_>
    <_>
      <internalNodes>
        0 -1 36667 1380794896 427833808 -1967104902 320346418 -155389492
        -1104954784 -662570246 137653779</internalNodes>
      <leafValues>
        -3.5066512227058411e-01 2.0205265283584595e-01</leafValues></_>
    <_>
      <internalNodes>
        0 -1 38124 -1555087220 -69015413 -858727716 46354714 -305157608
        -1582649231 -1544308037 153265895</internalNodes>
      <leafValues>
        -3.1128406524658203e-01 2.1636748313903809e-01</leafValues></_>
    <_>
      <internalNodes>
        0 -1 34452 378559761 -723775279 315706269 2101500107 -2086998377
        -52286617 -1281839773 581961196</internalNodes>
      <leafValues>
        -3.5951867699623108e-01 1.8852876126766205e-01</leafValues></_>
    <_>
      <internalNodes>
        0 -1 41672 -2669995 -242130863 33984770 1619578324 1729332810
        1681002520 -1188302772 -737477928</internalNodes>
      <leafValues>
        -3.1966602802276611e-01 2.1386125683784485e-01</leafValues></_>
    <_>
      <internalNodes>
        0 -1 6121 -430554216 1374901723 638779638 -1182872396
        -2010167043 681656907 7934216 1006575387</internalNodes>
      <leafValues>
        -3.4786966443061829e-01 1.9690407812595367e-01</leafValues></_>
    <_>
      <internalNodes>
        0 -1 2040 1110099562 -1260351095 -793692585 -1147667795
        1677738536 -1463145984 1145847946 1163085123</internalNodes>
      <leafValues>
        -3.4346950054168701e-01 1.8791328370571136e-01</leafValues></_>
    <_>
      <internalNodes>
        0 -1 3615 -77333001 2105506045 1702030299 939291963 -284490791
        -1427435917 -663487061 -5014926</internalNodes>
      <leafValues>
        -1.3756528496742249e-01 4.8579549789428711e-01</leafValues></_>
    <_>
      <internalNodes>
        0 -1 30817 -2040622155 -695820142 1981481310 -1766004512
        -1006012231 -528928519 -485928712 364485343</internalNodes>
      <leafValues>
        -2.6910775899887085e-01 2.4927236139774323e-01</leafValues></_>
    <_>
      <internalNodes>
        0 -1 43983 -137148182 -1040793696 304542224 1408593900
        1941955535 7327300 -176696098 -156003729</internalNodes>
      <leafValues>
        -2.1671608090400696e-01 3.1541836261749268e-01</leafValues></_>
    <_>
      <internalNodes>
        0 -1 42607 -669328354 521467416 -1281863364 1888735748
        -1728669014 -565324869 -279535381 -536674510</internalNodes>
      <leafValues>
        -2.4484218657016754e-01 2.7660992741584778e-01</leafValues></_>
    <_>
      <internalNodes>
        0 -1 28188 -1711779619 1937248505 321604703 403790319
        -1963419939 -1182302724 181009407 -1201790034</internalNodes>
      <leafValues>
        -2.2648893296718597e-01 2.9816520214080811e-01</leafValues></_>
    <_>
      <internalNodes>
        0 -1 24899 1851250804 -1878514411 532176757 398263604
        -1927337615 -1353877761 -1909408791 -1918303853</internalNodes>
      <leafValues>
        -2.4146334826946259e-01 2.7955833077430725e-01</leafValues></_>
    <_>
      <internalNodes>
        0 -1 4630 -271859029 -260846069 559008580 -503260386 576934415
        269715753 1159120192 -480520738</internalNodes>
      <leafValues>
        -2.7824735641479492e-01 2.4805879592895508e-01</leafValues></_>
    <_>
      <internalNodes>
        0 -1 35263 366615648 1557925364 -733735769 481297529 -1601635751
        -60228549 949623155 573054200</internalNodes>
      <leafValues>
        -4.8016229271888733e-01 1.4013859629631042e-01</leafValues></_>
    <_>
      <internalNodes>
        0 -1 33838 -1242603242 1879094962 218212046 -1817791864
        2145544397 80490865 -2080700313 427709879</internalNodes>
      <leafValues>
        -3.2376900315284729e-01 2.1381327509880066e-01</leafValues></_></weakClassifiers></stage16>
</opencv_storage>
