<?xml version="1.0"?>
<opencv_storage>
<stage13>
  <maxWeakCount>24</maxWeakCount>
  <stageThreshold>-5.7634019851684570e-01</stageThreshold>
  <weakClassifiers>
    <_>
      <internalNodes>
        0 -1 34085 -1581591043 1494750652 503076340 532206973
        -1382687235 471137725 1006377144 717097210</internalNodes>
      <leafValues>
        2.3824700713157654e-01 7.2122830152511597e-01</leafValues></_>
    <_>
      <internalNodes>
        0 -1 148 -1003491926 -356024184 -487987488 -235942976 1430275526
        1114084800 -455839018 1078936577</internalNodes>
      <leafValues>
        -2.2636836767196655e-01 3.6982917785644531e-01</leafValues></_>
    <_>
      <internalNodes>
        0 -1 38950 2129379861 -681582765 -1608152353 1620788087
        -299658368 -210514925 -342574355 -1029517323</internalNodes>
      <leafValues>
        -2.9667776823043823e-01 2.9087802767753601e-01</leafValues></_>
    <_>
      <internalNodes>
        0 -1 41813 -570433613 1032400051 -1888355020 901509356
        -1125271653 -1095168961 1019710713 1289484511</internalNodes>
      <leafValues>
        -2.8254488110542297e-01 2.9628902673721313e-01</leafValues></_>
    <_>
      <internalNodes>
        0 -1 1326 -336606993 -46732297 -1131495022 -80567637 -1433720086
        1542487831 -1173205014 2067001275</internalNodes>
      <leafValues>
        -2.4094688892364502e-01 3.4880650043487549e-01</leafValues></_>
    <_>
      <internalNodes>
        0 -1 602 1190387502 -264844330 -845944874 -215199157 -493997854
        -1833465437 -2132117601 1662460127</internalNodes>
      <leafValues>
        -3.7188825011253357e-01 1.9313162565231323e-01</leafValues></_>
    <_>
      <internalNodes>
        0 -1 24686 -157423626 150029696 -1718515006 26547688 -1130722679
        721076618 -1916224007 143621307</internalNodes>
      <leafValues>
        -4.5216885209083557e-01 1.5994603931903839e-01</leafValues></_>
    <_>
      <internalNodes>
        0 -1 42582 -1078527248 -643228232 330302697 -1760722512
        -1685474602 -1287869016 58986941 -1075967864</internalNodes>
      <leafValues>
        -2.6669451594352722e-01 2.9752674698829651e-01</leafValues></_>
    <_>
      <internalNodes>
        0 -1 39976 1515114628 961630713 -1043800321 1910939213 -24969602
        -1152667562 -233403767 20947483</internalNodes>
      <leafValues>
        -3.1829297542572021e-01 2.3535019159317017e-01</leafValues></_>
    <_>
      <internalNodes>
        0 -1 48 -225812448 -773160340 -258256709 328190682 -1006097522
        2093654813 -165980209 1430413634</internalNodes>
      <leafValues>
        -4.0017104148864746e-01 1.8776306509971619e-01</leafValues></_>
    <_>
      <internalNodes>
        0 -1 31993 -1899067329 -69885489 1147309944 -1669721630
        -398730441 -2143443439 -390340700 81705936</internalNodes>
      <leafValues>
        -3.6702477931976318e-01 2.0627675950527191e-01</leafValues></_>
    <_>
      <internalNodes>
        0 -1 43989 -540026374 730703690 1659392 289108796 -556732416
        161305868 -591991298 -241180709</internalNodes>
      <leafValues>
        -2.3562006652355194e-01 3.2043030858039856e-01</leafValues></_>
    <_>
      <internalNodes>
        0 -1 43941 -202124053 -1645536101 -798932406 -262963377
        432204359 1410291310 2115412447 -248513601</internalNodes>
      <leafValues>
        -1.9885362684726715e-01 3.8459816575050354e-01</leafValues></_>
    <_>
      <internalNodes>
        0 -1 34148 1573052 1506687220 -854341409 471423065 -1861689094
        -19265408 -1205272945 -1616372264</internalNodes>
      <leafValues>
        -3.7971746921539307e-01 1.9990582764148712e-01</leafValues></_>
    <_>
      <internalNodes>
        0 -1 31472 -114329067 -105435245 -101548033 -181589249 974563501
        -71602276 317595581 -1291091047</internalNodes>
      <leafValues>
        -2.0133775472640991e-01 3.8321951031684875e-01</leafValues></_>
    <_>
      <internalNodes>
        0 -1 42936 -1828540167 -1228194474 129456117 460125232
        -1230555905 -1233752706 800470448 -1884334852</internalNodes>
      <leafValues>
        -2.6171025633811951e-01 2.9802778363227844e-01</leafValues></_>
    <_>
      <internalNodes>
        0 -1 7211 1375922210 1398013008 558897437 1849659505 -1452174401
        -1373968195 -1525419087 1080127589</internalNodes>
      <leafValues>
        -3.6961975693702698e-01 2.0478765666484833e-01</leafValues></_>
    <_>
      <internalNodes>
        0 -1 1312 -648292150 -1057943927 545763384 1525583965
        -1187058678 151225856 273776692 -699930413</internalNodes>
      <leafValues>
        -2.8286913037300110e-01 2.6712039113044739e-01</leafValues></_>
    <_>
      <internalNodes>
        0 -1 7253 1355840270 1145344384 -771389153 1315427487
        -1442604365 -1576955877 -1979581235 200518347</internalNodes>
      <leafValues>
        -3.6267015337944031e-01 2.1821162104606628e-01</leafValues></_>
    <_>
      <internalNodes>
        0 -1 42431 1063997527 -1155280878 1766246894 1946735988 -1193789
        -1769357228 -100562368 -770115211</internalNodes>
      <leafValues>
        -2.9234388470649719e-01 2.6629281044006348e-01</leafValues></_>
    <_>
      <internalNodes>
        0 -1 3614 -608737345 -617656515 1224110131 -721343541 1881614201
        1263228686 -132932433 -78173665</internalNodes>
      <leafValues>
        -2.1160301566123962e-01 3.6219024658203125e-01</leafValues></_>
    <_>
      <internalNodes>
        0 -1 19642 -1465656749 375829592 -1607925253 891248901
        -1737609032 -1304583129 62972591 712181243</internalNodes>
      <leafValues>
        -2.3171909153461456e-01 3.1696209311485291e-01</leafValues></_>
    <_>
      <internalNodes>
        0 -1 43559 -1153480686 620956944 520208440 62595132 -1138697558
        113239108 -1960138544 1343746124</internalNodes>
      <leafValues>
        -3.7124347686767578e-01 2.0639830827713013e-01</leafValues></_>
    <_>
      <internalNodes>
        0 -1 29993 -1440060273 -1511113276 813005030 235852444
        -1785026865 -1784088102 535735287 340577783</internalNodes>
      <leafValues>
        -3.8212561607360840e-01 1.9548276066780090e-01</leafValues></_></weakClassifiers></stage13>
</opencv_storage>
