<?xml version="1.0"?>
<opencv_storage>
<stage15>
  <maxWeakCount>26</maxWeakCount>
  <stageThreshold>-7.2078001499176025e-01</stageThreshold>
  <weakClassifiers>
    <_>
      <internalNodes>
        0 -1 5437 131104 52888688 218883191 1058755669 134350071
        -1431682060 251724031 65552</internalNodes>
      <leafValues>
        8.6334481835365295e-02 6.8025898933410645e-01</leafValues></_>
    <_>
      <internalNodes>
        0 -1 34674 251649335 -174603 -268435469 -286327066 -1965441181
        -67209634 -288096464 -2132484876</internalNodes>
      <leafValues>
        -2.2446334362030029e-01 3.6290097236633301e-01</leafValues></_>
    <_>
      <internalNodes>
        0 -1 43421 -83174537 -539273865 -268480681 -272667949 -238289980
        -8660580 -131666434 -721425521</internalNodes>
      <leafValues>
        -1.8402792513370514e-01 4.3654200434684753e-01</leafValues></_>
    <_>
      <internalNodes>
        0 -1 11645 -807727361 1882862067 1117037311 538988787 -884275372
        1376001864 184897512 587758685</internalNodes>
      <leafValues>
        -4.0230271220207214e-01 2.0183907449245453e-01</leafValues></_>
    <_>
      <internalNodes>
        0 -1 43634 -19398795 769318899 -1119068787 -705167521 -365707894
        -1884637442 1557125035 -838862101</internalNodes>
      <leafValues>
        -1.9778507947921753e-01 3.8088881969451904e-01</leafValues></_>
    <_>
      <internalNodes>
        0 -1 3492 -265589 -137906837 1882387038 1884320127 -111689650
        1232556608 -1307904369 -715395361</internalNodes>
      <leafValues>
        -2.2300407290458679e-01 3.6952903866767883e-01</leafValues></_>
    <_>
      <internalNodes>
        0 -1 31 1645112704 1930332016 1491072407 -537994535 274142157
        2095991180 -730586161 1074942016</internalNodes>
      <leafValues>
        -4.8214924335479736e-01 1.4153346419334412e-01</leafValues></_>
    <_>
      <internalNodes>
        0 -1 30442 -803472715 864173917 -669090607 1569889546 -923337224
        -2019467284 -1392979527 -1144037857</internalNodes>
      <leafValues>
        -2.0042580366134644e-01 3.9306616783142090e-01</leafValues></_>
    <_>
      <internalNodes>
        0 -1 39309 -1712137251 967835820 291487743 1065880017
        -1074216962 -1075438145 720947962 -1346681704</internalNodes>
      <leafValues>
        -2.2929368913173676e-01 3.3927017450332642e-01</leafValues></_>
    <_>
      <internalNodes>
        0 -1 15452 -1038892873 -781362705 -641765379 1911469564
        -1584670385 -800187659 -918582601 -1814101583</internalNodes>
      <leafValues>
        -2.1940232813358307e-01 3.2888740301132202e-01</leafValues></_>
    <_>
      <internalNodes>
        0 -1 1718 -749931810 264586270 822664638 734215103 2120491052
        2065697872 1612249544 1745908587</internalNodes>
      <leafValues>
        -3.8173973560333252e-01 1.8524716794490814e-01</leafValues></_>
    <_>
      <internalNodes>
        0 -1 43958 -2139610 -137626877 1824219304 1986781795 2094705798
        19747858 1979971236 -1073481221</internalNodes>
      <leafValues>
        -2.5077521800994873e-01 2.8903919458389282e-01</leafValues></_>
    <_>
      <internalNodes>
        0 -1 32750 1888961815 -784230098 -1191193224 1369640191
        -51118089 -261423698 -144863220 -1817211172</internalNodes>
      <leafValues>
        -2.1216028928756714e-01 3.2278147339820862e-01</leafValues></_>
    <_>
      <internalNodes>
        0 -1 39942 673976572 -1077858044 -865377441 1402412356
        -1899314886 -1237762035 -1471482993 -1693837272</internalNodes>
      <leafValues>
        -3.0075952410697937e-01 2.2778114676475525e-01</leafValues></_>
    <_>
      <internalNodes>
        0 -1 37592 1918883468 1937965075 -395781084 809916179 -69218167
        -1752667194 956650312 -1878328385</internalNodes>
      <leafValues>
        -3.0569747090339661e-01 2.2878456115722656e-01</leafValues></_>
    <_>
      <internalNodes>
        0 -1 41319 -12600943 1768943710 -226715081 1264624184
        -1924316084 252482563 254264821 -2335492</internalNodes>
      <leafValues>
        -2.5050809979438782e-01 2.7347806096076965e-01</leafValues></_>
    <_>
      <internalNodes>
        0 -1 3557 -330341678 1909080540 1209691671 856308726 1787591679
        711133705 -99859969 1546870275</internalNodes>
      <leafValues>
        -2.9254415631294250e-01 2.3608897626399994e-01</leafValues></_>
    <_>
      <internalNodes>
        0 -1 39220 -1611663823 -840516764 1056946908 -202386594 29029884
        83657051 -1175978753 -976226561</internalNodes>
      <leafValues>
        -2.1019607782363892e-01 3.2246214151382446e-01</leafValues></_>
    <_>
      <internalNodes>
        0 -1 7263 -1079781224 -3040170 -574576674 -138210662 -1903544335
        -408029247 -1914375742 -1928117119</internalNodes>
      <leafValues>
        -2.4262145161628723e-01 2.8519549965858459e-01</leafValues></_>
    <_>
      <internalNodes>
        0 -1 32954 707671415 -1394445404 -1911569763 751746190
        -1941902273 -607210577 -1878608911 -2132218640</internalNodes>
      <leafValues>
        -3.5806149244308472e-01 1.9563259184360504e-01</leafValues></_>
    <_>
      <internalNodes>
        0 -1 31313 211945725 1539707088 -1741629987 2023358923
        -1412511585 -357844305 -1442140227 -1615329044</internalNodes>
      <leafValues>
        -2.7586728334426880e-01 2.4830953776836395e-01</leafValues></_>
    <_>
      <internalNodes>
        0 -1 43166 -524289 -1812679687 525586813 1937101233 -1111805105
        -1681682782 490100973 -1920074505</internalNodes>
      <leafValues>
        -1.7750322818756104e-01 4.0563327074050903e-01</leafValues></_>
    <_>
      <internalNodes>
        0 -1 1547 -333062 415957978 1078347002 264144194 1073973580
        1615218020 915372016 1282662722</internalNodes>
      <leafValues>
        -3.5531273484230042e-01 2.1007440984249115e-01</leafValues></_>
    <_>
      <internalNodes>
        0 -1 15303 818413510 -1868111594 -642231882 33633204 943423760
        288768643 1105086951 49513910</internalNodes>
      <leafValues>
        -4.3042704463005066e-01 1.6018790006637573e-01</leafValues></_>
    <_>
      <internalNodes>
        0 -1 154 -410394206 -1487386495 164644582 -576125920 1151432702
        -1668308559 -1861655857 1141231618</internalNodes>
      <leafValues>
        -3.0350956320762634e-01 2.2920961678028107e-01</leafValues></_>
    <_>
      <internalNodes>
        0 -1 10898 -505380815 -52894620 1756188987 -211883598 -728711445
        -1471537942 -463096985 -714128144</internalNodes>
      <leafValues>
        -2.5476998090744019e-01 2.7129209041595459e-01</leafValues></_></weakClassifiers></stage15>
</opencv_storage>
