<?xml version="1.0"?>
<opencv_storage>
<stage3>
  <maxWeakCount>13</maxWeakCount>
  <stageThreshold>-6.1237186193466187e-01</stageThreshold>
  <weakClassifiers>
    <_>
      <internalNodes>
        0 -1 32259 135266557 534251773 255659005 268176572 -1080508675
        -471076 1023158524 673712312</internalNodes>
      <leafValues>
        -5.3955644369125366e-02 7.6492196321487427e-01</leafValues></_>
    <_>
      <internalNodes>
        0 -1 24786 170925309 -4359683 2133393343 -1078469155 -1363410945
        -1090789377 -287638017 -1363672868</internalNodes>
      <leafValues>
        -2.5839510560035706e-01 5.5351883172988892e-01</leafValues></_>
    <_>
      <internalNodes>
        0 -1 35796 136843517 -1149368963 -1214086145 1027410425
        -1147363585 -1073758209 -1440957441 -1078326116</internalNodes>
      <leafValues>
        -3.1885412335395813e-01 5.0461953878402710e-01</leafValues></_>
    <_>
      <internalNodes>
        0 -1 36218 -528593 -76026534 -1595002652 1076931830 -134218827
        -236362755 -1348 -520096787</internalNodes>
      <leafValues>
        -3.8804501295089722e-01 4.4116222858428955e-01</leafValues></_>
    <_>
      <internalNodes>
        0 -1 43472 -33739 -1781280702 -354951574 -1382138733 -203746604
        360965555 -139334240 79678655</internalNodes>
      <leafValues>
        -4.3010655045509338e-01 3.2409402728080750e-01</leafValues></_>
    <_>
      <internalNodes>
        0 -1 30392 456130781 -604693320 240902143 1599406557 -1439663873
        -787970 512805823 -1148712712</internalNodes>
      <leafValues>
        -2.9622426629066467e-01 4.9012535810470581e-01</leafValues></_>
    <_>
      <internalNodes>
        0 -1 32058 -553844739 -1361260075 -278995049 -1364265581
        -270868755 -1092617227 -574816268 -1631840004</internalNodes>
      <leafValues>
        -3.6923617124557495e-01 3.5461783409118652e-01</leafValues></_>
    <_>
      <internalNodes>
        0 -1 42929 -1284588577 -1968011521 1015151185 466730493
        -1282933371 -2134909191 888042993 15724987</internalNodes>
      <leafValues>
        -3.9948487281799316e-01 3.4083124995231628e-01</leafValues></_>
    <_>
      <internalNodes>
        0 -1 20922 -251658778 -251795023 -96473634 -1334577754
        -122969457 -1145367826 -2135413793 12298420</internalNodes>
      <leafValues>
        -4.6892789006233215e-01 2.8269729018211365e-01</leafValues></_>
    <_>
      <internalNodes>
        0 -1 23390 153096445 2147300861 136634367 -1873145891
        -1107664902 -1349374018 -1911619861 -1682305864</internalNodes>
      <leafValues>
        -3.1075602769851685e-01 4.3602666258811951e-01</leafValues></_>
    <_>
      <internalNodes>
        0 -1 15093 -1655170575 -72075856 -1788576313 1568089551
        -1416062277 -555156263 -1105396805 -1920983880</internalNodes>
      <leafValues>
        -3.1015065312385559e-01 4.2773991823196411e-01</leafValues></_>
    <_>
      <internalNodes>
        0 -1 42 -286333170 -10826869 340586959 1576957830 1669483847
        -1317664593 1755727303 1444106517</internalNodes>
      <leafValues>
        -4.7136372327804565e-01 2.7298095822334290e-01</leafValues></_>
    <_>
      <internalNodes>
        0 -1 43978 -704653057 -2088262385 1922634756 -739124227
        -2137020225 46708135 1574819204 -754977541</internalNodes>
      <leafValues>
        -2.4636992812156677e-01 5.4266256093978882e-01</leafValues></_></weakClassifiers></stage3>
</opencv_storage>
