<?xml version="1.0"?>
<opencv_storage>
<stage4>
  <maxWeakCount>15</maxWeakCount>
  <stageThreshold>-6.9885683059692383e-01</stageThreshold>
  <weakClassifiers>
    <_>
      <internalNodes>
        0 -1 1946 131232 1528191184 109301237 -141601283 33254
        -326450096 553803711 1078019157</internalNodes>
      <leafValues>
        3.1344793736934662e-02 7.4021440744400024e-01</leafValues></_>
    <_>
      <internalNodes>
        0 -1 41453 -73402128 -151293251 -1541506 -192940417 -89494806
        -352386821 -259461908 1285552383</internalNodes>
      <leafValues>
        -2.8344175219535828e-01 4.9601316452026367e-01</leafValues></_>
    <_>
      <internalNodes>
        0 -1 35797 438044893 1058934228 943272829 522004444 -1088709666
        -1082249242 996850687 -1080357716</internalNodes>
      <leafValues>
        -3.2442986965179443e-01 4.6776095032691956e-01</leafValues></_>
    <_>
      <internalNodes>
        0 -1 1520 -202376310 -657491741 477262350 -258000665 -626286586
        1111945791 839627287 -139461665</internalNodes>
      <leafValues>
        -2.8357788920402527e-01 4.5229357481002808e-01</leafValues></_>
    <_>
      <internalNodes>
        0 -1 43630 -1057793 66165755 -1121586363 365949307 -29436454
        128289518 1437259229 -572530689</internalNodes>
      <leafValues>
        -2.8830438852310181e-01 4.8871698975563049e-01</leafValues></_>
    <_>
      <internalNodes>
        0 -1 1797 -171093 970020703 1043473594 1362279806 527376205
        2136493593 -350388225 2131979827</internalNodes>
      <leafValues>
        -3.3143001794815063e-01 3.6697947978973389e-01</leafValues></_>
    <_>
      <internalNodes>
        0 -1 43863 -118234486 -875839100 810106880 283240717 -1821474302
        1116610566 875819088 1397735887</internalNodes>
      <leafValues>
        -4.2667669057846069e-01 2.8044334053993225e-01</leafValues></_>
    <_>
      <internalNodes>
        0 -1 38073 -728182688 903032733 1381422165 1905777885 -656741876
        -854853120 38463070 -2141982385</internalNodes>
      <leafValues>
        -3.8275480270385742e-01 3.1228622794151306e-01</leafValues></_>
    <_>
      <internalNodes>
        0 -1 32216 -1688802883 429584748 1429542910 957501849
        -1548558133 -1673748318 447255690 217819343</internalNodes>
      <leafValues>
        -3.7588992714881897e-01 3.1724700331687927e-01</leafValues></_>
    <_>
      <internalNodes>
        0 -1 28508 -1299702059 -1698954008 -394609441 437426685
        -1447521617 -1887645142 999945727 -610795364</internalNodes>
      <leafValues>
        -2.9505908489227295e-01 3.9002195000648499e-01</leafValues></_>
    <_>
      <internalNodes>
        0 -1 39 -502730108 2104423340 -1073523617 -205006702 -1038072856
        -274796215 98760446 1410555923</internalNodes>
      <leafValues>
        -3.9684090018272400e-01 2.9269698262214661e-01</leafValues></_>
    <_>
      <internalNodes>
        0 -1 43533 -70006065 -874266337 1418252326 1343209495
        -1211851258 386766408 -66388158 -134481926</internalNodes>
      <leafValues>
        -3.2753193378448486e-01 3.4879055619239807e-01</leafValues></_>
    <_>
      <internalNodes>
        0 -1 12703 2047529695 527434111 2079825565 1001816831 872094715
        434690809 946568413 991526655</internalNodes>
      <leafValues>
        -3.2589891552925110e-01 3.3928155899047852e-01</leafValues></_>
    <_>
      <internalNodes>
        0 -1 40481 -1895129369 146450896 -575563539 100127749
        -1165237270 -1915057968 -2002018052 145459709</internalNodes>
      <leafValues>
        -4.0236297249794006e-01 2.7305656671524048e-01</leafValues></_>
    <_>
      <internalNodes>
        0 -1 30341 -2142760939 1444694172 -1738941369 1298783325
        -1726460935 -90523262 -1438974305 -1943796643</internalNodes>
      <leafValues>
        -4.0702059864997864e-01 2.6696693897247314e-01</leafValues></_></weakClassifiers></stage4>
</opencv_storage>
